-1.463369559496641159e-02
1.916826143860816956e-02
-4.193684831261634827e-02
-4.351978003978729248e-02
7.447263598442077637e-02
-1.368867903947830200e-01
1.721577048301696777e-01
5.582826584577560425e-02
-2.610318735241889954e-02
7.725082337856292725e-02
-5.580143537372350693e-03
-2.327468618750572205e-02
-1.269624829292297363e-01
-2.141878306865692139e-01
5.527232773602008820e-03
-4.421500861644744873e-02
8.454413712024688721e-02
-4.408158361911773682e-02
-7.195399608463048935e-03
1.741880737245082855e-02
2.715704403817653656e-02
1.806128621101379395e-01
-1.040913015604019165e-01
-1.187610328197479248e-01
-5.673871934413909912e-02
5.400432273745536804e-02
1.500272564589977264e-02
7.809149473905563354e-02
-1.187583953142166138e-01
-1.909200474619865417e-02
-5.199532955884933472e-02
-8.853765577077865601e-02
-1.935868337750434875e-02
-9.333083033561706543e-02
-1.318250447511672974e-01
1.502983570098876953e-01
-1.847336143255233765e-01
2.047068327665328979e-01
-3.173542395234107971e-02
-2.185884118080139160e-02
6.690091919153928757e-03
-3.529102727770805359e-02
-1.165199577808380127e-01
5.893575027585029602e-03
7.869105041027069092e-02
8.439227938652038574e-02
1.599428057670593262e-01
-5.529354885220527649e-02
4.239816218614578247e-02
8.833027631044387817e-02
-1.410545594990253448e-02
-8.541137725114822388e-02
-5.161878839135169983e-02
1.283391416072845459e-01
6.946031004190444946e-02
-1.200666278600692749e-01
-8.514133095741271973e-02
-7.604123651981353760e-02
7.349620759487152100e-02
1.518007069826126099e-01
2.143257856369018555e-01
1.565799862146377563e-01
-2.359654009342193604e-02
-1.212498359382152557e-02
4.919366538524627686e-02
7.415758073329925537e-02
-4.418218135833740234e-02
-1.693558879196643829e-02
2.932132966816425323e-02
-1.358181703835725784e-03
2.925254404544830322e-02
9.211165830492973328e-03
-4.780974704772233963e-03
-2.682449482381343842e-02
-1.002312079071998596e-02
1.079005599021911621e-01
1.387223154306411743e-01
-4.840757325291633606e-02
-8.696944266557693481e-02
-5.832606554031372070e-02
2.327354438602924347e-02
-6.898286938667297363e-02
-3.908118605613708496e-02
-6.694944947957992554e-02
-1.506555378437042236e-01
-1.257863789796829224e-01
-2.935995161533355713e-02
1.342811249196529388e-02
-1.456721276044845581e-01
-6.606423854827880859e-02
2.368596568703651428e-02
-5.666015669703483582e-02
-1.661775857210159302e-01
-4.682921618223190308e-02
-1.139390747994184494e-02
3.580205142498016357e-02
-7.656235992908477783e-02
7.511455565690994263e-02
5.865838378667831421e-02
-1.074875742197036743e-01
-8.561795949935913086e-02
7.546947151422500610e-02
8.992254734039306641e-02
1.137393712997436523e-01
-1.239592507481575012e-01
-1.259627342224121094e-01
4.112350568175315857e-02
1.245056837797164917e-02
4.374990612268447876e-02
-1.077476330101490021e-02
-1.460076123476028442e-01
1.825198531150817871e-01
-3.667947277426719666e-02
4.402490705251693726e-02
1.224272623658180237e-01
-4.915430396795272827e-02
8.881770074367523193e-03
-9.533533826470375061e-03
6.945215910673141479e-02
-2.094082767143845558e-03
1.167106255888938904e-01
-8.469960093498229980e-02
-3.696039319038391113e-02
-1.020483970642089844e-01
3.130427002906799316e-02
1.279468368738889694e-02
3.080338612198829651e-02
3.784041851758956909e-02
-5.195701122283935547e-02
3.613739460706710815e-02
-1.400208324193954468e-01
4.368854686617851257e-02
-7.329425215721130371e-02
3.702267538756132126e-03
9.125656634569168091e-02
-5.235018953680992126e-02
-1.120757088065147400e-01
5.748433992266654968e-03
7.880191504955291748e-02
-1.146538257598876953e-01
6.913588941097259521e-02
2.533708140254020691e-02
-1.205406617373228073e-02
-2.939242310822010040e-02
1.460592001676559448e-01
9.192500263452529907e-02
6.147664040327072144e-02
9.251262992620468140e-02
8.430293202400207520e-02
1.579803824424743652e-01
-9.156847745180130005e-02
4.470686614513397217e-02
2.026324160397052765e-02
1.303656995296478271e-01
-6.814294308423995972e-02
4.362822324037551880e-02
3.466874733567237854e-02
-2.019202895462512970e-02
4.343779757618904114e-02
-5.262532830238342285e-02
3.399919718503952026e-02
-1.040889769792556763e-01
4.033648595213890076e-02
1.064341068267822266e-01
2.614377811551094055e-02
-9.617177397012710571e-02
-6.494484096765518188e-02
-7.647915929555892944e-02
1.476976573467254639e-01
5.100171640515327454e-02
1.298353523015975952e-01
1.386777609586715698e-01
1.870421469211578369e-01
-6.143382284790277481e-03
-1.512192469090223312e-02
1.499442905187606812e-01
6.682444363832473755e-02
-6.066353619098663330e-02
-9.197855740785598755e-02
-2.495955303311347961e-02
9.272544831037521362e-02
4.330681636929512024e-02
5.336947739124298096e-02
1.546334475278854370e-01
4.416688531637191772e-02
-1.669598510488867760e-03
9.179499745368957520e-02
-2.363424934446811676e-02
1.480129361152648926e-01
1.308291032910346985e-02
-6.535602267831563950e-03
-6.437262985855340958e-03
6.090812385082244873e-03
-3.610377758741378784e-02
-1.893471628427505493e-01
3.984211757779121399e-02
4.639219027012586594e-03
2.468236908316612244e-02
9.210202842950820923e-02
2.912013605237007141e-02
3.500994667410850525e-02
-1.092934235930442810e-01
3.553981333971023560e-02
5.641262605786323547e-02
-1.689402386546134949e-02
-6.082869693636894226e-02
-7.983380556106567383e-02
-6.508841365575790405e-02
7.574407011270523071e-02
-9.728214144706726074e-02
-6.033869460225105286e-02
-4.606220871210098267e-02
7.956695556640625000e-02
5.381201580166816711e-02
1.048472970724105835e-01
3.469742462038993835e-02
1.381034553050994873e-01
3.044570051133632660e-02
2.099104039371013641e-02
2.844551391899585724e-02
-2.805385738611221313e-03
-4.787854105234146118e-02
3.474067524075508118e-02
4.890140518546104431e-02
-9.119279682636260986e-02
-3.455799072980880737e-02
6.533888727426528931e-02
3.381334245204925537e-02
2.120265364646911621e-02
-3.804053366184234619e-02
-3.926014527678489685e-02
-8.005573600530624390e-02
-1.606655120849609375e-01
3.626951947808265686e-02
-6.741161644458770752e-02
-1.547244843095541000e-02
3.845860064029693604e-02
3.756295517086982727e-02
-4.718794673681259155e-02
1.141815185546875000e-01
-2.799023501574993134e-02
1.582730710506439209e-01
-1.792812496423721313e-01
1.273280233144760132e-01
2.735229954123497009e-02
2.207866637036204338e-03
-4.114644974470138550e-02
1.489382535219192505e-01
9.488659352064132690e-02
-1.011873036623001099e-01
-1.335583478212356567e-01
1.953253149986267090e-01
-4.366945847868919373e-02
-5.948474258184432983e-02
-2.731463313102722168e-02
-3.451130539178848267e-02
-1.040757223963737488e-01
-1.145085766911506653e-01
-1.437678784132003784e-01
-5.797854810953140259e-02
2.177783101797103882e-02
-5.018727108836174011e-02
-2.030506730079650879e-01
-7.578464597463607788e-02
2.222203649580478668e-02
1.238560751080513000e-01
1.278242766857147217e-01
8.127988129854202271e-02
-8.971625566482543945e-02
7.534088939428329468e-02
-1.436090022325515747e-01
3.393805399537086487e-02
3.351700305938720703e-02
-1.311075966805219650e-02
4.823179915547370911e-02
1.494699865579605103e-01
2.385657094419002533e-02
-5.937467515468597412e-02
-6.041080504655838013e-02
1.146592870354652405e-01
-1.398483365774154663e-01
-1.296050995588302612e-01
8.070172369480133057e-02
-2.388490550220012665e-02
-1.097428202629089355e-01
8.462053537368774414e-02
-4.253346100449562073e-02
-6.208660081028938293e-02
-6.057992577552795410e-03
4.907139390707015991e-02
-7.250689715147018433e-02
1.058173924684524536e-01
2.127424813807010651e-02
1.031735837459564209e-01
2.188238054513931274e-01
-2.235398143529891968e-01
-6.980860233306884766e-02
-4.553452879190444946e-02
-1.024687290191650391e-01
-1.922492384910583496e-01
-8.253015577793121338e-02
7.940867217257618904e-04
-1.411020290106534958e-03
-7.124292850494384766e-02
2.297662757337093353e-02
-1.433531939983367920e-01
2.450757324695587158e-01
-8.259560912847518921e-02
-1.743004769086837769e-01
-1.087876632809638977e-01
8.609975129365921021e-02
1.776980236172676086e-02
2.519214339554309845e-02
9.930912405252456665e-02
1.519033163785934448e-01
8.467948436737060547e-02
-9.290244430303573608e-02
-4.450558498501777649e-02
9.441886842250823975e-02
-3.796682506799697876e-02
3.769903676584362984e-03
2.184767723083496094e-01
1.758737117052078247e-01
-6.482940912246704102e-02
-6.082077324390411377e-02
4.510407894849777222e-02
6.625820696353912354e-02
-1.410131752490997314e-01
-4.766795784235000610e-02
-1.164879351854324341e-01
6.975596770644187927e-03
1.300568729639053345e-01
-7.222397252917289734e-03
2.041663825511932373e-01
1.371982693672180176e-01
-1.004345789551734924e-01
7.246377319097518921e-02
1.264137867838144302e-02
6.283774226903915405e-02
1.030892431735992432e-01
-1.138793826103210449e-01
1.273140963166952133e-02
-9.281795471906661987e-02
9.203288704156875610e-02
-3.256299346685409546e-02
1.687021851539611816e-01
2.420117892324924469e-02
4.494185000658035278e-02
-8.590862900018692017e-02
6.907709687948226929e-02
-2.250065095722675323e-02
-1.440983265638351440e-01
-1.516029387712478638e-01
9.634386748075485229e-02
1.254941220395267010e-03
9.132651984691619873e-02
-6.482547521591186523e-02
-4.795311763882637024e-02
5.417784675955772400e-02
-3.193697333335876465e-02
-1.994546502828598022e-01
-2.061120001599192619e-03
2.588544739410281181e-03
-1.437802147120237350e-02
-1.327011585235595703e-01
-1.510629504919052124e-01
-3.001936338841915131e-02
-1.352085769176483154e-01
-4.029815644025802612e-02
-3.881941735744476318e-02
4.298945143818855286e-02
-6.643197685480117798e-02
-1.880414932966232300e-01
2.437829785048961639e-02
-2.851023338735103607e-02
-3.219350054860115051e-02
1.185005903244018555e-01
-2.022446133196353912e-02
3.649609163403511047e-02
1.002295985817909241e-01
2.182122506201267242e-02
1.294515430927276611e-01
3.906261920928955078e-02
1.182365790009498596e-01
-1.644885987043380737e-01
-6.943970918655395508e-02
-5.846573412418365479e-02
1.016522943973541260e-01
-3.523391485214233398e-02
-1.083555892109870911e-01
-1.100846827030181885e-01
2.280723303556442261e-02
2.268620952963829041e-02
-1.681053042411804199e-01
3.843112662434577942e-02
7.226197421550750732e-02
-4.727775231003761292e-03
8.131660521030426025e-03
4.033622145652770996e-02
1.411797106266021729e-01
1.129006445407867432e-01
2.414503246545791626e-01
-2.327368967235088348e-02
4.667131975293159485e-02
3.121971152722835541e-02
3.110099956393241882e-02
-3.576362039893865585e-03
-2.744811773300170898e-02
-5.274508520960807800e-02
9.421032667160034180e-02
-2.013340964913368225e-02
4.020351916551589966e-02
8.762794546782970428e-03
6.773538142442703247e-02
1.959666237235069275e-02
3.388710692524909973e-02
-1.496127992868423462e-01
1.473006210289895535e-03
-6.965159624814987183e-02
4.634502157568931580e-02
-7.742447406053543091e-02
-2.426778338849544525e-02
4.117371048778295517e-03
-2.675523422658443451e-02
-8.523707091808319092e-02
6.483031809329986572e-02
-1.475503444671630859e-01
-1.700272709131240845e-01
7.603146135807037354e-02
-2.066623270511627197e-01
-2.108634263277053833e-02
-6.619325280189514160e-02
7.377241551876068115e-02
1.035234481096267700e-01
1.229371875524520874e-02
8.472235500812530518e-02
1.302407383918762207e-01
-1.917306520044803619e-02
-1.487029194831848145e-01
-4.653171077370643616e-02
-2.059334889054298401e-02
-1.011955179274082184e-02
1.341166943311691284e-01
-1.189151853322982788e-01
1.199789270758628845e-01
9.733675979077816010e-03
-6.956241559237241745e-03
3.542873542755842209e-03
-2.044719643890857697e-02
1.572766304016113281e-01
-5.934815853834152222e-02
-1.469658762216567993e-01
5.885267630219459534e-02
2.756006456911563873e-02
7.268000394105911255e-02
4.889747127890586853e-02
5.674396455287933350e-02
1.266686618328094482e-02
1.598905771970748901e-02
-1.455167233943939209e-01
-4.681989923119544983e-02
5.452758446335792542e-02
6.917004287242889404e-02
3.428146243095397949e-02
6.222734227776527405e-03
-7.636032998561859131e-02
-5.524327605962753296e-02
3.284848853945732117e-02
2.570181190967559814e-01
-1.794819682836532593e-01
9.505653381347656250e-02
1.090053748339414597e-02
1.041690185666084290e-01
7.187524344772100449e-03
4.604789242148399353e-02
1.634119302034378052e-01
7.275868207216262817e-02
-3.150490671396255493e-02
-4.034850001335144043e-02
1.475553363561630249e-01
3.526948764920234680e-02
-1.934320665895938873e-02
5.287843942642211914e-02
2.300316654145717621e-02
-6.596919894218444824e-02
9.031270630657672882e-03
8.794431388378143311e-02
-9.192736446857452393e-02
9.164040535688400269e-02
-3.698196262121200562e-02
5.658191815018653870e-02
8.520123362541198730e-02
-1.428633579052984715e-03
-1.134071312844753265e-02
9.838123619556427002e-02
-8.628142997622489929e-03
7.721689529716968536e-03
-8.554939180612564087e-02
-1.450210213661193848e-01
5.966373905539512634e-02
-1.410767249763011932e-02
4.609141498804092407e-02
5.534774810075759888e-02
1.316873133182525635e-01
-6.907442212104797363e-02
1.040112897753715515e-01
1.326428502798080444e-01
7.455454766750335693e-02
-3.403106704354286194e-02
-1.927065104246139526e-02
9.521167725324630737e-02
8.872684091329574585e-02
-6.095552071928977966e-02
4.309608135372400284e-03
2.078464953228831291e-03
3.249813336879014969e-03
-1.021781936287879944e-02
3.474427387118339539e-02
-4.876858368515968323e-02
7.452449202537536621e-02
1.182600706815719604e-01
-3.952172119170427322e-03
1.577454991638660431e-02
-3.992230072617530823e-02
-1.913774572312831879e-02
7.859060540795326233e-03
-4.028008785098791122e-03
-5.531222093850374222e-03
-2.420353516936302185e-02
-1.595416292548179626e-02
-8.345844689756631851e-04
3.291757777333259583e-02
3.821820020675659180e-02
-3.089788369834423065e-03
4.131147172302007675e-03
1.695463992655277252e-02
3.268495202064514160e-02
-7.909841835498809814e-03
2.364475652575492859e-02
6.456695962697267532e-03
1.712500452995300293e-01
6.598142534494400024e-02
-3.168486524373292923e-03
-4.452277207747101784e-04
-3.638461604714393616e-02
1.236170995980501175e-03
1.184576191008090973e-02
4.528963938355445862e-02
1.137549709528684616e-02
2.286011585965752602e-03
-3.452968969941139221e-02
1.094895601272583008e-02
1.383634167723357677e-03
2.856773510575294495e-02
1.213746424764394760e-02
4.462986718863248825e-03
-1.622324250638484955e-02
-8.050275966525077820e-03
2.949335379526019096e-03
2.268752641975879669e-02
2.259978652000427246e-01
-1.224668882787227631e-02
5.391878634691238403e-02
-1.307367533445358276e-02
-4.223990440368652344e-02
-2.060214057564735413e-02
3.304316475987434387e-02
2.869397774338722229e-02
-8.269913494586944580e-03
2.186167798936367035e-02
4.450334236025810242e-02
3.419060632586479187e-02
-3.147596865892410278e-02
7.316893897950649261e-03
-3.638513758778572083e-02
1.140335807576775551e-04
-2.649429813027381897e-02
6.344569474458694458e-02
-3.604640485718846321e-03
-6.414512544870376587e-02
-1.452330052852630615e-01
-2.514654211699962616e-02
1.533392220735549927e-01
-7.851824909448623657e-02
-3.080758498981595039e-03
9.306307882070541382e-02
-7.014043629169464111e-02
-2.665988355875015259e-02
-7.141182199120521545e-03
-4.537754878401756287e-02
1.183142587542533875e-01
8.076839894056320190e-02
-1.466457825154066086e-02
-1.324115693569183350e-01
3.106942772865295410e-02
-1.810444742441177368e-01
1.244390755891799927e-01
-1.486095227301120758e-02
-2.375078760087490082e-02
1.958921253681182861e-01
7.548006623983383179e-02
4.862098768353462219e-02
-3.782163560390472412e-02
-4.881860688328742981e-03
-2.841030061244964600e-02
4.433628916740417480e-02
6.114868447184562683e-03
5.518972501158714294e-02
1.117894649505615234e-01
7.012711465358734131e-02
-7.869625836610794067e-02
-1.218058839440345764e-01
-1.991542056202888489e-02
6.970746070146560669e-02
6.544907391071319580e-02
-4.572230577468872070e-02
1.949906907975673676e-02
-6.451378017663955688e-02
2.097855135798454285e-02
-1.139558553695678711e-01
-7.228011637926101685e-02
7.643151283264160156e-02
1.297330670058727264e-02
-7.783891260623931885e-02
-1.122900918126106262e-01
1.384334862232208252e-01
-1.398440599441528320e-01
-3.314383700489997864e-02
7.955609261989593506e-02
-1.692125387489795685e-02
5.422588065266609192e-02
2.705053612589836121e-02
-3.894096240401268005e-02
5.081593245267868042e-02
-8.410272747278213501e-02
1.419547572731971741e-02
1.517923623323440552e-01
-2.030472969636321068e-03
1.154490858316421509e-01
9.339411742985248566e-03
-2.292703650891780853e-02
2.747302353382110596e-01
-1.238067075610160828e-02
-8.325340598821640015e-02
-3.170426934957504272e-02
1.523354053497314453e-01
-9.350068122148513794e-02
5.339716002345085144e-02
6.474029272794723511e-02
1.678921282291412354e-01
-1.094427108764648438e-01
2.760508097708225250e-02
-1.148928329348564148e-01
-3.581757843494415283e-02
1.228922326117753983e-02
4.424544423818588257e-02
-1.742606312036514282e-01
-1.281579583883285522e-01
-3.617186471819877625e-02
2.230806499719619751e-01
7.945631444454193115e-02
-4.089398682117462158e-02
1.310931891202926636e-01
-1.213308945298194885e-01
-5.373009480535984039e-03
-6.769809126853942871e-02
-3.931272774934768677e-02
-7.262152433395385742e-02
-2.656660415232181549e-02
1.330743879079818726e-01
1.980956457555294037e-02
1.112842634320259094e-01
7.968173176050186157e-02
1.623247265815734863e-01
5.944027006626129150e-02
1.549278348684310913e-01
-1.338496953248977661e-01
7.183822989463806152e-02
-6.614644825458526611e-02
-1.948229819536209106e-01
1.511010378599166870e-01
-8.478906005620956421e-03
1.476491689682006836e-01
-1.021842882037162781e-01
1.175252720713615417e-01
-1.372002363204956055e-01
-7.623308151960372925e-02
-7.225552201271057129e-02
-1.678483635187149048e-01
-9.689305443316698074e-04
-8.798210322856903076e-02
-1.418486386537551880e-01
4.463134333491325378e-02
2.026508152484893799e-01
-7.493966072797775269e-02
-1.407902240753173828e-01
-1.950718611478805542e-01
2.238133996725082397e-01
-2.274347282946109772e-02
4.274453595280647278e-02
-5.634571611881256104e-02
-1.787554658949375153e-02
3.266628831624984741e-02
3.170656040310859680e-02
-2.231173664331436157e-01
-1.589343547821044922e-01
-5.643639713525772095e-02
-3.394021186977624893e-03
-5.249631032347679138e-02
2.258099764585494995e-01
-4.934794455766677856e-02
9.699717164039611816e-02
3.073637746274471283e-02
9.147979319095611572e-02
-8.223450183868408203e-02
-3.205084055662155151e-02
-7.193391025066375732e-02
-6.908939778804779053e-02
1.290216296911239624e-01
-2.004580944776535034e-02
-6.519811600446701050e-02
2.968688122928142548e-02
2.028055936098098755e-01
-1.988431662321090698e-01
2.850854210555553436e-02
-4.990085586905479431e-02
-9.063958376646041870e-02
6.693553924560546875e-02
3.107613511383533478e-02
5.061866249889135361e-03
3.974705561995506287e-02
-1.065157428383827209e-01
-1.187138110399246216e-01
7.364578545093536377e-02
-5.388046428561210632e-02
3.773106029257178307e-03
-6.118045374751091003e-02
-1.567612886428833008e-01
8.481149375438690186e-02
1.033365949988365173e-01
-6.019606813788414001e-02
1.083183810114860535e-01
-2.196440994739532471e-01
1.894496008753776550e-02
4.151225835084915161e-02
-3.548136726021766663e-02
-6.361985951662063599e-02
2.460191696882247925e-01
1.218844205141067505e-01
4.817261919379234314e-02
7.289069890975952148e-02
4.818586260080337524e-02
5.102279037237167358e-02
1.536821015179157257e-02
1.594004631042480469e-01
1.887647807598114014e-02
1.811743341386318207e-02
-1.204946637153625488e-01
2.376820426434278488e-03
-1.284719705581665039e-01
2.379363868385553360e-03
1.183031946420669556e-01
-8.964193612337112427e-02
-9.676365554332733154e-02
-1.711467951536178589e-01
-6.716839224100112915e-02
-1.196486204862594604e-01
-2.151883766055107117e-02
-1.841645687818527222e-01
1.015356704592704773e-01
-6.247074156999588013e-02
-7.982487976551055908e-02
6.091937050223350525e-02
3.658276284113526344e-03
-2.302531711757183075e-02
1.325192004442214966e-01
-4.031282663345336914e-02
-4.551849327981472015e-03
1.314866542816162109e-02
2.113808393478393555e-01
-2.846255199983716011e-03
-1.536569744348526001e-01
1.848529428243637085e-01
-1.218567416071891785e-01
3.622381389141082764e-02
9.361100196838378906e-02
-9.122040122747421265e-02
-7.485122233629226685e-02
-1.268172450363636017e-02
-5.213759467005729675e-02
-2.975694951601326466e-04
7.631435245275497437e-02
-6.678739096969366074e-03
9.551294147968292236e-02
-9.066226333379745483e-02
8.081265538930892944e-02
3.291164990514516830e-03
-1.464714854955673218e-01
-1.226182281970977783e-02
-1.029939725995063782e-01
4.172994289547204971e-03
1.071083396673202515e-01
1.616920679807662964e-01
-1.545929312705993652e-01
4.304183647036552429e-03
7.418750971555709839e-02
-2.086188644170761108e-02
-1.661687344312667847e-01
-6.958316266536712646e-02
7.062641531229019165e-02
-1.095167100429534912e-01
-1.818759948946535587e-03
3.857542946934700012e-02
-7.159529626369476318e-02
1.279200911521911621e-01
-1.186687350273132324e-01
1.335450913757085800e-02
7.240685820579528809e-02
-1.459613144397735596e-01
-5.985882878303527832e-02
6.293857842683792114e-02
-9.955774247646331787e-02
-4.925580322742462158e-02
9.229771047830581665e-02
3.235387429594993591e-02
4.245635122060775757e-02
4.906262457370758057e-02
-9.458268433809280396e-02
-9.583332389593124390e-02
-1.659213602542877197e-01
-1.486526727676391602e-01
-1.284870207309722900e-01
-3.255984559655189514e-02
1.134970486164093018e-01
1.532063353806734085e-03
7.732929661870002747e-03
-2.492763996124267578e-01
2.299079000949859619e-01
3.234480321407318115e-02
-4.741814918816089630e-03
-1.760276407003402710e-02
2.420920133590698242e-01
-6.925366073846817017e-02
-8.141938596963882446e-02
-8.503033965826034546e-02
-1.783145125955343246e-03
-2.088477164506912231e-01
2.276706509292125702e-02
-1.689535856712609529e-04
-2.259732186794281006e-01
-2.690786123275756836e-02
1.973451524972915649e-01
6.846290081739425659e-02
1.307796966284513474e-02
-4.644051194190979004e-02
-1.465772241353988647e-01
-9.687344729900360107e-02
9.284394979476928711e-02
-9.563213586807250977e-02
1.340008433908224106e-02
1.447318643331527710e-01
-1.358221843838691711e-02
-1.314444839954376221e-01
6.609201431274414062e-02
1.723144203424453735e-01
1.510116737335920334e-02
-1.150907203555107117e-01
-3.133692964911460876e-02
-1.568267643451690674e-01
2.140436172485351562e-01
3.754683956503868103e-02
-1.492448598146438599e-01
2.770623266696929932e-01
3.428053483366966248e-02
1.029320657253265381e-01
-1.512894481420516968e-01
1.838892847299575806e-01
-8.846814185380935669e-02
1.139486581087112427e-02
-1.324409097433090210e-01
-9.966556727886199951e-02
-4.563483223319053650e-02
-2.200824320316314697e-01
-1.122057139873504639e-01
2.466906793415546417e-02
2.170016318559646606e-01
-5.758017301559448242e-02
-9.374777972698211670e-02
-1.435810923576354980e-01
3.662373423576354980e-01
3.666687756776809692e-02
5.825085681863129139e-04
-3.178446786478161812e-03
1.019669920206069946e-01
4.379668831825256348e-02
2.567190490663051605e-02
1.025420576333999634e-01
1.771479696035385132e-01
-5.799118429422378540e-02
-4.354580596555024385e-04
-1.280306130647659302e-01
7.111726701259613037e-02
-5.550345405936241150e-02
-1.012174710631370544e-01
-4.725634306669235229e-02
8.364693075418472290e-02
-8.633024245500564575e-02
-8.853130787611007690e-02
-4.531012475490570068e-02
7.279980927705764771e-02
1.485654413700103760e-01
2.806531451642513275e-02
9.212434291839599609e-02
-5.630429461598396301e-02
1.835622079670429230e-02
-5.821770057082176208e-02
-3.488347306847572327e-02
-2.475501410663127899e-02
-1.261323988437652588e-01
-4.956597089767456055e-02
9.290373325347900391e-02
4.851693287491798401e-02
7.261460274457931519e-02
1.725374348461627960e-02
-6.129356473684310913e-02
-1.428668759763240814e-02
3.862942568957805634e-03
-9.847891330718994141e-02
3.096530586481094360e-02
5.392805114388465881e-02
-2.092304825782775879e-01
-5.067240074276924133e-02
1.132387667894363403e-01
-1.349527537822723389e-01
2.793675474822521210e-02
1.926578283309936523e-01
4.135224968194961548e-02
-2.440360747277736664e-02
-8.686393499374389648e-03
-1.008178014308214188e-02
6.313814222812652588e-02
1.760170012712478638e-01
3.692425787448883057e-02
-1.725916750729084015e-03
2.567940764129161835e-02
7.385750859975814819e-02
5.992896854877471924e-02
-1.960996985435485840e-01
1.029315143823623657e-01
-2.001815102994441986e-02
-3.714958205819129944e-02
9.012932330369949341e-02
5.266822502017021179e-02
-3.471641568467020988e-03
-7.290516793727874756e-02
1.019416376948356628e-01
-1.378166228532791138e-01
7.771907746791839600e-02
1.143527776002883911e-01
5.357007309794425964e-02
9.472256898880004883e-02
2.563856355845928192e-02
-6.389655172824859619e-02
-1.269422769546508789e-01
-2.358439192175865173e-02
-3.360823169350624084e-02
4.805724322795867920e-02
-9.983193129301071167e-02
1.434664521366357803e-02
3.834087029099464417e-02
-3.727200627326965332e-02
-4.460868611931800842e-02
7.501474767923355103e-02
3.709641098976135254e-02
3.650171309709548950e-02
2.236293442547321320e-02
1.463439874351024628e-02
-9.578275680541992188e-02
1.410281807184219360e-01
1.082680188119411469e-02
2.602494508028030396e-02
4.682680219411849976e-02
-2.848040685057640076e-02
5.080813169479370117e-02
-1.677225381135940552e-01
-1.294989231973886490e-02
4.308522865176200867e-02
-1.267147064208984375e-01
-3.272381843999028206e-03
7.950762659311294556e-02
6.670594960451126099e-02
-1.496395915746688843e-01
-2.102481015026569366e-02
-7.954061031341552734e-02
1.087364405393600464e-01
8.416020870208740234e-02
-1.375067383050918579e-01
-9.827321767807006836e-02
5.015291646122932434e-02
-1.290073841810226440e-01
7.365985214710235596e-02
6.818725913763046265e-02
-8.316652476787567139e-02
2.769576944410800934e-02
-8.828084170818328857e-02
6.811977922916412354e-02
-4.981354251503944397e-02
4.493486136198043823e-02
-3.666223958134651184e-02
-1.541147828102111816e-01
9.071035683155059814e-02
8.731662482023239136e-02
-3.863497450947761536e-02
1.102277189493179321e-01
5.323460698127746582e-02
-8.084284514188766479e-02
6.808382272720336914e-02
4.926915466785430908e-02
3.992582485079765320e-02
8.657614886760711670e-02
6.300872564315795898e-02
5.287868529558181763e-02
-4.350221902132034302e-02
-2.437923103570938110e-02
2.730925008654594421e-02
-2.112648077309131622e-02
2.954741753637790680e-02
2.817022614181041718e-02
1.161707192659378052e-01
4.271571338176727295e-02
2.331140786409378052e-01
9.371865540742874146e-02
9.285294450819492340e-03
-6.288184225559234619e-02
5.370346829295158386e-02
1.359387040138244629e-01
-4.413083195686340332e-03
5.580836161971092224e-02
6.015431880950927734e-02
-5.583554506301879883e-02
3.367387130856513977e-02
4.387791454792022705e-02
-8.609876781702041626e-02
1.373884230852127075e-01
-6.227749865502119064e-03
4.068982601165771484e-02
-8.858477324247360229e-02
-5.733943358063697815e-02
-8.402130007743835449e-02
-5.488834157586097717e-02
-8.316709101200103760e-02
1.276167631149291992e-01
1.511111389845609665e-02
-9.610433876514434814e-02
-6.717876344919204712e-02
9.521362185478210449e-02
-4.588942974805831909e-02
4.662378504872322083e-02
4.627475515007972717e-02
1.776670292019844055e-02
9.359246492385864258e-02
-3.571853041648864746e-03
-2.323034405708312988e-01
-4.842117428779602051e-03
1.103294175118207932e-02
1.664304174482822418e-02
-1.124800220131874084e-01
-6.514832377433776855e-03
-8.379867672920227051e-02
1.062599271535873413e-01
2.937864884734153748e-02
1.026701256632804871e-01
6.547361612319946289e-02
1.013584807515144348e-01
1.159290596842765808e-01
-9.788812696933746338e-02
-4.247778560966253281e-04
-1.114567071199417114e-01
-5.075783282518386841e-02
-1.554773747920989990e-01
1.187440603971481323e-01
-1.361488644033670425e-02
-4.607893154025077820e-02
-5.221553891897201538e-02
1.913089752197265625e-01
-1.430522203445434570e-01
-7.316020876169204712e-02
-2.200968712568283081e-01
9.787160903215408325e-03
-5.325188487768173218e-02
-4.406097903847694397e-02
1.079523414373397827e-01
2.002448588609695435e-01
1.090261787176132202e-01
-1.542517691850662231e-01
-9.269241243600845337e-03
-6.612617522478103638e-03
3.696664422750473022e-02
2.220815122127532959e-01
1.274102032184600830e-01
7.287427037954330444e-02
6.325113773345947266e-02
8.031910657882690430e-02
1.945040971040725708e-01
1.471781432628631592e-01
-1.968875825405120850e-01
-9.132499247789382935e-02
-1.935595832765102386e-02
5.295569449663162231e-02
-8.156018331646919250e-03
9.853186458349227905e-02
-4.275301098823547363e-02
7.477570325136184692e-02
-5.000233650207519531e-02
-2.932329475879669189e-02
-7.170265913009643555e-02
-1.734597235918045044e-01
1.204855460673570633e-02
4.147318005561828613e-02
-2.991103008389472961e-02
-1.998301595449447632e-02
1.165519878268241882e-01
-1.674469746649265289e-02
-1.255922615528106689e-01
-2.577283186838030815e-03
-5.947500467300415039e-02
1.045863851904869080e-01
-3.120626322925090790e-02
-5.167791992425918579e-02
-1.725610345602035522e-02
4.157759249210357666e-02
1.396477073431015015e-01
-1.675640642642974854e-01
-3.146665915846824646e-02
-4.564404860138893127e-02
8.366264402866363525e-02
8.720179647207260132e-02
1.061505228281021118e-01
1.370976716279983521e-01
-7.851493358612060547e-02
-2.382679283618927002e-02
-8.183690905570983887e-02
-1.150588616728782654e-01
1.211994439363479614e-01
7.538812607526779175e-02
-1.247205957770347595e-01
1.647764742374420166e-01
6.857928633689880371e-02
-5.676443874835968018e-02
-9.044124186038970947e-02
-1.457720100879669189e-01
7.612266112118959427e-03
-1.732079088687896729e-01
-3.588880971074104309e-02
1.303556561470031738e-02
4.664871096611022949e-02
-5.943127721548080444e-02
2.080075442790985107e-02
-6.482077389955520630e-02
7.538240402936935425e-02
4.888834431767463684e-02
-5.629948526620864868e-02
-1.193177327513694763e-02
2.233550883829593658e-02
-5.409211292862892151e-02
-1.141100749373435974e-01
-3.436179459095001221e-02
5.176628939807415009e-03
1.014376133680343628e-01
3.051821142435073853e-02
-1.815717667341232300e-02
-1.469284743070602417e-01
-7.532431185245513916e-02
-4.851065203547477722e-02
1.348513811826705933e-01
-1.193905249238014221e-01
2.199014276266098022e-02
1.436835154891014099e-03
1.330811530351638794e-01
-3.233787417411804199e-02
-1.031831204891204834e-01
-1.165794301778078079e-02
-5.971103534102439880e-02
-7.268031686544418335e-02
-4.576751962304115295e-02
-4.013212397694587708e-02
-1.240873523056507111e-02
3.937068209052085876e-02
-1.755859237164258957e-03
1.397497107973322272e-04
9.293623268604278564e-03
-1.200043931603431702e-01
-1.066327244043350220e-01
4.500963166356086731e-02
3.649070858955383301e-02
5.679000914096832275e-02
5.407220125198364258e-02
1.234311312437057495e-01
2.839243784546852112e-02
-2.847304195165634155e-02
-3.554041497409343719e-03
-1.946147084236145020e-01
7.799658924341201782e-02
6.877934187650680542e-02
-5.154156312346458435e-02
-6.143073365092277527e-02
1.105055063962936401e-01
-1.388066168874502182e-02
3.914816677570343018e-02
-4.610720649361610413e-02
4.166594520211219788e-02
-8.270829170942306519e-02
5.643703415989875793e-02
2.316851727664470673e-02
5.509942770004272461e-02
1.448000073432922363e-01
1.117070242762565613e-01
-5.091171711683273315e-02
6.525356322526931763e-02
-6.727821379899978638e-02
-5.481456220149993896e-02
8.486987650394439697e-02
-7.639135420322418213e-02
-4.006542265415191650e-03
2.339890301227569580e-01
-3.249194845557212830e-02
-4.658048506826162338e-03
4.724081605672836304e-02
8.128203451633453369e-02
5.736908689141273499e-02
-6.355915963649749756e-02
-1.103878989815711975e-01
-8.967471122741699219e-02
-9.826777875423431396e-02
-4.193741455674171448e-02
4.566363990306854248e-02
3.277432918548583984e-02
-3.151628002524375916e-02
-5.784301087260246277e-02
1.145405927672982216e-03
8.522698283195495605e-02
-3.932807222008705139e-02
-8.274253457784652710e-02
1.386214494705200195e-01
1.428359746932983398e-01
1.053752526640892029e-01
-1.099333092570304871e-01
-4.482451453804969788e-02
1.177229210734367371e-01
3.705691918730735779e-02
2.351001650094985962e-02
2.320603653788566589e-02
5.710206553339958191e-02
-6.345701217651367188e-02
9.824069589376449585e-02
6.257348507642745972e-02
9.004422277212142944e-02
-3.778048558160662651e-03
3.791149333119392395e-02
1.198436133563518524e-02
1.133215576410293579e-01
2.645190432667732239e-02
-2.934146486222743988e-02
-1.141594815999269485e-02
-9.019066393375396729e-02
1.532691647298634052e-03
1.113407537341117859e-01
-6.956995278596878052e-02
1.024619713425636292e-01
2.362938970327377319e-02
-5.388295650482177734e-02
-3.552394732832908630e-02
-3.005690500140190125e-02
-3.612543642520904541e-02
-2.771840244531631470e-02
-3.908364847302436829e-02
-1.277723163366317749e-01
7.094164844602346420e-03
4.654707387089729309e-02
1.016754433512687683e-01
-5.302334949374198914e-02
3.946448210626840591e-03
-3.192431479692459106e-02
2.145909219980239868e-01
1.224694922566413879e-01
-4.564885422587394714e-02
-1.882077455520629883e-01
5.346087738871574402e-02
3.296507289633154869e-03
-6.076475605368614197e-03
3.056497126817703247e-02
-3.361612930893898010e-02
6.174826994538307190e-02
-4.773199185729026794e-02
-1.106155812740325928e-01
-1.722117653116583824e-03
-2.264074608683586121e-02
3.303779661655426025e-02
1.330798398703336716e-02
3.000601567327976227e-02
2.880049645900726318e-01
2.013466507196426392e-02
-5.732069537043571472e-02
9.223762899637222290e-02
1.727107353508472443e-02
-7.779283821582794189e-02
-5.558620020747184753e-02
-1.756482571363449097e-01
2.560432069003582001e-02
-9.482719004154205322e-02
2.414301596581935883e-02
5.022938549518585205e-02
-2.146173035725951195e-03
-1.326485276222229004e-01
8.897464722394943237e-02
-4.964753612875938416e-02
4.937638342380523682e-02
3.545817360281944275e-02
5.590589344501495361e-02
-7.514224201440811157e-02
-4.038976877927780151e-02
-4.370800778269767761e-02
1.762268133461475372e-02
-6.817018240690231323e-02
7.291809469461441040e-02
-2.947487123310565948e-02
-7.998988032341003418e-02
-7.205543667078018188e-02
-3.952115401625633240e-02
-9.723509848117828369e-02
1.190754845738410950e-01
-5.525815486907958984e-02
-1.190821155905723572e-01
6.369527429342269897e-02
-9.889958053827285767e-02
-1.069038584828376770e-01
1.428402215242385864e-01
-9.089192003011703491e-02
3.465710952877998352e-02
2.280894853174686432e-02
-2.880971506237983704e-02
-1.003471612930297852e-01
-4.957294836640357971e-02
-1.952819712460041046e-02
2.533840388059616089e-02
-5.324860289692878723e-02
-4.965539276599884033e-02
4.678501561284065247e-02
5.625975504517555237e-02
1.467154473066329956e-01
-5.902922526001930237e-02
4.389096051454544067e-02
5.163536407053470612e-03
-2.140466385753825307e-04
-7.538274675607681274e-02
-6.572836637496948242e-02
1.122323796153068542e-01
5.759350955486297607e-02
1.469118148088455200e-01
-4.297361895442008972e-02
-8.004372939467430115e-03
9.327518939971923828e-02
-2.069463394582271576e-02
-7.060118019580841064e-02
-8.735362440347671509e-03
-2.787040472030639648e-01
-4.986289888620376587e-02
-1.557181179523468018e-01
8.261490613222122192e-02
-1.443646382540464401e-02
2.905140444636344910e-02
-8.401508629322052002e-02
2.827086299657821655e-02
8.085250854492187500e-02
-3.643745929002761841e-02
1.420470885932445526e-02
7.961574941873550415e-02
-1.135504916310310364e-01
-1.212540864944458008e-01
-7.253563404083251953e-02
2.724079787731170654e-02
-1.260385066270828247e-01
6.128514558076858521e-02
1.423020660877227783e-01
-1.699686236679553986e-02
1.071340739727020264e-01
1.346863657236099243e-01
1.317033637315034866e-02
5.715991556644439697e-02
-1.827571727335453033e-02
-2.447382919490337372e-02
6.491968780755996704e-02
-1.864750497043132782e-02
4.381057247519493103e-02
5.740064010024070740e-02
-1.655741482973098755e-01
8.619287982583045959e-03
-4.560011997818946838e-02
7.017902284860610962e-02
2.751686051487922668e-02
-9.101080894470214844e-02
1.578291952610015869e-01
6.779912859201431274e-02
1.563530117273330688e-01
-6.714276969432830811e-02
-2.217901498079299927e-02
6.351571064442396164e-03
2.697789482772350311e-02
-7.408910989761352539e-02
-9.571418911218643188e-02
5.249990895390510559e-02
2.366440370678901672e-02
8.227919787168502808e-02
-3.828148916363716125e-02
6.554943323135375977e-02
-7.952401041984558105e-02
-5.620424449443817139e-02
1.476335804909467697e-03
-1.738609187304973602e-02
1.115126833319664001e-01
-1.534605473279953003e-01
-4.453714191913604736e-02
1.121683940291404724e-01
-1.045528426766395569e-02
1.071253567934036255e-01
-1.084327399730682373e-01
-1.506822556257247925e-01
-3.835998848080635071e-02
-2.439966374367941171e-05
4.130809381604194641e-02
-7.265835255384445190e-02
-6.087597459554672241e-02
-1.156833395361900330e-01
9.302837774157524109e-03
4.348391201347112656e-03
-2.343358658254146576e-02
-2.150881104171276093e-02
-5.580163374543190002e-02
-2.785580791532993317e-02
-9.758301079273223877e-02
1.485828757286071777e-01
5.963643267750740051e-02
7.617421448230743408e-02
-9.277662634849548340e-02
-1.139249801635742188e-01
-4.344005137681961060e-02
3.471213579177856445e-02
5.215454101562500000e-02
4.718839377164840698e-02
2.838425338268280029e-02
9.248707443475723267e-03
5.719619244337081909e-02
9.952260553836822510e-02
-1.491562575101852417e-01
1.305538564920425415e-01
-6.582605093717575073e-02
2.582358196377754211e-02
-1.230094730854034424e-01
-8.872909098863601685e-02
-2.210004720836877823e-03
-2.906706184148788452e-02
-2.591268345713615417e-02
-7.359406352043151855e-02
-4.903997480869293213e-02
-7.524567097425460815e-02
-2.884319424629211426e-02
1.645890064537525177e-02
-1.200223788619041443e-01
-1.060727983713150024e-01
-5.484103783965110779e-02
-1.514450013637542725e-01
5.066837370395660400e-02
-1.187366694211959839e-01
3.776459395885467529e-02
-8.835945278406143188e-02
-8.165989071130752563e-02
6.608630716800689697e-02
-7.076839357614517212e-02
-1.970135234296321869e-02
8.232862502336502075e-02
2.243702113628387451e-02
3.525989875197410583e-02
-1.105057448148727417e-02
2.392126433551311493e-02
1.436362266540527344e-01
5.937536433339118958e-02
-1.208769530057907104e-01
5.680413544178009033e-02
7.110654562711715698e-02
7.753886282444000244e-02
-1.289134472608566284e-02
-2.235946618020534515e-02
-2.231690101325511932e-03
1.682715266942977905e-01
-1.592768728733062744e-01
-3.139945864677429199e-02
-1.404122412204742432e-01
8.068437874317169189e-02
-6.646350026130676270e-02
8.285577595233917236e-02
-5.149327963590621948e-02
-1.243791580200195312e-01
-4.362225532531738281e-02
1.576156727969646454e-02
-4.935237020254135132e-02
-1.166718453168869019e-01
-1.712803542613983154e-01
7.839496433734893799e-02
-3.068457730114459991e-02
1.271494477987289429e-01
1.825001239776611328e-01
-9.935732930898666382e-02
1.151027530431747437e-02
-1.465603150427341461e-02
-8.516305685043334961e-02
5.091180279850959778e-02
1.459177434444427490e-01
1.935979351401329041e-02
1.773232221603393555e-01
-9.771920740604400635e-02
1.236939206719398499e-01
1.739124953746795654e-02
3.514267131686210632e-02
-1.696379035711288452e-01
-1.824720948934555054e-02
8.785898238420486450e-02
5.632172897458076477e-02
-7.815228775143623352e-03
2.871948760002851486e-03
-9.210029989480972290e-02
6.774619221687316895e-02
1.087177172303199768e-01
3.192384913563728333e-02
2.411618828773498535e-01
-2.488060668110847473e-02
3.116399981081485748e-03
-2.517078444361686707e-02
8.243897557258605957e-02
1.777156256139278412e-02
-4.945001099258661270e-03
1.458553671836853027e-01
-8.098769932985305786e-02
1.477180328220129013e-02
3.150680288672447205e-02
-2.167057804763317108e-02
-9.493146091699600220e-02
1.002110615372657776e-01
-1.011633351445198059e-01
-1.208128258585929871e-01
4.889588057994842529e-02
5.806097760796546936e-02
-4.196677356958389282e-02
1.623884886503219604e-01
-1.595055311918258667e-02
-8.093555271625518799e-02
-2.640468999743461609e-02
-5.737567320466041565e-02
-1.670699007809162140e-02
-1.622373610734939575e-01
1.240593492984771729e-01
-3.144188225269317627e-02
6.106648966670036316e-02
-6.257633119821548462e-02
6.670798361301422119e-02
9.665821678936481476e-03
-3.089821524918079376e-02
6.734432280063629150e-02
-2.499678432941436768e-01
1.098545491695404053e-01
4.024205356836318970e-02
-4.739819467067718506e-02
1.247296808287501335e-03
-7.895353436470031738e-02
3.196794167160987854e-02
-7.743711024522781372e-02
-7.994381338357925415e-02
1.314148772507905960e-02
5.010246485471725464e-02
-8.610196411609649658e-03
5.608817562460899353e-02
-6.880374252796173096e-02
-2.334483414888381958e-01
-4.578121751546859741e-02
5.688641592860221863e-02
9.112565219402313232e-02
-1.314078085124492645e-02
7.996519654989242554e-02
-3.737190272659063339e-03
-2.140861004590988159e-02
-5.602503195405006409e-02
2.393270656466484070e-02
-1.261093914508819580e-01
-2.643978595733642578e-02
-1.564904451370239258e-01
-1.442935615777969360e-01
-1.690245419740676880e-01
-4.720580950379371643e-02
1.609369665384292603e-01
5.398685112595558167e-03
-6.981018930673599243e-02
-1.805128455162048340e-01
-1.123523116111755371e-01
-1.751051396131515503e-01
-1.303564198315143585e-02
1.315429061651229858e-01
-1.704316027462482452e-02
-3.457888728007674217e-03
8.361284434795379639e-02
-1.696361601352691650e-01
-3.533396497368812561e-02
3.366126492619514465e-02
-3.183201700448989868e-02
1.650726795196533203e-01
-5.271742865443229675e-02
7.255816459655761719e-02
9.138960391283035278e-02
-1.381878554821014404e-01
8.593864738941192627e-03
-1.205843538045883179e-01
-6.181877106428146362e-02
-2.396922931075096130e-02
-1.015749871730804443e-01
-5.959881469607353210e-02
1.295725405216217041e-01
-1.216220762580633163e-02
-1.772064417600631714e-01
-1.509217172861099243e-01
-7.768310606479644775e-02
2.010733261704444885e-02
1.423477977514266968e-01
-1.743487715721130371e-01
4.048438370227813721e-02
2.895288728177547455e-02
-9.075056016445159912e-02
-6.739337462931871414e-03
2.353687584400177002e-02
1.237900629639625549e-01
-3.785825148224830627e-02
-1.237092092633247375e-01
7.324236631393432617e-02
-1.240880563855171204e-01
2.639165613800287247e-03
9.939575940370559692e-02
-1.001710221171379089e-01
-6.658849120140075684e-02
-1.288932859897613525e-01
-5.665581300854682922e-02
-1.934252381324768066e-01
2.144158631563186646e-01
-1.549195684492588043e-02
8.323469082824885845e-04
3.004330769181251526e-02
-6.964052468538284302e-02
-1.455107927322387695e-01
-7.454695552587509155e-02
7.447208464145660400e-02
-1.497397720813751221e-01
2.684511430561542511e-02
-5.986006557941436768e-02
-1.293283104896545410e-01
-1.674794256687164307e-01
-8.506309241056442261e-02
-4.205268621444702148e-02
-6.225324794650077820e-02
-7.419379055500030518e-02
-9.209847450256347656e-02
-9.784529358148574829e-02
4.806092754006385803e-02
1.336424797773361206e-01
6.726487725973129272e-02
-8.340638130903244019e-02
-3.227037191390991211e-02
-4.640806466341018677e-02
2.454175949096679688e-01
-1.406098529696464539e-02
-1.136437430977821350e-01
-8.487709611654281616e-02
-9.781687706708908081e-02
-7.978048175573348999e-02
-6.623860448598861694e-02
1.737349852919578552e-02
-9.293582290410995483e-02
-1.385455131530761719e-01
8.343863487243652344e-02
1.242061704397201538e-01
-4.747437313199043274e-02
-1.847814954817295074e-02
-6.370134651660919189e-02
1.707355380058288574e-01
1.463280618190765381e-01
3.837803006172180176e-02
-1.555065512657165527e-01
-2.563372487202286720e-03
2.391188740730285645e-01
1.953665539622306824e-02
-2.686300501227378845e-02
-7.532799243927001953e-02
-1.740820333361625671e-02
1.646959036588668823e-01
9.553755819797515869e-02
-2.599017508327960968e-02
4.761125519871711731e-02
5.011345818638801575e-02
-4.643290117383003235e-02
-4.851619899272918701e-02
6.817547138780355453e-03
2.679583430290222168e-01
3.068579174578189850e-02
1.701173931360244751e-01
2.305247448384761810e-02
5.712889134883880615e-02
-1.059391349554061890e-01
9.041707962751388550e-03
-7.573460228741168976e-03
-4.528901539742946625e-03
1.698994934558868408e-01
-1.558010876178741455e-01
7.562413066625595093e-02
6.402935832738876343e-02
3.640556707978248596e-02
-1.238072514533996582e-01
-1.049438342452049255e-01
8.336219005286693573e-03
9.543899446725845337e-02
8.305338770151138306e-02
-2.553620934486389160e-02
-1.055887341499328613e-01
8.040028065443038940e-02
7.402985543012619019e-02
1.504326760768890381e-01
-2.463351003825664520e-02
6.945294141769409180e-02
7.535687834024429321e-02
3.526265174150466919e-02
2.572827972471714020e-02
-5.001019220799207687e-03
-7.667960971593856812e-02
1.457243692129850388e-02
-5.220772325992584229e-02
-1.759831607341766357e-01
5.138878896832466125e-02
2.724291570484638214e-02
1.446277052164077759e-01
4.870401695370674133e-02
5.503731220960617065e-02
9.660259634256362915e-02
1.270270198583602905e-01
1.218471229076385498e-01
4.615220427513122559e-02
9.695615619421005249e-02
1.840127632021903992e-02
-1.424104720354080200e-01
-1.860781945288181305e-02
-9.399350732564926147e-02
-4.274749662727117538e-03
1.157117336988449097e-01
1.179499551653862000e-01
-9.152507781982421875e-02
-2.121363021433353424e-02
-2.890310017392039299e-03
-1.526150852441787720e-03
1.040201634168624878e-01
1.279850453138351440e-01
-8.650740981101989746e-02
-7.350044697523117065e-02
-2.163801109418272972e-03
-2.486768662929534912e-01
5.201840400695800781e-02
-7.238377351313829422e-03
1.879175454378128052e-01
5.558674037456512451e-02
1.252774447202682495e-01
-1.196225173771381378e-02
-1.268537133000791073e-03
-7.544083893299102783e-02
-6.877322681248188019e-03
4.401847347617149353e-02
3.373610228300094604e-02
-2.367774546146392822e-01
-1.956242769956588745e-01
1.889300160109996796e-02
9.063986688852310181e-02
-2.802931936457753181e-03
-1.053220033645629883e-02
-1.091697663068771362e-01
7.553649693727493286e-02
-7.079625874757766724e-02
-5.859407130628824234e-03
5.563961341977119446e-02
6.545512378215789795e-02
-9.970587678253650665e-03
-2.996529266238212585e-02
3.260532394051551819e-02
-7.401019334793090820e-02
-5.539301317185163498e-03
5.000485479831695557e-02
1.407671999186277390e-02
-4.984806478023529053e-02
7.573170587420463562e-04
4.487669840455055237e-02
-1.647974103689193726e-01
-2.592536062002182007e-02
3.343780711293220520e-02
8.042982965707778931e-02
-3.331921622157096863e-02
6.868080701678991318e-03
-7.311196066439151764e-03
-8.087702095508575439e-02
-3.219136223196983337e-02
-5.489259585738182068e-02
-6.392312794923782349e-02
6.505212280899286270e-03
1.046117469668388367e-01
2.536235144361853600e-03
-6.289664655923843384e-03
-5.668457224965095520e-02
7.418078929185867310e-02
-3.275637514889240265e-03
5.544757097959518433e-02
-8.895792812108993530e-02
-1.906383931636810303e-01
1.132671236991882324e-01
1.041674762964248657e-01
4.215543449390679598e-04
-5.445497110486030579e-02
-5.202214419841766357e-02
1.973064988851547241e-02
1.064835488796234131e-01
4.004092887043952942e-02
-2.287910692393779755e-02
1.021997886709868908e-03
-5.514719709753990173e-02
8.553674072027206421e-02
4.576500132679939270e-02
-4.938534274697303772e-02
4.292578995227813721e-02
-1.491748262196779251e-02
-2.948760427534580231e-02
4.811336472630500793e-02
-4.250066354870796204e-03
-2.534914016723632812e-01
6.238205358386039734e-02
1.413981430232524872e-02
2.410831116139888763e-02
-6.432970613241195679e-02
-1.449370104819536209e-02
-1.206191629171371460e-02
-6.586439441889524460e-03
2.199408411979675293e-02
4.110978543758392334e-02
1.773565448820590973e-02
-5.577998608350753784e-02
4.773684963583946228e-02
1.689665578305721283e-02
-2.536888048052787781e-02
-1.625202037394046783e-02
-1.757236868143081665e-01
-3.438560757786035538e-03
8.603810518980026245e-02
-9.074920671992003918e-04
-2.113782393280416727e-04
7.153373956680297852e-02
-1.058973371982574463e-01
-2.395640686154365540e-02
8.132848888635635376e-02
1.536461617797613144e-02
-3.568655252456665039e-02
8.357591927051544189e-03
2.559381350874900818e-02
-2.587654441595077515e-02
-7.858159393072128296e-02
8.737277239561080933e-02
1.461086422204971313e-01
1.011945083737373352e-01
1.698510162532329559e-02
-4.100699722766876221e-02
3.258698852732777596e-03
9.242817759513854980e-02
1.457959134131669998e-02
1.240589376538991928e-02
-1.192325577139854431e-01
4.911190271377563477e-02
-3.629093244671821594e-02
6.703237444162368774e-02
7.977457344532012939e-02
2.277783863246440887e-02
-3.164767986163496971e-03
8.837492018938064575e-02
-1.928788125514984131e-01
-1.069407686591148376e-01
-2.782742865383625031e-02
4.836497455835342407e-02
5.193244665861129761e-02
1.997692324221134186e-02
-1.819526776671409607e-02
1.707204431295394897e-02
5.911352857947349548e-02
3.721608221530914307e-02
-6.726609170436859131e-02
-1.946671865880489349e-02
-4.187982901930809021e-02
-1.130640879273414612e-01
3.878918662667274475e-02
-1.155537292361259460e-01
-1.072268933057785034e-01
1.403249502182006836e-01
-3.820880502462387085e-02
1.369396895170211792e-01
8.427652716636657715e-02
-7.272851467132568359e-02
1.082374751567840576e-01
1.061085518449544907e-02
-2.922282554209232330e-02
-8.781833201646804810e-02
6.239047273993492126e-03
3.077953495085239410e-02
3.691236255690455437e-03
-6.772377341985702515e-02
-9.007254242897033691e-02
-1.500353962182998657e-01
5.566631443798542023e-03
-3.893501684069633484e-02
1.989635080099105835e-01
-9.302423894405364990e-02
-8.164285868406295776e-02
2.580056525766849518e-02
1.024348381906747818e-02
-9.896424412727355957e-02
-1.752903312444686890e-02
-6.724962592124938965e-02
5.246771499514579773e-03
-2.766408957540988922e-02
-2.280241847038269043e-01
-4.197798296809196472e-02
-1.086552962660789490e-01
-1.657287031412124634e-02
4.139105230569839478e-02
-1.293203681707382202e-01
2.261576009914278984e-04
4.619151353836059570e-02
2.671536803245544434e-02
2.022621780633926392e-01
-4.764597397297620773e-03
-2.980509959161281586e-02
3.147719427943229675e-02
5.589135363698005676e-02
7.458233833312988281e-02
6.932166218757629395e-02
-2.830072343349456787e-01
4.939807951450347900e-02
3.464818373322486877e-02
-4.248375073075294495e-03
-5.790388211607933044e-02
6.237104535102844238e-02
2.949754009023308754e-03
2.392157167196273804e-02
-2.442578785121440887e-02
8.280534297227859497e-02
2.411052025854587555e-02
-6.769368797540664673e-02
-1.226134225726127625e-01
-9.754398465156555176e-02
2.687546238303184509e-02
1.664107403485104442e-04
4.631199687719345093e-02
1.250855028629302979e-01
-3.841480612754821777e-02
2.441705577075481415e-02
-7.762915454804897308e-03
1.198329031467437744e-01
-6.882320344448089600e-02
-1.475097835063934326e-01
-7.067630533128976822e-03
5.150295328348875046e-03
3.833613172173500061e-02
-5.401745438575744629e-02
8.912973850965499878e-02
3.778764605522155762e-02
-1.991334408521652222e-01
-5.746949836611747742e-02
5.947222188115119934e-02
-1.521327495574951172e-01
-1.562059372663497925e-01
2.893496863543987274e-02
-1.136550232768058777e-01
-3.418752690777182579e-03
-1.662454009056091309e-02
8.285186439752578735e-02
-1.023565046489238739e-02
1.085713356733322144e-01
-1.546163018792867661e-02
-2.983184996992349625e-03
3.546242415904998779e-02
5.267658084630966187e-02
1.029358431696891785e-01
1.164318770170211792e-01
1.650469154119491577e-01
2.083842409774661064e-03
5.058219656348228455e-02
1.789365708827972412e-01
-1.939150542020797729e-01
7.653297856450080872e-03
3.505897894501686096e-02
4.000249505043029785e-02
8.426377177238464355e-02
-1.020023077726364136e-01
6.354929506778717041e-02
-1.987030729651451111e-02
7.885062694549560547e-02
3.069801814854145050e-02
-2.519521489739418030e-02
-1.018892079591751099e-01
-6.653989106416702271e-02
1.183021068572998047e-01
-5.544175952672958374e-02
5.157298594713211060e-02
2.083724830299615860e-03
1.391645073890686035e-01
-1.102897524833679199e-01
9.761963039636611938e-02
1.194496080279350281e-01
1.361239105463027954e-01
1.275227814912796021e-01
9.533797204494476318e-02
-4.380882903933525085e-02
-6.823287904262542725e-02
-1.956570520997047424e-02
-1.261013150215148926e-01
7.525482773780822754e-02
1.239432170987129211e-01
7.667466998100280762e-02
-1.124561950564384460e-01
-5.601773411035537720e-02
1.471730768680572510e-01
-6.625012960284948349e-03
2.451168186962604523e-02
-5.173118039965629578e-02
-1.492881923913955688e-01
-1.433514058589935303e-01
8.532098145224153996e-04
3.288276493549346924e-02
4.263021051883697510e-02
1.292670816183090210e-01
-1.908008940517902374e-02
-1.070670336484909058e-01
-1.208729296922683716e-01
6.760036945343017578e-02
-1.593613326549530029e-01
8.308047801256179810e-02
1.126166782341897488e-03
-1.056259721517562866e-01
1.212529018521308899e-01
-1.245554760098457336e-01
-3.484541922807693481e-02
-2.017152868211269379e-02
-8.322860300540924072e-02
2.447864226996898651e-02
1.773962825536727905e-01
5.383048206567764282e-03
-9.581101685762405396e-02
1.879455754533410072e-03
1.359801441431045532e-01
-8.565855771303176880e-02
-1.034185141324996948e-01
1.232953183352947235e-02
-7.127126678824424744e-03
-8.142837136983871460e-02
5.206738039851188660e-02
-1.237441971898078918e-02
-1.857714913785457611e-02
-1.649886816740036011e-01
-4.711389541625976562e-03
7.261196523904800415e-02
2.165218256413936615e-02
1.017629913985729218e-02
-1.608544141054153442e-01
-2.884790301322937012e-02
-2.018419206142425537e-01
-5.619360134005546570e-02
-1.593730002641677856e-01
2.665344178676605225e-01
1.848516799509525299e-02
-2.597793750464916229e-02
1.547038257122039795e-01
1.345518976449966431e-01
1.047291532158851624e-01
-1.035726629197597504e-02
1.613354124128818512e-02
-1.872963272035121918e-02
-9.795702248811721802e-02
1.174517422914505005e-01
8.068165183067321777e-02
-4.701694101095199585e-02
5.732989683747291565e-02
4.916267469525337219e-02
-2.392711788415908813e-01
-9.256368130445480347e-02
-2.449510805308818817e-02
5.585082247853279114e-02
5.689278244972229004e-02
1.760693341493606567e-01
6.239382177591323853e-02
3.820461034774780273e-02
2.739745751023292542e-02
5.357678979635238647e-02
5.972900986671447754e-02
3.046815283596515656e-03
-1.736384034156799316e-01
3.999821841716766357e-02
6.896285712718963623e-02
6.767584383487701416e-02
1.958948224782943726e-01
-9.867475181818008423e-02
-5.068492516875267029e-02
-5.334589630365371704e-02
-1.714475005865097046e-01
2.440514974296092987e-02
1.759011857211589813e-02
-9.168060868978500366e-02
-5.931147560477256775e-02
6.600889563560485840e-02
-1.462167128920555115e-02
-3.335627028718590736e-03
8.602222427725791931e-03
1.631224453449249268e-01
5.089927092194557190e-02
4.484298080205917358e-02
-6.099345535039901733e-02
-2.216518484055995941e-02
-1.146831363439559937e-01
-3.909840434789657593e-02
6.709932535886764526e-02
6.736558675765991211e-02
-6.110340356826782227e-02
2.878272905945777893e-02
-1.348682343959808350e-01
-9.545370936393737793e-03
-9.904242306947708130e-02
-7.254349067807197571e-03
5.185271799564361572e-02
2.491496503353118896e-03
8.508556336164474487e-02
-6.723887473344802856e-02
-1.207453850656747818e-02
-6.746834516525268555e-02
5.767849087715148926e-02
-2.752430923283100128e-02
-1.343631446361541748e-01
6.658866256475448608e-02
8.682017028331756592e-02
-3.372767195105552673e-02
-7.183163613080978394e-02
-6.594151258468627930e-02
-1.410897076129913330e-02
-4.000489134341478348e-03
-1.167087443172931671e-02
3.931026533246040344e-02
1.300512850284576416e-01
-5.058871209621429443e-02
1.567823998630046844e-02
4.316191747784614563e-02
-7.435240596532821655e-02
6.941635161638259888e-02
8.053247816860675812e-03
-1.903771609067916870e-02
4.835223034024238586e-02
1.417046636343002319e-01
-7.988223433494567871e-02
1.558795664459466934e-02
-3.796118125319480896e-02
2.958400361239910126e-02
-3.225057944655418396e-02
6.998887658119201660e-02
8.684619516134262085e-02
5.839731171727180481e-02
4.496656730771064758e-02
1.209429800510406494e-01
9.831086546182632446e-02
-1.305364370346069336e-01
1.198090263642370701e-03
-5.006185546517372131e-02
-1.060730367898941040e-01
2.883811481297016144e-02
5.621677637100219727e-02
6.190799176692962646e-02
1.816833764314651489e-02
-4.318974539637565613e-02
-2.702182391658425331e-03
9.175444021821022034e-03
-4.189030826091766357e-02
-2.677763625979423523e-02
-5.735804513096809387e-02
-2.499814145267009735e-02
-2.559881098568439484e-02
1.218973398208618164e-01
1.636839658021926880e-02
1.715340465307235718e-02
-4.483073018491268158e-03
1.163779944181442261e-02
1.327237393707036972e-02
-1.434931473340839148e-04
-5.002504331059753895e-04
4.770836606621742249e-02
3.625233471393585205e-02
-4.716219007968902588e-02
2.491074241697788239e-02
8.576454222202301025e-02
-1.407418549060821533e-01
-7.354661077260971069e-02
8.283423259854316711e-03
6.204813346266746521e-02
-7.867569476366043091e-02
9.672806598246097565e-03
-6.268936395645141602e-02
-1.939708134159445763e-03
-4.655363783240318298e-02
-5.049208644777536392e-03
-5.768911913037300110e-02
-6.990553438663482666e-02
3.085440257564187050e-03
-1.377143859863281250e-01
-6.127370893955230713e-02
2.811202220618724823e-02
8.661875128746032715e-02
-2.569914162158966064e-01
-5.143142491579055786e-02
2.473219484090805054e-02
-1.125378683209419250e-01
-3.749895095825195312e-02
9.505525231361389160e-03
5.577350500971078873e-03
-2.993063814938068390e-02
-1.028004754334688187e-02
-9.782622009515762329e-02
-4.777255526278167963e-04
-9.995880536735057831e-03
8.038651943206787109e-02
-3.036096226423978806e-03
7.096156477928161621e-02
-1.174234040081501007e-02
-8.158884197473526001e-02
7.070722430944442749e-02
-3.026048466563224792e-02
1.367048621177673340e-01
7.536274194717407227e-02
-7.121864706277847290e-02
-1.067060530185699463e-01
6.330603361129760742e-02
-1.085333079099655151e-01
-7.450187206268310547e-02
-7.383122295141220093e-02
6.655281782150268555e-02
7.024236768484115601e-02
-3.483907133340835571e-02
1.149590685963630676e-02
8.689378947019577026e-02
1.802010461688041687e-02
1.409512311220169067e-01
-8.489318937063217163e-02
-2.757453545928001404e-02
3.484770283102989197e-02
-2.853710204362869263e-02
2.246616035699844360e-02
8.720487356185913086e-02
1.029554679989814758e-01
4.817895963788032532e-02
5.990311130881309509e-02
3.248977288603782654e-02
-5.113729834556579590e-02
1.622044667601585388e-02
-4.991595074534416199e-02
8.717873692512512207e-02
-7.264606654644012451e-02
9.684285521507263184e-02
1.040560752153396606e-02
1.021878123283386230e-01
8.261218667030334473e-03
-7.542519271373748779e-02
-2.810375206172466278e-02
4.728144034743309021e-02
1.513745449483394623e-02
-1.830570772290229797e-02
-6.938321143388748169e-02
-1.121163889765739441e-01
5.308768898248672485e-02
-8.089453727006912231e-02
1.970707811415195465e-02
3.602894395589828491e-02
-4.411426559090614319e-02
-1.087069325149059296e-02
1.228483580052852631e-02
-2.208563499152660370e-02
-1.164422854781150818e-01
-1.956655085086822510e-02
-4.851265996694564819e-02
5.125942453742027283e-02
-4.104039818048477173e-02
6.337300688028335571e-02
-7.281468715518712997e-03
-1.587794870138168335e-01
3.178926184773445129e-02
2.186685241758823395e-02
-4.992497712373733521e-02
1.333872880786657333e-02
-2.704960107803344727e-02
8.510220795869827271e-03
-5.324141681194305420e-02
6.830367445945739746e-02
1.243465766310691833e-01
-3.585389629006385803e-02
-3.983733057975769043e-02
-9.153111279010772705e-02
6.964610517024993896e-02
1.118360236287117004e-01
1.461828947067260742e-01
3.665712475776672363e-02
-3.313962370157241821e-02
-2.802169322967529297e-02
8.860538154840469360e-02
8.131823688745498657e-02
-2.804938703775405884e-02
-5.839341878890991211e-02
-9.275001287460327148e-02
-1.776535958051681519e-01
4.493628814816474915e-02
-5.236932635307312012e-02
-1.004148460924625397e-02
4.872713610529899597e-02
-1.189043745398521423e-01
-1.306370049715042114e-01
-1.591757684946060181e-01
-1.725742965936660767e-02
1.208402067422866821e-01
2.960018813610076904e-02
-4.197487235069274902e-02
-8.335075527429580688e-02
1.152244061231613159e-01
7.888647168874740601e-02
2.980423532426357269e-02
9.245334565639495850e-02
-6.751964986324310303e-02
6.350706517696380615e-02
-2.506415126845240593e-03
2.658839151263237000e-02
1.062653735280036926e-01
-6.519883405417203903e-03
9.781824797391891479e-02
-1.619001179933547974e-01
5.674030631780624390e-02
8.716016262769699097e-02
8.959483355283737183e-02
6.606522202491760254e-02
-1.313055008649826050e-01
5.729785654693841934e-03
3.466016147285699844e-03
4.928733687847852707e-03
-5.134784150868654251e-03
-1.975423544645309448e-01
-8.976530283689498901e-02
1.738854944705963135e-01
2.046717889606952667e-02
-6.062082014977931976e-03
1.685941368341445923e-01
-1.304777860641479492e-01
-1.088385358452796936e-01
-1.687631458044052124e-01
-6.082947924733161926e-02
-2.036775276064872742e-02
-5.962438136339187622e-02
-1.888815872371196747e-02
1.303534395992755890e-02
-7.279358804225921631e-02
8.245328208431601524e-04
-8.731745928525924683e-02
-7.537174969911575317e-02
1.678477786481380463e-02
8.090759068727493286e-02
-8.036247640848159790e-02
-1.782977953553199768e-02
6.995898485183715820e-02
-3.400608152151107788e-02
1.174660678952932358e-02
6.422177702188491821e-02
3.204676881432533264e-02
1.495913416147232056e-01
-1.062400825321674347e-02
-2.422886900603771210e-02
9.958672523498535156e-02
-1.774510554969310760e-02
7.010869681835174561e-02
-1.083994936197996140e-02
-6.365484744310379028e-02
-1.811573468148708344e-02
6.291694939136505127e-02
-3.978638723492622375e-02
5.016796290874481201e-02
6.288829445838928223e-02
-6.945301592350006104e-02
-1.973637379705905914e-02
7.397907227277755737e-02
-1.544999033212661743e-01
-1.220110729336738586e-01
2.973133511841297150e-02
-1.040220912545919418e-02
5.157114192843437195e-02
2.591486275196075439e-02
-2.468365244567394257e-02
-8.056916296482086182e-02
1.118381135165691376e-02
6.636787671595811844e-03
-4.764214903116226196e-02
2.778243273496627808e-02
1.104740425944328308e-01
-8.254885673522949219e-02
-5.916359368711709976e-04
-1.753951422870159149e-02
-8.989246189594268799e-02
8.580050617456436157e-02
-1.004307791590690613e-01
1.457504332065582275e-01
-9.198747575283050537e-02
-8.735036849975585938e-02
1.577718555927276611e-02
3.167115896940231323e-02
2.351382933557033539e-02
4.530718550086021423e-02
-4.032867774367332458e-02
-1.476988079957664013e-03
-8.006100356578826904e-02
-7.048615068197250366e-02
-9.128460288047790527e-02
-2.104454934597015381e-01
-7.308605127036571503e-03
-3.308924660086631775e-02
-2.478140778839588165e-02
-9.134452044963836670e-02
-4.776281863451004028e-02
1.335808634757995605e-01
-9.946634620428085327e-02
-4.846399184316396713e-03
7.607852667570114136e-02
7.903274148702621460e-02
1.293668895959854126e-01
1.065311506390571594e-01
1.016614735126495361e-01
4.077149555087089539e-02
4.137687012553215027e-02
7.872149348258972168e-02
-3.858606144785881042e-02
-1.791772842407226562e-01
2.479645237326622009e-02
-2.292010188102722168e-02
7.135140243917703629e-03
7.617909461259841919e-02
2.417212724685668945e-02
7.189038395881652832e-02
-1.265325099229812622e-01
1.020494326949119568e-01
-6.704237312078475952e-02
8.839970827102661133e-02
1.158006303012371063e-02
-1.066830530762672424e-01
-4.228313267230987549e-02
8.131226524710655212e-03
9.876368939876556396e-02
-3.269492834806442261e-02
-8.034838736057281494e-02
8.407755196094512939e-02
1.131606176495552063e-01
-1.335349380970001221e-01
9.661234170198440552e-02
-7.086664438247680664e-02
-2.357938885688781738e-02
-5.295162647962570190e-02
-1.324240714311599731e-01
-2.336136996746063232e-02
1.671352386474609375e-01
9.755336493253707886e-02
-1.102459523826837540e-02
-9.705564379692077637e-02
-8.346909284591674805e-02
-1.708267927169799805e-01
-7.933321595191955566e-02
-3.217400982975959778e-02
-1.760912090539932251e-01
-3.894809260964393616e-02
-6.832762062549591064e-02
-4.899977147579193115e-02
1.039036884903907776e-01
7.378406077623367310e-02
1.371646076440811157e-01
4.640156030654907227e-02
-3.835987672209739685e-02
-6.079747900366783142e-02
-1.627429760992527008e-02
7.512420415878295898e-02
6.928417086601257324e-02
1.083138808608055115e-01
1.079856082797050476e-01
1.006635464727878571e-02
4.726797714829444885e-02
-1.957451552152633667e-02
-1.203174218535423279e-01
5.299168173223733902e-03
6.735987961292266846e-02
1.601734608411788940e-01
-1.189381163567304611e-02
3.060924075543880463e-02
-3.838386014103889465e-02
-1.054699867963790894e-01
-1.617172658443450928e-01
-1.075252518057823181e-01
1.417540460824966431e-01
-6.825466454029083252e-02
-9.301649034023284912e-02
2.193151414394378662e-02
2.620225772261619568e-02
1.058705616742372513e-02
4.177836701273918152e-03
4.495453462004661560e-02
-9.885892271995544434e-02
7.089693844318389893e-02
1.489116847515106201e-01
-1.106117013841867447e-02
-6.235562264919281006e-02
9.955205023288726807e-02
2.537629380822181702e-02
-6.820303946733474731e-02
1.389063708484172821e-02
-6.929083168506622314e-02
-1.585279852151870728e-01
-3.435756638646125793e-02
1.783246546983718872e-02
1.866209357976913452e-01
-1.457168720662593842e-02
-3.712717816233634949e-02
1.091675683856010437e-01
6.562080979347229004e-02
-8.245393633842468262e-03
-1.531443931162357330e-02
2.024766989052295685e-02
4.051422234624624252e-03
6.219364330172538757e-02
-1.590774655342102051e-01
1.063683442771434784e-02
2.367316931486129761e-02
-4.013375565409660339e-02
-9.203672409057617188e-03
-1.942961663007736206e-02
-4.051904007792472839e-02
-1.195903569459915161e-01
3.115130029618740082e-02
-1.888387054204940796e-01
3.612681291997432709e-03
2.113697975873947144e-01
1.139733493328094482e-01
-3.143761772662401199e-03
-6.785544008016586304e-02
1.034207362681627274e-02
8.232409507036209106e-02
-1.235047634690999985e-02
6.649536639451980591e-02
4.012396931648254395e-02
1.122796088457107544e-01
2.422531135380268097e-02
-6.786601990461349487e-02
-7.577753067016601562e-02
-2.581639774143695831e-02
1.755646020174026489e-01
1.361211240291595459e-01
6.410446763038635254e-02
7.257787883281707764e-02
1.553648710250854492e-01
-8.769561350345611572e-02
-8.996103703975677490e-02
-1.998656392097473145e-01
-1.583048515021800995e-02
-1.356814950704574585e-01
1.094063278287649155e-02
-1.052729040384292603e-02
3.370779007673263550e-02
5.608540773391723633e-02
-2.797559648752212524e-02
3.059690445661544800e-02
-1.477466374635696411e-01
-1.001344025135040283e-01
-5.350154265761375427e-02
-1.173736155033111572e-01
-3.321204707026481628e-02
-9.727269411087036133e-02
3.267224878072738647e-02
2.381575107574462891e-02
-1.884743757545948029e-02
-6.571561843156814575e-02
1.212556287646293640e-01
-9.730347245931625366e-02
-6.642208993434906006e-02
6.032674573361873627e-03
-1.351726334542036057e-02
-7.304076105356216431e-02
-6.116712093353271484e-02
-4.005172103643417358e-02
2.659787796437740326e-02
-1.840246655046939850e-02
1.097413673996925354e-01
-1.466742902994155884e-01
-1.059158816933631897e-01
6.787398457527160645e-02
-7.844778895378112793e-02
-1.411113739013671875e-01
8.450496196746826172e-02
-9.583834558725357056e-02
-7.878189533948898315e-02
2.352325711399316788e-03
-2.026143949478864670e-03
-4.813963547348976135e-02
1.776948124170303345e-01
-7.230553776025772095e-02
1.064636483788490295e-01
-8.429492264986038208e-02
4.755198024213314056e-03
-1.029227897524833679e-01
-8.224862813949584961e-02
7.183463126420974731e-02
2.883903868496417999e-02
6.389600783586502075e-02
7.413232326507568359e-02
3.387536853551864624e-02
-2.920514158904552460e-02
-7.021085824817419052e-03
9.605806320905685425e-02
2.395237050950527191e-02
-9.655649214982986450e-02
-7.553640007972717285e-02
1.550585310906171799e-02
5.722353607416152954e-02
-2.460011281073093414e-02
6.622765213251113892e-02
-3.251837566494941711e-02
-8.292786777019500732e-02
5.849881470203399658e-02
1.156891230493783951e-02
1.177277714014053345e-01
1.867145486176013947e-02
-6.338189542293548584e-02
6.958007812500000000e-02
-7.892169989645481110e-03
-3.265512362122535706e-02
-1.007138192653656006e-01
-1.187516525387763977e-01
-6.384357810020446777e-02
5.321149528026580811e-02
1.475447565317153931e-01
-1.902147084474563599e-01
1.494542043656110764e-02
9.523541480302810669e-02
1.025860682129859924e-01
1.204811111092567444e-01
-9.585508704185485840e-02
-6.048421189188957214e-02
5.078104138374328613e-02
-1.153352707624435425e-01
-9.768188744783401489e-02
9.993510320782661438e-03
6.455436348915100098e-02
-8.218997716903686523e-02
-1.213038247078657150e-02
-1.309597939252853394e-01
-1.548257023096084595e-01
4.286236688494682312e-02
2.021725522354245186e-04
8.345257490873336792e-02
1.414996385574340820e-02
2.567035891115665436e-02
-1.113961860537528992e-01
2.262005396187305450e-02
8.961302787065505981e-02
4.203176498413085938e-02
-1.391325891017913818e-01
-4.193294793367385864e-02
7.933853566646575928e-02
1.965996623039245605e-02
2.675333991646766663e-02
-3.794645518064498901e-02
-7.606784254312515259e-02
1.926771923899650574e-02
1.199354138225317001e-02
-3.089609183371067047e-02
4.746074974536895752e-02
4.821449518203735352e-02
1.298148036003112793e-01
-1.733953692018985748e-02
-3.068202175199985504e-02
1.062036305665969849e-01
-5.037869513034820557e-02
-2.192182093858718872e-02
-5.737248063087463379e-02
-1.273829210549592972e-02
4.978870227932929993e-02
-5.373979359865188599e-02
1.264902669936418533e-02
3.939819708466529846e-02
-1.854222267866134644e-02
-1.161463186144828796e-01
-1.076073385775089264e-02
1.293898094445466995e-02
1.271037757396697998e-01
-7.638819515705108643e-02
2.291423454880714417e-02
1.596383564174175262e-02
5.419501289725303650e-02
4.346444830298423767e-02
2.696773596107959747e-02
1.178592257201671600e-02
-4.054275900125503540e-02
-9.900416247546672821e-03
-2.135749720036983490e-02
1.181568726897239685e-01
7.674720883369445801e-02
1.191728264093399048e-01
-7.227996736764907837e-02
9.201807901263237000e-03
-4.865553230047225952e-02
-8.190539479255676270e-02
-4.957506060600280762e-02
-1.554184011183679104e-03
1.755692213773727417e-01
2.006946802139282227e-01
-5.830878764390945435e-02
-1.574369147419929504e-02
1.088239625096321106e-01
-4.121995344758033752e-02
5.604530870914459229e-02
-3.948725759983062744e-02
7.568762451410293579e-02
-1.412208229303359985e-01
3.314236178994178772e-03
1.465459167957305908e-01
4.457053542137145996e-02
-2.084586583077907562e-02
8.222618699073791504e-02
1.104855611920356750e-01
1.173798516392707825e-01
1.135327294468879700e-01
1.905705593526363373e-02
-7.918899506330490112e-02
-8.068376779556274414e-02
2.363729756325483322e-03
1.642106473445892334e-02
4.193476960062980652e-02
2.487282454967498779e-02
-1.723927259445190430e-01
6.777799129486083984e-02
5.895768478512763977e-02
-5.516760796308517456e-02
6.310161948204040527e-02
-7.930606603622436523e-02
8.510334789752960205e-02
-2.138645015656948090e-02
-1.772281527519226074e-01
1.430064141750335693e-01
6.224503368139266968e-02
-8.300407975912094116e-02
-1.230303570628166199e-01
-4.297093674540519714e-02
7.767139375209808350e-02
-7.305540889501571655e-02
9.249805659055709839e-02
1.753403432667255402e-02
-2.431407868862152100e-01
5.978775396943092346e-02
-5.912195891141891479e-02
3.353160992264747620e-02
-3.158205002546310425e-02
-8.021704852581024170e-02
-4.921744018793106079e-02
2.784412726759910583e-02
6.622246652841567993e-02
1.119742244482040405e-01
-9.931226959452033043e-04
8.200192451477050781e-02
1.582339964807033539e-02
1.793973892927169800e-02
-3.439460322260856628e-02
5.104339867830276489e-02
8.860120922327041626e-02
-3.053710423409938812e-02
2.426720969378948212e-02
-9.100431203842163086e-02
1.070881858468055725e-01
-7.988608628511428833e-02
8.190970867872238159e-02
-7.504367828369140625e-02
6.836558133363723755e-02
-1.276483833789825439e-01
-5.390828475356101990e-02
1.674488782882690430e-01
-2.888525091111660004e-02
-7.053725421428680420e-02
-4.624553024768829346e-02
-8.700706064701080322e-02
-9.379863739013671875e-02
-7.914534769952297211e-03
3.117034584283828735e-02
-9.183502756059169769e-03
1.631891876459121704e-01
5.617342889308929443e-02
1.429961621761322021e-01
1.897053122520446777e-01
5.566921457648277283e-02
-1.544257402420043945e-01
-7.780748605728149414e-02
2.959931083023548126e-02
-1.060436069965362549e-01
-3.046802282333374023e-01
-4.604087397456169128e-02
-6.691118329763412476e-02
-1.566437333822250366e-01
-5.460109189152717590e-02
-5.442161485552787781e-02
-1.205694675445556641e-01
-1.641830354928970337e-01
2.222644835710525513e-01
1.063661836087703705e-02
8.849565684795379639e-02
-1.962955109775066376e-02
9.698207676410675049e-02
-7.636469602584838867e-02
-4.776587709784507751e-02
3.267986699938774109e-02
3.705602884292602539e-02
-9.363451600074768066e-02
2.557241916656494141e-02
-2.982514537870883942e-02
-1.250073909759521484e-01
1.303611844778060913e-01
5.923608690500259399e-02
7.686547189950942993e-02
-1.791588030755519867e-02
-2.548730745911598206e-02
-1.328922957181930542e-01
1.079249829053878784e-01
-3.782770782709121704e-02
4.977915808558464050e-02
6.749961525201797485e-02
1.401858925819396973e-01
9.955209679901599884e-03
3.499764204025268555e-02
-1.231031417846679688e-01
-9.232572466135025024e-02
-1.493203192949295044e-01
6.963243335485458374e-02
1.463122069835662842e-01
3.540127351880073547e-02
-1.032724454998970032e-01
-1.152155622839927673e-01
-1.061504930257797241e-01
-4.027400910854339600e-02
-1.287316828966140747e-01
-6.635032128542661667e-03
3.075773827731609344e-02
-5.712088942527770996e-02
-6.512133032083511353e-02
1.473030424676835537e-03
-1.370466779917478561e-02
-1.473593562841415405e-01
-7.520308345556259155e-02
-2.035601623356342316e-02
1.972487717866897583e-01
5.002855136990547180e-02
-5.221424624323844910e-02
1.277885138988494873e-01
-1.095054149627685547e-01
1.226964965462684631e-01
-1.000469028949737549e-01
-9.045469760894775391e-02
1.623194068670272827e-01
7.829798758029937744e-02
-8.134520053863525391e-02
-1.593701541423797607e-01
-1.002689823508262634e-01
-2.404336445033550262e-02
-4.972783103585243225e-02
-7.983587682247161865e-02
1.683200336992740631e-02
-1.364242881536483765e-01
2.753064595162868500e-02
-4.347843304276466370e-02
3.459987044334411621e-02
4.321893677115440369e-02
5.851679667830467224e-02
-3.178630396723747253e-02
-7.620493322610855103e-02
8.905358612537384033e-02
-7.883689552545547485e-02
6.922847032546997070e-02
-1.448362767696380615e-01
-8.663172274827957153e-02
-1.325596775859594345e-02
-2.822885289788246155e-02
2.195542491972446442e-02
2.253234758973121643e-02
-8.981517516076564789e-03
2.090619131922721863e-02
-4.753104224801063538e-02
-1.663119643926620483e-01
2.087043831124901772e-03
8.825021237134933472e-02
-4.800935834646224976e-02
8.237346261739730835e-02
-1.710826344788074493e-02
-9.329686313867568970e-02
4.334874078631401062e-02
-9.410405904054641724e-02
-1.139613315463066101e-01
1.335273385047912598e-01
7.277507334947586060e-02
-1.643568873405456543e-01
-7.439527660608291626e-02
-7.570243626832962036e-02
9.558485820889472961e-03
-6.005615368485450745e-02
-1.425913572311401367e-01
-1.033124551177024841e-01
3.214027732610702515e-02
-6.927974522113800049e-02
-4.183465614914894104e-02
1.240037661045789719e-02
9.239020198583602905e-02
-1.496807038784027100e-01
6.266906112432479858e-02
-1.270955950021743774e-01
-1.733280569314956665e-01
-3.553329408168792725e-02
-4.767265170812606812e-02
-6.879655271768569946e-02
1.191838160157203674e-01
4.465481266379356384e-03
9.752250462770462036e-02
-3.387191519141197205e-02
-3.923545032739639282e-02
1.392454952001571655e-01
-8.876989781856536865e-02
-1.658597029745578766e-02
1.363267656415700912e-02
2.447597123682498932e-02
1.605865657329559326e-01
9.815318137407302856e-02
6.692376732826232910e-02
1.154506579041481018e-01
-7.291509956121444702e-02
1.069901511073112488e-01
-3.118779696524143219e-02
1.385106444358825684e-01
-6.329861283302307129e-02
9.446835145354270935e-03
1.148470938205718994e-01
-4.876744002103805542e-02
3.318215534090995789e-02
1.061865985393524170e-01
-2.815475463867187500e-01
2.953553013503551483e-02
7.529268413782119751e-02
-6.553303450345993042e-02
6.538891047239303589e-02
-8.125356398522853851e-03
2.227112092077732086e-02
2.001102268695831299e-02
-7.918319106101989746e-02
-2.660045400261878967e-02
7.425470650196075439e-02
-1.663544625043869019e-01
-9.552983939647674561e-02
5.410325899720191956e-02
3.616540879011154175e-02
7.675440609455108643e-02
8.204892277717590332e-03
-4.787618666887283325e-02
6.604444235563278198e-02
1.307294964790344238e-01
2.063680440187454224e-01
-6.307496875524520874e-02
-2.130509614944458008e-01
2.217804640531539917e-02
1.409128457307815552e-01
-4.058099538087844849e-02
-9.871700406074523926e-02
4.414446651935577393e-02
9.005073457956314087e-03
1.183715984225273132e-01
-1.646020635962486267e-02
4.195486754179000854e-02
-5.653644353151321411e-02
3.849704191088676453e-02
5.708169937133789062e-02
-1.186562925577163696e-01
3.164361789822578430e-02
-7.732304185628890991e-02
7.931471616029739380e-02
4.086914658546447754e-02
-6.176691874861717224e-02
7.892363518476486206e-02
8.242268860340118408e-02
6.941084563732147217e-02
-3.722561523318290710e-02
-2.167144119739532471e-01
-1.323149055242538452e-01
4.839557409286499023e-02
8.197093009948730469e-02
-6.354778259992599487e-02
1.234478354454040527e-01
1.418099855072796345e-03
9.260133653879165649e-02
-1.402055919170379639e-01
-6.268360465764999390e-02
6.669852882623672485e-02
-1.000285428017377853e-02
-5.655885860323905945e-02
-3.708012402057647705e-02
-1.044719815254211426e-01
-5.323707684874534607e-02
-8.251843601465225220e-02
-4.197194054722785950e-02
1.715478003025054932e-01
4.825864732265472412e-02
5.159283056855201721e-03
2.833278104662895203e-02
4.432594776153564453e-02
-1.125816777348518372e-01
-3.886367380619049072e-02
5.521260574460029602e-02
3.034163080155849457e-02
-8.297602087259292603e-02
6.667053699493408203e-02
-2.683347649872303009e-02
1.305433548986911774e-02
-4.916924238204956055e-02
9.008132852613925934e-03
-1.156399957835674286e-02
-1.441587880253791809e-02
-3.553939983248710632e-02
5.374834313988685608e-02
-8.356888592243194580e-02
1.267774682492017746e-02
-1.377546936273574829e-01
6.957612931728363037e-02
-7.151309400796890259e-02
3.948339074850082397e-02
-1.107051596045494080e-01
4.703326523303985596e-02
2.010824717581272125e-02
-6.695840507745742798e-02
-2.129796147346496582e-01
-1.221243962645530701e-01
-3.633898496627807617e-02
1.288016587495803833e-01
3.356539085507392883e-02
8.841656893491744995e-02
1.502012610435485840e-01
-1.110519021749496460e-01
9.283774346113204956e-02
-5.801540613174438477e-02
-6.376522593200206757e-03
-1.138381510972976685e-01
-8.704488724470138550e-02
-1.676752865314483643e-01
5.731991305947303772e-02
4.814445599913597107e-02
2.408552914857864380e-02
-9.971896559000015259e-02
3.899622336030006409e-02
-1.054303571581840515e-01
5.869597662240266800e-03
2.393890358507633209e-02
3.557383269071578979e-02
-1.492204070091247559e-01
-7.845318317413330078e-02
1.399770230054855347e-01
3.958640247583389282e-02
-2.727746590971946716e-02
1.102093458175659180e-01
4.612678289413452148e-02
3.413769602775573730e-02
-4.837404564023017883e-02
1.498396508395671844e-02
1.359195262193679810e-01
9.405826218426227570e-03
1.707546561956405640e-01
7.297727465629577637e-02
-1.190246865153312683e-01
2.044372260570526123e-02
6.246753036975860596e-02
1.112779676914215088e-01
2.974318573251366615e-03
5.685020610690116882e-02
1.135828718543052673e-01
-3.311510756611824036e-02
8.219206705689430237e-03
2.425376558676362038e-03
6.587646156549453735e-02
-5.090888589620590210e-02
9.711079299449920654e-02
-1.226274222135543823e-01
-2.393765747547149658e-02
5.631241574883460999e-02
1.007385775446891785e-01
9.993112087249755859e-02
8.545131981372833252e-02
-4.881406575441360474e-02
-6.006574630737304688e-02
-8.517318964004516602e-02
7.838165014982223511e-02
-3.183227777481079102e-02
-3.345791995525360107e-02
3.721743077039718628e-02
1.407752279192209244e-02
-4.245900548994541168e-03
-4.067281261086463928e-02
6.868008524179458618e-02
-3.339805081486701965e-02
-1.550595760345458984e-01
7.755228877067565918e-02
-8.321692049503326416e-02
2.698261104524135590e-02
1.993409730494022369e-02
5.791573598980903625e-02
-2.012189291417598724e-02
5.743016675114631653e-02
-5.597845464944839478e-02
7.261244952678680420e-02
2.712303027510643005e-02
1.111529618501663208e-01
2.181972190737724304e-02
-2.002910152077674866e-02
-3.038169816136360168e-02
5.497331172227859497e-02
-1.013792213052511215e-02
-5.654451251029968262e-02
3.545969724655151367e-02
-2.834775112569332123e-02
-1.228061914443969727e-01
-5.818594992160797119e-02
5.522082746028900146e-02
-1.270171720534563065e-03
-1.481576170772314072e-02
6.233007833361625671e-02
1.927517913281917572e-02
-3.216702491044998169e-02
1.618496701121330261e-02
-1.638101413846015930e-02
8.183724433183670044e-02
4.417363926768302917e-02
-2.189216762781143188e-02
1.258900016546249390e-01
-1.031780987977981567e-01
-1.054232344031333923e-01
-4.243765026330947876e-02
-3.153706192970275879e-01
-1.324972510337829590e-01
2.488580066710710526e-03
-4.552523605525493622e-04
-1.924589090049266815e-02
-1.779336035251617432e-01
1.119025200605392456e-01
3.494916856288909912e-02
-1.125869080424308777e-01
-1.337035000324249268e-02
5.901546776294708252e-02
3.553888527676463127e-03
-7.770863920450210571e-02
-5.696293432265520096e-03
3.582857176661491394e-02
-6.983122974634170532e-02
-2.979815937578678131e-02
1.434114128351211548e-01
-2.288070507347583771e-02
7.948124408721923828e-02
-2.074173092842102051e-02
-1.976826600730419159e-02
1.061356961727142334e-01
-1.327464580535888672e-01
-2.327626338228583336e-03
-8.371037244796752930e-02
-4.699800536036491394e-02
2.513070963323116302e-02
4.731595143675804138e-02
-1.735739558935165405e-01
-1.882757246494293213e-01
7.866211235523223877e-02
-4.347077570855617523e-03
-8.700705319643020630e-02
1.177648678421974182e-01
4.626350849866867065e-02
1.239952594041824341e-01
-2.485270239412784576e-02
-4.814219847321510315e-02
-1.236499175429344177e-01
8.037602156400680542e-02
9.157744050025939941e-02
-2.353060059249401093e-02
-1.270151045173406601e-02
-5.249750614166259766e-02
3.199873492121696472e-02
1.445630192756652832e-02
-9.174795448780059814e-02
-4.803534597158432007e-02
4.461618512868881226e-02
1.679240763187408447e-01
-4.007924720644950867e-02
-2.310529723763465881e-02
9.493645280599594116e-02
5.231180414557456970e-02
8.323130756616592407e-02
2.479990720748901367e-01
2.400472946465015411e-02
-4.211471974849700928e-02
-6.178036704659461975e-02
3.427633643150329590e-02
6.541279703378677368e-02
-5.971649289131164551e-02
-1.591592580080032349e-01
9.201483801007270813e-03
-2.035450786352157593e-01
9.066965430974960327e-02
-1.807321608066558838e-01
2.219463884830474854e-02
5.165249481797218323e-02
1.272893697023391724e-01
1.712534949183464050e-02
9.100906550884246826e-02
1.211022585630416870e-01
1.309965103864669800e-01
-5.780860781669616699e-02
3.484341502189636230e-02
-9.285471588373184204e-02
-2.272876299684867263e-04
7.328830659389495850e-02
-9.483904391527175903e-02
3.456071391701698303e-02
-4.163062945008277893e-02
-4.395538941025733948e-02
-1.829960942268371582e-02
-4.062315076589584351e-02
1.450257301330566406e-01
-1.011520624160766602e-01
-2.425946108996868134e-02
-1.660700328648090363e-02
-1.353246271610260010e-01
3.694716095924377441e-02
9.306297451257705688e-02
9.169922769069671631e-02
-1.016315352171659470e-02
-1.474072337150573730e-01
1.170688346028327942e-01
1.374048292636871338e-01
-1.308459192514419556e-01
4.578680172562599182e-02
2.496350929141044617e-02
-6.078352406620979309e-02
1.823982298374176025e-01
4.742232337594032288e-02
4.951123148202896118e-03
1.348220705986022949e-01
-5.655715614557266235e-02
-7.744091004133224487e-02
1.833350956439971924e-01
-6.863515079021453857e-02
1.101497858762741089e-01
-3.329115454107522964e-03
1.136472970247268677e-01
-1.452331244945526123e-01
7.106818258762359619e-02
-1.783834770321846008e-02
-9.028336405754089355e-02
-5.388705432415008545e-02
-4.999983124434947968e-03
-7.519004493951797485e-02
-3.526233881711959839e-02
-4.089877940714359283e-03
9.775283932685852051e-02
1.379999052733182907e-02
-1.288570463657379150e-01
7.413049042224884033e-02
9.714534878730773926e-02
9.867080487310886383e-03
3.277669474482536316e-02
1.348132640123367310e-02
-7.294942438602447510e-02
-1.066391840577125549e-01
8.154056221246719360e-02
5.637840926647186279e-02
-2.230353653430938721e-01
1.026416793465614319e-01
1.898052096366882324e-01
1.393736712634563446e-02
-5.252150818705558777e-02
-4.780342802405357361e-02
9.337530285120010376e-02
5.493340268731117249e-02
9.321568906307220459e-02
-9.149716049432754517e-02
-4.813077300786972046e-02
-2.112273685634136200e-02
3.828722983598709106e-02
-3.913364559412002563e-02
5.901214852929115295e-02
-1.083549926988780499e-03
6.333125289529561996e-03
9.205860644578933716e-02
4.927214980125427246e-02
-4.283935204148292542e-02
3.930689767003059387e-02
-4.641002975404262543e-03
-1.293588280677795410e-01
6.225785240530967712e-02
5.545326694846153259e-02
-7.829969376325607300e-02
-4.540381580591201782e-02
4.476215317845344543e-02
1.985147781670093536e-02
-2.152748592197895050e-02
-4.352029785513877869e-02
2.359542809426784515e-02
3.154865279793739319e-02
-1.673740707337856293e-02
5.085552111268043518e-04
1.794175244867801666e-02
9.283369407057762146e-03
-7.225618511438369751e-02
2.675808221101760864e-02
3.603626787662506104e-02
5.434328690171241760e-03
-4.729602858424186707e-02
-1.950052753090858459e-02
-5.885929986834526062e-02
-6.270881742238998413e-02
3.040752373635768890e-02
-1.252111513167619705e-03
-7.333587110042572021e-02
4.173975810408592224e-02
7.528867572546005249e-02
-3.008818812668323517e-02
9.730631113052368164e-02
-8.777209371328353882e-02
-2.497009560465812683e-02
-1.492788046598434448e-01
-1.170046105980873108e-01
1.434739213436841965e-02
2.659116685390472412e-02
6.163926050066947937e-02
5.895151197910308838e-02
2.841928973793983459e-02
1.852583518484607339e-04
2.529981732368469238e-02
-7.974696159362792969e-02
1.878244429826736450e-01
1.276512164622545242e-02
-3.764621913433074951e-02
-1.051431987434625626e-02
1.220517382025718689e-01
1.252520978450775146e-01
4.052602499723434448e-02
-9.468751400709152222e-02
-1.564201563596725464e-01
-9.511405229568481445e-02
-1.153551489114761353e-01
2.063138969242572784e-02
1.657716631889343262e-01
1.803651452064514160e-01
-2.281846106052398682e-02
9.260881692171096802e-02
5.751736462116241455e-03
-1.433127745985984802e-02
1.090556830167770386e-01
-1.070750039070844650e-02
-1.755026727914810181e-02
-1.430293023586273193e-01
-1.942448318004608154e-02
-6.845936924219131470e-02
-4.118265584111213684e-02
-1.811851747334003448e-02
-1.196095794439315796e-01
1.435910016298294067e-01
5.962306261062622070e-02
-1.346930414438247681e-01
-5.901047587394714355e-02
-6.555031985044479370e-02
4.160692170262336731e-02
1.415116935968399048e-01
-6.455820053815841675e-02
-5.147032067179679871e-02
1.212012022733688354e-01
2.051469385623931885e-01
1.898167841136455536e-02
-6.249064579606056213e-02
-5.576536431908607483e-02
3.257492557168006897e-02
9.087104350328445435e-02
9.972753375768661499e-02
-3.628550842404365540e-02
-8.363846689462661743e-02
4.244862496852874756e-02
5.885446444153785706e-02
-8.813452720642089844e-02
-1.342881917953491211e-01
1.513524353504180908e-01
-1.230607777833938599e-01
7.284784317016601562e-02
-1.617779433727264404e-01
3.677590191364288330e-02
5.636042356491088867e-02
1.593865826725959778e-02
-9.220863133668899536e-02
8.911222964525222778e-02
-2.932448987849056721e-04
-3.647425398230552673e-02
2.138683944940567017e-02
5.480915307998657227e-02
1.340084988623857498e-02
9.417410939931869507e-03
-4.848252609372138977e-02
-1.145141273736953735e-01
5.801204591989517212e-02
3.261614963412284851e-02
-8.533683605492115021e-03
-1.138073801994323730e-01
-4.371147230267524719e-02
3.811267390847206116e-02
2.980931289494037628e-02
-3.106544017791748047e-01
-5.174414440989494324e-02
1.306804269552230835e-01
1.253189742565155029e-01
-5.504335090517997742e-02
1.162204612046480179e-02
6.446454674005508423e-02
1.365775708109140396e-02
3.560701152309775352e-04
-3.000985085964202881e-02
8.286053687334060669e-02
-1.911229826509952545e-02
-7.430154085159301758e-02
4.095280170440673828e-02
-3.092865459620952606e-02
2.506248839199542999e-02
2.002948224544525146e-01
-6.406928598880767822e-02
-1.111830100417137146e-01
1.689478605985641479e-01
1.603400707244873047e-02
1.745610535144805908e-01
-2.075571753084659576e-02
2.561217248439788818e-01
2.965458631515502930e-01
1.637069582939147949e-01
4.357131943106651306e-02
-5.262832157313823700e-03
8.594693243503570557e-02
-2.445506677031517029e-02
6.680055707693099976e-02
-1.077255830168724060e-01
-1.425625085830688477e-01
-8.331286162137985229e-02
-2.865878865122795105e-02
-7.240825332701206207e-03
5.900047719478607178e-03
-1.606018245220184326e-01
3.981459513306617737e-02
1.728167086839675903e-01
2.317600846290588379e-01
-1.567394733428955078e-01
-1.204518824815750122e-01
1.639828532934188843e-01
7.009287178516387939e-02
-6.080465763807296753e-02
5.354702845215797424e-02
9.651406668126583099e-03
6.635670363903045654e-02
-1.174855530261993408e-01
-5.937870591878890991e-02
-9.281375259160995483e-02
7.881093770265579224e-02
-4.745493456721305847e-02
-8.070315234363079071e-03
-3.836569190025329590e-02
-4.547562822699546814e-02
-1.686046458780765533e-02
-6.655519455671310425e-02
-2.503895200788974762e-03
1.421479787677526474e-02
-1.701206862926483154e-01
4.869036749005317688e-02
1.473639458417892456e-01
-1.206392347812652588e-01
2.609478309750556946e-02
7.920446246862411499e-02
-5.629959702491760254e-02
2.349676191806793213e-02
-3.119862079620361328e-02
4.517057444900274277e-03
-1.265899837017059326e-01
-6.819215416908264160e-02
2.157002091407775879e-01
-8.977773785591125488e-02
1.811466366052627563e-02
-2.949431724846363068e-02
1.156226173043251038e-02
7.253988087177276611e-02
-3.188968822360038757e-02
6.285634636878967285e-02
2.253934293985366821e-01
1.887680031359195709e-02
-6.084507703781127930e-02
1.154059451073408127e-02
-9.064161777496337891e-02
-6.962434947490692139e-02
-1.444115191698074341e-01
2.093082992359995842e-03
2.133451169356703758e-03
9.325625747442245483e-02
3.268366307020187378e-02
7.089477777481079102e-02
-2.093385756015777588e-01
-1.918629556894302368e-01
1.096845641732215881e-01
-1.081736087799072266e-01
-2.328307926654815674e-02
7.872794568538665771e-02
-2.549951197579503059e-03
5.170993879437446594e-02
1.468843221664428711e-01
6.717962771654129028e-02
2.195398062467575073e-01
4.112768545746803284e-02
2.954052574932575226e-02
5.581415444612503052e-02
8.095794171094894409e-02
-5.283824726939201355e-02
8.593215607106685638e-04
1.139890328049659729e-01
3.003120422363281250e-02
2.723127976059913635e-02
-3.380201384425163269e-02
5.065830796957015991e-02
-1.060778349637985229e-01
-9.766318835318088531e-03
-1.043438725173473358e-02
-1.853918284177780151e-02
4.108361527323722839e-02
-1.281993538141250610e-01
-7.931715995073318481e-02
-1.053741946816444397e-01
6.569961458444595337e-02
6.693710386753082275e-02
3.696251660585403442e-02
-4.926448687911033630e-02
7.940252870321273804e-02
-1.399406939744949341e-01
-3.252020478248596191e-02
-9.440192580223083496e-02
-1.318039745092391968e-01
4.928543791174888611e-02
1.380930468440055847e-02
5.406374111771583557e-02
-2.045561559498310089e-02
-1.347080525010824203e-02
-5.864024907350540161e-02
1.398974657058715820e-01
-1.190285831689834595e-01
-3.386121615767478943e-02
-2.357193641364574432e-02
5.900386348366737366e-02
6.425541359931230545e-03
4.544310271739959717e-03
-6.917780637741088867e-02
-4.501470550894737244e-02
-8.933215588331222534e-02
-7.221038639545440674e-02
1.515006273984909058e-01
9.197246283292770386e-02
7.206312566995620728e-02
-7.725719362497329712e-02
5.583014339208602905e-02
8.235948532819747925e-02
9.358570724725723267e-02
6.721806526184082031e-02
1.727687716484069824e-01
1.490580439567565918e-01
9.521253407001495361e-02
-6.081113964319229126e-02
1.364144384860992432e-01
-1.077996287494897842e-02
-5.331049207597970963e-03
1.284631192684173584e-01
6.392775475978851318e-02
2.798920683562755585e-02
-5.445083975791931152e-02
8.824343234300613403e-02
3.952927142381668091e-02
-8.998130261898040771e-02
1.771421283483505249e-01
-2.260273881256580353e-02
-2.101909182965755463e-02
-4.489359632134437561e-02
-7.560677826404571533e-02
4.235399514436721802e-02
5.351915955543518066e-02
3.633593022823333740e-02
4.855058796238154173e-04
7.635529339313507080e-02
1.588452458381652832e-01
-2.161279879510402679e-02
-2.024855911731719971e-01
-5.033055692911148071e-02
6.349311023950576782e-02
-4.713569954037666321e-02
2.635707333683967590e-02
1.000193953514099121e-01
-5.223093926906585693e-02
-1.549163311719894409e-01
-9.459193795919418335e-03
-9.819570928812026978e-02
-1.282837837934494019e-01
3.722515702247619629e-02
8.454232476651668549e-03
4.245603457093238831e-02
-1.077999770641326904e-01
1.819134950637817383e-01
4.896605759859085083e-02
-9.685937315225601196e-02
9.336473420262336731e-03
1.386783421039581299e-01
5.270596221089363098e-02
-9.298741072416305542e-02
8.811402320861816406e-02
-1.061407104134559631e-01
1.644138805568218231e-02
-6.979528069496154785e-02
2.964023267850279808e-03
-1.085385680198669434e-02
-8.979106694459915161e-02
-2.747294120490550995e-02
-1.218760535120964050e-01
9.589371271431446075e-03
1.419487968087196350e-02
-2.111256495118141174e-02
-4.101421684026718140e-03
1.596564352512359619e-01
-1.401660889387130737e-01
-1.051862761378288269e-01
-1.613089591264724731e-01
2.441018261015415192e-02
1.258525298908352852e-04
-2.806954784318804741e-03
-1.497481167316436768e-01
-7.151158154010772705e-02
2.289575058966875076e-03
5.021326243877410889e-02
1.252858191728591919e-01
7.696714997291564941e-02
-9.554606676101684570e-02
3.413792327046394348e-02
5.058414116501808167e-02
6.493813544511795044e-02
1.215367764234542847e-01
1.928091607987880707e-02
1.923819482326507568e-01
1.619625091552734375e-01
-1.038078963756561279e-01
-9.789235889911651611e-02
3.846039623022079468e-02
2.010884135961532593e-01
-2.034954428672790527e-01
-6.553956773132085800e-03
1.163762360811233521e-01
-1.980043202638626099e-02
-1.235902030020952225e-02
-1.153454855084419250e-01
-4.259298741817474365e-02
-4.935350641608238220e-02
-3.679736703634262085e-02
1.057757735252380371e-01
-1.920885778963565826e-02
2.192425280809402466e-01
4.113195836544036865e-02
-3.215441480278968811e-02
6.642429530620574951e-02
-2.594998478889465332e-01
-4.686960950493812561e-02
5.853840336203575134e-02
5.637745186686515808e-02
-1.271194517612457275e-01
-5.719389766454696655e-02
4.439854994416236877e-03
-1.789953559637069702e-02
-6.256971508264541626e-02
4.531307891011238098e-02
-6.133368611335754395e-02
1.048901230096817017e-01
-9.234508872032165527e-02
-1.866756826639175415e-01
-1.572538353502750397e-02
1.614534705877304077e-01
-3.137076273560523987e-02
-5.876126233488321304e-03
1.037999987602233887e-01
2.397798895835876465e-01
-2.104760520160198212e-02
-5.021224264055490494e-03
4.666228219866752625e-02
9.463803144171833992e-04
-1.401460915803909302e-01
-1.052140817046165466e-01
-1.035696640610694885e-01
1.739081144332885742e-01
1.292735487222671509e-01
4.339415952563285828e-02
5.298558250069618225e-02
-1.808376982808113098e-02
5.520940944552421570e-02
-7.053760439157485962e-02
1.758433878421783447e-01
3.893190249800682068e-02
-1.300146281719207764e-01
-1.137513369321823120e-01
-3.012351691722869873e-03
1.086720973253250122e-01
1.490851044654846191e-01
-3.527596965432167053e-02
-1.857742369174957275e-01
-3.567299246788024902e-02
-4.012859985232353210e-02
3.648517280817031860e-02
1.717628538608551025e-02
5.266876518726348877e-02
7.149576395750045776e-02
-2.357569755986332893e-03
-1.035785004496574402e-01
1.008888259530067444e-01
-5.403911694884300232e-03
-1.277501285076141357e-01
-1.124929077923297882e-02
-1.762901432812213898e-02
-3.735341504216194153e-02
1.534980442374944687e-02
9.978834539651870728e-02
7.509534806013107300e-02
1.076176092028617859e-01
1.229986771941184998e-01
-6.780745089054107666e-02
-1.494747400283813477e-01
-5.980021879076957703e-02
1.467769593000411987e-01
3.746048361063003540e-02
5.124263465404510498e-02
1.737950295209884644e-01
-6.302309036254882812e-02
-6.445033848285675049e-02
-1.146597135812044144e-02
-1.541221737861633301e-01
7.660445570945739746e-02
9.039166569709777832e-02
-7.190980948507785797e-03
-7.578409463167190552e-02
-3.859613835811614990e-02
-4.682142660021781921e-02
-6.225578486919403076e-02
3.751784935593605042e-02
-1.322337388992309570e-01
2.735520526766777039e-02
1.012371405959129333e-01
-5.740157514810562134e-02
7.367800921201705933e-02
-2.085635252296924591e-02
-1.048499122262001038e-01
7.516957074403762817e-02
-4.495732113718986511e-02
6.628134846687316895e-02
2.336663194000720978e-02
8.473429828882217407e-02
-4.884315282106399536e-02
1.157504096627235413e-01
-3.122325614094734192e-02
-6.599382311105728149e-02
-4.151979833841323853e-02
2.416644245386123657e-02
-4.966169968247413635e-02
-9.495970606803894043e-02
-9.073738008737564087e-02
1.610841751098632812e-01
4.391766712069511414e-02
1.244412884116172791e-01
-2.609264478087425232e-02
9.020866453647613525e-02
3.510916233062744141e-02
-1.209196224808692932e-01
8.816674351692199707e-02
-9.294726699590682983e-02
-2.864878624677658081e-02
5.961897969245910645e-02
1.241035312414169312e-01
-3.372787730768322945e-03
-7.027719914913177490e-02
-9.121682494878768921e-02
3.578284382820129395e-02
1.718326006084680557e-03
-5.170364747755229473e-04
2.688061073422431946e-02
8.730246126651763916e-02
7.862800359725952148e-02
1.462887525558471680e-01
-4.527288302779197693e-02
5.958020314574241638e-02
-8.089464902877807617e-02
1.583484001457691193e-02
-4.693282768130302429e-03
-1.203116029500961304e-01
1.143669360317289829e-03
1.035220399498939514e-01
3.397821215912699699e-03
6.485633552074432373e-02
-8.811491727828979492e-02
1.035700365900993347e-02
-8.423370122909545898e-02
-4.843967035412788391e-02
-4.769329354166984558e-02
-2.648881636559963226e-02
6.129174306988716125e-02
3.351359814405441284e-02
4.237728659063577652e-03
-6.466632336378097534e-02
-4.630502313375473022e-03
2.588057331740856171e-02
6.426434218883514404e-02
5.012779496610164642e-03
2.205765247344970703e-01
-8.981551975011825562e-02
2.777035161852836609e-02
5.859114602208137512e-02
-9.592375904321670532e-02
3.815162926912307739e-02
-6.865051575005054474e-03
-1.619462370872497559e-01
-5.194880813360214233e-02
-5.625728890299797058e-02
-8.623038232326507568e-02
-6.701012700796127319e-02
-6.915749609470367432e-02
-1.683542504906654358e-02
1.285281628370285034e-01
7.332657277584075928e-02
-1.604691892862319946e-02
8.937730640172958374e-02
4.688397794961929321e-02
1.016500443220138550e-01
-8.728867769241333008e-02
-3.619343787431716919e-02
-1.388374716043472290e-01
-1.175516769289970398e-01
-1.339347809553146362e-01
4.860984161496162415e-02
9.890203177928924561e-02
1.551604177802801132e-02
-4.558125138282775879e-02
6.890283548273146152e-04
-5.180552601814270020e-02
-6.970037519931793213e-02
1.488215625286102295e-01
9.276871383190155029e-02
4.503448307514190674e-02
6.925927009433507919e-03
4.768401384353637695e-02
8.867332711815834045e-03
-7.941945455968379974e-03
1.701046712696552277e-02
-1.776261031627655029e-01
-6.485974043607711792e-02
2.524516358971595764e-02
-1.953773349523544312e-01
-6.782045215368270874e-02
4.010389000177383423e-02
5.897830054163932800e-02
-5.563088506460189819e-02
9.613749384880065918e-02
2.825377508997917175e-02
1.122393682599067688e-01
-3.761890903115272522e-02
1.419733762741088867e-01
-2.935788594186306000e-02
-8.173841983079910278e-02
-5.913502722978591919e-02
-1.241762489080429077e-01
4.167008027434349060e-02
5.446644127368927002e-02
7.980331033468246460e-02
-2.290245331823825836e-02
-3.295471891760826111e-02
1.241833120584487915e-01
1.402576416730880737e-01
-5.837677046656608582e-02
8.158346265554428101e-02
1.338477283716201782e-01
3.165959566831588745e-02
-4.273511469364166260e-02
-4.097342118620872498e-02
5.712828785181045532e-02
2.062692679464817047e-02
-7.632956653833389282e-02
-1.680324785411357880e-02
-4.784471914172172546e-02
1.025625318288803101e-01
7.921430468559265137e-02
1.509712189435958862e-01
-7.922224700450897217e-02
-1.447940617799758911e-01
3.134283423423767090e-02
9.409185498952865601e-02
7.556713372468948364e-02
6.240594759583473206e-02
-4.593563079833984375e-02
3.338240087032318115e-02
