-0.014648
0.019165
-0.041931
-0.043518
0.074463
-0.1369
0.17218
0.055847
-0.026123
0.077271
-0.0055542
-0.023254
-0.12695
-0.21417
0.0055542
-0.044189
0.084534
-0.044067
-0.0072021
0.017395
0.027161
0.1806
-0.10406
-0.11877
-0.056763
0.054016
0.015015
0.078064
-0.11877
-0.019104
-0.052002
-0.088562
-0.019348
-0.093323
-0.13184
0.15027
-0.18475
0.20471
-0.031738
-0.021851
0.0067139
-0.035278
-0.11652
0.0059204
0.078674
0.084412
0.15997
-0.055298
0.042419
0.088318
-0.014099
-0.085388
-0.051636
0.12836
0.069458
-0.12006
-0.085144
-0.07605
0.073486
0.15179
0.21436
0.15656
-0.023621
-0.012146
0.049194
0.074158
-0.044189
-0.016907
0.029297
-0.0013428
0.029236
0.0092163
-0.0047607
-0.026794
-0.01001
0.10791
0.13873
-0.048401
-0.086975
-0.05835
0.023254
-0.06897
-0.039063
-0.066956
-0.15063
-0.12579
-0.029358
0.013428
-0.14569
-0.06604
0.023682
-0.056641
-0.1662
-0.046814
-0.011414
0.035828
-0.076538
0.075134
0.058655
-0.10748
-0.085632
0.075439
0.089905
0.11377
-0.12396
-0.12598
0.041138
0.012451
0.043762
-0.010803
-0.146
0.1825
-0.036682
0.044006
0.12244
-0.049133
0.0089111
-0.0095215
0.069458
-0.0020752
0.1167
-0.084717
-0.036987
-0.10205
0.031311
0.012817
0.030823
0.037842
-0.051941
0.036133
-0.14001
0.043701
-0.073303
0.0037231
0.091248
-0.052368
-0.11206
0.0057373
0.078796
-0.11462
0.069153
0.02533
-0.012024
-0.029419
0.14606
0.091919
0.061462
0.092529
0.08429
0.15796
-0.091553
0.044678
0.020264
0.13037
-0.068115
0.04364
0.034668
-0.020203
0.043457
-0.052612
0.033997
-0.10406
0.040344
0.10645
0.026123
-0.096191
-0.064941
-0.076477
0.14771
0.051025
0.12982
0.13867
0.18701
-0.0061646
-0.015137
0.14996
0.066833
-0.060669
-0.09198
-0.024963
0.092712
0.043335
0.053345
0.15466
0.044189
-0.0016479
0.091797
-0.023621
0.14801
0.013062
-0.0065308
-0.0064087
0.0061035
-0.036133
-0.18933
0.039856
0.0046387
0.024658
0.092102
0.029114
0.035034
-0.10931
0.035522
0.056396
-0.016907
-0.060852
-0.079834
-0.065063
0.075745
-0.09729
-0.060364
-0.046082
0.07959
0.053833
0.10486
0.034668
0.13812
0.030457
0.020996
0.028442
-0.0028076
-0.047852
0.034729
0.048889
-0.091187
-0.034546
0.065369
0.033813
0.021179
-0.038025
-0.039246
-0.080078
-0.16064
0.036255
-0.067383
-0.015503
0.038452
0.037537
-0.04718
0.1142
-0.028015
0.15826
-0.17926
0.12732
0.027344
0.0021973
-0.041138
0.14893
0.09491
-0.1012
-0.13354
0.19531
-0.04364
-0.059509
-0.027344
-0.034485
-0.10406
-0.1145
-0.14374
-0.057983
0.02179
-0.050171
-0.20306
-0.075806
0.022217
0.12384
0.12781
0.081299
-0.089722
0.075317
-0.14362
0.033936
0.033508
-0.013123
0.048218
0.14948
0.023865
-0.059387
-0.060425
0.11469
-0.13983
-0.12958
0.080688
-0.023865
-0.10974
0.084595
-0.042542
-0.062073
-0.0060425
0.049072
-0.07251
0.10583
0.021301
0.10315
0.21881
-0.22351
-0.069824
-0.045532
-0.10248
-0.19226
-0.08252
0.00079346
-0.0014038
-0.071228
0.022949
-0.14337
0.24506
-0.082581
-0.17432
-0.10876
0.086121
0.017761
0.025208
0.099304
0.15192
0.084656
-0.092896
-0.044495
0.094421
-0.037964
0.0037842
0.21851
0.1759
-0.064819
-0.060791
0.045105
0.066284
-0.14099
-0.047668
-0.11652
0.006958
0.13007
-0.0072021
0.20416
0.13721
-0.10046
0.072449
0.012634
0.062866
0.10309
-0.11389
0.012756
-0.092834
0.092041
-0.032593
0.1687
0.024231
0.044922
-0.085938
0.069092
-0.022522
-0.1441
-0.15161
0.096313
0.0012817
0.091309
-0.064819
-0.047974
0.054199
-0.031921
-0.19946
-0.0020752
0.0025635
-0.014404
-0.13269
-0.15106
-0.030029
-0.13519
-0.040283
-0.038818
0.042969
-0.066406
-0.18805
0.024353
-0.028503
-0.032166
0.11853
-0.020203
0.036499
0.10022
0.021851
0.12946
0.039063
0.11823
-0.16449
-0.069458
-0.058472
0.10162
-0.035217
-0.10834
-0.11011
0.022827
0.022705
-0.16809
0.038452
0.072266
-0.0046997
0.0081177
0.040344
0.14117
0.11292
0.24146
-0.023254
0.046692
0.03125
0.031128
-0.0036011
-0.027466
-0.052734
0.094238
-0.020142
0.040222
0.0087891
0.067749
0.019592
0.033875
-0.1496
0.0014648
-0.069641
0.046326
-0.077454
-0.024292
0.0040894
-0.026733
-0.085266
0.064819
-0.14752
-0.17004
0.07605
-0.20667
-0.021057
-0.066223
0.073792
0.10352
0.012268
0.084717
0.13025
-0.019165
-0.14868
-0.046509
-0.020569
-0.010132
0.13409
-0.1189
0.12
0.0097046
-0.006958
0.00354
-0.020447
0.15729
-0.059326
-0.14697
0.058838
0.027588
0.072693
0.048889
0.056763
0.012695
0.015991
-0.14551
-0.046814
0.054504
0.069153
0.034302
0.0062256
-0.076355
-0.055237
0.032837
0.25702
-0.1795
0.095032
0.010925
0.10419
0.0072021
0.046021
0.16339
0.072754
-0.031494
-0.040344
0.14758
0.035278
-0.019348
0.052856
0.02301
-0.065979
0.0090332
0.087952
-0.091919
0.091614
-0.036987
0.05658
0.085205
-0.0014038
-0.011353
0.098389
-0.008606
0.0077515
-0.085571
-0.14502
0.059692
-0.014099
0.046082
0.055359
0.13171
-0.069092
0.104
0.13263
0.074585
-0.034058
-0.019287
0.095215
0.088745
-0.060974
0.0043335
0.0020752
0.0032349
-0.010193
0.034729
-0.048767
0.074524
0.11829
-0.0039673
0.015747
-0.039917
-0.019165
0.0078735
-0.0040283
-0.0055542
-0.024231
-0.01593
-0.00085449
0.032898
0.038208
-0.0031128
0.0041504
0.016968
0.032715
-0.0079346
0.023621
0.0064697
0.17126
0.065979
-0.0031738
-0.00042725
-0.036377
0.0012207
0.011841
0.045288
0.011353
0.0022583
-0.034546
0.010925
0.0014038
0.028564
0.012146
0.0044556
-0.016235
-0.0080566
0.0029297
0.022705
0.22601
-0.012268
0.053894
-0.013062
-0.042236
-0.02063
0.03302
0.028687
-0.0082397
0.021851
0.044495
0.03418
-0.031494
0.0073242
-0.036377
0.00012207
-0.026489
0.063416
-0.0036011
-0.064148
-0.1452
-0.025146
0.15332
-0.078491
-0.0030518
0.093079
-0.070129
-0.026672
-0.0071411
-0.045349
0.11829
0.08075
-0.014648
-0.13239
0.031067
-0.18103
0.12445
-0.014832
-0.023743
0.19586
0.0755
0.048645
-0.037842
-0.0048828
-0.028381
0.044312
0.0061035
0.055176
0.11182
0.070129
-0.078674
-0.12183
-0.019897
0.069702
0.06543
-0.045715
0.01947
-0.064514
0.020996
-0.11395
-0.072266
0.076416
0.013
-0.07782
-0.1123
0.13843
-0.13983
-0.033142
0.079529
-0.016907
0.054199
0.027039
-0.03894
0.050842
-0.084106
0.014221
0.15179
-0.0020142
0.11548
0.0093384
-0.022949
0.27472
-0.01239
-0.083252
-0.031677
0.15234
-0.093506
0.053406
0.064758
0.16791
-0.10944
0.027588
-0.11487
-0.035828
0.012268
0.04425
-0.17426
-0.12817
-0.036194
0.22308
0.079468
-0.040894
0.1311
-0.12134
-0.0053711
-0.067688
-0.039307
-0.072632
-0.02655
0.13306
0.019836
0.11127
0.079712
0.16235
0.059448
0.15491
-0.13385
0.071838
-0.066162
-0.19482
0.15112
-0.0084839
0.14764
-0.10217
0.11755
-0.13721
-0.076233
-0.072266
-0.16785
-0.00097656
-0.087952
-0.14185
0.044617
0.20264
-0.074951
-0.14081
-0.19507
0.22382
-0.022766
0.042725
-0.056335
-0.017883
0.032654
0.031677
-0.22314
-0.15894
-0.056458
-0.003418
-0.05249
0.22583
-0.049377
0.096985
0.030762
0.091492
-0.082214
-0.032043
-0.07196
-0.069092
0.12903
-0.02002
-0.065186
0.029663
0.20282
-0.19885
0.028503
-0.049927
-0.090637
0.066956
0.031067
0.0050659
0.039734
-0.10651
-0.11871
0.073669
-0.053894
0.0037842
-0.061157
-0.15674
0.084839
0.10333
-0.060181
0.10834
-0.21967
0.018921
0.041504
-0.035461
-0.063599
0.24603
0.12189
0.048157
0.072876
0.048157
0.051025
0.015381
0.15942
0.01886
0.018127
-0.12048
0.0023804
-0.12848
0.0023804
0.11829
-0.089661
-0.096741
-0.17114
-0.067139
-0.11963
-0.021545
-0.18414
0.10156
-0.0625
-0.079834
0.060913
0.0036621
-0.02301
0.13251
-0.040283
-0.0045776
0.013123
0.21136
-0.0028687
-0.15369
0.18488
-0.12189
0.036194
0.093628
-0.091248
-0.074829
-0.012695
-0.052124
-0.00030518
0.076294
-0.0066528
0.09552
-0.090637
0.080811
0.0032959
-0.14648
-0.012268
-0.10297
0.0041504
0.10712
0.16168
-0.1546
0.0043335
0.074158
-0.020874
-0.1662
-0.06958
0.070618
-0.1095
-0.0018311
0.038574
-0.071594
0.12793
-0.11865
0.013367
0.072388
-0.14594
-0.059875
0.062927
-0.099548
-0.049255
0.092285
0.032349
0.04248
0.049072
-0.094604
-0.095825
-0.16589
-0.14868
-0.12848
-0.032532
0.11353
0.0015259
0.0077515
-0.24927
0.22992
0.032349
-0.0047607
-0.017578
0.24207
-0.069275
-0.081421
-0.085022
-0.00177
-0.20886
0.022766
-0.00018311
-0.22595
-0.026917
0.19733
0.068481
0.013062
-0.046448
-0.14661
-0.096863
0.092834
-0.095642
0.013428
0.14471
-0.013611
-0.13147
0.066101
0.1723
0.015076
-0.11511
-0.031311
-0.1568
0.21405
0.037537
-0.14923
0.27704
0.034302
0.10291
-0.15131
0.1839
-0.08844
0.011414
-0.13245
-0.09967
-0.045654
-0.22009
-0.11218
0.024658
0.21698
-0.057556
-0.09375
-0.14355
0.36621
0.036682
0.00061035
-0.0031738
0.10199
0.043823
0.025696
0.10254
0.17712
-0.057983
-0.00042725
-0.12805
0.071106
-0.055481
-0.1012
-0.047241
0.083618
-0.086304
-0.088501
-0.045288
0.072815
0.14856
0.028076
0.092102
-0.056274
0.018372
-0.058228
-0.034912
-0.02478
-0.12616
-0.049561
0.092896
0.048523
0.072632
0.017273
-0.061279
-0.014282
0.0038452
-0.09845
0.030945
0.053955
-0.20923
-0.050659
0.11322
-0.13495
0.027954
0.19269
0.041382
-0.024414
-0.008667
-0.010071
0.06311
0.17603
0.036926
-0.001709
0.025696
0.073853
0.059937
-0.19611
0.10291
-0.02002
-0.03717
0.090149
0.052673
-0.003479
-0.072876
0.10193
-0.13782
0.077698
0.11438
0.053589
0.094727
0.025635
-0.063904
-0.12695
-0.02356
-0.03363
0.048035
-0.099854
0.014343
0.03833
-0.037292
-0.044617
0.075012
0.037109
0.036499
0.022339
0.014648
-0.095764
0.14105
0.010803
0.026001
0.046814
-0.028503
0.050781
-0.16772
-0.012939
0.043091
-0.12671
-0.0032959
0.079529
0.066711
-0.14966
-0.020996
-0.079529
0.10876
0.084167
-0.13751
-0.098267
0.050171
-0.12903
0.073669
0.068176
-0.083191
0.02771
-0.088257
0.068115
-0.049805
0.044922
-0.036682
-0.15411
0.090698
0.087341
-0.038635
0.11023
0.053223
-0.080872
0.068054
0.049255
0.039917
0.086548
0.062988
0.052856
-0.043518
-0.024353
0.027283
-0.021118
0.029541
0.028198
0.11615
0.042725
0.23309
0.093689
0.0092773
-0.062866
0.053711
0.13593
-0.0043945
0.055786
0.060181
-0.055847
0.033691
0.043884
-0.086121
0.13739
-0.0062256
0.04071
-0.088562
-0.057312
-0.084045
-0.054871
-0.083191
0.12762
0.015137
-0.09613
-0.0672
0.095215
-0.045898
0.046631
0.046265
0.017761
0.093567
-0.0036011
-0.2323
-0.0048218
0.011047
0.016663
-0.11249
-0.0065308
-0.083801
0.10626
0.029358
0.10266
0.065491
0.10138
0.11591
-0.0979
-0.00042725
-0.11145
-0.050781
-0.15546
0.11877
-0.013611
-0.046082
-0.052185
0.19128
-0.14307
-0.073181
-0.22009
0.0097656
-0.053223
-0.044067
0.10797
0.20026
0.10901
-0.15424
-0.0092773
-0.0065918
0.036987
0.22211
0.12738
0.072876
0.063232
0.080322
0.19452
0.14716
-0.1969
-0.091309
-0.019348
0.052979
-0.0081787
0.098511
-0.042725
0.074768
-0.049988
-0.029297
-0.071716
-0.17346
0.012024
0.041443
-0.029907
-0.019958
0.11658
-0.016724
-0.12561
-0.0025635
-0.059448
0.10461
-0.031189
-0.051697
-0.017273
0.041565
0.13965
-0.16754
-0.031494
-0.045654
0.083679
0.087219
0.10614
0.13708
-0.078491
-0.023804
-0.081848
-0.11505
0.12122
0.075378
-0.12469
0.16479
0.068604
-0.056763
-0.090454
-0.14575
0.0076294
-0.17322
-0.035889
0.013062
0.046631
-0.059448
0.020813
-0.064819
0.075378
0.048889
-0.056274
-0.011902
0.022339
-0.054077
-0.11414
-0.034363
0.005188
0.10144
0.030518
-0.018127
-0.14691
-0.075317
-0.048523
0.13483
-0.11938
0.021973
0.0014648
0.13306
-0.032349
-0.10321
-0.011658
-0.059692
-0.072693
-0.045776
-0.040161
-0.01239
0.039368
-0.00177
0.00012207
0.0092773
-0.12
-0.10663
0.044983
0.036499
0.056763
0.054077
0.12341
0.028381
-0.028503
-0.00354
-0.19464
0.078003
0.068787
-0.051514
-0.061401
0.11053
-0.013855
0.039124
-0.046082
0.041687
-0.082703
0.056458
0.023193
0.055115
0.14478
0.11169
-0.050903
0.065247
-0.067261
-0.05481
0.0849
-0.076416
-0.0040283
0.23401
-0.032471
-0.0046387
0.047241
0.081299
0.057373
-0.063538
-0.11041
-0.089661
-0.098267
-0.041931
0.045654
0.032776
-0.031494
-0.057861
0.0011597
0.085205
-0.039307
-0.082764
0.13861
0.14282
0.10535
-0.10992
-0.0448
0.11774
0.037048
0.023499
0.023193
0.057129
-0.063477
0.098267
0.062561
0.090027
-0.0037842
0.037903
0.011963
0.11334
0.026428
-0.029358
-0.011414
-0.09021
0.0015259
0.11133
-0.06958
0.10248
0.023621
-0.053894
-0.035522
-0.030029
-0.036133
-0.02771
-0.039063
-0.12775
0.0070801
0.04657
0.10168
-0.05304
0.0039673
-0.031921
0.2146
0.1225
-0.045654
-0.18823
0.053467
0.0032959
-0.0061035
0.030579
-0.03363
0.061768
-0.047729
-0.1106
-0.001709
-0.022644
0.03302
0.013306
0.030029
0.28802
0.020142
-0.057312
0.092224
0.017273
-0.07782
-0.055603
-0.17566
0.025635
-0.094849
0.02417
0.050232
-0.0021362
-0.13263
0.088989
-0.049622
0.049377
0.035461
0.055908
-0.075134
-0.040405
-0.043701
0.017639
-0.068176
0.072937
-0.02948
-0.080017
-0.072083
-0.039551
-0.097229
0.11908
-0.055237
-0.11908
0.063721
-0.098877
-0.10693
0.14282
-0.090881
0.034668
0.022827
-0.028809
-0.10034
-0.049561
-0.019531
0.02533
-0.053223
-0.049683
0.046814
0.056274
0.14673
-0.059021
0.043884
0.005188
-0.00024414
-0.075378
-0.065735
0.11224
0.057617
0.14691
-0.042969
-0.0079956
0.093262
-0.020691
-0.070618
-0.008728
-0.27869
-0.049866
-0.1557
0.082642
-0.014465
0.029053
-0.084045
0.028259
0.080872
-0.036438
0.014221
0.07959
-0.11353
-0.12128
-0.07251
0.027222
-0.12604
0.061279
0.14227
-0.016968
0.10712
0.1347
0.013184
0.05719
-0.01825
-0.024475
0.064941
-0.018677
0.043823
0.057373
-0.16559
0.008606
-0.045593
0.07019
0.027527
-0.091003
0.15784
0.06781
0.15637
-0.067139
-0.022156
0.0063477
0.026978
-0.074097
-0.095703
0.05249
0.023682
0.082275
-0.038269
0.065552
-0.079529
-0.056213
0.0014648
-0.017395
0.11151
-0.15344
-0.044556
0.11218
-0.010437
0.10712
-0.10846
-0.1507
-0.03833
-0
0.041321
-0.072632
-0.060852
-0.11566
0.0092773
0.0043335
-0.023438
-0.021484
-0.055786
-0.027832
-0.097595
0.14856
0.059631
0.076172
-0.092773
-0.11395
-0.043457
0.034729
0.052185
0.04718
0.028381
0.0092773
0.05719
0.099548
-0.14917
0.13055
-0.065796
0.025818
-0.12299
-0.088745
-0.0021973
-0.029053
-0.02594
-0.073608
-0.049011
-0.075256
-0.02887
0.016479
-0.12
-0.10608
-0.054871
-0.15143
0.050659
-0.11871
0.037781
-0.088379
-0.081665
0.066101
-0.07074
-0.019714
0.082336
0.022461
0.035278
-0.011047
0.023926
0.14362
0.059387
-0.12085
0.056824
0.071106
0.077515
-0.012878
-0.022339
-0.0022583
0.16827
-0.1593
-0.031372
-0.14044
0.080688
-0.066467
0.082886
-0.051514
-0.12439
-0.04364
0.015747
-0.049377
-0.1167
-0.17126
0.078369
-0.030701
0.12714
0.1825
-0.099365
0.011536
-0.014648
-0.085144
0.050903
0.14594
0.019348
0.17731
-0.097717
0.12372
0.017395
0.035156
-0.16962
-0.01825
0.08783
0.056335
-0.0078125
0.0028687
-0.092102
0.067749
0.1087
0.031921
0.24115
-0.024902
0.0031128
-0.025146
0.082458
0.017761
-0.0049438
0.14587
-0.080994
0.014771
0.031494
-0.021667
-0.09491
0.10022
-0.10114
-0.12079
0.048889
0.058044
-0.041992
0.16241
-0.01593
-0.080933
-0.026428
-0.057373
-0.016724
-0.16223
0.12408
-0.031433
0.061096
-0.062561
0.066711
0.0096436
-0.030884
0.067322
-0.24994
0.10986
0.040222
-0.047424
0.0012207
-0.078979
0.031982
-0.077454
-0.079956
0.013123
0.05011
-0.008606
0.056091
-0.068787
-0.23346
-0.045776
0.056885
0.091125
-0.013123
0.079956
-0.0037231
-0.021423
-0.05603
0.023926
-0.1261
-0.026428
-0.15649
-0.14429
-0.16901
-0.04718
0.16095
0.0053711
-0.069824
-0.18054
-0.11237
-0.17511
-0.013062
0.13153
-0.017029
-0.003479
0.083618
-0.16962
-0.035339
0.033691
-0.03186
0.1651
-0.052734
0.072571
0.09137
-0.13818
0.008606
-0.12061
-0.061829
-0.023987
-0.10156
-0.05957
0.12958
-0.012146
-0.17719
-0.15094
-0.077698
0.020081
0.14233
-0.17438
0.040466
0.028931
-0.090759
-0.0067139
0.02356
0.12378
-0.037842
-0.12372
0.073242
-0.12408
0.0026245
0.099426
-0.10016
-0.066589
-0.12891
-0.056641
-0.19342
0.21442
-0.015503
0.00085449
0.030029
-0.069641
-0.14551
-0.074524
0.074463
-0.14972
0.026855
-0.059875
-0.12933
-0.16748
-0.085083
-0.042053
-0.062256
-0.074219
-0.092102
-0.097839
0.048035
0.13367
0.067261
-0.083435
-0.032288
-0.046387
0.24542
-0.014038
-0.11365
-0.0849
-0.097839
-0.079773
-0.066223
0.017395
-0.092957
-0.13855
0.083435
0.12421
-0.047485
-0.018494
-0.063721
0.17072
0.1463
0.038391
-0.15552
-0.0025635
0.23914
0.019531
-0.026855
-0.075317
-0.017395
0.16467
0.09552
-0.026001
0.047607
0.05011
-0.046448
-0.048523
0.0068359
0.26794
0.030701
0.1701
0.023071
0.057129
-0.10596
0.0090332
-0.0075684
-0.0045166
0.16992
-0.15582
0.075623
0.064026
0.036377
-0.12378
-0.10492
0.0083618
0.095459
0.083069
-0.025513
-0.10559
0.080383
0.074036
0.15045
-0.024658
0.069458
0.075378
0.035278
0.025757
-0.0050049
-0.07666
0.014587
-0.052185
-0.17596
0.051392
0.027222
0.14465
0.048706
0.055054
0.096619
0.12701
0.12183
0.046143
0.096985
0.018372
-0.1424
-0.018616
-0.093994
-0.0042725
0.11572
0.11792
-0.091553
-0.02124
-0.0028687
-0.0015259
0.104
0.12799
-0.086487
-0.073486
-0.0021362
-0.24866
0.052002
-0.0072632
0.18793
0.055603
0.12531
-0.011963
-0.0012817
-0.075439
-0.006897
0.044006
0.033752
-0.23676
-0.19562
0.018921
0.090637
-0.0028076
-0.010559
-0.10919
0.075562
-0.070801
-0.0058594
0.055664
0.06543
-0.0099487
-0.029968
0.032593
-0.074036
-0.0055542
0.049988
0.014099
-0.049866
0.00073242
0.044861
-0.16479
-0.02594
0.033447
0.080444
-0.033325
0.006897
-0.0073242
-0.080872
-0.032166
-0.054871
-0.063904
0.0065308
0.10461
0.0025635
-0.0062866
-0.056702
0.074158
-0.0032959
0.05542
-0.088928
-0.19061
0.11328
0.10419
0.00042725
-0.054443
-0.052002
0.019714
0.10651
0.040039
-0.022888
0.0010376
-0.055176
0.08551
0.045776
-0.049377
0.042908
-0.014893
-0.02948
0.048096
-0.0042725
-0.25348
0.062378
0.01416
0.024109
-0.064331
-0.014465
-0.012085
-0.0065918
0.021973
0.041138
0.017761
-0.055786
0.047729
0.016907
-0.025391
-0.016235
-0.17572
-0.003418
0.08606
-0.00091553
-0.00018311
0.071533
-0.1059
-0.023987
0.081299
0.015381
-0.035706
0.0083618
0.025574
-0.025879
-0.078552
0.087402
0.14612
0.1012
0.016968
-0.041016
0.0032349
0.092407
0.014587
0.01239
-0.11926
0.049133
-0.036316
0.067017
0.079773
0.022766
-0.0031738
0.088379
-0.19287
-0.10693
-0.027832
0.04834
0.051941
0.019958
-0.018188
0.01709
0.059143
0.037231
-0.067261
-0.01947
-0.04187
-0.11304
0.038818
-0.11554
-0.10724
0.14032
-0.038208
0.13696
0.08429
-0.072754
0.10822
0.01062
-0.029236
-0.08783
0.0062256
0.030762
0.0036621
-0.067749
-0.090088
-0.15002
0.0055542
-0.03894
0.19897
-0.093018
-0.081665
0.025818
0.010254
-0.098938
-0.017517
-0.067261
0.005249
-0.027649
-0.22803
-0.041992
-0.10864
-0.016602
0.041382
-0.12933
0.00024414
0.046204
0.026733
0.20227
-0.0047607
-0.029785
0.031494
0.055908
0.074585
0.069336
-0.28302
0.049377
0.034668
-0.0042725
-0.057922
0.062378
0.0029297
0.023926
-0.024414
0.082825
0.024109
-0.067688
-0.12262
-0.097534
0.026855
0.00018311
0.046326
0.12506
-0.038391
0.024414
-0.0077515
0.11981
-0.068848
-0.14752
-0.0070801
0.005127
0.03833
-0.054016
0.089111
0.037781
-0.19916
-0.057495
0.059448
-0.15216
-0.15619
0.028931
-0.11365
-0.003418
-0.016602
0.082825
-0.010254
0.10858
-0.015442
-0.0029907
0.035461
0.052673
0.10297
0.11646
0.16504
0.0020752
0.050598
0.17896
-0.19391
0.0076294
0.035034
0.039978
0.08429
-0.10199
0.063538
-0.019897
0.078857
0.030701
-0.025208
-0.10187
-0.066528
0.11829
-0.05542
0.051575
0.0020752
0.13916
-0.11029
0.097595
0.11945
0.13611
0.1275
0.095337
-0.043823
-0.068237
-0.019592
-0.1261
0.075256
0.12396
0.07666
-0.11243
-0.05603
0.14716
-0.0066528
0.024536
-0.051758
-0.14929
-0.14337
0.00085449
0.032898
0.042603
0.12927
-0.019104
-0.10706
-0.12085
0.067627
-0.15936
0.083069
0.0010986
-0.10565
0.12128
-0.12457
-0.034851
-0.020142
-0.083252
0.024475
0.17737
0.0053711
-0.095825
0.0018921
0.13599
-0.085632
-0.10339
0.012329
-0.0071411
-0.081421
0.052063
-0.01239
-0.018555
-0.16498
-0.0046997
0.072632
0.021667
0.010193
-0.16083
-0.02887
-0.20184
-0.056213
-0.15936
0.26654
0.018494
-0.026001
0.15472
0.13452
0.10474
-0.010376
0.016113
-0.018738
-0.097961
0.11743
0.080688
-0.046997
0.057312
0.049133
-0.23926
-0.09259
-0.024475
0.055847
0.056885
0.17609
0.062378
0.038208
0.027405
0.053589
0.059753
0.0030518
-0.17365
0.039978
0.06897
0.067688
0.19592
-0.098694
-0.050659
-0.053345
-0.17145
0.024414
0.017578
-0.091675
-0.059326
0.065979
-0.014648
-0.0033569
0.008606
0.16315
0.050903
0.044861
-0.060974
-0.022156
-0.11469
-0.039124
0.067078
0.067383
-0.061096
0.028809
-0.13489
-0.0095215
-0.09906
-0.0072632
0.05188
0.0025024
0.085083
-0.067261
-0.012085
-0.067444
0.057678
-0.027527
-0.13434
0.066589
0.086792
-0.033752
-0.071838
-0.065918
-0.014099
-0.0040283
-0.011658
0.039307
0.13007
-0.050598
0.015686
0.043152
-0.074341
0.069397
0.0080566
-0.019043
0.04834
0.14172
-0.079895
0.015564
-0.037964
0.029602
-0.032227
0.070007
0.086853
0.058411
0.044983
0.12097
0.098328
-0.13055
0.0012207
-0.050049
-0.10608
0.028809
0.056213
0.06189
0.018188
-0.043213
-0.0026855
0.0091553
-0.04187
-0.026794
-0.057373
-0.025024
-0.025574
0.12189
0.016357
0.017151
-0.0044556
0.011658
0.013245
-0.00012207
-0.00048828
0.047729
0.036255
-0.04718
0.024902
0.085754
-0.14075
-0.073547
0.0083008
0.062073
-0.078674
0.0096436
-0.062683
-0.0019531
-0.04657
-0.0050659
-0.057678
-0.069885
0.0031128
-0.1377
-0.061279
0.028137
0.086609
-0.25702
-0.051453
0.024719
-0.11255
-0.037476
0.0095215
0.0055542
-0.029907
-0.010254
-0.097839
-0.00048828
-0.01001
0.080383
-0.0030518
0.070984
-0.011719
-0.081604
0.070679
-0.030273
0.13672
0.075378
-0.071228
-0.10669
0.063293
-0.10852
-0.074524
-0.073853
0.066528
0.070251
-0.034851
0.011475
0.086914
0.018005
0.14093
-0.0849
-0.027588
0.034851
-0.028564
0.022461
0.087219
0.10297
0.048157
0.059875
0.032471
-0.051147
0.016235
-0.049927
0.087158
-0.072632
0.096863
0.010376
0.10217
0.0082397
-0.075439
-0.028076
0.047302
0.015137
-0.018311
-0.069397
-0.11212
0.053101
-0.080872
0.019714
0.036011
-0.044128
-0.010864
0.012268
-0.022095
-0.11646
-0.019592
-0.048523
0.05127
-0.041016
0.063354
-0.0072632
-0.15875
0.031799
0.021851
-0.049927
0.013367
-0.027039
0.0084839
-0.053223
0.068298
0.12433
-0.035828
-0.039856
-0.091553
0.069641
0.11182
0.14618
0.036682
-0.033142
-0.028015
0.088623
0.081299
-0.028076
-0.058411
-0.092773
-0.17767
0.044922
-0.052368
-0.010071
0.048706
-0.1189
-0.13062
-0.15918
-0.017273
0.12085
0.029602
-0.041992
-0.083374
0.11523
0.078857
0.029785
0.092468
-0.067505
0.063477
-0.0025024
0.026611
0.10626
-0.0065308
0.097839
-0.16193
0.056763
0.087158
0.0896
0.06604
-0.13129
0.0057373
0.003479
0.0049438
-0.005127
-0.19757
-0.089783
0.17389
0.020447
-0.0060425
0.16858
-0.13049
-0.10883
-0.16876
-0.060852
-0.020386
-0.059631
-0.01886
0.013062
-0.072815
0.00085449
-0.087341
-0.075378
0.016785
0.080933
-0.080383
-0.017822
0.069946
-0.033997
0.011719
0.064209
0.032043
0.1496
-0.01062
-0.024231
0.099609
-0.017761
0.070129
-0.010864
-0.06366
-0.018127
0.062927
-0.039795
0.050171
0.062866
-0.069458
-0.019714
0.073975
-0.15448
-0.12201
0.029724
-0.010376
0.051575
0.02594
-0.024658
-0.080566
0.011169
0.0066528
-0.047668
0.027771
0.11047
-0.08252
-0.00061035
-0.017517
-0.089905
0.085815
-0.1004
0.14575
-0.09198
-0.087341
0.015747
0.031677
0.023499
0.045288
-0.040344
-0.0014648
-0.080078
-0.070496
-0.091309
-0.21045
-0.0073242
-0.033081
-0.02478
-0.09137
-0.047791
0.13361
-0.099487
-0.0048218
0.07605
0.079041
0.12939
0.10651
0.10168
0.040771
0.041382
0.078735
-0.038574
-0.1792
0.02478
-0.022949
0.0071411
0.076172
0.02417
0.071899
-0.12653
0.10205
-0.067017
0.088379
0.011597
-0.10669
-0.042297
0.0081177
0.098755
-0.032715
-0.080322
0.084106
0.11316
-0.13354
0.096619
-0.070862
-0.02356
-0.052979
-0.13245
-0.023376
0.16711
0.097534
-0.011047
-0.097046
-0.083496
-0.17084
-0.079346
-0.032166
-0.17609
-0.03894
-0.068298
-0.049011
0.10388
0.073792
0.13715
0.046387
-0.03833
-0.060791
-0.016296
0.075134
0.069275
0.10834
0.10797
0.010071
0.047241
-0.019592
-0.1203
0.0053101
0.067383
0.16016
-0.011902
0.03064
-0.038391
-0.10547
-0.16174
-0.10754
0.14172
-0.068237
-0.093018
0.021912
0.026184
0.010559
0.0041504
0.044983
-0.098877
0.070923
0.14893
-0.011047
-0.062378
0.099548
0.025391
-0.068176
0.013916
-0.069275
-0.15851
-0.034363
0.017822
0.18665
-0.014587
-0.037109
0.10919
0.065613
-0.0082397
-0.01532
0.020264
0.0040283
0.062195
-0.15906
0.01062
0.023682
-0.040161
-0.0092163
-0.019409
-0.040527
-0.11957
0.031128
-0.18884
0.0036011
0.21136
0.11395
-0.0031738
-0.067871
0.010315
0.082336
-0.012329
0.066467
0.0401
0.1123
0.024231
-0.067871
-0.075806
-0.025818
0.17554
0.13611
0.064087
0.072571
0.15533
-0.087708
-0.089966
-0.19989
-0.015808
-0.13568
0.010925
-0.010498
0.033691
0.056091
-0.027954
0.030579
-0.14777
-0.10016
-0.053528
-0.11737
-0.033203
-0.09729
0.032654
0.023804
-0.01886
-0.065735
0.12128
-0.09729
-0.066406
0.0060425
-0.013489
-0.073059
-0.061157
-0.040039
0.026611
-0.018433
0.10974
-0.14667
-0.1059
0.067871
-0.07843
-0.14111
0.084534
-0.095825
-0.078796
0.0023804
-0.0020142
-0.048157
0.17767
-0.072327
0.10645
-0.08429
0.0047607
-0.10291
-0.082275
0.071838
0.028809
0.063904
0.074158
0.033875
-0.029175
-0.007019
0.096069
0.023926
-0.096558
-0.075562
0.015503
0.057251
-0.024597
0.066223
-0.032532
-0.082947
0.058472
0.011597
0.11774
0.018677
-0.063354
0.06958
-0.0078735
-0.032654
-0.10071
-0.11877
-0.063843
0.053223
0.14752
-0.19019
0.014954
0.095215
0.1026
0.12048
-0.095825
-0.060486
0.050781
-0.11536
-0.097656
0.01001
0.064575
-0.082214
-0.012146
-0.13098
-0.15485
0.042847
0.00018311
0.083435
0.01416
0.025696
-0.11139
0.022644
0.0896
0.042053
-0.13916
-0.041931
0.079346
0.019653
0.026733
-0.037964
-0.07605
0.019287
0.012024
-0.030884
0.047485
0.048218
0.12982
-0.017334
-0.030701
0.1062
-0.050354
-0.021912
-0.057373
-0.012756
0.049805
-0.053711
0.012634
0.039429
-0.018555
-0.11615
-0.010742
0.012939
0.12708
-0.076416
0.022888
0.015991
0.054199
0.043457
0.026978
0.01178
-0.040527
-0.0098877
-0.021362
0.11816
0.076721
0.1192
-0.072266
0.0092163
-0.048645
-0.081909
-0.049561
-0.0015259
0.1756
0.20068
-0.058289
-0.015747
0.10883
-0.041199
0.05603
-0.03949
0.075684
-0.14124
0.0032959
0.14655
0.044556
-0.020874
0.082214
0.11047
0.11737
0.11353
0.019043
-0.079163
-0.080688
0.0023804
0.016418
0.041931
0.024902
-0.17236
0.067749
0.05896
-0.055176
0.06311
-0.079285
0.085083
-0.021362
-0.17725
0.14301
0.062256
-0.083008
-0.12305
-0.042969
0.077698
-0.073059
0.092468
0.017517
-0.24316
0.059814
-0.059143
0.033508
-0.031555
-0.0802
-0.049194
0.027832
0.066223
0.112
-0.00097656
0.082031
0.015808
0.017944
-0.034424
0.051025
0.088623
-0.030518
0.024292
-0.091003
0.10712
-0.079895
0.081909
-0.075073
0.068359
-0.12762
-0.053894
0.16742
-0.02887
-0.070557
-0.046265
-0.087036
-0.093811
-0.0079346
0.031189
-0.0091553
0.16321
0.056152
0.14301
0.1897
0.055664
-0.15442
-0.07782
0.029602
-0.10602
-0.30469
-0.046021
-0.066895
-0.15662
-0.054626
-0.054443
-0.12054
-0.16418
0.22229
0.01062
0.088501
-0.019653
0.096985
-0.076355
-0.047791
0.032654
0.037048
-0.093628
0.025574
-0.029846
-0.125
0.13037
0.059265
0.076843
-0.017944
-0.025513
-0.13287
0.10791
-0.037842
0.049805
0.067505
0.1402
0.0099487
0.034973
-0.12311
-0.092346
-0.14929
0.069641
0.1463
0.0354
-0.10327
-0.11523
-0.10614
-0.040283
-0.12872
-0.0066528
0.030762
-0.057129
-0.065125
0.0014648
-0.013733
-0.14734
-0.075195
-0.020386
0.19727
0.050049
-0.052185
0.12781
-0.1095
0.12268
-0.10004
-0.090454
0.16229
0.078308
-0.08136
-0.15936
-0.10028
-0.024048
-0.049744
-0.079834
0.016846
-0.13641
0.027527
-0.043457
0.034607
0.043213
0.058533
-0.031799
-0.076233
0.08905
-0.078857
0.069214
-0.14484
-0.086609
-0.013245
-0.028259
0.021973
0.022522
-0.0089722
0.020935
-0.047546
-0.16632
0.0020752
0.088257
-0.048035
0.082397
-0.01709
-0.093323
0.043335
-0.094116
-0.11395
0.13354
0.072754
-0.16437
-0.074402
-0.075684
0.0095825
-0.060059
-0.14258
-0.10333
0.032166
-0.069275
-0.041809
0.01239
0.092407
-0.14966
0.062683
-0.12708
-0.17334
-0.035522
-0.047668
-0.068787
0.1192
0.0044556
0.097534
-0.033875
-0.039246
0.13922
-0.088745
-0.016602
0.013611
0.024475
0.16058
0.098145
0.066895
0.11548
-0.072937
0.10699
-0.031189
0.13849
-0.063293
0.0094604
0.11487
-0.048767
0.033203
0.1062
-0.28156
0.029541
0.075317
-0.065552
0.065369
-0.0081177
0.022278
0.02002
-0.079163
-0.026611
0.07428
-0.16638
-0.09552
0.054077
0.036194
0.076782
0.0081787
-0.047852
0.06604
0.13074
0.20636
-0.063049
-0.21307
0.022156
0.14093
-0.040588
-0.098694
0.044128
0.0090332
0.11835
-0.016479
0.041931
-0.056519
0.038513
0.057068
-0.11865
0.031616
-0.077332
0.079285
0.040894
-0.061768
0.078918
0.082397
0.069397
-0.037231
-0.21674
-0.13232
0.048401
0.08197
-0.063538
0.12347
0.0014038
0.09259
-0.1402
-0.062683
0.066711
-0.01001
-0.05658
-0.037109
-0.10449
-0.053223
-0.08252
-0.041992
0.17157
0.048279
0.005188
0.02832
0.044312
-0.11261
-0.038879
0.055237
0.030334
-0.082947
0.06665
-0.026855
0.013062
-0.049194
0.0090332
-0.011536
-0.014404
-0.035522
0.053772
-0.083557
0.012695
-0.13776
0.06958
-0.071533
0.03949
-0.11072
0.047058
0.020081
-0.066956
-0.21295
-0.12213
-0.036316
0.12878
0.033569
0.08844
0.15021
-0.11102
0.092834
-0.058044
-0.0063477
-0.11383
-0.087036
-0.16766
0.057312
0.048157
0.024109
-0.099731
0.039001
-0.10541
0.0058594
0.023926
0.035583
-0.14923
-0.07843
0.13995
0.039612
-0.027283
0.11023
0.046143
0.034119
-0.048401
0.014954
0.13593
0.0093994
0.17078
0.072998
-0.11902
0.020447
0.062439
0.11127
0.0029907
0.056824
0.11359
-0.033142
0.0082397
0.0024414
0.065857
-0.050903
0.097107
-0.12262
-0.023926
0.056335
0.10077
0.099915
0.085449
-0.048828
-0.060059
-0.085144
0.078369
-0.03186
-0.033447
0.037231
0.014099
-0.0042725
-0.040649
0.068665
-0.033386
-0.15503
0.077576
-0.083191
0.026978
0.019958
0.057922
-0.020142
0.057434
-0.055969
0.072632
0.0271
0.11115
0.02179
-0.02002
-0.030396
0.054993
-0.010132
-0.056519
0.035461
-0.02832
-0.1228
-0.058167
0.055237
-0.0012817
-0.014832
0.062317
0.019287
-0.032166
0.016174
-0.016357
0.081848
0.044189
-0.021912
0.12592
-0.10315
-0.10541
-0.042419
-0.31537
-0.13251
0.0025024
-0.00042725
-0.019226
-0.17792
0.11188
0.034973
-0.11261
-0.013367
0.059021
0.00354
-0.077698
-0.0056763
0.035828
-0.069824
-0.029785
0.14343
-0.022888
0.079468
-0.020752
-0.019775
0.10614
-0.13275
-0.0023193
-0.08374
-0.046997
0.025146
0.047302
-0.17358
-0.18829
0.078674
-0.0043335
-0.087036
0.11774
0.046265
0.12402
-0.024841
-0.048157
-0.12366
0.080383
0.091553
-0.02356
-0.012695
-0.05249
0.031982
0.014465
-0.091736
-0.048035
0.044617
0.16791
-0.0401
-0.023132
0.09491
0.052307
0.083252
0.24799
0.023987
-0.042114
-0.061768
0.034302
0.06543
-0.059692
-0.15918
0.0092163
-0.20355
0.090698
-0.18073
0.022217
0.051636
0.12732
0.017151
0.091003
0.12109
0.13098
-0.0578
0.034851
-0.092834
-0.00024414
0.073303
-0.094849
0.034546
-0.041626
-0.043945
-0.018311
-0.040649
0.14502
-0.10114
-0.024231
-0.016602
-0.13531
0.036926
0.093079
0.091675
-0.010193
-0.1474
0.11707
0.13739
-0.13086
0.045776
0.024963
-0.060791
0.18237
0.047424
0.0049438
0.13483
-0.05658
-0.077454
0.18335
-0.068665
0.11017
-0.0033569
0.11365
-0.1452
0.071045
-0.017822
-0.090271
-0.053894
-0.0050049
-0.075195
-0.035278
-0.0040894
0.097778
0.013794
-0.12885
0.074158
0.097168
0.0098877
0.032776
0.013489
-0.072937
-0.10663
0.081543
0.056396
-0.22302
0.10266
0.18982
0.013916
-0.052551
-0.047791
0.093384
0.054932
0.093201
-0.091492
-0.048157
-0.021118
0.038269
-0.039124
0.059021
-0.0010986
0.0063477
0.092041
0.049255
-0.042847
0.039307
-0.0046387
-0.12933
0.062256
0.055481
-0.078308
-0.04541
0.044739
0.019836
-0.021545
-0.043518
0.023621
0.031555
-0.016724
0.00048828
0.017944
0.0092773
-0.072266
0.026733
0.036011
0.0054321
-0.047302
-0.01947
-0.058838
-0.062683
0.030396
-0.0012817
-0.073364
0.041748
0.075317
-0.03009
0.09729
-0.087769
-0.024963
-0.14929
-0.117
0.014343
0.026611
0.061646
0.05896
0.028442
0.00018311
0.02533
-0.079773
0.18781
0.012756
-0.037659
-0.010498
0.12207
0.12524
0.040527
-0.094666
-0.15643
-0.095093
-0.11536
0.02063
0.16577
0.18036
-0.022827
0.09259
0.0057373
-0.014343
0.10907
-0.010681
-0.017578
-0.14301
-0.019409
-0.068481
-0.041199
-0.018127
-0.11963
0.14362
0.059631
-0.1347
-0.059021
-0.065552
0.041626
0.14154
-0.064575
-0.051453
0.12122
0.20514
0.018982
-0.0625
-0.055786
0.032593
0.090881
0.099731
-0.036316
-0.083618
0.042419
0.058838
-0.088135
-0.13428
0.15137
-0.12305
0.072876
-0.1618
0.036804
0.056335
0.01593
-0.092224
0.089111
-0.00030518
-0.036499
0.021362
0.05481
0.013428
0.0093994
-0.048462
-0.1145
0.057983
0.032593
-0.0085449
-0.11383
-0.043701
0.038086
0.029785
-0.31067
-0.051758
0.13068
0.12531
-0.055054
0.011597
0.064453
0.013672
0.00036621
-0.030029
0.082886
-0.019104
-0.07428
0.040955
-0.030945
0.025085
0.20032
-0.064087
-0.11121
0.16895
0.016052
0.17456
-0.020752
0.2561
0.29657
0.1637
0.043579
-0.005249
0.085938
-0.024475
0.066772
-0.10773
-0.14258
-0.083313
-0.028687
-0.0072632
0.0059204
-0.16058
0.039795
0.17279
0.23175
-0.15674
-0.12042
0.164
0.070068
-0.060791
0.053528
0.0096436
0.066345
-0.11749
-0.059387
-0.092834
0.078796
-0.047485
-0.0080566
-0.038391
-0.045471
-0.016846
-0.066528
-0.0025024
0.014221
-0.1701
0.048706
0.14734
-0.12067
0.026123
0.079224
-0.056274
0.023499
-0.031189
0.0045166
-0.12659
-0.068176
0.2157
-0.089783
0.018127
-0.02948
0.011536
0.07251
-0.03186
0.062866
0.2254
0.01886
-0.060852
0.011536
-0.090637
-0.069641
-0.14441
0.0020752
0.0021362
0.093262
0.032654
0.070923
-0.20935
-0.19183
0.10968
-0.10815
-0.023254
0.078735
-0.0025635
0.051697
0.14691
0.0672
0.21954
0.041138
0.029541
0.055786
0.080933
-0.052856
0.00085449
0.11401
0.030029
0.027222
-0.033813
0.050659
-0.10608
-0.0097656
-0.010437
-0.018555
0.041077
-0.12817
-0.079346
-0.10535
0.065674
0.066956
0.036987
-0.049255
0.079407
-0.13995
-0.032532
-0.094421
-0.13177
0.049255
0.013794
0.054077
-0.020447
-0.013489
-0.058655
0.13989
-0.11902
-0.033875
-0.02356
0.059021
0.0064087
0.0045166
-0.069153
-0.045044
-0.089355
-0.072205
0.15149
0.09198
0.072083
-0.077271
0.055847
0.082336
0.093567
0.0672
0.17279
0.14905
0.095215
-0.060791
0.13641
-0.010803
-0.0053101
0.12848
0.063904
0.028015
-0.054443
0.088257
0.039551
-0.089966
0.17712
-0.022583
-0.020996
-0.044922
-0.075623
0.042358
0.053528
0.036316
0.00048828
0.076355
0.15887
-0.021606
-0.20251
-0.050354
0.063477
-0.047119
0.026367
0.10004
-0.052246
-0.15491
-0.0094604
-0.098206
-0.1283
0.037231
0.0084839
0.04248
-0.10779
0.18188
0.04895
-0.096863
0.0093384
0.13867
0.052734
-0.093018
0.088135
-0.10614
0.016418
-0.069824
0.0029907
-0.010864
-0.089783
-0.027466
-0.12189
0.0095825
0.014221
-0.021118
-0.0040894
0.15967
-0.14014
-0.10516
-0.16132
0.024414
0.00012207
-0.0028076
-0.14972
-0.071533
0.0023193
0.050232
0.12531
0.076965
-0.09552
0.034119
0.050598
0.064941
0.12152
0.019287
0.19238
0.16199
-0.10382
-0.0979
0.038452
0.20111
-0.20349
-0.0065308
0.11639
-0.019775
-0.012329
-0.11536
-0.042603
-0.049377
-0.036804
0.10577
-0.019226
0.21924
0.041138
-0.032166
0.066406
-0.25952
-0.046875
0.058533
0.056396
-0.12714
-0.05719
0.0044556
-0.017883
-0.062561
0.045288
-0.06134
0.10492
-0.092346
-0.18665
-0.015747
0.16144
-0.031372
-0.0058594
0.10382
0.23981
-0.021057
-0.0050049
0.046692
0.00097656
-0.14014
-0.10522
-0.10358
0.17389
0.12927
0.043396
0.052979
-0.018066
0.055237
-0.070557
0.17584
0.03894
-0.13
-0.11377
-0.0029907
0.10864
0.14911
-0.035278
-0.18579
-0.035645
-0.0401
0.036499
0.017151
0.052673
0.071472
-0.0023804
-0.10358
0.10089
-0.0054321
-0.12775
-0.01123
-0.017639
-0.037354
0.01532
0.099792
0.075073
0.1076
0.12299
-0.06781
-0.14948
-0.059814
0.14679
0.037476
0.05127
0.17377
-0.063049
-0.064453
-0.011475
-0.15411
0.076599
0.090393
-0.0072021
-0.075806
-0.038574
-0.046814
-0.062256
0.037537
-0.13226
0.027344
0.10126
-0.057373
0.073669
-0.020874
-0.10486
0.075195
-0.044983
0.066284
0.023376
0.084717
-0.048828
0.11572
-0.03125
-0.065979
-0.041504
0.02417
-0.049683
-0.094971
-0.090759
0.16107
0.043945
0.12445
-0.026123
0.09021
0.035095
-0.12091
0.088196
-0.092957
-0.028625
0.059631
0.12408
-0.0033569
-0.070251
-0.091187
0.035767
0.001709
-0.00048828
0.026855
0.08728
0.078613
0.1463
-0.045288
0.05957
-0.080872
0.015808
-0.0046997
-0.1203
0.0011597
0.10352
0.003418
0.06488
-0.088135
0.010376
-0.084229
-0.048462
-0.047668
-0.026489
0.061279
0.033508
0.0042114
-0.064636
-0.0046387
0.025879
0.06427
0.0050049
0.22058
-0.089844
0.027771
0.058594
-0.095947
0.038147
-0.0068359
-0.16193
-0.051941
-0.056274
-0.086243
-0.067017
-0.069153
-0.016846
0.12854
0.073303
-0.016052
0.089355
0.046875
0.10162
-0.08728
-0.036194
-0.13885
-0.11755
-0.13391
0.048584
0.098877
0.015503
-0.045593
0.00067139
-0.051819
-0.069702
0.1488
0.092773
0.045044
0.006897
0.047668
0.0088501
-0.0079346
0.017029
-0.17761
-0.06488
0.025269
-0.19537
-0.06781
0.0401
0.05896
-0.055603
0.09613
0.028259
0.11224
-0.037598
0.14197
-0.029358
-0.081726
-0.059143
-0.12421
0.041687
0.054443
0.079773
-0.022888
-0.032959
0.12421
0.14026
-0.05835
0.081604
0.13385
0.031677
-0.042725
-0.040955
0.057129
0.02063
-0.076355
-0.016785
-0.047852
0.10254
0.079224
0.151
-0.079224
-0.14478
0.031372
0.094116
0.075562
0.062378
-0.045959
0.033386
0.0013428
-0.015442
-0.074585
0.033936
-0.02594
0.12512
0.048828
-0.11792
-0.034363
0.0354
0.084229
0.13525
-0.018066
-0.04425
0.090942
-0.035278
-0.080261
-0.082764
-0.027893
-0.18018
0.11456
-0.085938
-0.09314
0.024231
-0.03064
-0.12891
0.064819
-0.11926
0.029541
0.0067139
0.086304
-0.058167
0.044739
0.10406
-0.050903
-0.070679
0.075256
0.096985
0.0054932
0.066101
0.052673
-0.015198
-0.010803
0.17334
0.049377
0.031921
0.072205
0.11346
0.0755
0.045837
-0.085754
0.065674
-0.1861
0.011414
-0.15131
-0.042908
-0.013062
0.073425
0.11395
-0.086914
0.0067749
-0.14001
0.17108
0.014526
0.0012817
0.054688
0.14087
-0.012817
0.089844
-0.032715
0.06366
-0.045349
0.061646
0.058228
-0.036804
-0.042664
-0.015869
0.061584
-0.082947
0.020874
0.011841
-0.067322
0.0053101
0.11743
0.1322
-0.083313
0.085144
-0.033203
0.046326
-0.013672
0.12445
-0.10669
0.22998
0.11682
0.12268
-0.083862
-0.017395
0.02655
-0.055298
0.044067
0.078918
0.071167
-0.005188
-0.10938
-0.046448
-0.073303
0.024536
0.071533
-0.026306
-0.019348
0.026001
0.1333
0.16101
-0.17413
-0.16248
-0.036133
-0.23505
0.21021
0.058594
0.0063477
-0.035889
0.021729
-0.066589
0.027344
-0.012024
-0.12848
0.0090332
0.19989
-0.0019531
0.042603
-0.028625
0.083679
0.18225
0.15338
0.010986
0.18176
0.18176
-0.089966
0.1062
0.026123
-0.051941
-0.026733
-0.11145
0.050964
-0.086609
-0.12433
0.011353
-0.060608
-0.11932
0.098389
0.031677
-0.020081
0.0083008
-0.050842
0.21539
0.084167
-0.005127
0.046448
0.082031
-0.033752
-0.0065308
0.060425
-0.11023
0.10101
0.030151
0.079346
-0.18427
0.044861
-0.044312
0.014404
0.10529
0.18018
0.099731
0.16113
0.091797
