-0.014648
0.019043
-0.041992
-0.043457
0.074707
-0.13672
0.17236
0.055664
-0.025879
0.077148
-0.0053711
-0.023438
-0.12695
-0.21436
0.0053711
-0.044434
0.084473
-0.043945
-0.0073242
0.017578
0.027344
0.18066
-0.104
-0.11865
-0.056641
0.054199
0.015137
0.078125
-0.11865
-0.019043
-0.051758
-0.088379
-0.019531
-0.093262
-0.13184
0.15039
-0.18457
0.20459
-0.031738
-0.021973
0.0068359
-0.035156
-0.1167
0.0058594
0.078613
0.084473
0.16016
-0.055176
0.04248
0.088379
-0.01416
-0.085449
-0.051758
0.12842
0.069336
-0.12012
-0.084961
-0.076172
0.07373
0.15186
0.21436
0.15674
-0.023438
-0.012207
0.049316
0.074219
-0.043945
-0.01709
0.029297
-0.0014648
0.029297
0.0092773
-0.0048828
-0.026855
-0.010254
0.10791
0.13867
-0.04834
-0.086914
-0.058105
0.023438
-0.068848
-0.039063
-0.066895
-0.15088
-0.12598
-0.029297
0.013672
-0.14551
-0.065918
0.023926
-0.056641
-0.16602
-0.046875
-0.01123
0.035645
-0.07666
0.075195
0.058594
-0.10742
-0.085449
0.075684
0.089844
0.11377
-0.12402
-0.12598
0.041016
0.012207
0.043945
-0.010742
-0.146
0.18262
-0.036621
0.043945
0.12256
-0.049316
0.0087891
-0.0097656
0.069336
-0.0019531
0.1167
-0.084473
-0.037109
-0.10205
0.03125
0.012695
0.030762
0.037598
-0.051758
0.036133
-0.14014
0.043457
-0.073242
0.0039063
0.091309
-0.052246
-0.1123
0.0058594
0.078613
-0.11475
0.069336
0.025391
-0.012207
-0.029297
0.146
0.091797
0.061523
0.092285
0.084473
0.1582
-0.091797
0.044922
0.02002
0.13037
-0.068359
0.043457
0.034668
-0.02002
0.043457
-0.052734
0.03418
-0.104
0.040527
0.10645
0.026367
-0.096191
-0.064941
-0.07666
0.14746
0.050781
0.12988
0.13867
0.18701
-0.0063477
-0.015137
0.1499
0.066895
-0.060547
-0.091797
-0.024902
0.092773
0.043457
0.053223
0.15479
0.043945
-0.0014648
0.091797
-0.023438
0.14795
0.013184
-0.0063477
-0.0063477
0.0058594
-0.036133
-0.18945
0.040039
0.0048828
0.024902
0.092285
0.029297
0.035156
-0.10938
0.035645
0.056641
-0.01709
-0.061035
-0.07959
-0.064941
0.075684
-0.097168
-0.060547
-0.045898
0.07959
0.053711
0.10498
0.034668
0.13818
0.030273
0.020996
0.02832
-0.0029297
-0.047852
0.034668
0.048828
-0.091309
-0.034668
0.06543
0.033691
0.020996
-0.038086
-0.039063
-0.080078
-0.16064
0.036133
-0.067383
-0.015625
0.038574
0.037598
-0.047363
0.11426
-0.027832
0.1582
-0.1792
0.12744
0.027344
0.0024414
-0.041016
0.14893
0.094727
-0.10107
-0.13379
0.19531
-0.043457
-0.05957
-0.027344
-0.034668
-0.104
-0.11475
-0.14355
-0.058105
0.021973
-0.050293
-0.20313
-0.075684
0.022461
0.12402
0.12793
0.081055
-0.089844
0.075195
-0.14355
0.03418
0.033691
-0.013184
0.04834
0.14941
0.023926
-0.05957
-0.060547
0.11475
-0.13965
-0.12939
0.080566
-0.023926
-0.10986
0.084473
-0.04248
-0.062012
-0.0058594
0.048828
-0.072266
0.10596
0.021484
0.10303
0.21875
-0.22363
-0.069824
-0.04541
-0.10254
-0.19238
-0.08252
0.00097656
-0.0014648
-0.071289
0.022949
-0.14355
0.24512
-0.08252
-0.17432
-0.10889
0.085938
0.017578
0.025391
0.099121
0.15186
0.084473
-0.092773
-0.044434
0.094238
-0.038086
0.0039063
0.21826
0.17578
-0.064941
-0.061035
0.044922
0.066406
-0.14111
-0.047852
-0.1167
0.0068359
0.12988
-0.0073242
0.2041
0.13721
-0.10059
0.072266
0.012695
0.062988
0.10303
-0.11377
0.012695
-0.092773
0.091797
-0.032715
0.16895
0.024414
0.044922
-0.085938
0.068848
-0.022461
-0.14404
-0.15137
0.096191
0.0014648
0.091309
-0.064941
-0.047852
0.054199
-0.031738
-0.19922
-0.0019531
0.0024414
-0.01416
-0.13281
-0.15088
-0.029785
-0.13525
-0.040527
-0.039063
0.042969
-0.066406
-0.18799
0.024414
-0.02832
-0.032227
0.11865
-0.02002
0.036621
0.1001
0.021973
0.12939
0.039063
0.11816
-0.16455
-0.069336
-0.058594
0.10156
-0.035156
-0.1084
-0.10986
0.022949
0.022461
-0.16797
0.038574
0.072266
-0.0048828
0.0083008
0.040527
0.14111
0.11279
0.24121
-0.023438
0.046875
0.03125
0.03125
-0.003418
-0.027344
-0.052734
0.094238
-0.02002
0.040039
0.0087891
0.067871
0.019531
0.033691
-0.14941
0.0014648
-0.069824
0.046387
-0.077637
-0.024414
0.0039063
-0.026855
-0.085449
0.064941
-0.14746
-0.16992
0.076172
-0.20654
-0.020996
-0.066406
0.07373
0.10352
0.012207
0.084961
0.13037
-0.019043
-0.14893
-0.046387
-0.020508
-0.010254
0.13428
-0.11914
0.12012
0.0097656
-0.0068359
0.003418
-0.020508
0.15723
-0.05957
-0.14697
0.059082
0.027344
0.072754
0.048828
0.056641
0.012695
0.016113
-0.14551
-0.046875
0.054688
0.069336
0.03418
0.0063477
-0.076172
-0.055176
0.032715
0.25684
-0.17969
0.095215
0.010742
0.104
0.0073242
0.045898
0.16357
0.072754
-0.031738
-0.040527
0.14746
0.035156
-0.019531
0.052734
0.022949
-0.065918
0.0087891
0.087891
-0.091797
0.091797
-0.037109
0.056641
0.084961
-0.0014648
-0.01123
0.098145
-0.0087891
0.0078125
-0.085449
-0.14502
0.05957
-0.01416
0.045898
0.055176
0.13184
-0.068848
0.104
0.13281
0.074707
-0.03418
-0.019043
0.095215
0.088867
-0.061035
0.0043945
0.0019531
0.003418
-0.010254
0.034668
-0.048828
0.074707
0.11816
-0.0039063
0.015625
-0.040039
-0.019043
0.0078125
-0.0039063
-0.0053711
-0.024414
-0.016113
-0.00097656
0.032715
0.038086
-0.0029297
0.0039063
0.01709
0.032715
-0.0078125
0.023438
0.0063477
0.17139
0.065918
-0.0029297
-0.00048828
-0.036621
0.0014648
0.011719
0.04541
0.01123
0.0024414
-0.034668
0.010742
0.0014648
0.028809
0.012207
0.0043945
-0.016113
-0.0078125
0.0029297
0.022461
0.22607
-0.012207
0.053711
-0.013184
-0.04248
-0.020508
0.033203
0.028809
-0.0083008
0.021973
0.044434
0.03418
-0.03125
0.0073242
-0.036621
0
-0.026367
0.063477
-0.003418
-0.063965
-0.14502
-0.025391
0.15332
-0.078613
-0.0029297
0.093262
-0.070313
-0.026855
-0.0073242
-0.04541
0.11816
0.080566
-0.014648
-0.13232
0.03125
-0.18115
0.12451
-0.014648
-0.023926
0.1958
0.075684
0.048828
-0.037598
-0.0048828
-0.02832
0.044434
0.0063477
0.055176
0.11182
0.070313
-0.078613
-0.12158
-0.02002
0.069824
0.06543
-0.045898
0.019531
-0.064453
0.020996
-0.11377
-0.072266
0.07666
0.013184
-0.077637
-0.1123
0.13867
-0.13965
-0.033203
0.07959
-0.01709
0.054199
0.026855
-0.039063
0.050781
-0.083984
0.01416
0.15186
-0.0019531
0.11523
0.0092773
-0.022949
0.2749
-0.012207
-0.083496
-0.031738
0.15234
-0.093262
0.053223
0.064941
0.16797
-0.10938
0.027832
-0.11475
-0.035645
0.012207
0.044434
-0.17432
-0.12793
-0.036133
0.22314
0.07959
-0.041016
0.13086
-0.12109
-0.0053711
-0.067871
-0.039551
-0.072754
-0.026367
0.1333
0.02002
0.11133
0.07959
0.16211
0.05957
0.15479
-0.13379
0.071777
-0.065918
-0.19482
0.15088
-0.0083008
0.14746
-0.10205
0.11768
-0.13721
-0.076172
-0.072266
-0.16797
-0.00097656
-0.087891
-0.14209
0.044434
0.20264
-0.074707
-0.14063
-0.19531
0.22363
-0.022949
0.042969
-0.056152
-0.018066
0.032715
0.031738
-0.22314
-0.15869
-0.056641
-0.003418
-0.052734
0.22559
-0.049316
0.097168
0.030762
0.091309
-0.082031
-0.032227
-0.071777
-0.068848
0.12891
-0.02002
-0.06543
0.029785
0.20264
-0.19873
0.02832
-0.049805
-0.09082
0.066895
0.03125
0.0048828
0.039551
-0.10645
-0.11865
0.07373
-0.053711
0.0039063
-0.061035
-0.15674
0.084961
0.10352
-0.060059
0.1084
-0.21973
0.019043
0.041504
-0.035645
-0.063477
0.24609
0.12207
0.04834
0.072754
0.04834
0.050781
0.015137
0.15918
0.019043
0.018066
-0.12061
0.0024414
-0.12842
0.0024414
0.11816
-0.089844
-0.09668
-0.17139
-0.067383
-0.11963
-0.021484
-0.18408
0.10156
-0.0625
-0.07959
0.061035
0.003418
-0.022949
0.13232
-0.040527
-0.0043945
0.013184
0.21143
-0.0029297
-0.15381
0.18506
-0.12207
0.036133
0.09375
-0.091309
-0.074707
-0.012695
-0.052246
-0.00048828
0.076172
-0.0068359
0.095703
-0.09082
0.081055
0.003418
-0.14648
-0.012207
-0.10303
0.0043945
0.10693
0.16162
-0.15479
0.0043945
0.074219
-0.020996
-0.16602
-0.069824
0.070801
-0.10938
-0.0019531
0.038574
-0.071777
0.12793
-0.11865
0.013184
0.072266
-0.146
-0.060059
0.062988
-0.099609
-0.049316
0.092285
0.032227
0.04248
0.048828
-0.094727
-0.095703
-0.16602
-0.14844
-0.12842
-0.032715
0.11328
0.0014648
0.0078125
-0.24951
0.22998
0.032227
-0.0048828
-0.017578
0.24219
-0.069336
-0.081543
-0.084961
-0.0019531
-0.20898
0.022949
-0
-0.22607
-0.026855
0.19727
0.068359
0.013184
-0.046387
-0.14648
-0.09668
0.092773
-0.095703
0.013184
0.14453
-0.013672
-0.13135
0.065918
0.17236
0.015137
-0.11523
-0.03125
-0.15674
0.21387
0.037598
-0.14941
0.27686
0.03418
0.10303
-0.15137
0.18408
-0.088379
0.01123
-0.13232
-0.099609
-0.04541
-0.22021
-0.1123
0.024902
0.2168
-0.057617
-0.09375
-0.14355
0.36621
0.036621
0.00048828
-0.003418
0.10205
0.043945
0.025879
0.10254
0.17725
-0.058105
-0.00048828
-0.12793
0.071289
-0.055664
-0.10107
-0.047363
0.083496
-0.086426
-0.088379
-0.04541
0.072754
0.14844
0.027832
0.092285
-0.056152
0.018555
-0.058105
-0.034668
-0.024902
-0.12598
-0.049805
0.092773
0.04834
0.072754
0.01709
-0.061523
-0.01416
0.0039063
-0.098633
0.030762
0.053711
-0.20947
-0.050781
0.11328
-0.13477
0.027832
0.19287
0.041504
-0.024414
-0.0087891
-0.010254
0.062988
0.17578
0.037109
-0.0019531
0.025879
0.07373
0.060059
-0.19629
0.10303
-0.02002
-0.037109
0.090332
0.052734
-0.003418
-0.072754
0.10205
-0.1377
0.077637
0.11426
0.053711
0.094727
0.025879
-0.063965
-0.12695
-0.023438
-0.033691
0.047852
-0.099609
0.01416
0.038574
-0.037109
-0.044434
0.075195
0.037109
0.036621
0.022461
0.014648
-0.095703
0.14111
0.010742
0.025879
0.046875
-0.02832
0.050781
-0.16748
-0.013184
0.042969
-0.12695
-0.003418
0.07959
0.066895
-0.14941
-0.020996
-0.07959
0.10889
0.083984
-0.1377
-0.098145
0.050293
-0.12891
0.07373
0.068359
-0.083008
0.027832
-0.088379
0.068359
-0.049805
0.044922
-0.036621
-0.1543
0.09082
0.087402
-0.038574
0.11035
0.053223
-0.081055
0.067871
0.049316
0.040039
0.086426
0.062988
0.052734
-0.043457
-0.024414
0.027344
-0.020996
0.029785
0.02832
0.11621
0.04248
0.23291
0.09375
0.0092773
-0.062988
0.053711
0.13574
-0.0043945
0.055664
0.060059
-0.055664
0.033691
0.043945
-0.085938
0.13721
-0.0063477
0.040527
-0.088379
-0.057129
-0.083984
-0.054688
-0.083008
0.12744
0.015137
-0.096191
-0.067383
0.095215
-0.045898
0.046387
0.046387
0.017578
0.09375
-0.003418
-0.23242
-0.0048828
0.01123
0.016602
-0.1123
-0.0063477
-0.083984
0.10645
0.029297
0.10254
0.06543
0.10156
0.11572
-0.097656
-0.00048828
-0.11133
-0.050781
-0.15527
0.11865
-0.013672
-0.045898
-0.052246
0.19141
-0.14307
-0.073242
-0.22021
0.0097656
-0.053223
-0.043945
0.10791
0.2002
0.10889
-0.1543
-0.0092773
-0.0068359
0.037109
0.22217
0.12744
0.072754
0.063477
0.080078
0.19434
0.14697
-0.19678
-0.091309
-0.019531
0.052734
-0.0083008
0.098633
-0.042969
0.074707
-0.049805
-0.029297
-0.071777
-0.17334
0.012207
0.041504
-0.029785
-0.02002
0.1167
-0.016602
-0.12549
-0.0024414
-0.05957
0.10449
-0.03125
-0.051758
-0.01709
0.041504
0.13965
-0.16748
-0.03125
-0.04541
0.083496
0.087402
0.10596
0.13721
-0.078613
-0.023926
-0.082031
-0.11523
0.12109
0.075195
-0.12451
0.16455
0.068359
-0.056641
-0.090332
-0.146
0.0078125
-0.17334
-0.036133
0.013184
0.046875
-0.05957
0.020996
-0.064941
0.075195
0.048828
-0.056152
-0.011719
0.022461
-0.054199
-0.11426
-0.03418
0.0053711
0.10156
0.030762
-0.018066
-0.14697
-0.075195
-0.04834
0.13477
-0.11963
0.021973
0.0014648
0.1333
-0.032227
-0.10303
-0.011719
-0.05957
-0.072754
-0.045898
-0.040039
-0.012207
0.039551
-0.0019531
0
0.0092773
-0.12012
-0.10645
0.044922
0.036621
0.056641
0.054199
0.12354
0.02832
-0.02832
-0.003418
-0.19482
0.078125
0.068848
-0.051758
-0.061523
0.11035
-0.013672
0.039063
-0.045898
0.041504
-0.08252
0.056641
0.022949
0.055176
0.14502
0.11182
-0.050781
0.06543
-0.067383
-0.054688
0.084961
-0.076172
-0.0039063
0.23389
-0.032715
-0.0048828
0.047363
0.081055
0.057129
-0.063477
-0.11035
-0.089844
-0.098145
-0.041992
0.045898
0.032715
-0.031738
-0.057617
0.00097656
0.085449
-0.039551
-0.08252
0.13867
0.14307
0.10547
-0.10986
-0.044922
0.11768
0.037109
0.023438
0.023438
0.057129
-0.063477
0.098145
0.0625
0.089844
-0.0039063
0.038086
0.012207
0.11328
0.026367
-0.029297
-0.01123
-0.090332
0.0014648
0.11133
-0.069336
0.10254
0.023438
-0.053711
-0.035645
-0.030273
-0.036133
-0.027832
-0.039063
-0.12793
0.0073242
0.046387
0.10156
-0.053223
0.0039063
-0.031738
0.21436
0.12256
-0.04541
-0.18799
0.053223
0.003418
-0.0058594
0.030762
-0.033691
0.061523
-0.047852
-0.11084
-0.0019531
-0.022461
0.033203
0.013184
0.029785
0.28809
0.02002
-0.057129
0.092285
0.01709
-0.077637
-0.055664
-0.17578
0.025391
-0.094727
0.023926
0.050293
-0.0019531
-0.13281
0.088867
-0.049805
0.049316
0.035645
0.055664
-0.075195
-0.040527
-0.043945
0.017578
-0.068359
0.072754
-0.029297
-0.080078
-0.072266
-0.039551
-0.097168
0.11914
-0.055176
-0.11914
0.063477
-0.099121
-0.10693
0.14307
-0.09082
0.034668
0.022949
-0.028809
-0.10059
-0.049805
-0.019531
0.025391
-0.053223
-0.049805
0.046875
0.056152
0.14648
-0.059082
0.043945
0.0053711
-0
-0.075195
-0.065918
0.1123
0.057617
0.14697
-0.042969
-0.0078125
0.093262
-0.020508
-0.070801
-0.0087891
-0.27881
-0.049805
-0.15576
0.08252
-0.014648
0.028809
-0.083984
0.02832
0.081055
-0.036621
0.01416
0.07959
-0.11377
-0.12109
-0.072754
0.027344
-0.12598
0.061523
0.14209
-0.01709
0.10693
0.13477
0.013184
0.057129
-0.018066
-0.024414
0.064941
-0.018555
0.043945
0.057617
-0.16553
0.0087891
-0.04541
0.070313
0.027344
-0.09082
0.15771
0.067871
0.15625
-0.067383
-0.021973
0.0063477
0.026855
-0.074219
-0.095703
0.052734
0.023438
0.08252
-0.038086
0.06543
-0.07959
-0.056152
0.0014648
-0.017578
0.11133
-0.15332
-0.044434
0.1123
-0.010254
0.10693
-0.1084
-0.15088
-0.038574
-0
0.041504
-0.072754
-0.061035
-0.11572
0.0092773
0.0043945
-0.023438
-0.021484
-0.055664
-0.027832
-0.097656
0.14844
0.05957
0.076172
-0.092773
-0.11377
-0.043457
0.034668
0.052246
0.047363
0.02832
0.0092773
0.057129
0.099609
-0.14893
0.13037
-0.065918
0.025879
-0.12305
-0.088867
-0.0024414
-0.029297
-0.025879
-0.07373
-0.048828
-0.075195
-0.028809
0.016602
-0.12012
-0.10596
-0.054688
-0.15137
0.050781
-0.11865
0.037598
-0.088379
-0.081543
0.065918
-0.070801
-0.019531
0.08252
0.022461
0.035156
-0.01123
0.023926
0.14355
0.05957
-0.12109
0.056641
0.071289
0.077637
-0.012695
-0.022461
-0.0024414
0.16846
-0.15918
-0.03125
-0.14063
0.080566
-0.066406
0.083008
-0.05127
-0.12451
-0.043457
0.015625
-0.049316
-0.1167
-0.17139
0.078613
-0.030762
0.12695
0.18262
-0.099121
0.011719
-0.014648
-0.084961
0.050781
0.146
0.019531
0.17725
-0.097656
0.12354
0.017578
0.035156
-0.16943
-0.018066
0.087891
0.056152
-0.0078125
0.0029297
-0.092285
0.067871
0.10889
0.031738
0.24121
-0.024902
0.0029297
-0.025391
0.08252
0.017578
-0.0048828
0.146
-0.081055
0.014648
0.031738
-0.021484
-0.094727
0.1001
-0.10107
-0.12061
0.048828
0.058105
-0.041992
0.1626
-0.016113
-0.081055
-0.026367
-0.057617
-0.016602
-0.16211
0.12402
-0.03125
0.061035
-0.0625
0.066895
0.0097656
-0.030762
0.067383
-0.25
0.10986
0.040039
-0.047363
0.0014648
-0.079102
0.031738
-0.077637
-0.080078
0.013184
0.050293
-0.0087891
0.056152
-0.068848
-0.2334
-0.045898
0.057129
0.091309
-0.013184
0.080078
-0.0039063
-0.021484
-0.056152
0.023926
-0.12598
-0.026367
-0.15625
-0.14453
-0.16895
-0.047363
0.16113
0.0053711
-0.069824
-0.18066
-0.1123
-0.17529
-0.013184
0.13135
-0.01709
-0.003418
0.083496
-0.16943
-0.035156
0.033691
-0.031738
0.16504
-0.052734
0.072754
0.091309
-0.13818
0.0087891
-0.12061
-0.062012
-0.023926
-0.10156
-0.05957
0.12939
-0.012207
-0.17725
-0.15088
-0.077637
0.02002
0.14258
-0.17432
0.040527
0.028809
-0.09082
-0.0068359
0.023438
0.12402
-0.038086
-0.12354
0.073242
-0.12402
0.0024414
0.099609
-0.1001
-0.066406
-0.12891
-0.056641
-0.19336
0.21436
-0.015625
0.00097656
0.030273
-0.069824
-0.14551
-0.074707
0.074707
-0.1499
0.026855
-0.060059
-0.12939
-0.16748
-0.084961
-0.041992
-0.062012
-0.074219
-0.092285
-0.097656
0.047852
0.13379
0.067383
-0.083496
-0.032227
-0.046387
0.24561
-0.01416
-0.11377
-0.084961
-0.097656
-0.07959
-0.066406
0.017578
-0.092773
-0.13867
0.083496
0.12402
-0.047363
-0.018555
-0.063477
0.1709
0.14648
0.038574
-0.15527
-0.0024414
0.23926
0.019531
-0.026855
-0.075195
-0.017578
0.16455
0.095703
-0.025879
0.047852
0.050293
-0.046387
-0.04834
0.0068359
0.26807
0.030762
0.16992
0.022949
0.057129
-0.10596
0.0092773
-0.0078125
-0.0043945
0.16992
-0.15576
0.075684
0.063965
0.036621
-0.12402
-0.10498
0.0083008
0.095215
0.083008
-0.025391
-0.10547
0.080566
0.074219
0.15039
-0.024414
0.069336
0.075195
0.035156
0.025879
-0.0048828
-0.07666
0.014648
-0.052246
-0.17578
0.05127
0.027344
0.14453
0.048828
0.055176
0.09668
0.12695
0.12207
0.046387
0.097168
0.018555
-0.14258
-0.018555
-0.09375
-0.0043945
0.11572
0.11816
-0.091309
-0.020996
-0.0029297
-0.0014648
0.104
0.12793
-0.086426
-0.07373
-0.0019531
-0.24854
0.052246
-0.0073242
0.18799
0.055664
0.12549
-0.011719
-0.0014648
-0.075684
-0.0068359
0.043945
0.033691
-0.23682
-0.1958
0.019043
0.09082
-0.0029297
-0.010742
-0.10938
0.075684
-0.070801
-0.0058594
0.055664
0.06543
-0.0097656
-0.029785
0.032715
-0.074219
-0.0053711
0.049805
0.01416
-0.049805
0.00097656
0.044922
-0.16504
-0.025879
0.033203
0.080566
-0.033203
0.0068359
-0.0073242
-0.081055
-0.032227
-0.054688
-0.063965
0.0063477
0.10449
0.0024414
-0.0063477
-0.056641
0.074219
-0.003418
0.055664
-0.088867
-0.19043
0.11328
0.104
0.00048828
-0.054688
-0.052246
0.019531
0.10645
0.040039
-0.022949
0.00097656
-0.055176
0.085449
0.045898
-0.049316
0.042969
-0.015137
-0.029297
0.04834
-0.0043945
-0.25342
0.0625
0.01416
0.023926
-0.064453
-0.014648
-0.012207
-0.0063477
0.021973
0.041016
0.017578
-0.055664
0.047852
0.01709
-0.025391
-0.016113
-0.17578
-0.003418
0.085938
-0.00097656
-0
0.071777
-0.10596
-0.023926
0.081543
0.015137
-0.035645
0.0083008
0.025391
-0.025879
-0.078613
0.087402
0.146
0.10107
0.01709
-0.041016
0.003418
0.092285
0.014648
0.012207
-0.11914
0.049316
-0.036133
0.066895
0.07959
0.022949
-0.0029297
0.088379
-0.19287
-0.10693
-0.027832
0.04834
0.051758
0.02002
-0.018066
0.01709
0.059082
0.037109
-0.067383
-0.019531
-0.041992
-0.11328
0.038574
-0.11572
-0.10742
0.14014
-0.038086
0.13672
0.084473
-0.072754
0.1084
0.010742
-0.029297
-0.087891
0.0063477
0.030762
0.0039063
-0.067871
-0.089844
-0.1499
0.0053711
-0.039063
0.19873
-0.093262
-0.081543
0.025879
0.010254
-0.099121
-0.017578
-0.067383
0.0053711
-0.027832
-0.22803
-0.041992
-0.10889
-0.016602
0.041504
-0.12939
0
0.046387
0.026855
0.20215
-0.0048828
-0.029785
0.03125
0.055664
0.074707
0.069336
-0.2832
0.049316
0.034668
-0.0043945
-0.058105
0.0625
0.0029297
0.023926
-0.024414
0.083008
0.023926
-0.067871
-0.12256
-0.097656
0.026855
0
0.046387
0.125
-0.038574
0.024414
-0.0078125
0.11963
-0.068848
-0.14746
-0.0068359
0.0053711
0.038574
-0.054199
0.089355
0.037598
-0.19922
-0.057617
0.05957
-0.15234
-0.15625
0.028809
-0.11377
-0.003418
-0.016602
0.083008
-0.010254
0.1084
-0.015625
-0.0029297
0.035645
0.052734
0.10303
0.11621
0.16504
0.0019531
0.050781
0.17871
-0.19385
0.0078125
0.035156
0.040039
0.084473
-0.10205
0.063477
-0.02002
0.078613
0.030762
-0.025391
-0.10205
-0.066406
0.11816
-0.055664
0.051758
0.0019531
0.13916
-0.11035
0.097656
0.11963
0.13623
0.12744
0.095215
-0.043945
-0.068359
-0.019531
-0.12598
0.075195
0.12402
0.07666
-0.1123
-0.056152
0.14697
-0.0068359
0.024414
-0.051758
-0.14941
-0.14355
0.00097656
0.032715
0.04248
0.12939
-0.019043
-0.10693
-0.12109
0.067383
-0.15918
0.083008
0.00097656
-0.10547
0.12109
-0.12451
-0.034668
-0.02002
-0.083008
0.024414
0.17725
0.0053711
-0.095703
0.0019531
0.13574
-0.085449
-0.10352
0.012207
-0.0073242
-0.081543
0.052246
-0.012207
-0.018555
-0.16504
-0.0048828
0.072754
0.021484
0.010254
-0.16064
-0.028809
-0.20166
-0.056152
-0.15918
0.2666
0.018555
-0.025879
0.15479
0.13477
0.10449
-0.010254
0.016113
-0.018555
-0.098145
0.11768
0.080566
-0.046875
0.057129
0.049316
-0.23926
-0.092773
-0.024414
0.055664
0.057129
0.17627
0.0625
0.038086
0.027344
0.053711
0.05957
0.0029297
-0.17383
0.040039
0.068848
0.067871
0.1958
-0.098633
-0.050781
-0.053223
-0.17139
0.024414
0.017578
-0.091797
-0.059082
0.065918
-0.014648
-0.003418
0.0087891
0.16309
0.050781
0.044922
-0.061035
-0.021973
-0.11475
-0.039063
0.066895
0.067383
-0.061035
0.028809
-0.13477
-0.0097656
-0.099121
-0.0073242
0.051758
0.0024414
0.084961
-0.067383
-0.012207
-0.067383
0.057617
-0.027344
-0.13428
0.066406
0.086914
-0.033691
-0.071777
-0.065918
-0.01416
-0.0039063
-0.011719
0.039551
0.12988
-0.050781
0.015625
0.042969
-0.074219
0.069336
0.0078125
-0.019043
0.04834
0.1416
-0.080078
0.015625
-0.038086
0.029785
-0.032227
0.069824
0.086914
0.058594
0.044922
0.12109
0.098145
-0.13037
0.00097656
-0.050293
-0.10596
0.028809
0.056152
0.062012
0.018066
-0.042969
-0.0029297
0.0092773
-0.041992
-0.026855
-0.057129
-0.024902
-0.025391
0.12207
0.016602
0.01709
-0.0043945
0.011719
0.013184
-0
-0.00048828
0.047852
0.036133
-0.047363
0.024902
0.085938
-0.14063
-0.07373
0.0083008
0.062012
-0.078613
0.0097656
-0.0625
-0.0019531
-0.046387
-0.0048828
-0.057617
-0.069824
0.0029297
-0.1377
-0.061035
0.02832
0.086426
-0.25684
-0.05127
0.024902
-0.1123
-0.037598
0.0092773
0.0053711
-0.029785
-0.010254
-0.097656
-0.00048828
-0.0097656
0.080566
-0.0029297
0.070801
-0.011719
-0.081543
0.070801
-0.030273
0.13672
0.075195
-0.071289
-0.10693
0.063477
-0.1084
-0.074707
-0.07373
0.066406
0.070313
-0.034668
0.011719
0.086914
0.018066
0.14111
-0.084961
-0.027344
0.034668
-0.02832
0.022461
0.087402
0.10303
0.04834
0.060059
0.032715
-0.05127
0.016113
-0.049805
0.087402
-0.072754
0.09668
0.010254
0.10205
0.0083008
-0.075195
-0.02832
0.047363
0.015137
-0.018066
-0.069336
-0.1123
0.053223
-0.081055
0.019531
0.036133
-0.043945
-0.010742
0.012207
-0.021973
-0.11621
-0.019531
-0.04834
0.05127
-0.041016
0.063477
-0.0073242
-0.15869
0.031738
0.021973
-0.049805
0.013184
-0.026855
0.0083008
-0.053223
0.068359
0.12451
-0.035645
-0.040039
-0.091309
0.069824
0.11182
0.146
0.036621
-0.033203
-0.027832
0.088379
0.081543
-0.027832
-0.058594
-0.092773
-0.17773
0.044922
-0.052246
-0.010254
0.048828
-0.11914
-0.13086
-0.15918
-0.01709
0.12061
0.029785
-0.041992
-0.083496
0.11523
0.079102
0.029785
0.092285
-0.067383
0.063477
-0.0024414
0.026367
0.10645
-0.0063477
0.097656
-0.16211
0.056641
0.087402
0.089355
0.065918
-0.13135
0.0058594
0.003418
0.0048828
-0.0053711
-0.19775
-0.089844
0.17383
0.020508
-0.0058594
0.16846
-0.13037
-0.10889
-0.16895
-0.061035
-0.020508
-0.05957
-0.019043
0.013184
-0.072754
0.00097656
-0.087402
-0.075195
0.016602
0.081055
-0.080566
-0.018066
0.069824
-0.03418
0.011719
0.064453
0.032227
0.14941
-0.010742
-0.024414
0.099609
-0.017578
0.070313
-0.010742
-0.063477
-0.018066
0.062988
-0.039551
0.050293
0.062988
-0.069336
-0.019531
0.074219
-0.1543
-0.12207
0.029785
-0.010254
0.051758
0.025879
-0.024902
-0.080566
0.01123
0.0068359
-0.047852
0.027832
0.11035
-0.08252
-0.00048828
-0.017578
-0.089844
0.085938
-0.10059
0.14551
-0.091797
-0.087402
0.015625
0.031738
0.023438
0.04541
-0.040527
-0.0014648
-0.080078
-0.070313
-0.091309
-0.21045
-0.0073242
-0.033203
-0.024902
-0.091309
-0.047852
0.13379
-0.099609
-0.0048828
0.076172
0.079102
0.12939
0.10645
0.10156
0.041016
0.041504
0.078613
-0.038574
-0.1792
0.024902
-0.022949
0.0073242
0.076172
0.024414
0.071777
-0.12646
0.10205
-0.066895
0.088379
0.011719
-0.10645
-0.04248
0.0083008
0.098633
-0.032715
-0.080566
0.083984
0.11328
-0.1333
0.09668
-0.070801
-0.023438
-0.052734
-0.13232
-0.023438
0.16699
0.097656
-0.01123
-0.097168
-0.083496
-0.1709
-0.079102
-0.032227
-0.17627
-0.039063
-0.068359
-0.048828
0.104
0.07373
0.13721
0.046387
-0.038574
-0.061035
-0.016113
0.075195
0.069336
0.1084
0.10791
0.010254
0.047363
-0.019531
-0.12012
0.0053711
0.067383
0.16016
-0.011719
0.030762
-0.038574
-0.10547
-0.16162
-0.10742
0.1416
-0.068359
-0.092773
0.021973
0.026367
0.010742
0.0043945
0.044922
-0.098633
0.070801
0.14893
-0.01123
-0.0625
0.099609
0.025391
-0.068359
0.013672
-0.069336
-0.15869
-0.03418
0.018066
0.18652
-0.014648
-0.037109
0.10938
0.06543
-0.0083008
-0.015137
0.02002
0.0039063
0.062012
-0.15918
0.010742
0.023438
-0.040039
-0.0092773
-0.019531
-0.040527
-0.11963
0.03125
-0.18896
0.003418
0.21143
0.11377
-0.0029297
-0.067871
0.010254
0.08252
-0.012207
0.066406
0.040039
0.1123
0.024414
-0.067871
-0.075684
-0.025879
0.17578
0.13623
0.063965
0.072754
0.15527
-0.087891
-0.089844
-0.19971
-0.015625
-0.13574
0.010742
-0.010742
0.033691
0.056152
-0.027832
0.030762
-0.14795
-0.1001
-0.053711
-0.11719
-0.033203
-0.097168
0.032715
0.023926
-0.019043
-0.065918
0.12109
-0.097168
-0.066406
0.0058594
-0.013672
-0.073242
-0.061035
-0.040039
0.026367
-0.018555
0.10986
-0.14648
-0.10596
0.067871
-0.078613
-0.14111
0.084473
-0.095703
-0.078613
0.0024414
-0.0019531
-0.04834
0.17773
-0.072266
0.10645
-0.084473
0.0048828
-0.10303
-0.082031
0.071777
0.028809
0.063965
0.074219
0.033691
-0.029297
-0.0068359
0.096191
0.023926
-0.09668
-0.075684
0.015625
0.057129
-0.024414
0.066406
-0.032715
-0.083008
0.058594
0.011719
0.11768
0.018555
-0.063477
0.069824
-0.0078125
-0.032715
-0.10059
-0.11865
-0.063965
0.053223
0.14746
-0.19043
0.015137
0.095215
0.10254
0.12061
-0.095703
-0.060547
0.050781
-0.11523
-0.097656
0.0097656
0.064453
-0.082031
-0.012207
-0.13086
-0.15479
0.042969
0
0.083496
0.01416
0.025879
-0.11133
0.022461
0.089844
0.041992
-0.13916
-0.041992
0.079102
0.019531
0.026855
-0.038086
-0.076172
0.019043
0.012207
-0.030762
0.047363
0.04834
0.12988
-0.017578
-0.030762
0.10645
-0.050293
-0.021973
-0.057129
-0.012695
0.049805
-0.053711
0.012695
0.039551
-0.018555
-0.11621
-0.010742
0.012695
0.12695
-0.076172
0.022949
0.016113
0.054199
0.043457
0.026855
0.011719
-0.040527
-0.0097656
-0.021484
0.11816
0.07666
0.11914
-0.072266
0.0092773
-0.048828
-0.082031
-0.049805
-0.0014648
0.17578
0.20068
-0.058105
-0.015625
0.10889
-0.041016
0.056152
-0.039551
0.075684
-0.14111
0.003418
0.14648
0.044434
-0.020996
0.082031
0.11035
0.11719
0.11377
0.019043
-0.079102
-0.080566
0.0024414
0.016602
0.041992
0.024902
-0.17236
0.067871
0.059082
-0.055176
0.062988
-0.079102
0.084961
-0.021484
-0.17725
0.14307
0.062012
-0.083008
-0.12305
-0.042969
0.077637
-0.073242
0.092285
0.017578
-0.24316
0.05957
-0.059082
0.033691
-0.031738
-0.080078
-0.049316
0.027832
0.066406
0.11182
-0.00097656
0.082031
0.015625
0.018066
-0.03418
0.05127
0.088379
-0.030762
0.024414
-0.09082
0.10693
-0.080078
0.082031
-0.075195
0.068359
-0.12744
-0.053711
0.16748
-0.028809
-0.070313
-0.046387
-0.086914
-0.09375
-0.0078125
0.03125
-0.0092773
0.16309
0.056152
0.14307
0.18994
0.055664
-0.1543
-0.077637
0.029785
-0.10596
-0.30469
-0.045898
-0.066895
-0.15674
-0.054688
-0.054199
-0.12061
-0.16406
0.22217
0.010742
0.088379
-0.019531
0.097168
-0.076172
-0.047852
0.032715
0.037109
-0.09375
0.025391
-0.029785
-0.125
0.13037
0.059082
0.07666
-0.018066
-0.025391
-0.13281
0.10791
-0.037598
0.049805
0.067383
0.14014
0.0097656
0.035156
-0.12305
-0.092285
-0.14941
0.069824
0.14648
0.035645
-0.10352
-0.11523
-0.10596
-0.040039
-0.12891
-0.0068359
0.030762
-0.057129
-0.064941
0.0014648
-0.013672
-0.14746
-0.075195
-0.020508
0.19727
0.049805
-0.052246
0.12793
-0.10938
0.12256
-0.1001
-0.090332
0.16211
0.078125
-0.081543
-0.15918
-0.1001
-0.023926
-0.049805
-0.080078
0.016602
-0.13623
0.027344
-0.043457
0.034668
0.043457
0.058594
-0.031738
-0.076172
0.088867
-0.078613
0.069336
-0.14502
-0.086426
-0.013184
-0.02832
0.021973
0.022461
-0.0087891
0.020996
-0.047363
-0.1665
0.0019531
0.088379
-0.047852
0.08252
-0.01709
-0.093262
0.043457
-0.094238
-0.11377
0.1333
0.072754
-0.16455
-0.074219
-0.075684
0.0097656
-0.060059
-0.14258
-0.10352
0.032227
-0.069336
-0.041992
0.012207
0.092285
-0.1499
0.0625
-0.12695
-0.17334
-0.035645
-0.047852
-0.068848
0.11914
0.0043945
0.097656
-0.033691
-0.039063
0.13916
-0.088867
-0.016602
0.013672
0.024414
0.16064
0.098145
0.066895
0.11523
-0.072754
0.10693
-0.03125
0.13867
-0.063477
0.0092773
0.11475
-0.048828
0.033203
0.10596
-0.28174
0.029297
0.075195
-0.06543
0.06543
-0.0083008
0.022461
0.02002
-0.079102
-0.026367
0.074219
-0.1665
-0.095703
0.054199
0.036133
0.07666
0.0083008
-0.047852
0.065918
0.13086
0.20654
-0.062988
-0.21289
0.021973
0.14111
-0.040527
-0.098633
0.043945
0.0087891
0.11816
-0.016602
0.041992
-0.056641
0.038574
0.057129
-0.11865
0.031738
-0.077148
0.079102
0.041016
-0.061523
0.079102
0.08252
0.069336
-0.037109
-0.2168
-0.13232
0.04834
0.082031
-0.063477
0.12354
0.0014648
0.092773
-0.14014
-0.0625
0.066895
-0.0097656
-0.056641
-0.037109
-0.10449
-0.053223
-0.08252
-0.041992
0.17139
0.04834
0.0053711
0.02832
0.044434
-0.11279
-0.039063
0.055176
0.030273
-0.083008
0.066895
-0.026855
0.013184
-0.049316
0.0087891
-0.011719
-0.014648
-0.035645
0.053711
-0.083496
0.012695
-0.1377
0.069336
-0.071289
0.039551
-0.11084
0.046875
0.02002
-0.066895
-0.21289
-0.12207
-0.036133
0.12891
0.033691
0.088379
0.15039
-0.11084
0.092773
-0.058105
-0.0063477
-0.11377
-0.086914
-0.16748
0.057129
0.04834
0.023926
-0.099609
0.039063
-0.10547
0.0058594
0.023926
0.035645
-0.14941
-0.078613
0.14014
0.039551
-0.027344
0.11035
0.045898
0.03418
-0.04834
0.015137
0.13574
0.0092773
0.1709
0.072754
-0.11914
0.020508
0.0625
0.11133
0.0029297
0.056641
0.11377
-0.033203
0.0083008
0.0024414
0.065918
-0.050781
0.097168
-0.12256
-0.023926
0.056152
0.10059
0.1001
0.085449
-0.048828
-0.060059
-0.084961
0.078613
-0.031738
-0.033691
0.037109
0.01416
-0.0043945
-0.040527
0.068848
-0.033203
-0.15527
0.077637
-0.083008
0.026855
0.02002
0.058105
-0.02002
0.057617
-0.056152
0.072754
0.027344
0.11133
0.021973
-0.02002
-0.030273
0.055176
-0.010254
-0.056641
0.035645
-0.02832
-0.12305
-0.058105
0.055176
-0.0014648
-0.014648
0.0625
0.019043
-0.032227
0.016113
-0.016602
0.082031
0.043945
-0.021973
0.12598
-0.10303
-0.10547
-0.04248
-0.31543
-0.13232
0.0024414
-0.00048828
-0.019043
-0.17773
0.11182
0.035156
-0.11279
-0.013184
0.059082
0.003418
-0.077637
-0.0058594
0.035645
-0.069824
-0.029785
0.14355
-0.022949
0.07959
-0.020508
-0.019531
0.10596
-0.13281
-0.0024414
-0.083496
-0.046875
0.024902
0.047363
-0.17334
-0.18848
0.078613
-0.0043945
-0.086914
0.11768
0.046387
0.12402
-0.024902
-0.04834
-0.12354
0.080566
0.091797
-0.023438
-0.012695
-0.052734
0.032227
0.014648
-0.091797
-0.047852
0.044434
0.16797
-0.040039
-0.022949
0.094727
0.052246
0.083008
0.24805
0.023926
-0.041992
-0.062012
0.03418
0.06543
-0.05957
-0.15918
0.0092773
-0.20361
0.09082
-0.18066
0.021973
0.051758
0.12744
0.01709
0.09082
0.12109
0.13086
-0.057617
0.034668
-0.092773
-0
0.073242
-0.094727
0.034668
-0.041504
-0.043945
-0.018066
-0.040527
0.14502
-0.10107
-0.024414
-0.016602
-0.13525
0.037109
0.093262
0.091797
-0.010254
-0.14746
0.11719
0.13721
-0.13086
0.045898
0.024902
-0.060547
0.18262
0.047363
0.0048828
0.13477
-0.056641
-0.077637
0.18311
-0.068848
0.11035
-0.003418
0.11377
-0.14502
0.071289
-0.018066
-0.090332
-0.053711
-0.0048828
-0.075195
-0.035156
-0.0039063
0.097656
0.013672
-0.12891
0.074219
0.097168
0.0097656
0.032715
0.013672
-0.072754
-0.10645
0.081543
0.056152
-0.22314
0.10254
0.18994
0.01416
-0.052734
-0.047852
0.093262
0.055176
0.093262
-0.091309
-0.04834
-0.020996
0.038086
-0.039063
0.059082
-0.00097656
0.0063477
0.092285
0.049316
-0.042969
0.039551
-0.0048828
-0.12939
0.0625
0.055664
-0.078125
-0.04541
0.044922
0.02002
-0.021484
-0.043457
0.023438
0.031738
-0.016602
0.00048828
0.018066
0.0092773
-0.072266
0.026855
0.036133
0.0053711
-0.047363
-0.019531
-0.059082
-0.0625
0.030273
-0.0014648
-0.073242
0.041504
0.075195
-0.030273
0.097168
-0.087891
-0.024902
-0.14941
-0.11719
0.01416
0.026367
0.061523
0.059082
0.02832
0
0.025391
-0.07959
0.18799
0.012695
-0.037598
-0.010742
0.12207
0.12549
0.040527
-0.094727
-0.15625
-0.095215
-0.11523
0.020508
0.16602
0.18018
-0.022949
0.092773
0.0058594
-0.01416
0.10889
-0.010742
-0.017578
-0.14307
-0.019531
-0.068359
-0.041016
-0.018066
-0.11963
0.14355
0.05957
-0.13477
-0.059082
-0.06543
0.041504
0.1416
-0.064453
-0.05127
0.12109
0.20508
0.019043
-0.0625
-0.055664
0.032715
0.09082
0.099609
-0.036133
-0.083496
0.04248
0.059082
-0.087891
-0.13428
0.15137
-0.12305
0.072754
-0.16162
0.036621
0.056152
0.016113
-0.092285
0.089355
-0.00048828
-0.036621
0.021484
0.054688
0.013184
0.0092773
-0.04834
-0.11475
0.058105
0.032715
-0.0083008
-0.11377
-0.043945
0.038086
0.029785
-0.31055
-0.051758
0.13086
0.12549
-0.055176
0.011719
0.064453
0.013672
0.00048828
-0.029785
0.083008
-0.019043
-0.074219
0.041016
-0.030762
0.024902
0.2002
-0.063965
-0.11133
0.16895
0.016113
0.1748
-0.020996
0.25635
0.29639
0.16357
0.043457
-0.0053711
0.085938
-0.024414
0.066895
-0.10791
-0.14258
-0.083496
-0.028809
-0.0073242
0.0058594
-0.16064
0.040039
0.17285
0.23193
-0.15674
-0.12061
0.16406
0.070313
-0.061035
0.053711
0.0097656
0.066406
-0.11768
-0.05957
-0.092773
0.078613
-0.047363
-0.0083008
-0.038574
-0.04541
-0.01709
-0.066406
-0.0024414
0.01416
-0.16992
0.048828
0.14746
-0.12061
0.025879
0.079102
-0.056152
0.023438
-0.03125
0.0043945
-0.12646
-0.068359
0.21582
-0.089844
0.018066
-0.029297
0.011719
0.072754
-0.031738
0.062988
0.22559
0.019043
-0.061035
0.011719
-0.09082
-0.069824
-0.14453
0.0019531
0.0019531
0.093262
0.032715
0.070801
-0.20947
-0.19189
0.10986
-0.1084
-0.023438
0.078613
-0.0024414
0.051758
0.14697
0.067383
0.21973
0.041016
0.029297
0.055664
0.081055
-0.052734
0.00097656
0.11377
0.030273
0.027344
-0.033691
0.050781
-0.10596
-0.0097656
-0.010254
-0.018555
0.041016
-0.12842
-0.079102
-0.10547
0.065918
0.066895
0.037109
-0.049316
0.07959
-0.14014
-0.032715
-0.094238
-0.13184
0.049316
0.013672
0.054199
-0.020508
-0.013672
-0.058594
0.14014
-0.11914
-0.033691
-0.023438
0.059082
0.0063477
0.0043945
-0.069336
-0.044922
-0.089355
-0.072266
0.15137
0.091797
0.072266
-0.077148
0.055664
0.08252
0.09375
0.067383
0.17285
0.14893
0.095215
-0.061035
0.13623
-0.010742
-0.0053711
0.12842
0.063965
0.027832
-0.054688
0.088379
0.039551
-0.089844
0.17725
-0.022461
-0.020996
-0.044922
-0.075684
0.04248
0.053711
0.036133
0.00048828
0.076172
0.15869
-0.021484
-0.20264
-0.050293
0.063477
-0.047363
0.026367
0.1001
-0.052246
-0.15479
-0.0092773
-0.098145
-0.12842
0.037109
0.0083008
0.04248
-0.10791
0.18213
0.048828
-0.09668
0.0092773
0.13867
0.052734
-0.092773
0.087891
-0.10596
0.016602
-0.069824
0.0029297
-0.010742
-0.089844
-0.027344
-0.12207
0.0097656
0.01416
-0.020996
-0.0039063
0.15967
-0.14014
-0.10498
-0.16113
0.024414
0
-0.0029297
-0.1499
-0.071289
0.0024414
0.050293
0.12549
0.077148
-0.095703
0.03418
0.050781
0.064941
0.12158
0.019043
0.19238
0.16211
-0.104
-0.097656
0.038574
0.20117
-0.20361
-0.0063477
0.11621
-0.02002
-0.012207
-0.11523
-0.04248
-0.049316
-0.036621
0.10596
-0.019043
0.21924
0.041016
-0.032227
0.066406
-0.25928
-0.046875
0.058594
0.056152
-0.12695
-0.057129
0.0043945
-0.018066
-0.0625
0.04541
-0.061523
0.10498
-0.092285
-0.18652
-0.015625
0.16162
-0.03125
-0.0058594
0.104
0.23975
-0.020996
-0.0048828
0.046875
0.00097656
-0.14014
-0.10498
-0.10352
0.17383
0.12939
0.043457
0.053223
-0.018066
0.055176
-0.070313
0.17578
0.039063
-0.12988
-0.11377
-0.0029297
0.10889
0.14893
-0.035156
-0.18555
-0.035645
-0.040039
0.036621
0.01709
0.052734
0.071289
-0.0024414
-0.10352
0.10107
-0.0053711
-0.12793
-0.01123
-0.017578
-0.037109
0.015137
0.099609
0.075195
0.10742
0.12305
-0.067871
-0.14941
-0.05957
0.14697
0.037598
0.05127
0.17383
-0.062988
-0.064453
-0.01123
-0.1543
0.07666
0.090332
-0.0073242
-0.075684
-0.038574
-0.046875
-0.062012
0.037598
-0.13232
0.027344
0.10107
-0.057617
0.07373
-0.020996
-0.10498
0.075195
-0.044922
0.066406
0.023438
0.084961
-0.048828
0.11572
-0.03125
-0.065918
-0.041504
0.023926
-0.049805
-0.094727
-0.09082
0.16113
0.043945
0.12451
-0.025879
0.090332
0.035156
-0.12109
0.088379
-0.092773
-0.028809
0.05957
0.12402
-0.003418
-0.070313
-0.091309
0.035645
0.0019531
-0.00048828
0.026855
0.087402
0.078613
0.14648
-0.04541
0.05957
-0.081055
0.015625
-0.0048828
-0.12012
0.00097656
0.10352
0.003418
0.064941
-0.087891
0.010254
-0.084473
-0.04834
-0.047852
-0.026367
0.061523
0.033691
0.0043945
-0.064453
-0.0043945
0.025879
0.064453
0.0048828
0.2207
-0.089844
0.027832
0.058594
-0.095703
0.038086
-0.0068359
-0.16211
-0.051758
-0.056152
-0.086426
-0.066895
-0.069336
-0.016602
0.12842
0.073242
-0.016113
0.089355
0.046875
0.10156
-0.087402
-0.036133
-0.13867
-0.11768
-0.13379
0.048828
0.099121
0.015625
-0.04541
0.00048828
-0.051758
-0.069824
0.14893
0.092773
0.044922
0.0068359
0.047852
0.0087891
-0.0078125
0.01709
-0.17773
-0.064941
0.025391
-0.19531
-0.067871
0.040039
0.059082
-0.055664
0.096191
0.02832
0.1123
-0.037598
0.14209
-0.029297
-0.081543
-0.059082
-0.12402
0.041504
0.054688
0.07959
-0.022949
-0.032715
0.12402
0.14014
-0.058594
0.081543
0.13379
0.031738
-0.042969
-0.041016
0.057129
0.020508
-0.076172
-0.016602
-0.047852
0.10254
0.079102
0.15088
-0.079102
-0.14502
0.03125
0.094238
0.075684
0.0625
-0.045898
0.033203
0.0014648
-0.015625
-0.074707
0.03418
-0.025879
0.125
0.048828
-0.11768
-0.03418
0.035156
0.084473
0.13525
-0.018066
-0.044434
0.09082
-0.035156
-0.080078
-0.08252
-0.027832
-0.18018
0.11475
-0.085938
-0.093262
0.024414
-0.030762
-0.12891
0.064941
-0.11914
0.029785
0.0068359
0.086426
-0.058105
0.044922
0.104
-0.050781
-0.070801
0.075195
0.097168
0.0053711
0.065918
0.052734
-0.015137
-0.010742
0.17334
0.049316
0.031738
0.072266
0.11328
0.075684
0.045898
-0.085938
0.065918
-0.18604
0.01123
-0.15137
-0.042969
-0.013184
0.073242
0.11377
-0.086914
0.0068359
-0.14014
0.1709
0.014648
0.0014648
0.054688
0.14111
-0.012695
0.089844
-0.032715
0.063477
-0.04541
0.061523
0.058105
-0.036621
-0.04248
-0.015625
0.061523
-0.083008
0.020996
0.011719
-0.067383
0.0053711
0.11768
0.13232
-0.083496
0.084961
-0.033203
0.046387
-0.013672
0.12451
-0.10645
0.22998
0.1167
0.12256
-0.083984
-0.017578
0.026367
-0.055176
0.043945
0.079102
0.071289
-0.0053711
-0.10938
-0.046387
-0.073242
0.024414
0.071289
-0.026367
-0.019531
0.025879
0.1333
0.16113
-0.17432
-0.1626
-0.036133
-0.23486
0.21045
0.058594
0.0063477
-0.035645
0.021973
-0.066406
0.027344
-0.012207
-0.12842
0.0092773
0.19971
-0.0019531
0.04248
-0.028809
0.083496
0.18213
0.15332
0.01123
0.18164
0.18164
-0.089844
0.10645
0.026367
-0.051758
-0.026855
-0.11133
0.050781
-0.086426
-0.12451
0.01123
-0.060547
-0.11914
0.098633
0.031738
-0.02002
0.0083008
-0.050781
0.21533
0.083984
-0.0048828
0.046387
0.082031
-0.033691
-0.0063477
0.060547
-0.11035
0.10107
0.030273
0.07959
-0.18408
0.044922
-0.044434
0.014648
0.10547
0.18018
0.099609
0.16113
0.091797
