-0.014648
0.019287
-0.041992
-0.043457
0.074463
-0.13696
0.17212
0.055908
-0.026123
0.077148
-0.0056152
-0.023193
-0.12695
-0.21411
0.0056152
-0.044189
0.084473
-0.044189
-0.0070801
0.017334
0.0271
0.18066
-0.104
-0.11865
-0.056641
0.053955
0.014893
0.078125
-0.11865
-0.019043
-0.052002
-0.088623
-0.019287
-0.093262
-0.13184
0.15039
-0.18481
0.20459
-0.031738
-0.021973
0.0065918
-0.0354
-0.11646
0.0058594
0.078613
0.084473
0.15991
-0.055176
0.04248
0.088379
-0.01416
-0.085449
-0.051514
0.12842
0.06958
-0.12012
-0.085205
-0.075928
0.073486
0.15186
0.21436
0.15649
-0.023682
-0.012207
0.049072
0.074219
-0.044189
-0.016846
0.029297
-0.0014648
0.029297
0.0092773
-0.0048828
-0.026855
-0.01001
0.10791
0.13867
-0.04834
-0.086914
-0.05835
0.023193
-0.069092
-0.039063
-0.066895
-0.15063
-0.12573
-0.029297
0.013428
-0.14575
-0.066162
0.023682
-0.056641
-0.16626
-0.046875
-0.011475
0.035889
-0.07666
0.075195
0.058594
-0.10742
-0.085693
0.075439
0.089844
0.11377
-0.12402
-0.12598
0.041016
0.012451
0.043701
-0.010742
-0.146
0.18262
-0.036621
0.043945
0.12231
-0.049072
0.0087891
-0.0095215
0.069336
-0.0021973
0.1167
-0.084717
-0.036865
-0.10205
0.03125
0.012695
0.030762
0.037842
-0.052002
0.036133
-0.14014
0.043701
-0.073242
0.0036621
0.091309
-0.052246
-0.11206
0.0058594
0.078857
-0.11475
0.069092
0.025391
-0.011963
-0.029297
0.146
0.092041
0.061523
0.092529
0.084229
0.15796
-0.091553
0.044678
0.020264
0.13037
-0.068115
0.043701
0.034668
-0.020264
0.043457
-0.052734
0.033936
-0.104
0.040283
0.10645
0.026123
-0.096191
-0.064941
-0.076416
0.14771
0.051025
0.12988
0.13867
0.18701
-0.0061035
-0.015137
0.1499
0.066895
-0.060547
-0.092041
-0.024902
0.092773
0.043213
0.053467
0.15454
0.044189
-0.001709
0.091797
-0.023682
0.14795
0.013184
-0.0065918
-0.0063477
0.0061035
-0.036133
-0.18945
0.039795
0.0046387
0.024658
0.092041
0.029053
0.034912
-0.10938
0.035645
0.056396
-0.016846
-0.060791
-0.079834
-0.065186
0.075684
-0.097168
-0.060303
-0.046143
0.07959
0.053711
0.10474
0.034668
0.13818
0.030518
0.020996
0.028564
-0.0026855
-0.047852
0.034668
0.048828
-0.091309
-0.034668
0.06543
0.033691
0.02124
-0.038086
-0.039307
-0.080078
-0.16064
0.036377
-0.067383
-0.015381
0.038574
0.037598
-0.047119
0.11426
-0.028076
0.1582
-0.1792
0.12744
0.027344
0.0021973
-0.04126
0.14893
0.094971
-0.10107
-0.13354
0.19531
-0.043701
-0.05957
-0.027344
-0.034424
-0.104
-0.1145
-0.1438
-0.057861
0.021729
-0.050293
-0.20313
-0.075684
0.022217
0.12378
0.12793
0.081299
-0.0896
0.075439
-0.14355
0.033936
0.033447
-0.013184
0.04834
0.14941
0.023926
-0.059326
-0.060303
0.11475
-0.13989
-0.12964
0.080811
-0.023926
-0.10986
0.084717
-0.04248
-0.062012
-0.0061035
0.049072
-0.07251
0.10571
0.02124
0.10327
0.21875
-0.22363
-0.069824
-0.045654
-0.10254
-0.19214
-0.08252
0.00073242
-0.0014648
-0.071289
0.022949
-0.14331
0.24512
-0.08252
-0.17432
-0.10889
0.086182
0.017822
0.025146
0.099365
0.15186
0.084717
-0.093018
-0.044434
0.094482
-0.038086
0.0036621
0.21851
0.17578
-0.064941
-0.060791
0.045166
0.066162
-0.14111
-0.047607
-0.11646
0.0070801
0.13013
-0.0073242
0.2041
0.13721
-0.10034
0.07251
0.012695
0.062744
0.10303
-0.11377
0.012695
-0.092773
0.092041
-0.032471
0.1687
0.02417
0.044922
-0.085938
0.069092
-0.022461
-0.14404
-0.15161
0.096436
0.0012207
0.091309
-0.064941
-0.047852
0.054199
-0.031982
-0.19946
-0.0019531
0.0026855
-0.014404
-0.13281
-0.15112
-0.030029
-0.13525
-0.040283
-0.038818
0.042969
-0.066406
-0.18799
0.024414
-0.028564
-0.032227
0.11841
-0.020264
0.036377
0.10034
0.021729
0.12939
0.039063
0.11816
-0.16455
-0.069336
-0.05835
0.10156
-0.035156
-0.1084
-0.11011
0.022705
0.022705
-0.16821
0.03833
0.072266
-0.0046387
0.0080566
0.040283
0.14111
0.11279
0.24146
-0.023193
0.046631
0.03125
0.031006
-0.0036621
-0.027344
-0.052734
0.094238
-0.02002
0.040283
0.0087891
0.067627
0.019531
0.033936
-0.14966
0.0014648
-0.06958
0.046387
-0.077393
-0.02417
0.0041504
-0.026855
-0.085205
0.064941
-0.14746
-0.16992
0.075928
-0.20654
-0.020996
-0.066162
0.07373
0.10352
0.012207
0.084717
0.13013
-0.019287
-0.14868
-0.046631
-0.020508
-0.01001
0.13403
-0.1189
0.11987
0.0097656
-0.0068359
0.0036621
-0.020508
0.15723
-0.059326
-0.14697
0.058838
0.027588
0.072754
0.048828
0.056641
0.012695
0.015869
-0.14551
-0.046875
0.054443
0.069092
0.03418
0.0061035
-0.076416
-0.055176
0.032959
0.25708
-0.17944
0.094971
0.010986
0.10425
0.0070801
0.046143
0.16333
0.072754
-0.031494
-0.040283
0.14746
0.035156
-0.019287
0.052979
0.022949
-0.065918
0.0090332
0.087891
-0.092041
0.091553
-0.036865
0.056641
0.085205
-0.0014648
-0.01123
0.098389
-0.0085449
0.0078125
-0.085449
-0.14502
0.05957
-0.01416
0.046143
0.05542
0.13159
-0.069092
0.104
0.13257
0.074463
-0.033936
-0.019287
0.095215
0.088623
-0.061035
0.0043945
0.0021973
0.0031738
-0.010254
0.034668
-0.048828
0.074463
0.11816
-0.0039063
0.015869
-0.040039
-0.019043
0.0078125
-0.0039063
-0.0056152
-0.02417
-0.015869
-0.00073242
0.032959
0.03833
-0.0031738
0.0041504
0.016846
0.032715
-0.0078125
0.023682
0.0063477
0.17114
0.065918
-0.0031738
-0.00048828
-0.036377
0.0012207
0.011963
0.04541
0.011475
0.0021973
-0.034424
0.010986
0.0014648
0.028564
0.012207
0.0043945
-0.016113
-0.0080566
0.0029297
0.022705
0.22607
-0.012207
0.053955
-0.013184
-0.042236
-0.020508
0.032959
0.028809
-0.0083008
0.021973
0.044434
0.03418
-0.031494
0.0073242
-0.036377
0
-0.026611
0.063477
-0.0036621
-0.064209
-0.14526
-0.025146
0.15332
-0.078613
-0.0031738
0.093018
-0.070068
-0.026611
-0.0070801
-0.04541
0.11841
0.080811
-0.014648
-0.13232
0.031006
-0.18115
0.12451
-0.014893
-0.023682
0.1958
0.075439
0.048584
-0.037842
-0.0048828
-0.02832
0.044434
0.0061035
0.055176
0.11182
0.070068
-0.078613
-0.12183
-0.02002
0.069824
0.06543
-0.045654
0.019531
-0.064453
0.020996
-0.11401
-0.072266
0.076416
0.012939
-0.077881
-0.1123
0.13843
-0.13989
-0.033203
0.07959
-0.016846
0.054199
0.0271
-0.039063
0.050781
-0.083984
0.01416
0.15186
-0.0019531
0.11548
0.0092773
-0.022949
0.27466
-0.012451
-0.083252
-0.031738
0.15234
-0.093506
0.053467
0.064697
0.16797
-0.10938
0.027588
-0.11499
-0.035889
0.012207
0.044189
-0.17432
-0.12817
-0.036133
0.22314
0.079346
-0.041016
0.1311
-0.12134
-0.0053711
-0.067627
-0.039307
-0.07251
-0.026611
0.13306
0.019775
0.11133
0.07959
0.16235
0.059326
0.15503
-0.13379
0.071777
-0.066162
-0.19482
0.15112
-0.0085449
0.14771
-0.10229
0.11743
-0.13721
-0.076172
-0.072266
-0.16797
-0.00097656
-0.087891
-0.14185
0.044678
0.20264
-0.074951
-0.14087
-0.19507
0.22388
-0.022705
0.042725
-0.056396
-0.017822
0.032715
0.031738
-0.22314
-0.15894
-0.056396
-0.003418
-0.05249
0.22583
-0.049316
0.096924
0.030762
0.091553
-0.082275
-0.031982
-0.072021
-0.069092
0.12891
-0.02002
-0.065186
0.029785
0.20288
-0.19873
0.028564
-0.049805
-0.090576
0.066895
0.031006
0.005127
0.039795
-0.10645
-0.11865
0.07373
-0.053955
0.0036621
-0.061279
-0.15674
0.084717
0.10327
-0.060303
0.1084
-0.21973
0.019043
0.041504
-0.0354
-0.063721
0.24609
0.12183
0.048096
0.072998
0.048096
0.051025
0.015381
0.15942
0.018799
0.018066
-0.12061
0.0024414
-0.12842
0.0024414
0.11841
-0.0896
-0.09668
-0.17114
-0.067139
-0.11963
-0.021484
-0.18408
0.10156
-0.0625
-0.079834
0.061035
0.0036621
-0.022949
0.13257
-0.040283
-0.0046387
0.013184
0.21143
-0.0029297
-0.15356
0.18481
-0.12183
0.036133
0.093506
-0.091309
-0.074951
-0.012695
-0.052246
-0.00024414
0.076416
-0.0065918
0.095459
-0.090576
0.080811
0.0031738
-0.14648
-0.012207
-0.10303
0.0041504
0.10718
0.16162
-0.15454
0.0043945
0.074219
-0.020752
-0.16626
-0.06958
0.070557
-0.10962
-0.001709
0.038574
-0.071533
0.12793
-0.11865
0.013428
0.07251
-0.146
-0.059814
0.062988
-0.099609
-0.049316
0.092285
0.032471
0.04248
0.049072
-0.094482
-0.095947
-0.16602
-0.14868
-0.12842
-0.032471
0.11353
0.0014648
0.0078125
-0.24927
0.22998
0.032227
-0.0046387
-0.017578
0.24219
-0.069336
-0.081299
-0.084961
-0.001709
-0.20874
0.022705
-0.00024414
-0.22607
-0.026855
0.19727
0.068359
0.013184
-0.046387
-0.14648
-0.096924
0.092773
-0.095703
0.013428
0.14478
-0.013672
-0.13135
0.066162
0.17236
0.015137
-0.11499
-0.03125
-0.15674
0.21411
0.037598
-0.14917
0.2771
0.03418
0.10303
-0.15137
0.18384
-0.088379
0.011475
-0.13232
-0.099609
-0.045654
-0.21997
-0.1123
0.024658
0.21704
-0.057617
-0.09375
-0.14355
0.36621
0.036621
0.00048828
-0.0031738
0.10205
0.043701
0.025635
0.10254
0.17725
-0.058105
-0.00048828
-0.12793
0.071045
-0.05542
-0.10132
-0.047363
0.08374
-0.086426
-0.088623
-0.04541
0.072754
0.14868
0.028076
0.092041
-0.056396
0.018311
-0.058105
-0.034912
-0.024658
-0.12622
-0.049561
0.093018
0.048584
0.07251
0.017334
-0.061279
-0.014404
0.0039063
-0.098389
0.031006
0.053955
-0.20923
-0.050781
0.11328
-0.13501
0.027832
0.19263
0.04126
-0.024414
-0.0087891
-0.01001
0.063232
0.17603
0.036865
-0.001709
0.025635
0.073975
0.059814
-0.19604
0.10303
-0.02002
-0.037109
0.090088
0.052734
-0.003418
-0.072998
0.10205
-0.1377
0.077637
0.11426
0.053467
0.094727
0.025635
-0.063965
-0.12695
-0.023682
-0.033691
0.048096
-0.099854
0.014404
0.03833
-0.037354
-0.044678
0.074951
0.037109
0.036621
0.022461
0.014648
-0.095703
0.14111
0.010742
0.026123
0.046875
-0.028564
0.050781
-0.16772
-0.012939
0.042969
-0.12671
-0.0031738
0.07959
0.06665
-0.14966
-0.020996
-0.07959
0.10864
0.084229
-0.13745
-0.098389
0.050049
-0.12891
0.07373
0.068115
-0.083252
0.027588
-0.088379
0.068115
-0.049805
0.044922
-0.036621
-0.15405
0.09082
0.087402
-0.038574
0.11011
0.053223
-0.080811
0.068115
0.049316
0.040039
0.08667
0.062988
0.052979
-0.043457
-0.024414
0.027344
-0.02124
0.029541
0.028076
0.11621
0.042725
0.23315
0.09375
0.0092773
-0.062988
0.053711
0.13599
-0.0043945
0.055908
0.060059
-0.055908
0.033691
0.043945
-0.086182
0.13745
-0.0063477
0.040771
-0.088623
-0.057373
-0.083984
-0.054932
-0.083252
0.12769
0.015137
-0.096191
-0.067139
0.095215
-0.045898
0.046631
0.046387
0.017822
0.093506
-0.0036621
-0.23242
-0.0048828
0.010986
0.016602
-0.11255
-0.0065918
-0.08374
0.1062
0.029297
0.10278
0.06543
0.10132
0.11597
-0.0979
-0.00048828
-0.11157
-0.050781
-0.15552
0.11865
-0.013672
-0.046143
-0.052246
0.19141
-0.14307
-0.073242
-0.22021
0.0097656
-0.053223
-0.043945
0.10791
0.2002
0.10913
-0.1543
-0.0092773
-0.0065918
0.036865
0.22217
0.12744
0.072754
0.063232
0.080322
0.19458
0.14722
-0.19678
-0.091309
-0.019287
0.052979
-0.0080566
0.098633
-0.042725
0.074707
-0.050049
-0.029297
-0.071777
-0.17334
0.011963
0.041504
-0.030029
-0.02002
0.11646
-0.016846
-0.12549
-0.0026855
-0.05957
0.10449
-0.03125
-0.051758
-0.017334
0.041504
0.13965
-0.16748
-0.031494
-0.045654
0.08374
0.087158
0.1062
0.13721
-0.078613
-0.023926
-0.081787
-0.11499
0.12109
0.075439
-0.12476
0.16479
0.068604
-0.056885
-0.090332
-0.14575
0.0075684
-0.1731
-0.035889
0.012939
0.046631
-0.059326
0.020752
-0.064941
0.075439
0.048828
-0.056396
-0.011963
0.022217
-0.054199
-0.11401
-0.034424
0.005127
0.10132
0.030518
-0.018066
-0.14697
-0.075439
-0.048584
0.13477
-0.11938
0.021973
0.0014648
0.13306
-0.032227
-0.10327
-0.011719
-0.059814
-0.072754
-0.045654
-0.040039
-0.012451
0.039307
-0.001709
0.00024414
0.0092773
-0.12012
-0.10669
0.044922
0.036377
0.056885
0.053955
0.12354
0.02832
-0.028564
-0.0036621
-0.19458
0.077881
0.068848
-0.051514
-0.061523
0.1106
-0.013916
0.039063
-0.046143
0.041748
-0.082764
0.056396
0.023193
0.055176
0.14478
0.11182
-0.051025
0.065186
-0.067383
-0.054932
0.084961
-0.076416
-0.0039063
0.23389
-0.032471
-0.0046387
0.047119
0.081299
0.057373
-0.063477
-0.11035
-0.0896
-0.098389
-0.041992
0.045654
0.032715
-0.031494
-0.057861
0.0012207
0.085205
-0.039307
-0.082764
0.13867
0.14282
0.10547
-0.10986
-0.044922
0.11768
0.037109
0.023438
0.023193
0.057129
-0.063477
0.098145
0.0625
0.090088
-0.0036621
0.037842
0.011963
0.11328
0.026367
-0.029297
-0.011475
-0.090088
0.0014648
0.11133
-0.06958
0.10254
0.023682
-0.053955
-0.035645
-0.030029
-0.036133
-0.027832
-0.039063
-0.12769
0.0070801
0.046631
0.10156
-0.052979
0.0039063
-0.031982
0.2146
0.12256
-0.045654
-0.18823
0.053467
0.003418
-0.0061035
0.030518
-0.033691
0.061768
-0.047852
-0.1106
-0.001709
-0.022705
0.032959
0.013428
0.030029
0.28809
0.02002
-0.057373
0.092285
0.017334
-0.077881
-0.055664
-0.17554
0.025635
-0.094727
0.02417
0.050293
-0.0021973
-0.13257
0.088867
-0.049561
0.049316
0.0354
0.055908
-0.075195
-0.040283
-0.043701
0.017578
-0.068115
0.072998
-0.029541
-0.080078
-0.072021
-0.039551
-0.097168
0.11914
-0.055176
-0.11914
0.063721
-0.098877
-0.10693
0.14282
-0.09082
0.034668
0.022705
-0.028809
-0.10034
-0.049561
-0.019531
0.025391
-0.053223
-0.049561
0.046875
0.056152
0.14673
-0.059082
0.043945
0.005127
-0.00024414
-0.075439
-0.065674
0.1123
0.057617
0.14697
-0.042969
-0.0080566
0.093262
-0.020752
-0.070557
-0.0087891
-0.27881
-0.049805
-0.15576
0.08252
-0.014404
0.029053
-0.083984
0.02832
0.080811
-0.036377
0.01416
0.07959
-0.11353
-0.12134
-0.07251
0.027344
-0.12598
0.061279
0.14233
-0.01709
0.10718
0.13477
0.013184
0.057129
-0.018311
-0.024414
0.064941
-0.018555
0.043701
0.057373
-0.16553
0.0085449
-0.045654
0.070068
0.027588
-0.091064
0.15771
0.067871
0.15625
-0.067139
-0.022217
0.0063477
0.0271
-0.073975
-0.095703
0.05249
0.023682
0.082275
-0.03833
0.06543
-0.07959
-0.056152
0.0014648
-0.017334
0.11157
-0.15356
-0.044434
0.11206
-0.010498
0.10718
-0.1084
-0.15063
-0.03833
-0
0.04126
-0.072754
-0.060791
-0.11572
0.0092773
0.0043945
-0.023438
-0.021484
-0.055908
-0.027832
-0.097656
0.14868
0.05957
0.076172
-0.092773
-0.11401
-0.043457
0.034668
0.052246
0.047119
0.02832
0.0092773
0.057129
0.099609
-0.14917
0.13062
-0.065918
0.025879
-0.12305
-0.088623
-0.0021973
-0.029053
-0.025879
-0.073486
-0.049072
-0.075195
-0.028809
0.016357
-0.12012
-0.10596
-0.054932
-0.15137
0.050781
-0.11865
0.037842
-0.088379
-0.081543
0.066162
-0.070801
-0.019775
0.082275
0.022461
0.035156
-0.010986
0.023926
0.14355
0.059326
-0.12085
0.056885
0.071045
0.077637
-0.012939
-0.022461
-0.0021973
0.16821
-0.15918
-0.031494
-0.14038
0.080566
-0.066406
0.082764
-0.051514
-0.12427
-0.043701
0.015869
-0.049316
-0.1167
-0.17139
0.078369
-0.030762
0.1272
0.18262
-0.099365
0.011475
-0.014648
-0.085205
0.051025
0.146
0.019287
0.17725
-0.097656
0.12378
0.017334
0.035156
-0.16968
-0.018311
0.087891
0.056396
-0.0078125
0.0029297
-0.092041
0.067627
0.10864
0.031982
0.24121
-0.024902
0.0031738
-0.025146
0.08252
0.017822
-0.0048828
0.14575
-0.081055
0.014893
0.031494
-0.021729
-0.094971
0.1001
-0.10107
-0.12085
0.048828
0.058105
-0.041992
0.16235
-0.015869
-0.081055
-0.026367
-0.057373
-0.016602
-0.16235
0.12402
-0.031494
0.061035
-0.0625
0.06665
0.0097656
-0.031006
0.067383
-0.25
0.10986
0.040283
-0.047363
0.0012207
-0.078857
0.031982
-0.077393
-0.079834
0.013184
0.050049
-0.0085449
0.056152
-0.068848
-0.2334
-0.045898
0.056885
0.091064
-0.013184
0.080078
-0.0036621
-0.021484
-0.055908
0.023926
-0.12622
-0.026367
-0.15649
-0.14429
-0.16895
-0.047119
0.16089
0.0053711
-0.069824
-0.18042
-0.1123
-0.17505
-0.012939
0.13159
-0.01709
-0.003418
0.083496
-0.16968
-0.0354
0.033691
-0.031738
0.16504
-0.052734
0.07251
0.091309
-0.13818
0.0085449
-0.12061
-0.061768
-0.023926
-0.10156
-0.05957
0.12964
-0.012207
-0.17725
-0.15088
-0.077637
0.02002
0.14233
-0.17432
0.040527
0.029053
-0.09082
-0.0068359
0.023438
0.12378
-0.037842
-0.12378
0.073242
-0.12402
0.0026855
0.099365
-0.1001
-0.06665
-0.12891
-0.056641
-0.19336
0.21436
-0.015381
0.00073242
0.030029
-0.06958
-0.14551
-0.074463
0.074463
-0.14966
0.026855
-0.059814
-0.12939
-0.16748
-0.084961
-0.041992
-0.062256
-0.074219
-0.092041
-0.0979
0.048096
0.13354
0.067383
-0.083496
-0.032227
-0.046387
0.24536
-0.01416
-0.11353
-0.084961
-0.0979
-0.079834
-0.066162
0.017334
-0.093018
-0.13843
0.083496
0.12427
-0.047363
-0.018555
-0.063721
0.17065
0.14624
0.03833
-0.15552
-0.0024414
0.23901
0.019531
-0.026855
-0.075439
-0.017334
0.16479
0.095459
-0.025879
0.047607
0.050049
-0.046387
-0.048584
0.0068359
0.26807
0.030762
0.17017
0.022949
0.057129
-0.10596
0.0090332
-0.0075684
-0.0046387
0.16992
-0.15576
0.075684
0.063965
0.036377
-0.12378
-0.10498
0.0083008
0.095459
0.083008
-0.025635
-0.10547
0.080322
0.073975
0.15039
-0.024658
0.069336
0.075439
0.035156
0.025635
-0.0048828
-0.07666
0.014648
-0.052246
-0.17603
0.05127
0.027344
0.14453
0.048584
0.054932
0.09668
0.12695
0.12183
0.046143
0.096924
0.018311
-0.14233
-0.018555
-0.093994
-0.0043945
0.11572
0.11792
-0.091553
-0.02124
-0.0029297
-0.0014648
0.104
0.12793
-0.086426
-0.073486
-0.0021973
-0.24878
0.052002
-0.0073242
0.18799
0.055664
0.12524
-0.011963
-0.0012207
-0.075439
-0.0068359
0.043945
0.033691
-0.23682
-0.19556
0.018799
0.090576
-0.0026855
-0.010498
-0.10913
0.075439
-0.070801
-0.0058594
0.055664
0.06543
-0.01001
-0.030029
0.032715
-0.073975
-0.0056152
0.050049
0.01416
-0.049805
0.00073242
0.044922
-0.16479
-0.025879
0.033447
0.080322
-0.033203
0.0068359
-0.0073242
-0.080811
-0.032227
-0.054932
-0.063965
0.0065918
0.10449
0.0024414
-0.0063477
-0.056641
0.074219
-0.0031738
0.05542
-0.088867
-0.19067
0.11328
0.10425
0.00048828
-0.054443
-0.052002
0.019775
0.10645
0.040039
-0.022949
0.00097656
-0.055176
0.085449
0.045654
-0.049316
0.042969
-0.014893
-0.029541
0.048096
-0.0041504
-0.25342
0.0625
0.01416
0.02417
-0.064209
-0.014404
-0.011963
-0.0065918
0.021973
0.041016
0.017822
-0.055664
0.047852
0.016846
-0.025391
-0.016357
-0.17578
-0.003418
0.085938
-0.00097656
-0.00024414
0.071533
-0.10596
-0.023926
0.081299
0.015381
-0.035645
0.0083008
0.025635
-0.025879
-0.078613
0.087402
0.146
0.10107
0.01709
-0.041016
0.0031738
0.092529
0.014648
0.012451
-0.11914
0.049072
-0.036377
0.067139
0.079834
0.022705
-0.0031738
0.088379
-0.19287
-0.10693
-0.027832
0.04834
0.052002
0.02002
-0.018311
0.01709
0.059082
0.037109
-0.067383
-0.019531
-0.041992
-0.11304
0.038818
-0.11548
-0.10718
0.14038
-0.03833
0.13696
0.084229
-0.072754
0.10815
0.010498
-0.029297
-0.087891
0.0063477
0.030762
0.0036621
-0.067627
-0.090088
-0.15015
0.0056152
-0.038818
0.19897
-0.093018
-0.081543
0.025879
0.010254
-0.098877
-0.017578
-0.067139
0.005127
-0.027588
-0.22803
-0.041992
-0.10864
-0.016602
0.041504
-0.12939
0.00024414
0.046143
0.026611
0.20215
-0.0048828
-0.029785
0.031494
0.055908
0.074463
0.069336
-0.28296
0.049316
0.034668
-0.0041504
-0.057861
0.062256
0.0029297
0.023926
-0.024414
0.082764
0.02417
-0.067627
-0.12256
-0.097656
0.026855
0.00024414
0.046387
0.125
-0.03833
0.024414
-0.0078125
0.11987
-0.068848
-0.14746
-0.0070801
0.005127
0.03833
-0.053955
0.089111
0.037842
-0.19922
-0.057373
0.05957
-0.1521
-0.15625
0.029053
-0.11377
-0.003418
-0.016602
0.082764
-0.010254
0.10864
-0.015381
-0.0029297
0.0354
0.052734
0.10303
0.11646
0.16504
0.0021973
0.050537
0.17896
-0.19385
0.0075684
0.035156
0.040039
0.084229
-0.10205
0.063477
-0.019775
0.078857
0.030762
-0.025146
-0.10181
-0.06665
0.11841
-0.05542
0.051514
0.0021973
0.13916
-0.11035
0.097656
0.11938
0.13623
0.12744
0.095459
-0.043701
-0.068115
-0.019531
-0.12622
0.075195
0.12402
0.07666
-0.11255
-0.055908
0.14722
-0.0065918
0.024414
-0.051758
-0.14917
-0.14331
0.00073242
0.032959
0.042725
0.12915
-0.019043
-0.10718
-0.12085
0.067627
-0.15942
0.083008
0.0012207
-0.10571
0.12134
-0.12451
-0.034912
-0.020264
-0.083252
0.024414
0.17749
0.0053711
-0.095703
0.0019531
0.13599
-0.085693
-0.10352
0.012451
-0.0070801
-0.081543
0.052002
-0.012451
-0.018555
-0.16504
-0.0046387
0.07251
0.021729
0.010254
-0.16089
-0.028809
-0.2019
-0.056152
-0.15942
0.2666
0.018555
-0.025879
0.15479
0.13452
0.10474
-0.010254
0.016113
-0.018799
-0.0979
0.11743
0.080566
-0.047119
0.057373
0.049072
-0.23926
-0.092529
-0.024414
0.055908
0.056885
0.17603
0.0625
0.038086
0.027344
0.053467
0.059814
0.0029297
-0.17358
0.040039
0.068848
0.067627
0.1958
-0.098633
-0.050781
-0.053467
-0.17139
0.024414
0.017578
-0.091797
-0.059326
0.065918
-0.014648
-0.003418
0.0085449
0.16309
0.050781
0.044922
-0.061035
-0.022217
-0.11475
-0.039063
0.067139
0.067383
-0.061035
0.028809
-0.13477
-0.0095215
-0.099121
-0.0073242
0.051758
0.0024414
0.085205
-0.067139
-0.011963
-0.067383
0.057617
-0.027588
-0.13428
0.06665
0.086914
-0.033691
-0.071777
-0.065918
-0.01416
-0.0039063
-0.011719
0.039307
0.13013
-0.050537
0.015625
0.043213
-0.074463
0.069336
0.0080566
-0.019043
0.04834
0.1416
-0.079834
0.015625
-0.037842
0.029541
-0.032227
0.070068
0.086914
0.05835
0.044922
0.12085
0.098389
-0.13062
0.0012207
-0.050049
-0.10596
0.028809
0.056152
0.062012
0.018066
-0.043213
-0.0026855
0.0092773
-0.041992
-0.026855
-0.057373
-0.024902
-0.025635
0.12183
0.016357
0.01709
-0.0043945
0.011719
0.013184
-0.00024414
-0.00048828
0.047607
0.036133
-0.047119
0.024902
0.085693
-0.14063
-0.073486
0.0083008
0.062012
-0.078613
0.0097656
-0.062744
-0.0019531
-0.046631
-0.005127
-0.057617
-0.069824
0.0031738
-0.1377
-0.061279
0.028076
0.08667
-0.25708
-0.051514
0.024658
-0.11255
-0.037598
0.0095215
0.0056152
-0.030029
-0.010254
-0.0979
-0.00048828
-0.01001
0.080322
-0.0029297
0.071045
-0.011719
-0.081543
0.070801
-0.030273
0.13672
0.075439
-0.071289
-0.10669
0.063232
-0.10864
-0.074463
-0.07373
0.06665
0.070313
-0.034912
0.011475
0.086914
0.018066
0.14087
-0.084961
-0.027588
0.034912
-0.028564
0.022461
0.087158
0.10303
0.048096
0.059814
0.032471
-0.051025
0.016113
-0.049805
0.087158
-0.072754
0.096924
0.010498
0.10229
0.0083008
-0.075439
-0.028076
0.047363
0.015137
-0.018311
-0.069336
-0.11206
0.052979
-0.080811
0.019775
0.036133
-0.044189
-0.010986
0.012207
-0.021973
-0.11646
-0.019531
-0.048584
0.05127
-0.041016
0.063477
-0.0073242
-0.15869
0.031738
0.021973
-0.049805
0.013428
-0.0271
0.0085449
-0.053223
0.068359
0.12427
-0.035889
-0.039795
-0.091553
0.06958
0.11182
0.14624
0.036621
-0.033203
-0.028076
0.088623
0.081299
-0.028076
-0.05835
-0.092773
-0.17773
0.044922
-0.05249
-0.01001
0.048828
-0.1189
-0.13062
-0.15918
-0.017334
0.12085
0.029541
-0.041992
-0.083252
0.11523
0.078857
0.029785
0.092529
-0.067627
0.063477
-0.0024414
0.026611
0.1062
-0.0065918
0.0979
-0.16187
0.056641
0.087158
0.0896
0.066162
-0.13135
0.0056152
0.003418
0.0048828
-0.005127
-0.19751
-0.089844
0.17383
0.020508
-0.0061035
0.1687
-0.13037
-0.10889
-0.1687
-0.060791
-0.020264
-0.05957
-0.018799
0.012939
-0.072754
0.00073242
-0.087402
-0.075439
0.016846
0.080811
-0.080322
-0.017822
0.070068
-0.033936
0.011719
0.064209
0.031982
0.14966
-0.010742
-0.02417
0.099609
-0.017822
0.070068
-0.010742
-0.063721
-0.018066
0.062988
-0.039795
0.050049
0.062988
-0.069336
-0.019775
0.073975
-0.15454
-0.12207
0.029785
-0.010498
0.051514
0.025879
-0.024658
-0.080566
0.01123
0.0065918
-0.047607
0.027832
0.1106
-0.08252
-0.00048828
-0.017578
-0.089844
0.085693
-0.10034
0.14575
-0.092041
-0.087402
0.015869
0.031738
0.023438
0.04541
-0.040283
-0.0014648
-0.080078
-0.070557
-0.091309
-0.21045
-0.0073242
-0.033203
-0.024902
-0.091309
-0.047852
0.13354
-0.099365
-0.0048828
0.076172
0.079102
0.12939
0.10645
0.10156
0.040771
0.04126
0.078613
-0.038574
-0.1792
0.024902
-0.022949
0.0070801
0.076172
0.02417
0.071777
-0.12646
0.10205
-0.067139
0.088379
0.011475
-0.10669
-0.042236
0.0080566
0.098877
-0.032715
-0.080322
0.083984
0.11328
-0.13354
0.09668
-0.070801
-0.023682
-0.052979
-0.13232
-0.023438
0.16724
0.097656
-0.010986
-0.097168
-0.083496
-0.1709
-0.079346
-0.032227
-0.17603
-0.039063
-0.068359
-0.049072
0.104
0.07373
0.13721
0.046387
-0.03833
-0.060791
-0.016357
0.075195
0.069336
0.1084
0.10791
0.01001
0.047363
-0.019531
-0.12036
0.0053711
0.067383
0.16016
-0.011963
0.030518
-0.03833
-0.10547
-0.16162
-0.10742
0.14185
-0.068359
-0.093018
0.021973
0.026123
0.010498
0.0041504
0.044922
-0.098877
0.070801
0.14893
-0.010986
-0.062256
0.099609
0.025391
-0.068115
0.013916
-0.069336
-0.15845
-0.034424
0.017822
0.18652
-0.014648
-0.037109
0.10913
0.065674
-0.0083008
-0.015381
0.020264
0.0041504
0.062256
-0.15918
0.010742
0.023682
-0.040039
-0.0092773
-0.019531
-0.040527
-0.11963
0.03125
-0.18872
0.0036621
0.21143
0.11401
-0.0031738
-0.067871
0.010254
0.082275
-0.012451
0.066406
0.040039
0.1123
0.02417
-0.067871
-0.075684
-0.025879
0.17554
0.13623
0.064209
0.07251
0.15527
-0.087646
-0.089844
-0.19995
-0.015869
-0.13574
0.010986
-0.010498
0.033691
0.056152
-0.028076
0.030518
-0.14771
-0.1001
-0.053467
-0.11743
-0.033203
-0.097168
0.032715
0.023926
-0.018799
-0.065674
0.12134
-0.097412
-0.066406
0.0061035
-0.013428
-0.072998
-0.061279
-0.040039
0.026611
-0.018311
0.10986
-0.14673
-0.10596
0.067871
-0.078369
-0.14111
0.084473
-0.095947
-0.078857
0.0024414
-0.0019531
-0.048096
0.17773
-0.072266
0.10645
-0.084229
0.0046387
-0.10303
-0.082275
0.071777
0.028809
0.063965
0.074219
0.033936
-0.029297
-0.0070801
0.095947
0.023926
-0.096436
-0.075439
0.015625
0.057129
-0.024658
0.066162
-0.032471
-0.083008
0.058594
0.011475
0.11768
0.018555
-0.063477
0.06958
-0.0078125
-0.032715
-0.10083
-0.11865
-0.063965
0.053223
0.14746
-0.19019
0.014893
0.095215
0.10254
0.12036
-0.095947
-0.060547
0.050781
-0.11523
-0.097656
0.01001
0.064453
-0.082275
-0.012207
-0.13086
-0.15479
0.042969
0.00024414
0.083496
0.01416
0.025635
-0.11133
0.022705
0.0896
0.041992
-0.13916
-0.041992
0.079346
0.019775
0.026855
-0.037842
-0.076172
0.019287
0.011963
-0.031006
0.047363
0.048096
0.12988
-0.017334
-0.030762
0.1062
-0.050293
-0.021973
-0.057373
-0.012695
0.049805
-0.053711
0.012695
0.039307
-0.018555
-0.11621
-0.010742
0.012939
0.1272
-0.076416
0.022949
0.015869
0.054199
0.043457
0.026855
0.011719
-0.040527
-0.01001
-0.02124
0.11816
0.07666
0.11914
-0.072266
0.0092773
-0.048584
-0.081787
-0.049561
-0.0014648
0.17554
0.20068
-0.05835
-0.015625
0.10889
-0.04126
0.056152
-0.039551
0.075684
-0.14111
0.003418
0.14648
0.044678
-0.020752
0.082275
0.1106
0.11743
0.11353
0.019043
-0.079102
-0.080566
0.0024414
0.016357
0.041992
0.024902
-0.17236
0.067871
0.058838
-0.055176
0.062988
-0.079346
0.085205
-0.021484
-0.17725
0.14307
0.062256
-0.083008
-0.12305
-0.042969
0.077637
-0.072998
0.092529
0.017578
-0.24316
0.059814
-0.059082
0.033447
-0.031494
-0.080322
-0.049316
0.027832
0.066162
0.11206
-0.00097656
0.082031
0.015869
0.017822
-0.034424
0.051025
0.088623
-0.030518
0.02417
-0.091064
0.10718
-0.079834
0.082031
-0.074951
0.068359
-0.12769
-0.053955
0.16748
-0.028809
-0.070557
-0.046143
-0.086914
-0.09375
-0.0078125
0.03125
-0.0092773
0.16309
0.056152
0.14307
0.1897
0.055664
-0.15454
-0.077881
0.029541
-0.10596
-0.30469
-0.046143
-0.066895
-0.15674
-0.054688
-0.054443
-0.12061
-0.16406
0.22217
0.010742
0.088379
-0.019531
0.096924
-0.076416
-0.047852
0.032715
0.037109
-0.09375
0.025635
-0.029785
-0.125
0.13037
0.059326
0.076904
-0.017822
-0.025391
-0.13281
0.10791
-0.037842
0.049805
0.067383
0.14014
0.01001
0.034912
-0.12305
-0.092285
-0.14941
0.06958
0.14624
0.0354
-0.10327
-0.11523
-0.1062
-0.040283
-0.12866
-0.0065918
0.030762
-0.057129
-0.065186
0.0014648
-0.013672
-0.14746
-0.075195
-0.020264
0.19727
0.050049
-0.052246
0.12769
-0.10962
0.1228
-0.1001
-0.090576
0.16235
0.078369
-0.081299
-0.15942
-0.10034
-0.023926
-0.049805
-0.079834
0.016846
-0.13647
0.027588
-0.043457
0.034668
0.043213
0.058594
-0.031738
-0.076172
0.089111
-0.078857
0.069336
-0.14478
-0.08667
-0.013184
-0.02832
0.021973
0.022461
-0.0090332
0.020996
-0.047607
-0.16626
0.0021973
0.088135
-0.048096
0.082275
-0.01709
-0.093262
0.043457
-0.093994
-0.11401
0.13354
0.072754
-0.16431
-0.074463
-0.075684
0.0095215
-0.060059
-0.14258
-0.10327
0.032227
-0.069336
-0.041748
0.012451
0.092285
-0.14966
0.062744
-0.1272
-0.17334
-0.035645
-0.047607
-0.068848
0.11914
0.0043945
0.097412
-0.033936
-0.039307
0.13916
-0.088867
-0.016602
0.013672
0.024414
0.16064
0.098145
0.066895
0.11548
-0.072998
0.10693
-0.03125
0.13843
-0.063232
0.0095215
0.11475
-0.048828
0.033203
0.1062
-0.28149
0.029541
0.075195
-0.06543
0.06543
-0.0080566
0.022217
0.02002
-0.079102
-0.026611
0.074219
-0.16626
-0.095459
0.054199
0.036133
0.07666
0.0083008
-0.047852
0.066162
0.13062
0.2063
-0.062988
-0.21313
0.022217
0.14087
-0.040527
-0.098633
0.044189
0.0090332
0.11841
-0.016357
0.041992
-0.056641
0.038574
0.057129
-0.11865
0.031738
-0.077393
0.079346
0.040771
-0.061768
0.078857
0.08252
0.069336
-0.037109
-0.2168
-0.13232
0.04834
0.082031
-0.063477
0.12354
0.0014648
0.092529
-0.14014
-0.062744
0.06665
-0.01001
-0.056641
-0.037109
-0.10449
-0.053223
-0.08252
-0.041992
0.17163
0.04834
0.005127
0.02832
0.044434
-0.11255
-0.038818
0.055176
0.030273
-0.083008
0.06665
-0.026855
0.012939
-0.049072
0.0090332
-0.011475
-0.014404
-0.035645
0.053711
-0.083496
0.012695
-0.1377
0.06958
-0.071533
0.039551
-0.1106
0.047119
0.02002
-0.066895
-0.21289
-0.12207
-0.036377
0.12891
0.033447
0.088379
0.15015
-0.11108
0.092773
-0.058105
-0.0063477
-0.11377
-0.087158
-0.16772
0.057373
0.048096
0.02417
-0.099609
0.039063
-0.10547
0.0058594
0.023926
0.035645
-0.14917
-0.078369
0.13989
0.039551
-0.027344
0.11011
0.046143
0.03418
-0.04834
0.014893
0.13599
0.0095215
0.17065
0.072998
-0.11914
0.020508
0.0625
0.11133
0.0029297
0.056885
0.11353
-0.033203
0.0083008
0.0024414
0.065918
-0.051025
0.097168
-0.12256
-0.023926
0.056396
0.10083
0.099854
0.085449
-0.048828
-0.060059
-0.085205
0.078369
-0.031738
-0.033447
0.037109
0.01416
-0.0041504
-0.040771
0.068604
-0.033447
-0.15503
0.077637
-0.083252
0.0271
0.02002
0.057861
-0.02002
0.057373
-0.055908
0.07251
0.0271
0.11108
0.021729
-0.02002
-0.030273
0.054932
-0.010254
-0.056641
0.0354
-0.02832
-0.1228
-0.058105
0.055176
-0.0012207
-0.014893
0.062256
0.019287
-0.032227
0.016113
-0.016357
0.081787
0.044189
-0.021973
0.12598
-0.10327
-0.10547
-0.04248
-0.31543
-0.13257
0.0024414
-0.00048828
-0.019287
-0.17798
0.11182
0.034912
-0.11255
-0.013428
0.059082
0.0036621
-0.077637
-0.0056152
0.035889
-0.069824
-0.029785
0.14331
-0.022949
0.07959
-0.020752
-0.019775
0.1062
-0.13281
-0.0024414
-0.08374
-0.047119
0.025146
0.047363
-0.17358
-0.18823
0.078613
-0.0043945
-0.086914
0.11768
0.046143
0.12402
-0.024902
-0.048096
-0.12354
0.080322
0.091553
-0.023438
-0.012695
-0.05249
0.031982
0.014404
-0.091797
-0.048096
0.044678
0.16797
-0.040039
-0.023193
0.094971
0.052246
0.083252
0.24805
0.023926
-0.042236
-0.061768
0.03418
0.06543
-0.059814
-0.15918
0.0092773
-0.20361
0.090576
-0.18066
0.022217
0.051758
0.1272
0.01709
0.091064
0.12109
0.1311
-0.057861
0.034912
-0.092773
-0.00024414
0.073242
-0.094727
0.034668
-0.041748
-0.043945
-0.018311
-0.040527
0.14502
-0.10107
-0.02417
-0.016602
-0.13525
0.036865
0.093018
0.091797
-0.010254
-0.14746
0.11719
0.13745
-0.13086
0.045898
0.024902
-0.060791
0.18237
0.047363
0.0048828
0.13477
-0.056641
-0.077393
0.18335
-0.068604
0.11011
-0.003418
0.11353
-0.14526
0.071045
-0.017822
-0.090332
-0.053955
-0.0048828
-0.075195
-0.035156
-0.0041504
0.097656
0.013916
-0.12891
0.074219
0.097168
0.0097656
0.032715
0.013428
-0.072998
-0.10669
0.081543
0.056396
-0.22314
0.10254
0.1897
0.013916
-0.05249
-0.047852
0.093262
0.054932
0.093262
-0.091553
-0.048096
-0.02124
0.03833
-0.039063
0.059082
-0.00097656
0.0063477
0.092041
0.049316
-0.042725
0.039307
-0.0046387
-0.12939
0.062256
0.05542
-0.078369
-0.04541
0.044678
0.019775
-0.021484
-0.043457
0.023682
0.031494
-0.016846
0.00048828
0.017822
0.0092773
-0.072266
0.026855
0.036133
0.0053711
-0.047363
-0.019531
-0.058838
-0.062744
0.030518
-0.0012207
-0.073242
0.041748
0.075195
-0.030029
0.097412
-0.087891
-0.024902
-0.14917
-0.11694
0.014404
0.026611
0.061523
0.058838
0.02832
0.00024414
0.025391
-0.079834
0.18774
0.012695
-0.037598
-0.010498
0.12207
0.12524
0.040527
-0.094727
-0.15649
-0.095215
-0.11523
0.020752
0.16577
0.18042
-0.022705
0.092529
0.0058594
-0.014404
0.10913
-0.010742
-0.017578
-0.14307
-0.019531
-0.068359
-0.04126
-0.018066
-0.11963
0.14355
0.05957
-0.13477
-0.059082
-0.06543
0.041504
0.1416
-0.064453
-0.051514
0.12109
0.20508
0.019043
-0.0625
-0.055664
0.032471
0.09082
0.099609
-0.036377
-0.08374
0.04248
0.058838
-0.088135
-0.13428
0.15137
-0.12305
0.072754
-0.16187
0.036865
0.056396
0.015869
-0.092285
0.089111
-0.00024414
-0.036377
0.021484
0.054688
0.013428
0.0095215
-0.048584
-0.1145
0.058105
0.032715
-0.0085449
-0.11377
-0.043701
0.038086
0.029785
-0.31055
-0.051758
0.13062
0.12524
-0.054932
0.011719
0.064453
0.013672
0.00024414
-0.030029
0.082764
-0.019043
-0.074219
0.041016
-0.031006
0.025146
0.2002
-0.063965
-0.11108
0.16895
0.016113
0.17456
-0.020752
0.2561
0.29663
0.16382
0.043457
-0.0053711
0.085938
-0.024414
0.066895
-0.10767
-0.14258
-0.083252
-0.028564
-0.0073242
0.0058594
-0.16064
0.039795
0.17285
0.23169
-0.15674
-0.12036
0.16406
0.070068
-0.060791
0.053467
0.0097656
0.066406
-0.11743
-0.059326
-0.092773
0.078857
-0.047363
-0.0080566
-0.03833
-0.04541
-0.016846
-0.06665
-0.0024414
0.01416
-0.17017
0.048584
0.14746
-0.12061
0.026123
0.079102
-0.056396
0.023438
-0.03125
0.0046387
-0.12671
-0.068115
0.21582
-0.089844
0.018066
-0.029541
0.011475
0.07251
-0.031982
0.062744
0.22534
0.018799
-0.060791
0.011475
-0.090576
-0.06958
-0.14453
0.0021973
0.0021973
0.093262
0.032715
0.070801
-0.20923
-0.19189
0.10962
-0.10815
-0.023193
0.078613
-0.0024414
0.051758
0.14697
0.067139
0.21948
0.041016
0.029541
0.055908
0.081055
-0.052734
0.00097656
0.11401
0.030029
0.027344
-0.033691
0.050537
-0.10596
-0.0097656
-0.010498
-0.018555
0.041016
-0.12817
-0.079346
-0.10547
0.065674
0.066895
0.036865
-0.049316
0.079346
-0.13989
-0.032471
-0.094482
-0.13184
0.049316
0.013916
0.053955
-0.020508
-0.013428
-0.058594
0.13989
-0.11914
-0.033936
-0.023682
0.059082
0.0063477
0.0046387
-0.069092
-0.044922
-0.089355
-0.072266
0.15161
0.092041
0.072021
-0.077148
0.055908
0.082275
0.093506
0.067139
0.17285
0.14917
0.095215
-0.060791
0.13647
-0.010742
-0.0053711
0.12842
0.063965
0.028076
-0.054443
0.088135
0.039551
-0.090088
0.17725
-0.022705
-0.020996
-0.044922
-0.075684
0.042236
0.053467
0.036377
0.00048828
0.076416
0.15894
-0.021729
-0.20239
-0.050293
0.063477
-0.047119
0.026367
0.1001
-0.052246
-0.15503
-0.0095215
-0.098145
-0.12817
0.037109
0.0085449
0.04248
-0.10791
0.18188
0.049072
-0.096924
0.0092773
0.13867
0.052734
-0.093018
0.088135
-0.1062
0.016357
-0.069824
0.0029297
-0.010742
-0.089844
-0.027588
-0.12183
0.0095215
0.01416
-0.020996
-0.0041504
0.15967
-0.14014
-0.10522
-0.16138
0.024414
0.00024414
-0.0026855
-0.14966
-0.071533
0.0021973
0.050293
0.12524
0.076904
-0.095459
0.03418
0.050537
0.064941
0.12158
0.019287
0.19238
0.16187
-0.10376
-0.0979
0.038574
0.20117
-0.20361
-0.0065918
0.11646
-0.019775
-0.012451
-0.11523
-0.04248
-0.049316
-0.036865
0.10571
-0.019287
0.21924
0.041016
-0.032227
0.066406
-0.25952
-0.046875
0.058594
0.056396
-0.1272
-0.057129
0.0043945
-0.017822
-0.0625
0.04541
-0.061279
0.10498
-0.092285
-0.18677
-0.015625
0.16138
-0.03125
-0.0058594
0.10376
0.23975
-0.020996
-0.005127
0.046631
0.00097656
-0.14014
-0.10522
-0.10352
0.17383
0.12939
0.043457
0.052979
-0.018066
0.055176
-0.070557
0.17578
0.038818
-0.13013
-0.11377
-0.0029297
0.10864
0.14917
-0.035156
-0.18579
-0.035645
-0.040039
0.036377
0.01709
0.052734
0.071533
-0.0024414
-0.10352
0.10083
-0.0053711
-0.12769
-0.01123
-0.017578
-0.037354
0.015381
0.099854
0.075195
0.10767
0.12305
-0.067871
-0.14941
-0.059814
0.14673
0.037354
0.05127
0.17383
-0.062988
-0.064453
-0.011475
-0.15405
0.07666
0.090332
-0.0070801
-0.075684
-0.038574
-0.046875
-0.062256
0.037598
-0.13232
0.027344
0.10132
-0.057373
0.07373
-0.020752
-0.10474
0.075195
-0.044922
0.066162
0.023438
0.084717
-0.048828
0.11572
-0.03125
-0.065918
-0.041504
0.02417
-0.049561
-0.094971
-0.09082
0.16113
0.043945
0.12451
-0.026123
0.090088
0.035156
-0.12085
0.088135
-0.093018
-0.028564
0.05957
0.12402
-0.003418
-0.070313
-0.091309
0.035889
0.001709
-0.00048828
0.026855
0.087402
0.078613
0.14624
-0.045166
0.05957
-0.080811
0.015869
-0.0046387
-0.12036
0.0012207
0.10352
0.003418
0.064941
-0.088135
0.010254
-0.084229
-0.04834
-0.047607
-0.026367
0.061279
0.033447
0.0041504
-0.064697
-0.0046387
0.025879
0.064209
0.005127
0.22046
-0.089844
0.027832
0.058594
-0.095947
0.038086
-0.0068359
-0.16187
-0.052002
-0.056152
-0.086182
-0.066895
-0.069092
-0.016846
0.12842
0.073242
-0.016113
0.089355
0.046875
0.10156
-0.087402
-0.036133
-0.13892
-0.11743
-0.13403
0.048584
0.098877
0.015625
-0.045654
0.00073242
-0.051758
-0.06958
0.14893
0.092773
0.044922
0.0068359
0.047607
0.0087891
-0.0080566
0.01709
-0.17773
-0.064941
0.025146
-0.19531
-0.067871
0.040039
0.059082
-0.055664
0.096191
0.02832
0.1123
-0.037598
0.14209
-0.029297
-0.081787
-0.059082
-0.12427
0.041748
0.054443
0.079834
-0.022949
-0.032959
0.12427
0.14014
-0.05835
0.081543
0.13379
0.031738
-0.042725
-0.041016
0.057129
0.020508
-0.076416
-0.016846
-0.047852
0.10254
0.079102
0.15088
-0.079102
-0.14478
0.03125
0.093994
0.075684
0.0625
-0.045898
0.033447
0.0012207
-0.015381
-0.074707
0.033936
-0.025879
0.12524
0.048828
-0.11792
-0.034424
0.0354
0.084229
0.13525
-0.018066
-0.044189
0.091064
-0.0354
-0.080322
-0.082764
-0.027832
-0.18018
0.1145
-0.085938
-0.093018
0.02417
-0.030762
-0.12891
0.064941
-0.11914
0.029541
0.0068359
0.086426
-0.058105
0.044678
0.104
-0.050781
-0.070557
0.075195
0.096924
0.0053711
0.066162
0.052734
-0.015137
-0.010742
0.17334
0.049316
0.031982
0.072266
0.11353
0.075439
0.045898
-0.085693
0.065674
-0.18604
0.011475
-0.15137
-0.042969
-0.012939
0.073486
0.11401
-0.086914
0.0068359
-0.13989
0.17114
0.014648
0.0012207
0.054688
0.14087
-0.012939
0.089844
-0.032715
0.063721
-0.04541
0.061768
0.058105
-0.036865
-0.042725
-0.015869
0.061523
-0.083008
0.020752
0.011963
-0.067383
0.0053711
0.11743
0.13208
-0.083252
0.085205
-0.033203
0.046387
-0.013672
0.12451
-0.10669
0.22998
0.1167
0.1228
-0.083984
-0.017334
0.026611
-0.055176
0.043945
0.078857
0.071289
-0.005127
-0.10938
-0.046387
-0.073242
0.024414
0.071533
-0.026367
-0.019287
0.026123
0.1333
0.16089
-0.17407
-0.16235
-0.036133
-0.23511
0.21021
0.058594
0.0063477
-0.035889
0.021729
-0.06665
0.027344
-0.011963
-0.12842
0.0090332
0.19995
-0.0019531
0.04248
-0.028564
0.08374
0.18237
0.15332
0.010986
0.18164
0.18164
-0.090088
0.1062
0.026123
-0.052002
-0.026611
-0.11133
0.051025
-0.08667
-0.12427
0.01123
-0.060547
-0.11938
0.098389
0.031738
-0.02002
0.0083008
-0.050781
0.21533
0.084229
-0.005127
0.046387
0.082031
-0.033691
-0.0065918
0.060303
-0.11011
0.10107
0.030273
0.079346
-0.18433
0.044922
-0.044434
0.014404
0.10522
0.18018
0.099609
0.16113
0.091797
