1.108478102833032608e-02
6.031231954693794250e-03
5.377576500177383423e-02
3.228062530979514122e-03
-5.645941942930221558e-03
-1.425213366746902466e-02
9.011989086866378784e-02
-4.134232178330421448e-02
-8.904017508029937744e-02
-4.351951554417610168e-02
-1.002627611160278320e-01
-7.431893795728683472e-02
1.739884726703166962e-02
5.795187875628471375e-02
5.244668200612068176e-02
6.620418280363082886e-02
-9.240686893463134766e-02
-7.161904126405715942e-02
-2.539088204503059387e-02
1.534115290269255638e-03
-9.931197017431259155e-02
6.541147083044052124e-02
-4.286745097488164902e-03
2.089588716626167297e-02
-1.559885032474994659e-02
-6.750449538230895996e-03
2.971765398979187012e-02
7.612348068505525589e-03
4.437902942299842834e-02
1.400967501103878021e-02
6.057566031813621521e-02
1.662091165781021118e-02
7.377209141850471497e-03
5.074199661612510681e-02
2.576884627342224121e-02
-3.232276812195777893e-02
-3.458010032773017883e-02
-4.125452786684036255e-02
-1.103777438402175903e-01
2.566552534699440002e-02
-5.648599192500114441e-02
-3.347728028893470764e-02
2.912778034806251526e-02
2.597868070006370544e-02
-5.339164752513170242e-03
-1.247979402542114258e-01
-5.659314617514610291e-02
1.129283569753170013e-02
2.151464112102985382e-02
2.636590600013732910e-02
3.071640804409980774e-02
6.002278253436088562e-02
-3.859358653426170349e-02
2.548443712294101715e-02
1.072153728455305099e-02
1.379073038697242737e-02
5.744675290770828724e-04
-1.329039409756660461e-02
-2.513808198273181915e-02
-2.305206097662448883e-02
8.095369488000869751e-02
5.073104053735733032e-02
-3.135755285620689392e-02
-2.709558606147766113e-02
8.221717178821563721e-02
1.956411823630332947e-02
3.604815155267715454e-02
-3.251858428120613098e-02
-1.012740507721900940e-01
6.829601526260375977e-02
5.035984143614768982e-02
-3.093268536031246185e-02
-2.422827994450926781e-03
7.553643733263015747e-02
2.279996126890182495e-02
-1.609204150736331940e-02
-3.537018969655036926e-02
-8.030989021062850952e-02
3.055394627153873444e-02
5.168408527970314026e-02
-1.509494148194789886e-02
9.340262040495872498e-03
-3.051947569474577904e-03
2.350760623812675476e-02
1.341999508440494537e-02
4.348219186067581177e-02
-2.065219916403293610e-02
-2.522555366158485413e-02
8.135414682328701019e-03
-2.858745865523815155e-03
-9.883649647235870361e-02
8.903383463621139526e-02
-1.477713603526353836e-02
3.323948383331298828e-02
-5.085493251681327820e-02
1.212538871914148331e-02
5.222143605351448059e-02
5.999425193294882774e-04
-4.141013324260711670e-02
3.906711190938949585e-02
6.959234178066253662e-02
-4.090166091918945312e-02
-1.666323840618133545e-02
-4.931397270411252975e-03
1.880104094743728638e-02
-5.431131273508071899e-02
-3.787702322006225586e-02
4.318877682089805603e-02
1.704690232872962952e-02
3.238384425640106201e-02
4.415022954344749451e-02
-7.226574816741049290e-04
4.508911445736885071e-02
1.029138546437025070e-02
-3.810388222336769104e-02
4.017756506800651550e-02
-4.687731340527534485e-02
-2.605004049837589264e-02
4.656908661127090454e-02
-2.354914136230945587e-02
5.475514754652976990e-02
8.162965066730976105e-03
2.691033296287059784e-02
1.984662562608718872e-02
8.489496074616909027e-03
-4.122743010520935059e-02
-9.394890069961547852e-02
7.504345476627349854e-02
7.694597542285919189e-02
-2.953089959919452667e-02
-2.210188098251819611e-02
7.772715296596288681e-03
1.339257415384054184e-02
2.574587799608707428e-02
-2.849381975829601288e-02
1.230228971689939499e-02
-1.154022570699453354e-02
2.734248898923397064e-02
-1.003745757043361664e-02
-5.312624853104352951e-03
2.363464981317520142e-02
3.397626429796218872e-02
-4.918359592556953430e-02
2.760640904307365417e-02
-3.809886798262596130e-02
5.162436049431562424e-03
-4.513946920633316040e-02
1.308160019107162952e-03
-2.768201939761638641e-02
-5.353582557290792465e-03
-4.902205616235733032e-02
-4.044610634446144104e-02
-1.050368323922157288e-02
-9.750763885676860809e-03
-2.707924321293830872e-02
2.476038783788681030e-02
1.318113040179014206e-02
-3.153630718588829041e-02
-1.040995307266712189e-02
-2.514842711389064789e-02
1.471993420273065567e-02
-5.451074615120887756e-02
2.602245844900608063e-02
-3.042355738580226898e-02
1.525593805126845837e-03
3.433090448379516602e-02
1.930517517030239105e-02
7.897899486124515533e-04
1.699988730251789093e-02
3.370597213506698608e-02
-3.151160851120948792e-02
-1.533155236393213272e-02
9.950848296284675598e-03
-6.353407353162765503e-02
-2.487875334918498993e-02
-9.206292778253555298e-02
-8.764986414462327957e-04
4.422460123896598816e-02
4.726120084524154663e-02
5.795592069625854492e-02
-7.973582483828067780e-03
2.959041297435760498e-02
-2.408922277390956879e-02
-4.115450009703636169e-02
-2.694548107683658600e-02
-5.256613716483116150e-02
-3.412724286317825317e-02
5.722529441118240356e-02
9.212377481162548065e-04
4.801781475543975830e-02
-6.380455940961837769e-02
-3.015178255736827850e-02
2.467943727970123291e-02
-2.147310599684715271e-02
9.482487104833126068e-03
-2.729529049247503281e-03
4.621433094143867493e-02
1.596993766725063324e-02
1.210810896009206772e-02
6.743258982896804810e-02
1.696962490677833557e-02
-5.853309296071529388e-03
-1.634927652776241302e-02
3.787288814783096313e-02
-3.181322291493415833e-02
2.621414387249387801e-05
7.430894300341606140e-03
3.725243732333183289e-02
4.256692528724670410e-02
-1.604284159839153290e-02
-1.445620786398649216e-02
-1.360818557441234589e-02
1.795629784464836121e-02
-2.100337762385606766e-03
-4.707949608564376831e-02
-3.180813044309616089e-02
-1.026896573603153229e-02
-1.907741837203502655e-02
1.182293985038995743e-02
4.817171022295951843e-02
-2.252889424562454224e-02
9.969304315745830536e-03
7.995232008397579193e-03
-4.936495097354054451e-04
8.094838820397853851e-03
1.504575088620185852e-02
1.556737907230854034e-02
5.740132182836532593e-02
4.875870421528816223e-03
7.923069596290588379e-02
8.498781919479370117e-02
-1.388374716043472290e-02
-1.406021695584058762e-02
-3.436973318457603455e-03
-2.140503190457820892e-02
4.359432205092161894e-04
-1.583631522953510284e-02
-3.884612768888473511e-02
-3.364679217338562012e-02
-1.683802530169487000e-02
1.134742237627506256e-02
-2.820566296577453613e-03
-4.331333190202713013e-02
3.907569497823715210e-02
-1.920364424586296082e-02
9.548024833202362061e-02
-7.071118801832199097e-02
9.308176115155220032e-03
2.758186683058738708e-02
5.485928058624267578e-02
-3.877042792737483978e-03
-7.087361067533493042e-03
2.710146643221378326e-02
3.476128354668617249e-02
2.788206562399864197e-02
7.191570103168487549e-02
-2.311671525239944458e-02
4.235680401325225830e-02
4.345371201634407043e-02
-2.759395726025104523e-02
2.587757259607315063e-02
-2.170983515679836273e-02
-9.114325977861881256e-03
-7.155092805624008179e-02
-3.951868787407875061e-02
1.223555952310562134e-02
-8.919375948607921600e-03
2.762452140450477600e-02
-1.875435933470726013e-02
1.078259013593196869e-02
-2.226264914497733116e-03
1.705876179039478302e-02
2.115338854491710663e-02
5.220809578895568848e-02
4.197148978710174561e-02
2.891440503299236298e-02
-6.566910538822412491e-03
6.863679736852645874e-03
-2.136358246207237244e-02
-1.924671116285026073e-03
-1.443922892212867737e-02
-6.262926384806632996e-03
1.474544871598482132e-03
-8.345889858901500702e-03
-6.183844525367021561e-03
-1.804280653595924377e-02
5.488240346312522888e-02
-1.373755745589733124e-02
-1.319344155490398407e-02
-4.229703173041343689e-02
-1.475439406931400299e-02
-1.107308268547058105e-02
2.383259497582912445e-02
2.086874470114707947e-02
7.764117326587438583e-03
-5.159727111458778381e-02
-1.583399367518723011e-03
1.906439661979675293e-02
-5.266664549708366394e-02
-4.690004885196685791e-02
5.796600505709648132e-02
1.458260696381330490e-02
-3.340990841388702393e-02
-2.276126528158783913e-03
-5.537856835871934891e-03
3.713047504425048828e-02
-3.018487989902496338e-02
2.797995880246162415e-02
3.968635201454162598e-02
5.009879358112812042e-03
8.184592239558696747e-03
-3.213908523321151733e-02
5.157193541526794434e-02
-3.773123770952224731e-02
-5.008869804441928864e-03
-2.297425642609596252e-02
-4.095853865146636963e-02
-4.122143611311912537e-02
3.740755841135978699e-02
6.784878671169281006e-03
3.569636493921279907e-02
-2.286410890519618988e-02
3.004982136189937592e-02
-5.450929980725049973e-03
1.371095771901309490e-03
2.905359305441379547e-02
-1.996132486965507269e-04
-3.396034240722656250e-03
1.141697261482477188e-02
-2.695930935442447662e-02
-3.421076573431491852e-03
-3.353415429592132568e-02
-1.228593196719884872e-02
-2.263090386986732483e-02
8.287884294986724854e-03
-4.140229430049657822e-03
4.921967908740043640e-02
2.774972468614578247e-02
-9.811392053961753845e-03
2.885698154568672180e-02
-1.047249045222997665e-02
-2.231986960396170616e-03
-2.701821364462375641e-02
-3.707892447710037231e-02
3.440921893343329430e-03
-1.889728941023349762e-03
3.547507524490356445e-02
-2.253990992903709412e-02
4.961322061717510223e-03
-3.085951134562492371e-02
-4.607262834906578064e-02
2.122250199317932129e-02
-9.341324120759963989e-02
6.496404111385345459e-02
-6.247047334909439087e-03
-2.962768264114856720e-02
6.365791341522708535e-05
-1.339788315817713737e-03
-1.694071106612682343e-02
8.826712146401405334e-03
-2.500124089419841766e-02
-3.693980351090431213e-02
4.228786856401711702e-04
-3.006907179951667786e-02
-2.307376265525817871e-02
2.171172015368938446e-02
-4.666280001401901245e-03
-2.815591916441917419e-02
-5.259621888399124146e-02
3.858894575387239456e-03
-2.932204492390155792e-02
2.588567696511745453e-02
-3.114738874137401581e-02
-5.767880938947200775e-03
3.788711503148078918e-02
-1.892639324069023132e-02
3.918096423149108887e-02
1.222998742014169693e-02
-3.213354945182800293e-02
-5.142230540513992310e-03
-4.049628507345914841e-03
-1.486207358539104462e-02
4.251702129840850830e-02
3.647243976593017578e-02
-3.790922835469245911e-02
1.990188658237457275e-02
1.331801619380712509e-02
2.992356382310390472e-02
-2.628905139863491058e-02
-8.877783082425594330e-03
-4.013439267873764038e-02
4.241961240768432617e-02
4.530216008424758911e-02
3.695280477404594421e-02
-1.737223006784915924e-02
-2.535094320774078369e-02
1.730125164613127708e-03
-2.175421826541423798e-02
-8.108468726277351379e-03
2.657389733940362930e-03
-3.889751434326171875e-02
1.948131807148456573e-02
2.503384836018085480e-02
-2.501630410552024841e-02
5.868016523891128600e-05
-2.992305904626846313e-02
7.405463606119155884e-03
-4.571746662259101868e-02
1.302743423730134964e-02
2.908531017601490021e-02
2.267480082809925079e-02
1.728982292115688324e-02
-2.097518183290958405e-03
-2.227158471941947937e-02
-1.202695593237876892e-01
6.978503894060850143e-03
-4.552250728011131287e-02
1.490480150096118450e-03
4.734971374273300171e-02
7.753194868564605713e-02
2.888569049537181854e-02
1.182120572775602341e-02
5.746359750628471375e-02
1.514133345335721970e-02
-4.566081240773200989e-02
3.508750721812248230e-02
-3.128928318619728088e-02
-1.013882923871278763e-02
1.235738862305879593e-02
6.625411659479141235e-02
4.459349438548088074e-02
-3.004624880850315094e-02
2.824134426191449165e-03
4.586110822856426239e-03
2.973731793463230133e-02
-5.489480681717395782e-03
3.099150583148002625e-02
5.064658075571060181e-02
5.215713754296302795e-02
-4.482476785778999329e-02
1.936397515237331390e-02
4.655222967267036438e-02
1.831262931227684021e-02
-4.888142645359039307e-02
-2.981009427458047867e-03
4.778309166431427002e-02
2.978284610435366631e-03
2.418625913560390472e-02
5.070644989609718323e-02
6.869804114103317261e-02
-5.811701994389295578e-03
-8.225399069488048553e-03
9.370163083076477051e-03
3.373442962765693665e-02
3.497491776943206787e-02
-6.147798616439104080e-03
1.795585080981254578e-02
5.275905641610734165e-05
4.005092009902000427e-02
-6.202514097094535828e-02
-2.788786776363849640e-02
-3.390749543905258179e-02
1.229333877563476562e-02
-3.002781607210636139e-02
-9.877965785562992096e-03
-1.804505661129951477e-02
2.964366227388381958e-02
1.593300112290307879e-04
-1.029970496892929077e-02
7.295173592865467072e-03
4.480226337909698486e-02
5.552597716450691223e-02
1.954939030110836029e-02
2.855367772281169891e-02
-7.867052219808101654e-03
4.270301759243011475e-02
5.251656100153923035e-02
3.388570994138717651e-02
-2.749002724885940552e-02
-8.777891285717487335e-03
-3.042040765285491943e-02
-6.821688264608383179e-03
1.481681014411151409e-03
1.123546808958053589e-02
-1.803710870444774628e-02
2.399758808314800262e-02
1.546573638916015625e-02
4.478814825415611267e-02
-1.995596662163734436e-02
7.231720257550477982e-03
4.960109665989875793e-02
6.048843637108802795e-02
-3.909754753112792969e-02
3.794364631175994873e-02
-8.730947156436741352e-04
9.897378087043762207e-02
-2.975536882877349854e-02
2.845065854489803314e-02
-2.850952558219432831e-02
-3.306763246655464172e-02
4.695817828178405762e-02
-2.101407200098037720e-02
-1.083461847156286240e-02
-4.172625765204429626e-02
4.040986765176057816e-03
2.165875048376619816e-04
4.452367126941680908e-02
-2.329059690237045288e-02
9.051612578332424164e-03
4.377109184861183167e-02
-3.834793716669082642e-02
1.298962067812681198e-02
-1.756746059982106090e-04
2.233105897903442383e-02
-1.774824596941471100e-02
2.960281074047088623e-02
-6.023361533880233765e-02
7.800281513482332230e-03
2.013678848743438721e-02
3.555556386709213257e-02
1.508910581469535828e-02
5.531433597207069397e-02
6.641975045204162598e-02
6.581229623407125473e-03
2.990182861685752869e-02
-5.479533225297927856e-02
-4.790108650922775269e-02
-1.690140180289745331e-02
-3.312600031495094299e-02
3.369027748703956604e-02
2.158092567697167397e-03
1.682823523879051208e-02
2.498059906065464020e-02
-3.658784925937652588e-02
-1.994527503848075867e-02
1.574104279279708862e-02
1.946140266954898834e-02
-2.088583773002028465e-03
-2.291699871420860291e-03
7.860140874981880188e-03
-7.948745973408222198e-03
-8.948224596679210663e-03
-3.958024829626083374e-02
2.748120948672294617e-02
3.089331649243831635e-02
-3.202907741069793701e-02
3.732178360223770142e-02
-8.392677642405033112e-03
1.839694753289222717e-02
4.438069090247154236e-02
1.589271612465381622e-02
7.444762159138917923e-04
7.381539791822433472e-02
4.268741607666015625e-02
2.009488269686698914e-02
-4.726352542638778687e-02
-2.572016604244709015e-02
1.919245533645153046e-02
-1.620129309594631195e-02
1.643230393528938293e-02
-5.169034702703356743e-04
-2.341603860259056091e-02
-1.360095478594303131e-02
1.416359096765518188e-02
3.356844186782836914e-02
-8.555465377867221832e-03
1.642725616693496704e-02
1.845905371010303497e-02
2.547357790172100067e-02
-2.110897563397884369e-02
-3.803420811891555786e-02
2.994772419333457947e-02
3.711869567632675171e-02
-4.197787865996360779e-02
-1.468814164400100708e-02
-1.205565873533487320e-02
4.012498259544372559e-02
3.259826824069023132e-02
-2.534463070333003998e-03
-2.834018692374229431e-02
-2.841761708259582520e-02
-4.371915757656097412e-02
-7.094359491020441055e-03
2.327804081141948700e-02
3.858759626746177673e-02
3.477263450622558594e-02
2.123074419796466827e-02
-6.058528553694486618e-03
4.204733297228813171e-03
-4.726107046008110046e-02
-1.165068708360195160e-03
-7.060747127979993820e-03
-3.726175986230373383e-03
1.185660716146230698e-02
2.053279429674148560e-02
-2.659198641777038574e-02
1.841408200562000275e-02
3.150893002748489380e-02
1.149135269224643707e-02
3.961469978094100952e-02
-2.295417897403240204e-02
-4.605975002050399780e-02
2.937195822596549988e-02
-4.164128005504608154e-02
2.675769291818141937e-02
-2.311628125607967377e-02
-3.576565533876419067e-02
6.957885343581438065e-03
-1.810276322066783905e-02
-2.899796143174171448e-02
-4.291447997093200684e-02
-2.998199081048369408e-03
6.372571736574172974e-02
1.392170693725347519e-02
-1.705182716250419617e-02
-3.443203121423721313e-02
-1.536246575415134430e-02
-2.821388840675354004e-02
2.146129496395587921e-03
1.889793761074542999e-02
-3.171770647168159485e-02
1.587275229394435883e-02
2.598160505294799805e-02
4.619351774454116821e-02
5.434092599898576736e-03
1.857345178723335266e-02
6.510042399168014526e-02
3.933891281485557556e-02
-2.245106175541877747e-02
-4.085975512862205505e-02
6.941415369510650635e-03
-6.004984304308891296e-02
-1.282111834734678268e-02
2.739620953798294067e-02
2.202952280640602112e-03
2.930394932627677917e-02
-8.180057629942893982e-03
-1.536895241588354111e-02
9.131926111876964569e-03
-2.240241505205631256e-02
1.344013027846813202e-02
-3.888846561312675476e-02
2.381603419780731201e-02
-2.075808122754096985e-02
-1.075142156332731247e-02
-7.897172123193740845e-03
-2.181821316480636597e-02
-4.878376051783561707e-02
4.721787571907043457e-02
1.395277678966522217e-02
1.013651024550199509e-02
6.956156808882951736e-03
2.180730924010276794e-02
-1.130455266684293747e-02
5.275763943791389465e-02
-9.664478711783885956e-03
-3.499009460210800171e-02
5.044575408101081848e-02
-5.699419416487216949e-04
-4.630101099610328674e-02
3.973918408155441284e-02
-4.871407523751258850e-03
-2.219863422214984894e-02
4.212594591081142426e-03
-2.497470378875732422e-02
2.035553194582462311e-02
-4.068838059902191162e-02
4.706339910626411438e-02
1.979432068765163422e-02
-2.108658291399478912e-02
3.063484467566013336e-02
-3.482170030474662781e-02
1.993729919195175171e-02
-4.641245678067207336e-02
1.675373315811157227e-02
-5.894307792186737061e-02
5.463375244289636612e-03
1.308084093034267426e-02
-1.244642026722431183e-02
1.380982715636491776e-02
4.489747434854507446e-02
-9.617758914828300476e-03
3.849991038441658020e-02
7.498731464147567749e-02
-3.569398075342178345e-02
1.632696203887462616e-02
-6.345359981060028076e-02
-1.073570363223552704e-02
1.372064370661973953e-02
5.893834400922060013e-03
2.800922095775604248e-02
-2.242450602352619171e-02
-2.120516076683998108e-02
-5.114017054438591003e-02
3.224741667509078979e-03
3.265107050538063049e-02
-1.366093929391354322e-04
-3.212242946028709412e-02
2.613427303731441498e-02
2.327864989638328552e-02
-6.347167771309614182e-03
-1.314594037830829620e-02
2.442196756601333618e-02
1.799684017896652222e-02
-9.948451071977615356e-03
-1.225466001778841019e-02
-3.029983863234519958e-02
1.932043768465518951e-02
3.178850049152970314e-03
-5.156039819121360779e-02
1.953659811988472939e-03
-1.980712823569774628e-02
-5.830986425280570984e-03
5.045052245259284973e-02
-5.050569772720336914e-02
1.382662262767553329e-02
4.731106758117675781e-02
2.627279143780469894e-03
-3.734978288412094116e-02
2.727839350700378418e-02
3.904351592063903809e-02
5.697318166494369507e-02
-4.622338712215423584e-02
-7.422152161598205566e-02
6.609193980693817139e-02
-6.967926747165620327e-04
-1.329697202891111374e-02
-3.619094565510749817e-02
-9.891207329928874969e-03
-5.491303652524948120e-02
1.050075981765985489e-02
2.619475312530994415e-02
8.842749148607254028e-02
-4.950056225061416626e-02
4.431275650858879089e-02
4.452738538384437561e-02
-2.732228673994541168e-02
-1.017175018787384033e-01
2.762339077889919281e-02
3.164632618427276611e-02
1.772820390760898590e-02
5.214339867234230042e-02
-4.046208783984184265e-02
9.273313917219638824e-03
4.808358475565910339e-02
-4.671429097652435303e-02
-6.897044926881790161e-02
-5.497573688626289368e-02
2.631874755024909973e-02
2.998043410480022430e-02
-1.175784096121788025e-01
4.137910902500152588e-02
1.006212681531906128e-01
-1.836858503520488739e-02
2.677828073501586914e-03
1.579543016850948334e-02
1.895637810230255127e-02
-3.481536358594894409e-02
-8.647122420370578766e-03
1.871149055659770966e-02
5.590999964624643326e-03
8.974059484899044037e-03
8.081036619842052460e-03
-4.226450994610786438e-02
1.357938349246978760e-02
3.203609958291053772e-02
6.352892518043518066e-02
6.104243919253349304e-02
5.980380624532699585e-02
3.605366218835115433e-03
-5.152837932109832764e-02
-4.680433776229619980e-03
4.804461449384689331e-02
2.004993148148059845e-02
-4.815922584384679794e-03
-8.396607637405395508e-02
-4.407049156725406647e-03
-7.479307055473327637e-02
-3.894455358386039734e-02
-5.698110442608594894e-03
1.688021048903465271e-02
-4.790263622999191284e-02
-3.103684075176715851e-02
1.478778477758169174e-02
-3.580976976081728935e-03
-2.128764614462852478e-02
2.039062604308128357e-02
8.855391293764114380e-03
-2.450701594352722168e-02
1.755857281386852264e-02
-3.870213404297828674e-02
-3.355324640870094299e-02
-8.285295218229293823e-02
-7.456089556217193604e-02
-4.830095171928405762e-02
-1.041433308273553848e-03
-1.773400045931339264e-02
4.101892560720443726e-02
4.312967136502265930e-02
-1.314095314592123032e-02
1.431613054592162371e-04
2.569654770195484161e-02
-9.108179062604904175e-02
-4.621395468711853027e-02
-2.538313902914524078e-02
2.770495973527431488e-02
-4.970550164580345154e-02
-2.661003358662128448e-02
1.846626028418540955e-02
-1.277496013790369034e-02
2.970544993877410889e-02
3.164051740895956755e-04
1.248111203312873840e-02
2.691277861595153809e-02
-2.309790998697280884e-02
2.099565230309963226e-02
-3.716946020722389221e-02
-1.050119753926992416e-02
-9.758620709180831909e-02
-5.352134257555007935e-02
-4.982950538396835327e-02
7.683526724576950073e-02
2.970040775835514069e-02
4.217114672064781189e-02
-4.105952382087707520e-02
-8.024337887763977051e-02
-5.253198742866516113e-02
1.699096406809985638e-03
5.257104709744453430e-02
4.777181893587112427e-02
6.197621673345565796e-02
1.431046333163976669e-02
6.618450582027435303e-02
-4.516398999840021133e-03
-3.976345807313919067e-02
-6.215732172131538391e-02
-2.341857366263866425e-02
1.670527830719947815e-02
3.849538043141365051e-02
3.348726406693458557e-02
3.435129672288894653e-02
1.906146109104156494e-02
5.371904373168945312e-02
-5.616087839007377625e-02
-7.463863492012023926e-02
-1.830630935728549957e-02
6.986620277166366577e-02
1.282857544720172882e-02
-7.401929795742034912e-02
-9.214539080858230591e-02
-8.080247044563293457e-02
1.234271749854087830e-02
6.138466298580169678e-02
-6.915342807769775391e-02
-2.049087584018707275e-01
-2.882366068661212921e-03
1.176583115011453629e-03
-1.482303440570831299e-02
8.069436997175216675e-02
-2.319529838860034943e-02
3.862934187054634094e-02
7.534494251012802124e-02
1.267437729984521866e-02
-4.545301198959350586e-02
-3.607069328427314758e-02
2.481730654835700989e-02
-2.575782500207424164e-02
3.754677250981330872e-02
9.661539479566272348e-06
1.449714880436658859e-02
-8.821651339530944824e-03
-2.265312336385250092e-02
5.166239498066715896e-05
6.007429212331771851e-03
-1.222116034477949142e-02
-6.367436796426773071e-02
-6.019257009029388428e-02
-6.994356960058212280e-02
-3.781129047274589539e-02
1.825054362416267395e-02
4.461164399981498718e-02
-8.972873538732528687e-02
-9.449831396341323853e-02
-1.086941268295049667e-02
1.027298998087644577e-02
-1.677409862168133259e-03
-5.617772042751312256e-02
-5.727125704288482666e-02
2.258002199232578278e-02
5.961998924612998962e-02
2.700701355934143066e-02
3.138705855235457420e-03
-4.470869153738021851e-02
-3.675627335906028748e-02
2.200644835829734802e-02
3.370208293199539185e-02
-8.719302713871002197e-04
3.480716049671173096e-02
5.745954811573028564e-02
-1.339795347303152084e-02
2.683392725884914398e-02
2.462283708155155182e-02
-5.726132914423942566e-02
-6.442604213953018188e-02
-5.173922702670097351e-02
3.597451373934745789e-02
-3.511440753936767578e-02
-1.007256209850311279e-01
3.307355940341949463e-02
-2.355151576921343803e-03
-8.331973850727081299e-02
1.802974753081798553e-02
2.802474610507488251e-02
-1.055734157562255859e-01
2.508170902729034424e-02
7.395153399556875229e-03
-9.432649239897727966e-03
2.486952207982540131e-02
-8.366951718926429749e-03
2.514804340898990631e-02
2.195136388763785362e-03
-3.785905241966247559e-02
9.532931260764598846e-03
3.449127450585365295e-02
3.660526499152183533e-02
5.212326347827911377e-02
-6.732844281941652298e-03
3.370048478245735168e-02
3.033868409693241119e-02
8.052333444356918335e-02
-9.048306941986083984e-02
-7.243619114160537720e-02
1.505046989768743515e-02
1.003552693873643875e-02
-3.581973910331726074e-02
-6.490060687065124512e-02
2.518178336322307587e-02
-2.307327277958393097e-02
3.072064369916915894e-03
-2.867883304134011269e-03
-3.650204092264175415e-02
1.088188681751489639e-02
-1.176886633038520813e-02
9.521014057099819183e-03
9.043632447719573975e-02
-7.406748086214065552e-02
-8.897649124264717102e-03
-2.548101916909217834e-02
-1.296263374388217926e-02
-1.448723394423723221e-02
-7.307228632271289825e-03
-6.697752512991428375e-03
2.569905482232570648e-02
8.930215612053871155e-03
6.662304047495126724e-03
-1.766467280685901642e-02
5.781081970781087875e-03
2.771249227225780487e-02
-6.725354469381272793e-04
-3.045929782092571259e-02
5.745186004787683487e-03
-4.356271028518676758e-02
5.944023281335830688e-02
4.257411230355501175e-03
-2.298404835164546967e-02
1.481859665364027023e-02
-3.279299288988113403e-02
3.811453282833099365e-02
2.955064363777637482e-02
-1.710950955748558044e-02
1.846049539744853973e-02
-6.291623692959547043e-03
2.032101340591907501e-02
-4.120969399809837341e-02
-3.748722141608595848e-03
-1.053031906485557556e-02
1.921894843690097332e-03
-2.162504382431507111e-02
-8.185244165360927582e-03
-2.891359385102987289e-03
5.223739147186279297e-02
4.918360337615013123e-02
2.053994685411453247e-02
-4.806397017091512680e-03
-2.804265730082988739e-02
-4.734484478831291199e-02
-2.255167812108993530e-02
-1.073804870247840881e-02
2.009796723723411560e-02
1.655557751655578613e-02
5.648756027221679688e-02
-9.106162935495376587e-03
9.419729001820087433e-03
-1.616954430937767029e-02
2.685356140136718750e-02
-1.384633220732212067e-02
4.898292943835258484e-03
2.593912370502948761e-02
3.846015036106109619e-02
3.437309339642524719e-02
-6.729407608509063721e-02
-4.482720978558063507e-03
1.522098854184150696e-02
-5.360184703022241592e-03
3.877572715282440186e-02
1.744664274156093597e-02
7.227056194096803665e-03
8.065370842814445496e-03
2.818790450692176819e-02
1.765091530978679657e-02
-3.522358089685440063e-02
-2.606168622151017189e-03
-3.376535326242446899e-02
-7.854683697223663330e-02
9.196749888360500336e-03
5.948032066226005554e-02
-1.130996551364660263e-02
-3.586743026971817017e-02
-7.663270924240350723e-03
-3.783734887838363647e-02
-1.290655229240655899e-02
-3.310476243495941162e-02
-4.311752319335937500e-02
-9.931206703186035156e-03
-2.108991891145706177e-02
3.706933930516242981e-02
3.370546549558639526e-02
4.340907186269760132e-02
-2.450121752917766571e-02
-2.498102933168411255e-02
1.902266032993793488e-02
-3.024841658771038055e-03
3.717006742954254150e-02
-9.219595231115818024e-03
1.707851141691207886e-02
5.603429675102233887e-02
7.397809531539678574e-03
1.195087097585201263e-02
-2.598252706229686737e-02
1.701225340366363525e-02
-1.812906563282012939e-02
-2.500818111002445221e-02
-3.892061859369277954e-02
8.225798606872558594e-02
-1.148896105587482452e-02
1.025847624987363815e-02
-1.600423082709312439e-02
2.298680506646633148e-02
-3.158877417445182800e-02
1.944609172642230988e-02
-3.583408147096633911e-02
4.047438502311706543e-02
6.570586934685707092e-03
4.035824537277221680e-02
4.717600345611572266e-02
2.216500416398048401e-02
-3.069142997264862061e-02
4.246152471750974655e-03
3.222569450736045837e-02
6.196235120296478271e-02
3.286025300621986389e-02
-2.500429563224315643e-02
3.117804788053035736e-02
-7.624445017427206039e-03
2.640043618157505989e-03
1.397209241986274719e-02
-1.833140105009078979e-02
2.958427928388118744e-02
-2.574556507170200348e-02
3.212968260049819946e-02
3.126974403858184814e-02
-2.273660339415073395e-02
-3.870104998350143433e-02
-3.654617071151733398e-02
-4.388527199625968933e-02
9.192501008510589600e-02
7.092305459082126617e-03
-2.734985016286373138e-02
-1.021140068769454956e-02
8.683137595653533936e-02
-1.128671877086162567e-02
-2.242869697511196136e-02
-2.589396573603153229e-02
-8.951764553785324097e-03
-1.715716533362865448e-02
4.009909927845001221e-02
1.617233268916606903e-02
3.101900964975357056e-02
-4.665578715503215790e-03
-1.099228020757436752e-02
4.610475152730941772e-03
3.732210770249366760e-02
1.931460388004779816e-02
1.099839527159929276e-02
-2.463857457041740417e-02
1.044306065887212753e-02
1.840632595121860504e-02
1.851957640610635281e-03
-5.024296045303344727e-02
-5.284882336854934692e-02
-6.972566479817032814e-04
2.085758931934833527e-02
-1.718034408986568451e-02
4.911453276872634888e-02
2.508035674691200256e-02
-1.485904585570096970e-02
-2.852777764201164246e-02
-1.122413389384746552e-02
1.093638967722654343e-02
2.176068350672721863e-02
1.091689523309469223e-02
4.893754795193672180e-02
-1.264644670300185680e-03
1.474780775606632233e-02
2.787944860756397247e-02
2.792473137378692627e-02
-2.226234041154384613e-02
2.632411196827888489e-02
1.221157237887382507e-02
-1.326713431626558304e-02
-3.552139550447463989e-02
4.094469919800758362e-02
5.169486999511718750e-02
1.608077995479106903e-02
-2.308735623955726624e-02
1.373659726232290268e-02
7.705932512180879712e-05
2.365906257182359695e-03
-2.576372213661670685e-02
3.866120055317878723e-02
3.330093249678611755e-02
-1.511236652731895447e-03
2.827947400510311127e-02
1.808938570320606232e-02
-2.211238443851470947e-02
2.711251750588417053e-02
-1.183288823813199997e-02
5.744123831391334534e-02
1.856439746916294098e-02
1.521116402000188828e-02
1.612389646470546722e-02
-4.646060615777969360e-02
2.299929596483707428e-02
-9.792473167181015015e-03
-4.957808647304773331e-03
-7.540766615420579910e-03
4.010531585663557053e-03
6.308585288934409618e-04
2.874480187892913818e-02
-2.537170425057411194e-02
3.486536815762519836e-02
7.275758776813745499e-03
1.370405126363039017e-02
3.946407139301300049e-02
-2.928056195378303528e-02
-5.100853741168975830e-02
2.985611557960510254e-02
-1.300421077758073807e-02
3.253331035375595093e-02
-1.551336888223886490e-02
2.464868500828742981e-02
-5.738194566220045090e-03
5.624290183186531067e-02
2.378497831523418427e-02
-2.154370956122875214e-02
-1.483650645241141319e-03
-1.495875418186187744e-02
3.086737589910626411e-03
2.849421277642250061e-02
1.788697764277458191e-02
2.736094407737255096e-02
2.813367405906319618e-03
-3.187828138470649719e-02
-9.953429922461509705e-03
-4.524349793791770935e-02
2.244833856821060181e-02
2.118763141334056854e-02
-4.090499132871627808e-03
-4.372915998101234436e-02
-2.474002353847026825e-02
6.779564544558525085e-03
4.864039272069931030e-02
2.410999126732349396e-02
-5.232609435915946960e-02
-2.499414049088954926e-02
-7.244350854307413101e-03
-1.425829809159040451e-02
-3.519109636545181274e-02
1.178337261080741882e-03
1.451570820063352585e-02
1.013913750648498535e-02
-2.716025523841381073e-02
1.370152737945318222e-02
1.534361205995082855e-02
-7.520648650825023651e-03
-2.491081831976771355e-03
1.198345888406038284e-02
-8.489478379487991333e-03
-1.232666242867708206e-02
-4.668596200644969940e-03
-3.546328470110893250e-02
-4.831167683005332947e-02
-1.767433062195777893e-02
1.470228563994169235e-02
-3.449087031185626984e-03
3.488027304410934448e-02
-3.319845767691731453e-03
5.968324374407529831e-03
-1.323259901255369186e-02
3.684226796030998230e-02
2.817346155643463135e-02
2.314724773168563843e-02
1.032361644320189953e-03
2.865952812135219574e-02
4.005917347967624664e-03
3.136808797717094421e-02
-3.261418640613555908e-02
-6.087367609143257141e-02
-3.998191969003528357e-04
-1.427500415593385696e-02
5.206828191876411438e-02
-1.190715841948986053e-02
6.435230374336242676e-03
-1.625776104629039764e-02
4.728065058588981628e-02
3.936915099620819092e-02
1.505695935338735580e-02
-3.666779026389122009e-02
2.258112467825412750e-02
-1.920724986121058464e-03
2.973722480237483978e-02
7.240867614746093750e-02
-3.122669644653797150e-02
4.742708522826433182e-03
1.394838560372591019e-02
2.525574341416358948e-02
5.695193540304899216e-04
2.704160287976264954e-02
3.040129318833351135e-02
6.103696301579475403e-02
-2.702219970524311066e-02
1.608393341302871704e-02
1.247646473348140717e-02
-3.988375887274742126e-02
1.958750188350677490e-02
4.121866449713706970e-02
6.114788819104433060e-03
-6.843220442533493042e-03
-9.018077515065670013e-03
4.943126812577247620e-02
3.686153516173362732e-02
3.928700089454650879e-02
3.777677565813064575e-02
4.058073461055755615e-02
-1.268302556127309799e-02
5.391212552785873413e-02
1.251702196896076202e-02
-2.024462446570396423e-03
1.869457587599754333e-02
2.184302173554897308e-02
3.465185686945915222e-02
-2.213440090417861938e-02
-2.071225643157958984e-02
1.285585574805736542e-02
-1.143379788845777512e-02
9.227425791323184967e-03
2.218700386583805084e-02
3.244976047426462173e-03
-2.213901095092296600e-02
-1.722692698240280151e-02
-1.600561547093093395e-03
5.628015473484992981e-02
-1.318887155503034592e-02
-4.986269399523735046e-02
6.916210055351257324e-02
-1.966380514204502106e-02
6.633462384343147278e-03
3.664427623152732849e-02
-3.191577270627021790e-02
2.992354100570082664e-03
-1.238668244332075119e-02
2.418704330921173096e-02
-1.289548818022012711e-02
-1.651556231081485748e-02
-1.856874860823154449e-02
3.653390333056449890e-02
1.631423272192478180e-02
2.068118192255496979e-02
-4.113364499062299728e-03
-1.237900741398334503e-02
-2.205467410385608673e-02
-2.205880545079708099e-02
3.967560362070798874e-03
-2.897950261831283569e-02
2.013578824698925018e-02
9.263589046895503998e-03
8.080990612506866455e-02
-1.065565552562475204e-02
1.934739574790000916e-02
-7.649980485439300537e-03
1.862748153507709503e-02
-2.800914517138153315e-04
4.218640550971031189e-02
1.678572408854961395e-02
4.787553846836090088e-02
8.356966078281402588e-03
5.287911277264356613e-03
2.401214465498924255e-02
-6.141113117337226868e-02
-4.888343811035156250e-02
-3.852897509932518005e-02
5.580480676144361496e-03
3.487729933112859726e-03
2.523594594094902277e-04
6.791456788778305054e-02
4.047035798430442810e-02
4.220015928149223328e-02
4.037182778120040894e-02
-3.777178004384040833e-02
8.552408777177333832e-03
-3.153887391090393066e-02
-3.247972205281257629e-02
4.459021240472793579e-02
-7.325950544327497482e-03
3.967645019292831421e-02
-2.052136883139610291e-02
5.765139590948820114e-03
-1.779493689537048340e-02
-5.824524909257888794e-02
6.326838396489620209e-03
1.031175553798675537e-01
-1.822433248162269592e-02
6.497233361005783081e-02
1.415475708199664950e-04
5.077265668660402298e-03
-1.947668008506298065e-02
5.264527723193168640e-02
3.063636645674705505e-02
-1.890257559716701508e-02
-5.975020304322242737e-02
3.970269486308097839e-02
-7.137944921851158142e-03
-2.275139279663562775e-02
-4.108654393348842859e-04
-2.052986994385719299e-03
-2.539958246052265167e-02
-3.302181512117385864e-02
-2.984379976987838745e-02
1.000772416591644287e-02
-3.959587216377258301e-02
2.861656993627548218e-02
-1.381608098745346069e-02
-2.994781127199530602e-03
-1.101230829954147339e-02
3.937248140573501587e-03
1.693626865744590759e-02
-2.187002822756767273e-02
-1.348105818033218384e-02
4.148195683956146240e-02
-3.043973818421363831e-03
2.059579826891422272e-02
-3.169940784573554993e-02
8.697971701622009277e-03
-3.473098203539848328e-02
7.369749713689088821e-03
3.168973838910460472e-03
-1.664816960692405701e-02
-7.490495918318629265e-04
3.673293441534042358e-02
-1.402476336807012558e-02
-1.710496097803115845e-02
2.896061353385448456e-02
2.718301303684711456e-02
-8.745744824409484863e-03
-2.040664106607437134e-02
-1.494077686220407486e-02
-2.867875806987285614e-02
1.468815957196056843e-03
2.062982320785522461e-02
7.352828397415578365e-04
-5.373026710003614426e-03
-4.631833173334598541e-03
-6.104310974478721619e-02
-2.275475300848484039e-02
6.029400043189525604e-03
6.839758902788162231e-02
3.163200244307518005e-02
1.615803316235542297e-02
5.920408666133880615e-02
3.186596557497978210e-03
2.755231456831097603e-03
-2.110410481691360474e-02
-5.677644535899162292e-02
-1.982835307717323303e-02
2.339342795312404633e-02
-2.395807765424251556e-02
2.385609410703182220e-02
-5.727184563875198364e-02
-2.684291452169418335e-02
1.668878272175788879e-02
1.454991847276687622e-02
-8.802360389381647110e-04
-3.874029032886028290e-03
1.072756573557853699e-02
9.074993431568145752e-03
2.076211944222450256e-02
-3.047109209001064301e-02
-7.660343777388334274e-03
8.247788064181804657e-03
-2.971469890326261520e-03
-3.552681207656860352e-02
-1.934392936527729034e-02
-2.341294847428798676e-02
9.506910294294357300e-02
5.055756866931915283e-02
-2.197655290365219116e-02
6.927620619535446167e-02
1.513787778094410896e-03
5.000856239348649979e-03
8.632563054561614990e-03
3.752189129590988159e-02
4.231471940875053406e-02
-1.395864412188529968e-02
-3.189786151051521301e-02
1.464088819921016693e-02
-2.285331487655639648e-02
-3.619320690631866455e-02
-1.532076485455036163e-02
1.997854374349117279e-02
8.739827200770378113e-03
2.078783698379993439e-02
1.399762928485870361e-02
3.019909141585230827e-03
2.076960913836956024e-02
-5.638750270009040833e-03
5.217679962515830994e-02
-1.643880829215049744e-02
-1.780439727008342743e-02
-4.149038717150688171e-02
1.287162303924560547e-02
-3.673946857452392578e-02
-1.048106467351317406e-03
-4.471166059374809265e-02
3.230070229619741440e-03
2.411996014416217804e-02
-4.437186941504478455e-02
-3.283798694610595703e-02
2.905301749706268311e-02
-2.866161242127418518e-02
6.678030826151371002e-03
2.944799780379980803e-04
1.576879061758518219e-02
-4.611344635486602783e-02
1.610621437430381775e-02
-4.159052390605211258e-03
1.165687851607799530e-02
2.043206803500652313e-02
9.749606251716613770e-03
3.459158912301063538e-02
-4.523160459939390421e-04
3.315063193440437317e-02
-3.860339056700468063e-03
-4.094098135828971863e-02
6.562581984326243401e-04
-4.703084006905555725e-02
-4.802805930376052856e-02
1.884785853326320648e-02
4.321232438087463379e-02
3.293745219707489014e-02
4.662350751459598541e-03
1.078353822231292725e-02
-1.031637378036975861e-02
2.382133714854717255e-02
-5.481358617544174194e-03
1.948024705052375793e-02
-7.529060542583465576e-02
1.043588039465248585e-03
4.414419457316398621e-02
3.460050746798515320e-02
-9.489908814430236816e-03
-1.644887402653694153e-02
-1.160078495740890503e-02
-2.056899247691035271e-04
-3.572043264284729958e-03
3.765332326292991638e-02
1.141521893441677094e-02
-3.574337810277938843e-02
-3.001933358609676361e-02
2.036885730922222137e-02
1.605645194649696350e-02
2.185736410319805145e-02
2.066706307232379913e-02
-4.398787766695022583e-02
-6.076706945896148682e-02
4.961234331130981445e-02
2.233241684734821320e-02
2.501908689737319946e-02
-9.346663951873779297e-03
2.684134617447853088e-02
2.198716811835765839e-02
-9.217373281717300415e-02
-2.230528509244322777e-03
2.066737040877342224e-02
-7.455353438854217529e-02
1.383084617555141449e-02
2.212674729526042938e-02
-2.164090052247047424e-02
5.567700788378715515e-02
-3.569043055176734924e-02
-7.190819829702377319e-03
3.686235472559928894e-02
-9.318584343418478966e-04
5.728033138439059258e-04
1.973819360136985779e-02
-3.132019937038421631e-02
3.157267346978187561e-02
3.355977311730384827e-02
-1.426319964230060577e-02
-1.814429648220539093e-02
9.259657002985477448e-03
8.237922564148902893e-03
-2.538893744349479675e-02
-3.303937613964080811e-02
-9.905573911964893341e-03
3.044276125729084015e-02
3.196735307574272156e-02
-3.992585465312004089e-02
8.491998165845870972e-02
2.067412249743938446e-02
1.139967422932386398e-02
8.811388164758682251e-03
5.374345462769269943e-03
9.834491461515426636e-02
-2.790440991520881653e-02
-2.846242301166057587e-02
2.965350449085235596e-02
2.665141597390174866e-02
-2.527713403105735779e-02
-1.090145111083984375e-02
-1.429418195039033890e-02
-1.882523298263549805e-03
9.664115495979785919e-04
-5.453405436128377914e-03
-4.684315994381904602e-02
-3.452799841761589050e-02
-2.493403106927871704e-02
-7.064786553382873535e-02
2.302970364689826965e-02
6.370939314365386963e-02
1.141405478119850159e-02
2.096389979124069214e-02
7.891170680522918701e-03
1.171646714210510254e-01
-3.045305795967578888e-02
-5.247961729764938354e-02
-1.512512005865573883e-02
-2.439215406775474548e-02
1.642694137990474701e-02
1.909634657204151154e-02
4.354716092348098755e-02
2.980897761881351471e-02
5.561391264200210571e-02
3.737783804535865784e-02
1.557878125458955765e-02
1.547472644597291946e-02
-3.478151187300682068e-02
2.669194526970386505e-02
3.522806102409958839e-03
-3.140549734234809875e-02
-2.345445565879344940e-02
-2.641107700765132904e-02
-1.633143611252307892e-02
1.819393830373883247e-03
1.186804659664630890e-02
4.679906181991100311e-03
-9.143927134573459625e-03
3.520963713526725769e-02
4.811377450823783875e-02
3.003374487161636353e-02
-8.817973546683788300e-03
-5.886425822973251343e-02
-1.885552145540714264e-02
-5.411001667380332947e-02
-3.009555675089359283e-02
-7.602784782648086548e-03
-1.334922155365347862e-03
5.724936351180076599e-02
6.877513974905014038e-02
7.823380827903747559e-02
6.990787386894226074e-02
8.571951836347579956e-02
3.480597957968711853e-02
1.964763365685939789e-02
4.056055098772048950e-02
-6.443126592785120010e-03
-3.490769863128662109e-02
-8.662898093461990356e-03
-3.611847385764122009e-02
-5.573426373302936554e-03
3.090159781277179718e-02
1.862001605331897736e-02
-2.063985727727413177e-02
2.068554237484931946e-02
4.669045656919479370e-02
1.265323022380471230e-03
-1.791134104132652283e-02
4.994440078735351562e-02
-9.615284390747547150e-03
-2.748333476483821869e-02
2.613680250942707062e-02
-6.729522254317998886e-03
-5.549756437540054321e-02
-5.053098127245903015e-02
6.145713850855827332e-02
4.930088296532630920e-02
7.006543222814798355e-03
1.222574710845947266e-02
-4.143349360674619675e-03
3.100273432210087776e-03
5.176746845245361328e-02
6.220518052577972412e-02
-7.222896441817283630e-03
-1.289032213389873505e-02
6.637848913669586182e-03
8.785721845924854279e-03
-1.509223319590091705e-02
1.275205705314874649e-02
6.922369450330734253e-02
9.206602349877357483e-03
-1.736487261950969696e-02
1.199807506054639816e-02
5.001026391983032227e-02
2.561155008152127266e-03
-4.173488914966583252e-02
-2.236604504287242889e-02
-1.341102831065654755e-02
1.932954229414463043e-02
5.794190615415573120e-02
-3.994986414909362793e-02
-9.722911566495895386e-02
3.233950585126876831e-02
-2.845244109630584717e-02
-2.553312107920646667e-02
1.989384181797504425e-02
3.905554860830307007e-02
1.585490070283412933e-02
-3.691219910979270935e-02
1.707586459815502167e-02
-3.904828336089849472e-03
-1.137739140540361404e-02
-8.869132958352565765e-03
8.735604584217071533e-03
-4.060449078679084778e-02
-3.860948374494910240e-03
2.261890843510627747e-02
2.211337164044380188e-02
-6.356723606586456299e-02
-6.020802538841962814e-04
1.941642723977565765e-02
3.711739555001258850e-02
1.577626913785934448e-02
2.413919940590858459e-02
-2.728622592985630035e-02
-7.071380317211151123e-02
5.482336133718490601e-02
2.026987634599208832e-02
-8.719160407781600952e-02
-1.055337022989988327e-02
9.842374129220843315e-04
-6.533154100179672241e-02
-1.639514043927192688e-02
2.928944863379001617e-02
2.225295640528202057e-02
5.382096022367477417e-02
7.762512192130088806e-03
3.415758907794952393e-02
-5.604000296443700790e-03
1.665921136736869812e-02
-4.091876000165939331e-02
-4.480051249265670776e-02
7.916208123788237572e-04
-5.101813003420829773e-02
-4.424501955509185791e-02
2.589578926563262939e-02
-6.672202795743942261e-02
-1.718534715473651886e-02
-3.126004710793495178e-02
-2.623052522540092468e-02
4.151031002402305603e-02
3.487764298915863037e-02
7.360032200813293457e-02
6.619415362365543842e-04
3.770758211612701416e-02
3.784763440489768982e-02
-3.515551611781120300e-02
3.871148824691772461e-02
-4.956737160682678223e-02
4.203161224722862244e-02
7.857121527194976807e-03
2.434020675718784332e-02
-6.202178448438644409e-02
1.007307218969799578e-04
-5.470798537135124207e-02
5.629989132285118103e-02
-2.940792962908744812e-02
3.161885589361190796e-02
1.547280140221118927e-02
6.690994370728731155e-03
-2.106103301048278809e-02
-1.958050206303596497e-02
-4.055293276906013489e-02
-6.088178232312202454e-02
6.144526560092344880e-05
5.013837944716215134e-03
-7.583369314670562744e-02
4.415113106369972229e-02
3.212261199951171875e-02
1.673587597906589508e-02
4.687868431210517883e-02
3.516922891139984131e-02
1.425894349813461304e-02
-1.604018360376358032e-02
-8.772634901106357574e-03
-4.167903587222099304e-02
3.672304376959800720e-02
1.481702318415045738e-03
4.430911503732204437e-03
-2.457812428474426270e-02
4.250095039606094360e-02
-7.425695657730102539e-02
7.310890406370162964e-02
2.202901523560285568e-03
1.809804327785968781e-02
1.745632290840148926e-02
-4.111176822334527969e-03
1.550756278447806835e-03
2.066483348608016968e-02
-3.508128225803375244e-02
-3.347449749708175659e-02
-1.804748363792896271e-02
3.878274559974670410e-02
2.349913120269775391e-02
-6.850921362638473511e-02
1.459208410233259201e-02
-8.964083157479763031e-03
2.040109038352966309e-02
4.189561004750430584e-04
4.534094035625457764e-02
-6.121229007840156555e-02
3.802332282066345215e-02
7.414593547582626343e-02
2.300558611750602722e-02
4.780391603708267212e-02
-3.946498408913612366e-02
-1.127744466066360474e-02
3.925923630595207214e-02
-1.638538949191570282e-02
-3.760389611124992371e-02
7.019675523042678833e-02
2.726860158145427704e-02
-1.131986640393733978e-02
2.762980759143829346e-02
2.416658587753772736e-02
1.551125571131706238e-02
5.661119706928730011e-03
-3.760988637804985046e-02
-2.092202380299568176e-02
-6.643501669168472290e-02
-3.844888415187597275e-03
8.171298541128635406e-03
-2.459034556522965431e-03
8.149290084838867188e-02
-7.203517481684684753e-03
-4.531605914235115051e-02
-1.222846470773220062e-02
2.499908395111560822e-02
6.636817753314971924e-02
5.693128798156976700e-03
1.071222499012947083e-01
1.133210957050323486e-02
6.095129624009132385e-02
-4.299171268939971924e-02
-5.723895505070686340e-02
-4.914808273315429688e-02
-2.162307873368263245e-02
5.392192862927913666e-03
2.299368381500244141e-02
2.388019300997257233e-02
5.714272707700729370e-02
1.954604871571063995e-02
3.313771681860089302e-03
2.418680116534233093e-02
4.909289069473743439e-03
4.436946939677000046e-03
-2.603509090840816498e-02
-1.969499140977859497e-02
5.918440874665975571e-03
-4.928907379508018494e-03
-3.143644332885742188e-02
6.669599562883377075e-02
-1.839426718652248383e-02
3.353320062160491943e-02
-3.299013897776603699e-02
-1.776091987267136574e-03
-2.369358204305171967e-02
4.566950350999832153e-02
3.323143348097801208e-02
-2.347028814256191254e-03
2.065249346196651459e-02
1.471357978880405426e-02
-5.053304135799407959e-02
2.690450288355350494e-03
7.857500016689300537e-02
-3.376280143857002258e-02
9.331488981842994690e-03
-1.170987077057361603e-02
4.652044922113418579e-02
-3.324782103300094604e-02
-2.000855468213558197e-02
-3.478148579597473145e-02
9.303566999733448029e-03
4.577861633151769638e-03
1.612640358507633209e-02
-4.331177566200494766e-03
-9.116214700043201447e-03
-5.283638089895248413e-02
-1.005641147494316101e-01
2.985645551234483719e-03
8.589049801230430603e-03
4.409042745828628540e-02
3.143275156617164612e-02
-3.457051469013094902e-03
3.251706063747406006e-02
6.628929078578948975e-02
3.185480460524559021e-02
8.433047682046890259e-02
6.926742382347583771e-03
2.457465045154094696e-02
1.763677783310413361e-02
1.205423101782798767e-02
-3.247496858239173889e-02
4.984269291162490845e-02
-4.002361744642257690e-02
-2.697639726102352142e-02
-1.531679742038249969e-02
-1.621641218662261963e-02
-5.739649757742881775e-03
-1.709179021418094635e-02
-4.496517032384872437e-02
1.249039731919765472e-02
-8.554114028811454773e-03
2.550097927451133728e-02
-1.787941344082355499e-02
5.979436915367841721e-03
-3.312404826283454895e-02
-3.009502962231636047e-02
1.736393943428993225e-02
5.115884914994239807e-02
-8.297869935631752014e-03
-1.235912740230560303e-02
6.153794378042221069e-02
9.821869432926177979e-03
1.941950805485248566e-02
7.475612312555313110e-02
7.049859414109960198e-05
-2.272300608456134796e-02
-1.687740534543991089e-02
9.681384079158306122e-03
-2.861922606825828552e-02
3.907004743814468384e-02
-3.228443488478660583e-02
9.583395905792713165e-03
-3.297889977693557739e-02
-1.341688260436058044e-02
5.610961932688951492e-03
-1.278089638799428940e-02
3.957830369472503662e-03
-2.576774731278419495e-02
1.336685847491025925e-02
-1.951730623841285706e-02
-9.349346160888671875e-03
-1.372744143009185791e-02
6.818716228008270264e-02
2.439234405755996704e-02
5.379063542932271957e-03
-3.931294009089469910e-02
-5.321384221315383911e-02
-2.064093388617038727e-02
5.499375984072685242e-02
4.518833477050065994e-03
1.223711762577295303e-02
3.111832775175571442e-02
-2.312184125185012817e-02
-2.449916861951351166e-02
-5.386989214457571507e-04
-1.585523597896099091e-02
-4.020066559314727783e-02
5.675530433654785156e-02
-5.867755413055419922e-02
-1.599092781543731689e-02
1.963298302143812180e-03
-9.289335459470748901e-03
1.184409484267234802e-03
-3.868392854928970337e-02
-3.129171580076217651e-02
-1.569661498069763184e-02
-6.294393539428710938e-02
-6.729988008737564087e-02
1.164067885838449001e-03
-3.261129558086395264e-02
2.101675979793071747e-02
5.694912001490592957e-02
4.006370902061462402e-02
-1.294288551434874535e-03
5.003011319786310196e-03
-2.246320433914661407e-02
-2.522510476410388947e-02
-9.358222596347332001e-03
-6.711572408676147461e-02
-7.728291209787130356e-03
4.230418242514133453e-03
3.418862819671630859e-02
2.754241600632667542e-02
-4.145238082855939865e-03
5.937089771032333374e-02
-2.485285140573978424e-02
-4.539813101291656494e-02
7.450921460986137390e-03
1.684850454330444336e-02
1.040174998342990875e-02
-2.780123800039291382e-02
-3.401956334710121155e-02
-3.714617714285850525e-02
-1.191990543156862259e-02
-1.853282563388347626e-02
-1.216862909495830536e-02
-1.318771671503782272e-02
-3.121419809758663177e-02
8.318340405821800232e-03
4.372815042734146118e-02
9.352242201566696167e-02
-5.337991751730442047e-03
3.735702484846115112e-02
-7.796729914844036102e-03
1.402428280562162399e-02
-2.016362361609935760e-02
6.376291625201702118e-03
2.505604550242424011e-02
3.888706490397453308e-02
-2.999541908502578735e-02
-1.630047522485256195e-02
-2.654015785083174706e-03
3.534929826855659485e-02
-6.245992705225944519e-02
-5.507509224116802216e-03
2.996722608804702759e-02
-1.401160378009080887e-02
-1.601395197212696075e-02
-2.618844993412494659e-02
-1.581083051860332489e-02
4.285553935915231705e-03
2.141326852142810822e-02
-1.024050544947385788e-02
1.628256775438785553e-02
-4.330639168620109558e-02
1.873898878693580627e-02
4.258640110492706299e-02
5.313224717974662781e-02
-1.296694763004779816e-02
8.083739317953586578e-03
-2.646264433860778809e-02
-5.229263380169868469e-02
9.907989762723445892e-03
-9.802196174860000610e-03
2.539071813225746155e-02
7.331071887165307999e-03
-2.623192407190799713e-02
1.748811826109886169e-02
-4.496742039918899536e-02
-5.493740364909172058e-02
4.929833486676216125e-02
-3.189392620697617531e-03
-2.675214037299156189e-02
1.392048504203557968e-02
1.895267143845558167e-02
3.003993444144725800e-02
-2.120659872889518738e-02
-9.642280056141316891e-04
1.810712926089763641e-02
5.438343062996864319e-02
6.559477746486663818e-02
4.723378270864486694e-02
1.933420635759830475e-02
5.266264826059341431e-02
-3.068748861551284790e-02
-8.280737325549125671e-03
-2.827396616339683533e-02
2.817329252138733864e-03
-2.680318988859653473e-02
-6.954631768167018890e-03
-8.012358099222183228e-03
-3.655949607491493225e-03
8.606925606727600098e-03
-1.715382374823093414e-02
1.696504466235637665e-02
-2.052585221827030182e-02
-1.208569016307592392e-02
3.367308899760246277e-02
-1.587358303368091583e-02
5.190862715244293213e-02
-2.735509723424911499e-02
1.458385214209556580e-02
4.567249491810798645e-02
2.811380475759506226e-02
-3.689299896359443665e-02
3.466038266196846962e-03
-3.374109789729118347e-02
-9.239903651177883148e-03
4.027407243847846985e-02
2.231433615088462830e-02
-7.891430519521236420e-03
5.743977427482604980e-02
-8.266671560704708099e-03
4.377649631351232529e-03
-4.185775294899940491e-02
-5.254065617918968201e-02
-1.874677278101444244e-02
1.921514794230461121e-02
-1.566416397690773010e-02
-3.502036258578300476e-02
2.018475718796253204e-02
1.508738938719034195e-02
1.444390881806612015e-02
-6.229160819202661514e-03
-3.323524445295333862e-02
-1.375117246061563492e-02
1.055393740534782410e-02
2.743480913341045380e-02
-3.905876725912094116e-02
-3.565952554345130920e-02
7.514801342040300369e-03
-3.578560194000601768e-03
-7.077150046825408936e-02
-6.056673452258110046e-02
3.200067207217216492e-02
-1.912984624505043030e-02
8.705949410796165466e-03
3.815242648124694824e-02
2.177552692592144012e-02
1.879795640707015991e-02
1.800587028264999390e-02
4.258076846599578857e-02
-7.933061569929122925e-02
2.161912387236952782e-03
-9.519673883914947510e-03
3.752214834094047546e-03
1.856469549238681793e-02
4.889193177223205566e-02
8.012817241251468658e-03
-6.247065961360931396e-03
-3.100327448919415474e-03
-3.357776999473571777e-02
-5.952728167176246643e-02
-7.839761674404144287e-03
-5.067876353859901428e-02
4.308207333087921143e-02
1.833891682326793671e-02
-1.457304111681878567e-03
-5.009776726365089417e-02
-9.818276390433311462e-03
-6.639014929533004761e-02
3.215779364109039307e-02
-1.595165394246578217e-02
-2.687021158635616302e-02
9.075825661420822144e-02
2.563878335058689117e-02
2.925406768918037415e-02
2.553000114858150482e-03
-9.700254537165164948e-03
1.413346454501152039e-02
3.457789868116378784e-02
1.670996658504009247e-02
-4.433606751263141632e-03
-1.890442334115505219e-02
1.144989393651485443e-02
-2.055135369300842285e-02
-4.910492524504661560e-02
4.831009730696678162e-02
1.336481515318155289e-02
1.481962390244007111e-02
7.957333698868751526e-03
-1.964012719690799713e-02
-3.679911792278289795e-02
-6.714616715908050537e-02
4.061027616262435913e-02
9.513509459793567657e-03
-3.387416526675224304e-02
-6.901429593563079834e-02
-3.550221025943756104e-02
3.794758394360542297e-02
-4.281950742006301880e-02
4.871661774814128876e-03
8.053246140480041504e-02
5.184075236320495605e-02
7.776972837746143341e-03
6.451875716447830200e-02
2.313174540176987648e-03
-3.282738849520683289e-02
-2.808456122875213623e-02
2.759899944067001343e-02
-5.521656945347785950e-03
1.354553923010826111e-02
3.673980757594108582e-02
-3.634709492325782776e-02
-5.364834144711494446e-02
-1.513253152370452881e-02
3.062136098742485046e-02
5.595522373914718628e-02
2.025116467848420143e-03
-6.988234817981719971e-02
5.283692851662635803e-03
-3.373488038778305054e-02
-2.612431719899177551e-02
7.779693230986595154e-03
-1.421643234789371490e-02
1.772653870284557343e-02
2.795017826429102570e-05
-6.670427322387695312e-02
1.780331507325172424e-02
-3.679488971829414368e-02
1.737624034285545349e-02
2.653227560222148895e-02
2.176447398960590363e-02
1.227557752281427383e-02
5.371773615479469299e-02
4.414498805999755859e-02
-6.842040270566940308e-02
-2.110084332525730133e-02
-4.115180578082799911e-03
-1.297385338693857193e-02
2.339740842580795288e-02
-9.265328757464885712e-03
-2.364277653396129608e-02
9.244903922080993652e-03
5.408567935228347778e-02
4.317714367061853409e-03
3.970880992710590363e-03
2.627416886389255524e-02
1.464817021042108536e-02
3.709214553236961365e-02
-1.569071225821971893e-02
-1.195875462144613266e-03
1.087715383619070053e-02
7.320269197225570679e-02
-2.182332798838615417e-02
-1.172680407762527466e-01
-1.342973299324512482e-02
1.617013290524482727e-02
-8.172604441642761230e-02
-7.238077931106090546e-03
-5.605484358966350555e-03
8.532363176345825195e-02
2.587215602397918701e-02
-4.731729626655578613e-02
2.331682853400707245e-02
-1.381953805685043335e-02
9.417932596988976002e-04
7.123886048793792725e-02
2.454884164035320282e-02
1.913864351809024811e-02
-7.258770614862442017e-02
2.512078918516635895e-02
-1.020376682281494141e-01
-5.864186957478523254e-02
-4.019523784518241882e-02
1.398805528879165649e-02
1.108259800821542740e-02
4.961492121219635010e-02
-1.719074882566928864e-02
6.813175231218338013e-02
3.536576405167579651e-02
1.563115417957305908e-02
1.316021382808685303e-02
4.217858426272869110e-03
-3.029213286936283112e-02
1.656963676214218140e-02
-1.546946018934249878e-01
-1.826351508498191833e-02
-2.126787044107913971e-02
3.676767274737358093e-02
6.507329642772674561e-03
-3.230872377753257751e-02
6.864832830615341663e-04
-3.985214512795209885e-03
2.518707886338233948e-02
1.076596751809120178e-01
2.431521564722061157e-02
6.203242763876914978e-02
-1.007514446973800659e-01
2.566460706293582916e-02
-7.690504193305969238e-02
-1.792116276919841766e-02
-6.249034777283668518e-02
-3.097829781472682953e-02
-1.835251785814762115e-02
5.226271972060203552e-02
1.894413679838180542e-02
9.358070790767669678e-03
5.440955981612205505e-03
-3.292582184076309204e-02
6.091642752289772034e-02
5.924870818853378296e-02
-9.206563234329223633e-03
-2.064931392669677734e-02
-5.808562785387039185e-02
-2.625006437301635742e-02
9.025210514664649963e-03
1.403707731515169144e-02
-3.638560697436332703e-02
3.549574315547943115e-02
3.635090216994285583e-02
3.454056754708290100e-02
-2.167056081816554070e-03
-8.557328837923705578e-04
4.710194095969200134e-02
3.245791792869567871e-02
-1.460789237171411514e-02
2.054182253777980804e-02
-2.066110447049140930e-02
-5.451596900820732117e-02
3.009298350661993027e-03
-2.930489741265773773e-02
2.894792892038822174e-02
2.684265002608299255e-02
2.547766081988811493e-02
3.927098214626312256e-02
6.160818971693515778e-03
5.280462652444839478e-02
-1.186879537999629974e-02
7.669288665056228638e-02
-1.126713212579488754e-02
1.037720125168561935e-03
3.459738567471504211e-03
2.217478863894939423e-02
2.674940228462219238e-02
2.811346016824245453e-02
3.649552538990974426e-02
1.436459459364414215e-02
1.246575359255075455e-02
-4.127888474613428116e-03
-2.632467774674296379e-03
-1.210065279155969620e-02
1.825708150863647461e-02
-2.798525057733058929e-02
-4.783459007740020752e-02
-1.119030080735683441e-02
-5.186042189598083496e-02
-6.053637340664863586e-02
4.119925945997238159e-02
4.936410114169120789e-03
-1.578626409173011780e-02
-3.239256888628005981e-02
-4.084426164627075195e-02
6.583213061094284058e-02
-2.505079098045825958e-02
4.300078749656677246e-02
-1.493504364043474197e-02
-6.280194036662578583e-03
-4.230360034853219986e-03
1.037777774035930634e-02
1.213878393173217773e-02
3.822871670126914978e-02
4.720781929790973663e-03
3.242111206054687500e-02
2.180451899766921997e-02
8.007241412997245789e-03
-3.918579965829849243e-02
7.641664892435073853e-02
-1.558499503880739212e-02
1.652629696764051914e-03
3.959242999553680420e-02
-1.911755464971065521e-02
4.579673707485198975e-02
1.074292231351137161e-02
-3.515389934182167053e-02
-1.428269874304533005e-02
-4.643724765628576279e-03
8.385916054248809814e-02
-2.036597207188606262e-02
3.735091537237167358e-03
1.132831722497940063e-02
-3.489462286233901978e-02
8.073079399764537811e-03
-6.803148426115512848e-03
-1.337512861937284470e-02
-1.821171678602695465e-02
-4.505129531025886536e-02
-3.980625048279762268e-02
2.113736793398857117e-02
6.913171149790287018e-03
-4.257694259285926819e-02
-4.502566662267781794e-05
-6.946928054094314575e-02
3.434206545352935791e-02
4.189223796129226685e-02
6.141867488622665405e-02
2.966256812214851379e-02
-1.132079400122165680e-02
5.660997703671455383e-02
-2.420983219053596258e-04
-3.410372883081436157e-02
-3.088572248816490173e-02
1.723389886319637299e-02
2.632561512291431427e-02
-3.128113970160484314e-02
8.574580773711204529e-03
-5.556249246001243591e-02
3.099905140697956085e-02
-1.102887988090515137e-01
-1.069219186902046204e-01
9.755271486937999725e-03
1.110703777521848679e-02
-6.986683234572410583e-03
-1.030869316309690475e-02
-1.029285974800586700e-02
-3.125456348061561584e-02
-1.135050784796476364e-02
9.005054831504821777e-03
-4.156616702675819397e-02
1.946465112268924713e-02
1.635211333632469177e-02
-4.581288434565067291e-03
-3.301275148987770081e-02
-3.554879222065210342e-03
1.409747451543807983e-02
-9.185336530208587646e-03
-6.737861782312393188e-03
6.364633142948150635e-02
5.708384513854980469e-02
-2.429636009037494659e-02
-3.509944304823875427e-02
3.604013100266456604e-02
-2.993167005479335785e-02
-3.197501227259635925e-02
-2.965970709919929504e-02
1.606251671910285950e-02
-3.779255598783493042e-02
4.765277728438377380e-03
-9.490337967872619629e-02
2.216420508921146393e-02
1.919340528547763824e-02
1.624662801623344421e-02
5.557011067867279053e-02
5.016002804040908813e-03
2.707082219421863556e-02
1.125263515859842300e-02
-5.765027832239866257e-03
1.471445336937904358e-02
1.862648292444646358e-03
-3.945669904351234436e-02
-1.883346820250153542e-03
-5.036726593971252441e-03
-4.809968639165163040e-03
-6.062048487365245819e-04
-3.199722990393638611e-02
1.350446417927742004e-02
9.737215191125869751e-02
-1.527425018139183521e-03
-5.193043872714042664e-02
-4.515358805656433105e-02
-2.169302850961685181e-02
3.715090081095695496e-02
5.331230908632278442e-02
-3.596064820885658264e-02
-2.300511114299297333e-02
8.424277417361736298e-03
4.427140951156616211e-02
-2.001361548900604248e-02
2.101826108992099762e-02
5.643958225846290588e-02
1.455569174140691757e-03
-2.181141826440580189e-05
5.956212058663368225e-02
1.611528173089027405e-02
-2.588355727493762970e-02
-6.206236779689788818e-02
-5.471626296639442444e-02
2.017917484045028687e-02
-1.891991123557090759e-02
-7.685409486293792725e-02
-6.616164464503526688e-03
7.559444010257720947e-02
-1.965752616524696350e-02
-1.710267178714275360e-02
-5.867637693881988525e-02
-2.001982927322387695e-02
6.405742466449737549e-02
-5.314748734235763550e-02
-3.125357627868652344e-02
-1.254886621609330177e-03
5.254178121685981750e-02
-2.212194725871086121e-02
-6.803780794143676758e-02
-2.111720480024814606e-02
4.643366206437349319e-03
2.528935857117176056e-02
-2.124594338238239288e-02
3.153825551271438599e-02
-6.901423446834087372e-03
-2.955784648656845093e-02
5.043291952461004257e-03
-2.783199772238731384e-02
-7.324695587158203125e-03
-3.990430757403373718e-02
1.782601326704025269e-02
1.148568000644445419e-02
-2.190065942704677582e-02
9.079839102923870087e-03
2.826780080795288086e-02
4.731782712042331696e-03
-3.204546496272087097e-02
7.280275970697402954e-02
5.758920311927795410e-02
-3.831066563725471497e-02
-3.044020198285579681e-02
3.339137881994247437e-02
-1.327852997928857803e-02
-7.797113806009292603e-02
1.794697716832160950e-02
5.600892007350921631e-02
-2.205790951848030090e-02
1.534942910075187683e-02
1.091496460139751434e-02
2.872255817055702209e-02
-4.444190114736557007e-02
4.072838649153709412e-02
2.346944622695446014e-02
-1.010899338871240616e-02
2.402165904641151428e-02
2.719799801707267761e-02
-1.803119480609893799e-02
-2.605158090591430664e-02
2.911303192377090454e-03
1.430913619697093964e-02
5.877190083265304565e-02
1.211015693843364716e-02
-1.288506202399730682e-02
-9.389466792345046997e-02
2.895695529878139496e-02
2.093783393502235413e-02
-2.678367868065834045e-02
-5.088450387120246887e-02
4.204649478197097778e-02
-5.022514984011650085e-02
-2.193219028413295746e-02
4.773712530732154846e-02
5.161149427294731140e-02
3.754867357201874256e-04
1.387757062911987305e-02
1.574190333485603333e-02
2.330957213416695595e-03
-3.390351776033639908e-03
-1.832961291074752808e-02
-4.652486369013786316e-02
-1.974631473422050476e-02
-2.613909356296062469e-02
2.488196268677711487e-02
5.158717930316925049e-02
-3.470596298575401306e-02
1.139190606772899628e-02
4.660427942872047424e-02
-2.897221967577934265e-02
1.215713098645210266e-02
-8.721280843019485474e-02
8.614956401288509369e-03
-2.384047023952007294e-02
3.716981038451194763e-03
2.076210221275687218e-03
-4.622734338045120239e-02
-8.719796687364578247e-02
4.088031710125505924e-04
-2.336481399834156036e-02
1.915678568184375763e-02
1.756606064736843109e-02
6.821311078965663910e-03
1.266457419842481613e-02
2.658720128238201141e-02
2.200586721301078796e-02
7.198158651590347290e-02
-3.709384799003601074e-02
2.046493068337440491e-02
3.176477737724781036e-03
1.087311888113617897e-03
-1.561259850859642029e-02
1.882424927316606045e-03
-2.200523624196648598e-03
2.307424508035182953e-02
-1.253726426512002945e-02
-2.457294613122940063e-03
3.783351043239235878e-03
4.038140550255775452e-02
-1.291262637823820114e-02
-7.534618489444255829e-03
-5.332193896174430847e-02
-1.003371402621269226e-01
-4.715374484658241272e-02
-4.302580654621124268e-02
-2.788959071040153503e-02
-1.878054696135222912e-03
2.580977417528629303e-02
2.584071457386016846e-02
-2.537782303988933563e-02
6.107693538069725037e-02
9.774954058229923248e-03
4.205627366900444031e-02
2.293725684285163879e-02
6.967667490243911743e-02
-3.438351303339004517e-02
-1.488358061760663986e-02
-3.036719933152198792e-02
1.058169547468423843e-02
-3.775933757424354553e-02
2.814198471605777740e-02
-3.056493774056434631e-02
9.024079889059066772e-03
2.821969613432884216e-02
2.153030224144458771e-02
4.029022157192230225e-02
4.054248332977294922e-02
-9.545624256134033203e-02
-6.904064118862152100e-02
1.580420136451721191e-02
-1.296499394811689854e-03
-3.433601930737495422e-02
1.700000837445259094e-02
4.493887349963188171e-02
-2.248177304863929749e-02
1.554431300610303879e-02
4.309183359146118164e-02
-5.422470625489950180e-03
6.724561005830764771e-02
1.668362133204936981e-02
-3.240564092993736267e-02
3.399385511875152588e-02
-1.269270014017820358e-02
-1.885524578392505646e-02
-1.221996173262596130e-02
-3.074588626623153687e-02
-2.882154658436775208e-02
-1.990755274891853333e-02
1.769734360277652740e-02
4.648090805858373642e-03
-1.357332430779933929e-02
-2.222558669745922089e-02
5.262563377618789673e-02
2.769776806235313416e-02
6.721957772970199585e-02
-3.322951123118400574e-02
-3.979745507240295410e-02
-7.149766385555267334e-02
-2.122131921350955963e-02
-2.163167484104633331e-02
-2.950263023376464844e-02
-8.053402416408061981e-03
-3.774947673082351685e-02
-1.726678386330604553e-02
1.400176319293677807e-03
3.070067614316940308e-02
5.635010544210672379e-03
7.668128609657287598e-02
-1.342992298305034637e-02
1.388911344110965729e-02
-3.170973807573318481e-02
-1.185140199959278107e-02
9.944614954292774200e-03
1.855854061432182789e-03
-2.304519526660442352e-02
6.230906583368778229e-03
4.902175627648830414e-03
6.412259489297866821e-02
7.140379399061203003e-02
1.164506003260612488e-02
7.003192603588104248e-02
1.378306187689304352e-02
3.454820066690444946e-02
-2.817260846495628357e-02
-2.532331831753253937e-02
-3.320632874965667725e-02
4.211703687906265259e-02
-6.479300558567047119e-02
-4.230819642543792725e-02
1.186806149780750275e-02
3.138258680701255798e-02
-1.234611868858337402e-02
2.689244970679283142e-02
5.539494007825851440e-02
-1.369901373982429504e-02
1.066714432090520859e-02
-1.712046004831790924e-02
2.504223957657814026e-02
-1.555175147950649261e-02
-3.818369284272193909e-02
-1.227850560098886490e-02
-2.017108350992202759e-02
2.765467390418052673e-03
-2.983984537422657013e-02
1.893367432057857513e-02
1.589006558060646057e-02
2.406242862343788147e-02
2.274545095860958099e-02
3.079883381724357605e-02
-4.567909520119428635e-03
-7.207261025905609131e-02
1.011148374527692795e-02
5.228699743747711182e-02
-5.835369601845741272e-02
-1.083850115537643433e-02
-1.537204533815383911e-02
-8.522569201886653900e-03
-8.421582169830799103e-03
1.559599395841360092e-02
3.032136708498001099e-02
5.854664742946624756e-02
-7.059828937053680420e-02
-5.370996147394180298e-02
1.576848477125167847e-01
9.352837689220905304e-03
2.124216593801975250e-02
-4.084751754999160767e-02
-3.019346483051776886e-02
-1.830446347594261169e-02
3.891615942120552063e-02
2.037141472101211548e-03
4.189384635537862778e-03
-8.187170140445232391e-03
5.388678051531314850e-03
-4.466901719570159912e-02
4.433222929947078228e-04
4.635351151227951050e-02
-8.800843730568885803e-03
1.661647227592766285e-03
3.037746623158454895e-02
2.970566507428884506e-03
-2.273005060851573944e-02
3.058191575109958649e-02
-3.191655501723289490e-02
4.394588060677051544e-03
-4.186893254518508911e-02
1.207187771797180176e-02
1.574754901230335236e-02
5.127505585551261902e-02
1.297545060515403748e-02
-3.708929568529129028e-02
6.415592879056930542e-02
1.912441477179527283e-02
5.572644993662834167e-02
-3.820123150944709778e-03
-9.575065225362777710e-03
-2.430547773838043213e-02
1.753562130033969879e-02
-9.237430640496313572e-04
-3.697727248072624207e-02
1.719844713807106018e-02
8.621935732662677765e-03
-2.870211377739906311e-02
9.904762555379420519e-05
-2.662951312959194183e-02
2.055450901389122009e-02
2.565371803939342499e-02
3.773762658238410950e-02
-1.352661405690014362e-03
-3.495212271809577942e-02
3.849826520308852196e-03
-4.687500372529029846e-02
-2.115766145288944244e-02
-3.848062828183174133e-02
-1.451507024466991425e-02
1.499394420534372330e-02
6.587398052215576172e-02
-4.713229835033416748e-02
1.196223497390747070e-02
3.058399772271513939e-03
-5.124004092067480087e-03
4.728687554597854614e-02
-7.131072692573070526e-03
-7.295978721231222153e-03
-2.329012006521224976e-02
2.977795153856277466e-02
6.374687422066926956e-03
1.796884648501873016e-02
1.681712572462856770e-03
-1.941118389368057251e-02
3.046071529388427734e-02
-3.288822993636131287e-02
-2.356800250709056854e-02
-8.167932741343975067e-03
7.014493923634290695e-03
2.028838172554969788e-02
-2.312250435352325439e-02
-2.495270222425460815e-02
-1.197753287851810455e-02
2.681195363402366638e-02
8.947108872234821320e-03
-4.656898602843284607e-02
2.340077050030231476e-02
-5.585300549864768982e-02
-3.273312002420425415e-02
3.381830826401710510e-02
-2.160312421619892120e-02
-1.642763987183570862e-02
4.041741602122783661e-03
1.946255378425121307e-02
-3.835255745798349380e-03
4.104833304882049561e-02
2.705494128167629242e-02
8.189410902559757233e-03
-3.276392817497253418e-02
-2.181602083146572113e-02
-4.760617017745971680e-02
-2.138826763257384300e-03
-7.776052225381135941e-04
4.649474844336509705e-02
3.521376987919211388e-03
-4.176148772239685059e-02
4.524739831686019897e-02
7.941505871713161469e-03
-5.038515105843544006e-02
-4.834654275327920914e-03
3.514517843723297119e-02
-3.332074359059333801e-02
-6.662412080913782120e-03
6.019217427819967270e-03
2.207235433161258698e-02
1.364146941341459751e-03
1.008070074021816254e-02
7.140179630368947983e-03
3.505777195096015930e-02
-2.974426746368408203e-02
-9.494275785982608795e-03
3.436273662373423576e-03
-2.737451158463954926e-02
-2.852006815373897552e-02
7.971237413585186005e-03
-1.705912500619888306e-02
3.908126673195511103e-04
-1.264601480215787888e-02
6.103830039501190186e-02
-1.374230254441499710e-02
-4.479725379496812820e-03
2.063796482980251312e-02
-2.260016091167926788e-02
-1.111872866749763489e-02
6.410652305930852890e-03
-5.563249439001083374e-02
9.963363409042358398e-03
8.679565973579883575e-03
-2.159408107399940491e-02
3.186313807964324951e-02
8.727824315428733826e-03
1.309397257864475250e-02
4.712737724184989929e-02
-4.921000916510820389e-03
1.118486002087593079e-02
-1.465335674583911896e-02
5.376789718866348267e-02
6.827900186181068420e-03
2.492706291377544403e-03
-1.996054500341415405e-02
9.286233223974704742e-03
2.001166157424449921e-02
-4.536192398518323898e-03
-1.180722378194332123e-02
-5.564485210925340652e-03
6.568608339875936508e-03
-1.094252709299325943e-02
1.589414291083812714e-02
9.282892569899559021e-03
1.757687143981456757e-02
5.606198217719793320e-03
3.636565059423446655e-02
3.132313117384910583e-02
3.184959292411804199e-02
-2.620500512421131134e-02
3.670679870992898941e-03
-1.146722771227359772e-02
-2.239939942955970764e-02
-2.872133441269397736e-02
1.587756560184061527e-03
2.322741039097309113e-02
-2.211082726716995239e-02
-1.047685160301625729e-03
3.506667213514447212e-03
6.459112279117107391e-03
-9.531999239698052406e-04
-1.134508103132247925e-02
-1.559485960751771927e-02
1.758014969527721405e-02
-3.387163206934928894e-02
-3.006890602409839630e-02
-3.185428678989410400e-02
2.704359218478202820e-02
2.805244922637939453e-02
-2.120090276002883911e-02
9.276759810745716095e-03
-2.724817395210266113e-02
2.010200545191764832e-02
-5.301580298691987991e-03
5.085337534546852112e-02
1.224059378728270531e-03
-9.241985157132148743e-03
2.283972222357988358e-03
1.769529841840267181e-02
8.968816138803958893e-03
7.684844080358743668e-03
-6.268261373043060303e-02
2.189656486734747887e-03
-1.391826663166284561e-03
2.778716199100017548e-02
-4.721928853541612625e-03
1.382398698478937149e-02
1.713166944682598114e-02
-2.291256561875343323e-02
4.180084541440010071e-02
-2.576526068150997162e-02
-1.103162503568455577e-04
-1.362416986376047134e-02
-6.464127916842699051e-03
-4.721035715192556381e-03
3.882072120904922485e-02
-9.116129949688911438e-04
-3.736752644181251526e-02
-4.314709454774856567e-02
-3.171147778630256653e-03
4.920059442520141602e-02
-6.672888528555631638e-03
6.647679954767227173e-02
1.959002390503883362e-02
3.181463107466697693e-02
-7.584528531879186630e-03
7.462640758603811264e-03
3.127434465568512678e-04
-5.053942650556564331e-02
-4.861034825444221497e-02
-4.798334836959838867e-02
-1.373782753944396973e-03
-1.140253338962793350e-02
3.080395050346851349e-02
7.013119757175445557e-03
-3.473883960396051407e-03
-3.196975588798522949e-02
5.689564719796180725e-02
-1.565252058207988739e-02
2.319219987839460373e-03
2.289926260709762573e-02
4.720335081219673157e-02
-7.745409384369850159e-03
-2.028751559555530548e-02
-1.316597219556570053e-02
-1.576646789908409119e-02
-3.835765644907951355e-02
3.047396894544363022e-03
-4.442102834582328796e-02
7.122326642274856567e-03
5.030184239149093628e-02
3.925452753901481628e-02
5.512788146734237671e-02
7.177606690675020218e-03
-2.646921761333942413e-02
2.898698672652244568e-03
1.347067486494779587e-02
-1.344540864229202271e-01
1.403148518875241280e-03
-3.680401295423507690e-02
4.223670437932014465e-02
-7.672201842069625854e-03
4.356830567121505737e-02
1.225067535415291786e-03
4.663832485675811768e-03
-1.548096537590026855e-02
3.573319190763868392e-05
-2.040282264351844788e-02
6.631489098072052002e-02
2.119436860084533691e-02
3.428396955132484436e-02
1.121956389397382736e-02
1.044639293104410172e-02
-2.796890586614608765e-02
3.374077845364809036e-03
-4.691213741898536682e-02
-6.484774500131607056e-02
-1.125816628336906433e-02
2.561044506728649139e-02
1.082119625061750412e-02
2.947982959449291229e-02
1.393376011401414871e-02
-1.614168658852577209e-02
-2.813911996781826019e-02
-2.557062171399593353e-02
-6.335680186748504639e-02
-1.945277117192745209e-02
2.846949920058250427e-02
1.448396872729063034e-02
1.421034429222345352e-02
1.478745974600315094e-02
-2.677715569734573364e-02
2.458572620525956154e-03
-2.034981967881321907e-03
-1.427748589776456356e-03
1.957270875573158264e-02
1.199189946055412292e-02
8.028954267501831055e-02
3.448065742850303650e-02
-2.400635182857513428e-02
2.857298776507377625e-02
-2.756224712356925011e-03
-9.446228854358196259e-03
-2.154113724827766418e-02
-6.074455380439758301e-02
5.911772139370441437e-03
-5.998716689646244049e-03
4.588338732719421387e-02
-3.651397302746772766e-02
-9.865249507129192352e-03
-2.647869102656841278e-02
3.574915602803230286e-02
-3.294302849099040031e-03
-2.681911177933216095e-02
-2.945454558357596397e-03
2.995889820158481598e-02
5.725122615694999695e-02
-2.881520055234432220e-02
-1.631429977715015411e-02
4.361046478152275085e-02
3.863041475415229797e-02
-7.708169519901275635e-02
5.351477768272161484e-03
4.394258186221122742e-02
7.375490851700305939e-03
1.160874380730092525e-03
1.164118386805057526e-02
-3.575963201001286507e-03
2.856863103806972504e-02
-2.136141806840896606e-02
-4.011363163590431213e-02
-1.312091946601867676e-02
2.538945525884628296e-03
7.637190818786621094e-02
5.555025767534971237e-03
2.698811702430248260e-02
1.430964469909667969e-02
4.314134828746318817e-03
-1.320043765008449554e-02
2.031554654240608215e-02
-5.375022441148757935e-02
-3.119682893157005310e-02
-3.708511590957641602e-02
-1.373406965285539627e-02
1.849228516221046448e-02
-1.005215384066104889e-02
-1.801487058401107788e-02
2.300875261425971985e-02
1.109862327575683594e-02
-7.020757067948579788e-03
-9.164493530988693237e-03
-7.687421049922704697e-03
-6.149183958768844604e-03
-2.295441739261150360e-02
2.058818563818931580e-02
2.526631206274032593e-02
1.555123925209045410e-02
-4.425132274627685547e-02
-2.268725074827671051e-02
-3.531610593199729919e-02
-1.335934456437826157e-02
5.178863927721977234e-02
6.046501174569129944e-02
5.613409727811813354e-02
5.975361540913581848e-02
-5.118752829730510712e-03
-1.144473720341920853e-02
-3.058069385588169098e-02
-2.139246091246604919e-02
-7.102726399898529053e-02
-2.859077416360378265e-02
-1.802584622055292130e-03
2.644570544362068176e-02
2.589551731944084167e-02
5.536824464797973633e-03
1.653281785547733307e-02
5.241623613983392715e-03
-1.625449862331151962e-03
-8.473875001072883606e-03
-2.914417348802089691e-02
4.158250987529754639e-02
-2.796950191259384155e-02
-6.802766583859920502e-03
1.529974211007356644e-02
4.117601551115512848e-03
-4.713229136541485786e-04
5.954752862453460693e-02
1.815555430948734283e-02
2.488559298217296600e-02
-2.153258584439754486e-02
3.155824542045593262e-02
4.233472049236297607e-02
-5.239512026309967041e-02
-3.185214102268218994e-02
-4.832838196307420731e-03
-1.406673709425376728e-05
-8.113567717373371124e-03
-5.818498507142066956e-02
5.592253524810075760e-03
1.855255663394927979e-02
-4.277744144201278687e-02
2.427484653890132904e-02
-2.223990671336650848e-02
3.105416335165500641e-02
-3.099166229367256165e-02
1.282753702253103256e-02
-6.593180820345878601e-03
1.908967271447181702e-02
4.236573353409767151e-02
-4.678383469581604004e-02
-2.533228881657123566e-02
1.734163798391819000e-02
-8.191141299903392792e-03
-6.989790592342615128e-03
3.345913067460060120e-02
2.653074916452169418e-03
-4.477308539208024740e-04
2.571193128824234009e-02
3.594523668289184570e-02
2.838303567841649055e-03
8.294246159493923187e-03
7.726979441940784454e-03
2.596282958984375000e-02
-4.729748517274856567e-02
-8.188039064407348633e-02
-1.870882697403430939e-02
-5.570460110902786255e-02
5.092963576316833496e-03
3.617655858397483826e-02
3.493885323405265808e-02
-9.464462287724018097e-03
-4.389291256666183472e-02
3.322690725326538086e-02
-2.207617275416851044e-02
-5.527281016111373901e-02
-1.304706465452909470e-02
3.753198310732841492e-02
-4.553657770156860352e-02
-1.597857917658984661e-03
2.520814351737499237e-02
-1.785081624984741211e-02
-7.862768252380192280e-04
-3.148137405514717102e-02
-1.958459056913852692e-02
-1.056593097746372223e-02
1.883271150290966034e-02
1.889386586844921112e-02
-3.199565410614013672e-02
3.120335191488265991e-02
9.117306210100650787e-03
-2.053678222000598907e-02
1.177022419869899750e-02
1.552750449627637863e-02
4.693894088268280029e-02
4.708129912614822388e-03
-2.346539497375488281e-02
-1.328817103058099747e-02
1.865855976939201355e-02
-3.334609046578407288e-02
-2.974485419690608978e-02
-2.977782860398292542e-03
2.581321448087692261e-02
-1.006924454122781754e-02
-1.230730582028627396e-02
5.679845344275236130e-03
1.174517720937728882e-02
4.965727683156728745e-03
5.175937339663505554e-02
1.771381869912147522e-02
2.080030739307403564e-02
3.205291554331779480e-02
-1.292293705046176910e-02
-3.788440721109509468e-03
1.678280159831047058e-02
4.093277826905250549e-02
6.490686535835266113e-02
5.585206672549247742e-02
8.946981281042098999e-03
-2.681675925850868225e-02
1.421869732439517975e-02
-3.734315931797027588e-02
-3.371765464544296265e-02
-5.874245613813400269e-02
2.173581533133983612e-02
8.313094824552536011e-02
-2.351825311779975891e-02
5.333920940756797791e-02
-3.068674728274345398e-02
4.013163596391677856e-02
-1.044961344450712204e-02
-9.406510740518569946e-03
5.741396546363830566e-02
1.500298921018838882e-02
2.139393426477909088e-02
1.335599645972251892e-02
2.806228585541248322e-02
3.249428933486342430e-03
2.280684188008308411e-02
-1.797194965183734894e-02
-2.568906731903553009e-02
-1.268453337252140045e-02
6.161092966794967651e-02
3.150038793683052063e-02
-1.024104934185743332e-02
9.020511060953140259e-03
-2.339920401573181152e-02
-4.517176747322082520e-02
2.842043526470661163e-02
-4.108515754342079163e-02
-3.373714536428451538e-02
-2.719304524362087250e-02
-3.504092618823051453e-02
-1.301184482872486115e-02
3.993101790547370911e-02
8.076473325490951538e-02
1.540009956806898117e-02
8.991522341966629028e-02
3.751741722226142883e-02
-5.324696749448776245e-02
3.698876593261957169e-03
4.417187720537185669e-02
6.940279621630907059e-03
-1.915566064417362213e-02
1.601319015026092529e-02
-3.078508190810680389e-02
1.773680560290813446e-02
-7.190444041043519974e-03
-2.569730952382087708e-02
3.365503856912255287e-03
-2.609720639884471893e-02
-2.482683770358562469e-02
-3.256450220942497253e-02
2.183767780661582947e-02
1.745080575346946716e-02
8.206750266253948212e-03
2.534326165914535522e-02
4.921371862292289734e-02
4.531082510948181152e-02
-1.806015963666141033e-03
6.531085073947906494e-02
-6.642574071884155273e-02
2.979947999119758606e-02
-6.445307284593582153e-03
-1.783047989010810852e-02
1.603082753717899323e-02
3.522287309169769287e-02
2.110251598060131073e-02
-8.977813646197319031e-03
-3.507397370412945747e-03
-3.478929400444030762e-03
-2.522791502997279167e-03
-2.029884606599807739e-02
2.722464315593242645e-02
-2.370502054691314697e-02
-2.634183317422866821e-02
3.584483265876770020e-02
1.651740632951259613e-03
2.624205313622951508e-02
-6.574494391679763794e-02
-3.206921368837356567e-02
7.659698836505413055e-03
2.706058137118816376e-02
-1.549130585044622421e-02
4.585705697536468506e-03
2.955158054828643799e-02
6.743550300598144531e-02
3.912684693932533264e-02
-4.812626168131828308e-02
-4.476641304790973663e-03
-1.227596867829561234e-02
9.701032540760934353e-04
1.390228234231472015e-02
3.827860951423645020e-02
2.355858869850635529e-02
1.541442330926656723e-02
2.008204348385334015e-02
-2.168793976306915283e-02
3.580685006454586983e-03
8.222840726375579834e-03
-3.200257569551467896e-02
-1.169617101550102234e-02
1.009175088256597519e-02
4.509756399784237146e-04
-1.440193131566047668e-02
-6.125317886471748352e-03
3.823652863502502441e-02
5.554101243615150452e-02
-7.899902993813157082e-04
-7.767295837402343750e-02
1.352452300488948822e-02
-2.371472120285034180e-02
-6.007739342749118805e-03
4.671082273125648499e-02
6.564930081367492676e-02
-4.224952682852745056e-02
-5.009972956031560898e-03
-1.661586388945579529e-02
-1.713714003562927246e-02
-1.951019093394279480e-02
1.618380285799503326e-02
3.674769029021263123e-02
-1.711562089622020721e-02
1.448269002139568329e-02
-4.957698658108711243e-02
-2.815940417349338531e-02
1.423040125519037247e-02
-3.340626880526542664e-02
3.050397150218486786e-02
1.862430758774280548e-02
8.488659746944904327e-03
1.930106431245803833e-02
-7.208504527807235718e-02
8.239017799496650696e-03
2.105133980512619019e-02
-4.361119866371154785e-02
2.651455253362655640e-02
-3.487992333248257637e-03
-2.334137912839651108e-03
-1.694642123766243458e-03
-2.817068062722682953e-02
-1.157703460194170475e-03
1.369981281459331512e-02
-3.806523606181144714e-02
-1.445344649255275726e-02
-3.416258841753005981e-04
2.708281017839908600e-02
-1.246476359665393829e-02
-3.200083971023559570e-02
-1.041973382234573364e-02
4.068980738520622253e-02
3.788639605045318604e-02
-3.200004249811172485e-02
-1.850436441600322723e-02
1.646131463348865509e-02
3.499710187315940857e-02
-5.193646065890789032e-03
9.987914934754371643e-03
-1.033457927405834198e-02
1.713482476770877838e-02
-4.149423912167549133e-02
-2.691601403057575226e-02
-9.659674949944019318e-03
2.871963195502758026e-02
1.847888156771659851e-02
3.153194114565849304e-02
1.049342378973960876e-02
1.588778011500835419e-02
3.126903250813484192e-02
3.543605096638202667e-03
3.966424241662025452e-02
-2.938362024724483490e-02
3.742408473044633865e-03
9.430620819330215454e-03
5.300164688378572464e-03
-2.292667143046855927e-02
3.507728397380560637e-04
3.009607270359992981e-02
-5.589080229401588440e-02
2.244212850928306580e-02
1.881143637001514435e-02
-1.962817832827568054e-02
-5.206699296832084656e-02
1.025605481117963791e-02
-9.586257860064506531e-03
-1.053200010210275650e-02
-5.657441914081573486e-03
-3.589545609429478645e-03
-3.303480148315429688e-02
2.601269446313381195e-02
8.570325560867786407e-03
-2.369533106684684753e-02
-2.156153880059719086e-02
-4.923411458730697632e-02
1.986646652221679688e-02
-3.706088056787848473e-03
2.178262546658515930e-02
-3.859444335103034973e-02
6.183791160583496094e-02
1.009435858577489853e-02
-3.965042531490325928e-03
-4.151577502489089966e-02
-4.934000782668590546e-03
-2.388970181345939636e-02
4.321003705263137817e-02
-2.272360399365425110e-02
3.589459508657455444e-02
6.958548910915851593e-04
2.346057258546352386e-02
3.377850353717803955e-02
-4.496907442808151245e-02
-5.435169674456119537e-03
7.157006300985813141e-03
-1.620429567992687225e-02
-4.884741082787513733e-02
-1.145090721547603607e-02
6.978378165513277054e-03
-1.905766688287258148e-02
-6.203831359744071960e-02
-6.048811599612236023e-02
1.172263058833777905e-03
-1.313191838562488556e-02
2.033054269850254059e-02
3.041518619284033775e-03
-1.811561174690723419e-02
2.509398758411407471e-02
1.929055340588092804e-02
4.330154135823249817e-02
4.170394688844680786e-02
-2.728019468486309052e-02
-6.209992337971925735e-03
-5.833134427666664124e-02
-7.832529023289680481e-03
3.879993408918380737e-02
5.360017716884613037e-02
1.113504078239202499e-02
1.945359073579311371e-02
2.235236018896102905e-02
1.610037498176097870e-02
-1.047515030950307846e-02
-1.610344089567661285e-02
-2.129464969038963318e-02
1.517474156571552157e-04
-3.010415285825729370e-02
-3.306175768375396729e-02
9.553751442581415176e-04
-6.476497650146484375e-02
-5.470508337020874023e-02
1.976709254086017609e-02
2.472382225096225739e-02
-4.241259023547172546e-02
2.574946731328964233e-02
-3.394229710102081299e-02
-1.846866495907306671e-02
2.145707234740257263e-02
2.475836314260959625e-02
-4.675611387938261032e-03
-1.552346348762512207e-02
-2.018594369292259216e-02
7.408200763165950775e-03
-4.961160570383071899e-02
3.233594074845314026e-02
5.756345018744468689e-02
6.485541164875030518e-02
1.736672036349773407e-02
6.532457470893859863e-02
1.465121656656265259e-02
4.588153213262557983e-02
4.173326119780540466e-02
7.254820957314223051e-05
-1.616895757615566254e-02
-2.698722667992115021e-02
-8.493789471685886383e-03
-3.627593070268630981e-02
-7.274848874658346176e-03
-1.279751304537057877e-02
-1.923135481774806976e-02
4.379995912313461304e-02
2.592725306749343872e-02
3.942567110061645508e-02
2.957156114280223846e-02
8.446217514574527740e-03
1.766771078109741211e-02
-3.987634181976318359e-02
2.336505241692066193e-02
6.624252069741487503e-03
-3.579294309020042419e-02
3.388615325093269348e-02
8.962640166282653809e-02
1.963683217763900757e-02
3.332196502014994621e-03
6.795648485422134399e-02
2.953207865357398987e-02
2.192829549312591553e-02
1.227579917758703232e-02
-1.735359802842140198e-02
-1.581735536456108093e-02
9.127881377935409546e-03
-3.180098021402955055e-03
-4.846178460866212845e-03
3.718451783061027527e-02
-2.079560607671737671e-02
1.000577490776777267e-02
-6.492443848401308060e-03
-2.586092427372932434e-02
-1.211788505315780640e-02
-1.003049872815608978e-02
-4.903169348835945129e-03
-2.220386825501918793e-02
1.921394653618335724e-02
-3.495662286877632141e-02
-4.317124560475349426e-02
-1.655424945056438446e-02
4.292638972401618958e-02
-8.425702340900897980e-03
2.404573000967502594e-02
5.165732279419898987e-02
-9.975570719689130783e-04
-4.109979420900344849e-02
-4.079032689332962036e-02
1.432558055967092514e-03
-2.643764764070510864e-02
-2.603376284241676331e-03
3.645866736769676208e-02
1.284646801650524139e-02
-1.075810100883245468e-02
3.373150527477264404e-02
4.703516513109207153e-02
-3.137785475701093674e-03
-1.464652270078659058e-02
-7.867609709501266479e-02
-5.527297500520944595e-03
9.657374583184719086e-03
3.453296422958374023e-02
5.263740941882133484e-02
3.631331771612167358e-02
8.607326075434684753e-03
-2.451851032674312592e-02
-3.073928691446781158e-02
3.481545299291610718e-02
-3.161530196666717529e-02
-8.549281395971775055e-03
-3.035120666027069092e-02
3.973261639475822449e-02
-1.783174835145473480e-02
1.073304116725921631e-01
-2.421853318810462952e-02
-4.000193625688552856e-02
-2.496879780665040016e-03
-2.402737550437450409e-02
3.793194890022277832e-02
8.315511047840118408e-02
6.845366209745407104e-02
2.719431743025779724e-02
5.158420279622077942e-02
7.601530104875564575e-02
4.160155728459358215e-02
5.833268631249666214e-03
-2.916782535612583160e-02
1.492690946906805038e-02
1.646688021719455719e-02
5.079345405101776123e-02
3.498442471027374268e-02
1.531517971307039261e-02
-2.275181235745549202e-03
2.826648205518722534e-02
3.634714754298329353e-03
-6.295021623373031616e-02
-1.982021518051624298e-02
5.329285748302936554e-03
2.379870042204856873e-02
-4.103717510588467121e-04
-8.080141851678490639e-04
2.259200066328048706e-02
1.244471408426761627e-02
5.827862769365310669e-03
-3.109096921980381012e-02
-2.479790896177291870e-02
-1.288511604070663452e-02
3.408058732748031616e-02
7.055236399173736572e-02
1.067334562540054321e-01
9.500719606876373291e-02
1.621904373168945312e-01
4.380555450916290283e-02
-2.564508654177188873e-02
6.604139506816864014e-02
5.082451179623603821e-02
-3.035810776054859161e-02
2.128283120691776276e-02
3.303734213113784790e-02
3.164605051279067993e-02
-2.722290717065334320e-02
2.870810776948928833e-02
7.013089954853057861e-02
-2.200307324528694153e-02
-1.051704287528991699e-01
-1.165621429681777954e-01
-1.629830896854400635e-02
-1.963783800601959229e-02
1.339015644043684006e-02
-4.487463459372520447e-02
-6.030903756618499756e-02
-3.397205471992492676e-02
-3.830098733305931091e-02
-6.238030642271041870e-02
-3.026298433542251587e-02
-2.929688664153218269e-03
8.846527338027954102e-02
6.776002794504165649e-02
1.955780200660228729e-02
-3.202061355113983154e-02
-5.581402685493230820e-03
1.527508720755577087e-02
1.735106669366359711e-02
-3.691587224602699280e-02
-6.538211554288864136e-02
-2.429296076297760010e-02
3.252922743558883667e-02
-5.109912529587745667e-02
-3.490165621042251587e-02
3.560609184205532074e-03
-2.325938548892736435e-03
3.342608455568552017e-03
-5.946067720651626587e-02
-6.401968188583850861e-03
-5.104095861315727234e-02
-1.062817499041557312e-01
-5.319003015756607056e-02
7.987136952579021454e-03
-5.989012494683265686e-02
2.519937464967370033e-03
-2.447321638464927673e-02
-4.295619204640388489e-02
-8.017227984964847565e-03
1.504880562424659729e-02
1.481159403920173645e-02
-6.257471442222595215e-02
-6.319881975650787354e-02
-2.993284910917282104e-02
-1.906469650566577911e-02
1.035974696278572083e-01
4.670250928029417992e-04
-5.879218503832817078e-02
-2.842346951365470886e-02
1.147927716374397278e-02
-1.836666092276573181e-02
-3.718748455867171288e-03
-1.996365189552307129e-02
-2.716076187789440155e-02
-4.763826355338096619e-02
1.486317953094840050e-03
-5.171630531549453735e-02
3.596981987357139587e-02
4.434305056929588318e-02
-2.222745970357209444e-04
-3.600315377116203308e-02
-8.148337900638580322e-02
-1.490165945142507553e-02
-9.568511508405208588e-03
-2.448853803798556328e-03
1.946630328893661499e-02
-3.412369638681411743e-03
1.862001046538352966e-02
-8.975417912006378174e-02
-7.607826497405767441e-03
9.305099374614655972e-04
-4.864787310361862183e-02
8.328979834914207458e-03
8.340709656476974487e-02
-1.081746909767389297e-02
9.745780378580093384e-03
3.270523622632026672e-02
2.370045986026525497e-03
-5.108897387981414795e-02
5.041313171386718750e-02
1.036556530743837357e-02
-3.944729268550872803e-02
-6.017298996448516846e-02
-5.828670412302017212e-02
-7.760305888950824738e-03
-8.318695239722728729e-03
3.197146207094192505e-02
4.698761552572250366e-02
-1.384466886520385742e-02
7.890128530561923981e-03
-6.029687449336051941e-02
-2.971768379211425781e-02
2.312305010855197906e-02
2.093757502734661102e-02
2.756393328309059143e-02
3.015937097370624542e-02
-1.010122001171112061e-01
-1.256795078516006470e-01
-1.034918203949928284e-01
-6.352554261684417725e-02
-3.062777034938335419e-02
8.723881095647811890e-02
1.735044829547405243e-02
-5.463061854243278503e-03
2.110313810408115387e-02
-3.007902763783931732e-02
-3.227006644010543823e-02
-2.788642421364784241e-02
6.221580784767866135e-03
-4.736579582095146179e-02
-7.362167537212371826e-02
8.363325148820877075e-03
2.618375234305858612e-02
8.917874656617641449e-03
3.071455284953117371e-02
-1.521344017237424850e-02
4.616342857480049133e-02
-1.670339703559875488e-02
-1.508742384612560272e-02
2.045565051957964897e-03
-6.100764498114585876e-02
-3.331983229145407677e-03
-7.740861177444458008e-02
-1.896508410573005676e-02
-1.101549714803695679e-01
-9.880740195512771606e-02
-1.389584094285964966e-01
-7.061329483985900879e-02
1.587163470685482025e-02
-7.491080323234200478e-04
7.144838571548461914e-02
2.771554142236709595e-02
-5.690999329090118408e-02
3.802121058106422424e-02
1.731829345226287842e-02
-2.175907976925373077e-02
1.152152777649462223e-03
-6.014989688992500305e-03
2.214048430323600769e-02
9.698797017335891724e-03
-8.905100636184215546e-03
2.410593070089817047e-02
2.603981085121631622e-02
1.251487806439399719e-02
8.750510402023792267e-03
4.664636030793190002e-02
-6.158658117055892944e-02
2.435151860117912292e-02
5.456580594182014465e-02
-2.658849023282527924e-02
2.997998706996440887e-02
7.328187581151723862e-03
-3.930363059043884277e-02
2.869199961423873901e-02
-1.279325596988201141e-02
-4.197688400745391846e-02
3.397686406970024109e-02
-1.520436257123947144e-02
1.864074915647506714e-02
5.638912692666053772e-02
-2.218732424080371857e-02
-4.034107550978660583e-03
-6.813136488199234009e-02
5.664109438657760620e-02
4.055553302168846130e-02
-2.360665798187255859e-02
7.091258652508258820e-03
1.732738874852657318e-02
2.843767590820789337e-02
9.058950468897819519e-03
-6.620782613754272461e-02
8.649600786156952381e-04
-3.397626057267189026e-02
7.976486347615718842e-03
-2.036331593990325928e-02
-1.066641602665185928e-02
2.142952382564544678e-02
6.698485463857650757e-02
-8.948192000389099121e-03
-4.226735979318618774e-02
-1.777428947389125824e-02
6.036127358675003052e-02
6.049377471208572388e-02
5.807887017726898193e-02
7.512614683946594596e-05
-8.724761195480823517e-03
-3.317458555102348328e-02
-3.349830396473407745e-03
8.184959180653095245e-03
-3.576284041628241539e-03
2.241537161171436310e-02
3.207661584019660950e-02
-3.708649054169654846e-02
-8.467158675193786621e-02
3.134454041719436646e-02
1.092381402850151062e-02
4.283052310347557068e-02
-1.266469992697238922e-02
-1.799972541630268097e-02
-2.287475945195183158e-05
-8.672732859849929810e-03
1.244496181607246399e-02
9.956877678632736206e-03
7.829128764569759369e-03
4.503476247191429138e-02
4.550216719508171082e-02
-2.969836257398128510e-02
-1.298965960741043091e-01
-2.921341173350811005e-02
3.277907520532608032e-02
2.607989124953746796e-02
4.703333973884582520e-02
-2.095155231654644012e-02
-1.576687768101692200e-02
-1.756825135089457035e-03
3.748729825019836426e-02
8.324538916349411011e-02
1.851301785791292787e-04
2.728678286075592041e-02
1.499278005212545395e-02
4.757216572761535645e-02
4.448216035962104797e-02
1.656721532344818115e-02
8.520931005477905273e-03
7.663647085428237915e-02
-4.408703185617923737e-03
-1.204387377947568893e-02
-5.233799293637275696e-02
-1.776581979356706142e-03
-3.237035125494003296e-02
-2.321968041360378265e-02
2.700838632881641388e-02
1.791255921125411987e-02
3.745140135288238525e-02
3.820623457431793213e-02
-1.115878000855445862e-01
1.828977279365062714e-02
6.987638771533966064e-02
5.311703716870397329e-05
1.086865458637475967e-02
-1.963512785732746124e-02
7.203594781458377838e-03
-1.984851248562335968e-02
-1.252083294093608856e-02
5.681196344085037708e-04
6.890393048524856567e-02
4.129953309893608093e-02
1.828742027282714844e-02
6.581403315067291260e-02
2.595261298120021820e-02
1.828804053366184235e-02
-1.537267770618200302e-02
2.666293084621429443e-02
-9.861415252089500427e-03
1.208887435495853424e-02
-4.055438563227653503e-02
5.766114965081214905e-02
2.103975228965282440e-02
2.452206611633300781e-02
1.822453364729881287e-02
3.967203944921493530e-02
3.575253114104270935e-02
-2.335453173145651817e-03
-1.412144117057323456e-02
4.941387474536895752e-02
4.866752773523330688e-03
-9.503654204308986664e-03
-3.502257540822029114e-02
-3.922400996088981628e-02
-2.155739627778530121e-02
3.419006243348121643e-02
-4.479564726352691650e-03
-3.792396932840347290e-02
3.616112098097801208e-02
2.984584867954254150e-02
2.377602458000183105e-02
2.300690673291683197e-02
1.943715848028659821e-02
4.255822673439979553e-02
-1.307698315940797329e-03
-3.571604564785957336e-02
-2.835341170430183411e-02
-4.394202679395675659e-02
1.658517308533191681e-02
4.881276935338973999e-02
-4.406572878360748291e-02
-2.840142138302326202e-02
-5.674984306097030640e-03
-2.672574296593666077e-02
1.892830245196819305e-02
1.688333810307085514e-03
1.033838093280792236e-02
-3.727125469595193863e-03
6.422172486782073975e-02
1.033768989145755768e-02
-5.308570805937051773e-03
1.703806780278682709e-02
-1.788077503442764282e-02
1.093264948576688766e-02
3.570305928587913513e-02
-2.664610045030713081e-03
3.127221763134002686e-02
1.374533865600824356e-02
-2.580151706933975220e-02
-1.119534485042095184e-02
-6.479097530245780945e-03
5.159617587924003601e-02
2.750249207019805908e-02
4.124116897583007812e-02
-2.745899930596351624e-02
6.570950150489807129e-03
-1.053338218480348587e-02
5.779152270406484604e-03
1.050554402172565460e-02
2.065949887037277222e-02
3.644270077347755432e-02
5.311562214046716690e-03
3.212580829858779907e-02
-9.638915769755840302e-03
3.414881601929664612e-02
-8.686421439051628113e-03
1.947052776813507080e-02
3.080760873854160309e-02
4.246298596262931824e-02
4.551468417048454285e-02
3.153532370924949646e-02
-5.948702339082956314e-03
-3.458979306742548943e-03
4.411926493048667908e-02
-3.170569194480776787e-03
-4.564015939831733704e-02
-3.106081485748291016e-02
-2.319682948291301727e-02
-9.924313984811306000e-03
4.077823460102081299e-02
-1.148595008999109268e-02
-2.257741801440715790e-02
6.774989515542984009e-02
8.737754076719284058e-03
-1.982647925615310669e-02
-3.281136602163314819e-02
6.386764813214540482e-03
4.407011903822422028e-03
1.184019166976213455e-02
-1.286191120743751526e-02
-2.828966267406940460e-02
-1.248005125671625137e-02
-1.551711745560169220e-02
-1.345333922654390335e-02
1.005956716835498810e-02
3.718263283371925354e-02
8.018672466278076172e-03
-1.999573968350887299e-02
-5.351452156901359558e-02
-3.975156322121620178e-02
4.180315136909484863e-02
1.857030205428600311e-02
1.200311724096536636e-02
3.054722398519515991e-02
1.704208366572856903e-02
9.796233847737312317e-03
4.351163806859403849e-04
2.450641430914402008e-02
5.949125625193119049e-03
-2.444536611437797546e-02
-5.729251075536012650e-03
-1.848453469574451447e-02
1.926326937973499298e-02
-1.526501588523387909e-02
2.704139798879623413e-02
3.447109833359718323e-02
-6.007008720189332962e-03
-1.751291193068027496e-02
-6.053899601101875305e-02
-1.784353330731391907e-02
-2.737969858571887016e-03
-4.073945339769124985e-03
2.471467852592468262e-02
-9.089008904993534088e-03
2.194398781284689903e-03
8.533456921577453613e-02
-1.334653142839670181e-02
-1.240226067602634430e-02
-2.993011474609375000e-02
8.335246704518795013e-03
-7.195369154214859009e-02
-8.391064591705799103e-03
-1.600365713238716125e-02
4.718952998518943787e-02
1.748687587678432465e-02
1.951161958277225494e-02
2.990496903657913208e-02
-9.828763082623481750e-03
8.808533661067485809e-03
5.513411387801170349e-02
-4.734328389167785645e-02
2.436919603496789932e-03
2.614538371562957764e-02
9.719631634652614594e-05
3.820064291357994080e-02
1.091543678194284439e-02
-1.609328575432300568e-02
1.754777692258358002e-02
-1.670221798121929169e-02
9.499879553914070129e-03
2.932034060359001160e-02
-2.241653576493263245e-02
-2.134542353451251984e-02
-2.140437066555023193e-02
-2.520197443664073944e-02
4.189538210630416870e-02
-2.433518320322036743e-02
1.274964585900306702e-02
1.181695330888032913e-02
1.106089446693658829e-03
2.959021739661693573e-02
4.300311952829360962e-02
-1.882896572351455688e-02
3.128622891381382942e-03
1.480522565543651581e-02
1.209373679012060165e-02
-4.257980268448591232e-03
-2.417608536779880524e-02
-3.913352638483047485e-02
2.219876274466514587e-02
2.299408055841922760e-02
3.263925015926361084e-02
-6.478521041572093964e-03
-6.603194028139114380e-02
3.687619417905807495e-02
2.894344739615917206e-02
-1.587275601923465729e-02
-5.853314697742462158e-02
-5.148372426629066467e-02
-5.663110315799713135e-02
-8.491298183798789978e-03
