0.011108
0.0060425
0.053772
0.0032349
-0.0056763
-0.014282
0.090149
-0.041321
-0.08905
-0.043518
-0.10028
-0.074341
0.017395
0.057922
0.052429
0.066223
-0.092407
-0.071594
-0.025391
0.0015259
-0.099304
0.06543
-0.0042725
0.020874
-0.015625
-0.0067749
0.029724
0.0076294
0.044373
0.014038
0.060547
0.016602
0.0073853
0.05072
0.025757
-0.032349
-0.034607
-0.04126
-0.11035
0.025696
-0.056458
-0.033447
0.029114
0.026001
-0.0053101
-0.12482
-0.05658
0.011292
0.021484
0.026367
0.030701
0.059998
-0.038574
0.025513
0.010742
0.013794
0.00054932
-0.013306
-0.025146
-0.023071
0.080933
0.05072
-0.031372
-0.0271
0.082214
0.019592
0.036072
-0.032532
-0.10126
0.068298
0.050354
-0.030945
-0.0024414
0.075562
0.022827
-0.016113
-0.0354
-0.080322
0.030579
0.051697
-0.015076
0.0093384
-0.0030518
0.023499
0.013428
0.043457
-0.02063
-0.025208
0.0081177
-0.0028687
-0.098816
0.08905
-0.014771
0.033264
-0.050842
0.012146
0.052246
0.00061035
-0.041382
0.039063
0.06958
-0.040894
-0.016663
-0.0049438
0.018799
-0.054321
-0.037903
0.043213
0.017029
0.03241
0.044128
-0.00073242
0.045105
0.010315
-0.038086
0.040161
-0.046875
-0.026062
0.04657
-0.02356
0.054749
0.0081787
0.026917
0.019836
0.0084839
-0.041199
-0.093933
0.075073
0.076965
-0.029541
-0.022095
0.0077515
0.013367
0.025757
-0.028503
0.012329
-0.011536
0.027344
-0.01001
-0.0053101
0.023621
0.033997
-0.049194
0.027588
-0.038086
0.005188
-0.045166
0.0012817
-0.02771
-0.0053711
-0.049011
-0.040466
-0.010498
-0.0097656
-0.0271
0.02478
0.013184
-0.031555
-0.010437
-0.025146
0.014709
-0.054504
0.026001
-0.030396
0.0015259
0.034302
0.019287
0.00079346
0.017029
0.033691
-0.031494
-0.01532
0.0099487
-0.063538
-0.024902
-0.092041
-0.00085449
0.04425
0.047241
0.057983
-0.0079956
0.029602
-0.024109
-0.041138
-0.026917
-0.052551
-0.034119
0.057251
0.00091553
0.048035
-0.063782
-0.030151
0.024658
-0.021484
0.0094604
-0.0027466
0.046204
0.015991
0.012085
0.067444
0.016968
-0.0058594
-0.016357
0.037903
-0.031799
0
0.0074463
0.037231
0.042542
-0.016052
-0.014465
-0.013611
0.017944
-0.0020752
-0.047058
-0.031799
-0.010254
-0.019104
0.011841
0.048157
-0.022522
0.0099487
0.0079956
-0.00048828
0.0081177
0.015076
0.015564
0.057373
0.0048828
0.079224
0.084961
-0.013855
-0.014038
-0.003418
-0.021423
0.00042725
-0.015808
-0.038818
-0.03363
-0.016846
0.011353
-0.0028076
-0.043335
0.039063
-0.019226
0.095459
-0.07074
0.0093384
0.027588
0.054871
-0.0039063
-0.0070801
0.0271
0.03479
0.027893
0.071899
-0.023132
0.042358
0.043457
-0.027588
0.025879
-0.021729
-0.0090942
-0.071533
-0.03949
0.012207
-0.0089111
0.027649
-0.018738
0.010803
-0.0021973
0.017029
0.021179
0.052185
0.041992
0.028931
-0.0065918
0.0068359
-0.021362
-0.0019531
-0.014465
-0.0062866
0.0014648
-0.0083618
-0.0061646
-0.018066
0.054871
-0.013733
-0.013184
-0.042297
-0.014771
-0.011047
0.023804
0.020874
0.0077515
-0.051575
-0.0015869
0.019043
-0.052673
-0.046875
0.057983
0.014587
-0.033386
-0.0022583
-0.0055542
0.037109
-0.030212
0.027954
0.039673
0.0050049
0.0081787
-0.032166
0.051575
-0.03772
-0.0050049
-0.022949
-0.040955
-0.041199
0.037415
0.0067749
0.035706
-0.022888
0.030029
-0.0054321
0.0013428
0.029053
-0.00018311
-0.003418
0.011414
-0.026978
-0.003418
-0.033508
-0.012268
-0.022644
0.0083008
-0.0041504
0.049194
0.027771
-0.0098267
0.02887
-0.010498
-0.0022583
-0.027039
-0.037109
0.003418
-0.0018921
0.035461
-0.022522
0.0049438
-0.030884
-0.046082
0.02124
-0.093384
0.064941
-0.0062256
-0.029602
6.1035e-05
-0.0013428
-0.016968
0.0088501
-0.025024
-0.036926
0.00042725
-0.03009
-0.023071
0.021729
-0.0046387
-0.028137
-0.052612
0.0038452
-0.029297
0.025879
-0.031128
-0.0057983
0.037903
-0.018921
0.039185
0.012207
-0.032104
-0.005127
-0.0040283
-0.014893
0.042542
0.036499
-0.037903
0.019897
0.013306
0.029907
-0.026306
-0.0088501
-0.040161
0.042419
0.045288
0.036926
-0.017395
-0.02533
0.001709
-0.021729
-0.0081177
0.0026855
-0.038879
0.01947
0.025024
-0.025024
6.1035e-05
-0.029907
0.0073853
-0.045715
0.013
0.029114
0.022705
0.017273
-0.0020752
-0.022278
-0.12024
0.006958
-0.045532
0.0014648
0.047363
0.077515
0.02887
0.011841
0.057434
0.015137
-0.045654
0.035095
-0.031311
-0.010132
0.012329
0.066284
0.044617
-0.030029
0.0028076
0.0045776
0.029724
-0.0054932
0.031006
0.050659
0.052185
-0.0448
0.019348
0.04657
0.018311
-0.048889
-0.0029907
0.047791
0.0029907
0.02417
0.05072
0.068726
-0.0057983
-0.0082397
0.0093994
0.033752
0.034973
-0.0061646
0.017944
6.1035e-05
0.040039
-0.062012
-0.027893
-0.033936
0.012268
-0.030029
-0.0098877
-0.018066
0.029663
0.00018311
-0.010315
0.0073242
0.0448
0.055542
0.019531
0.028564
-0.0078735
0.042725
0.05249
0.033875
-0.027466
-0.0087891
-0.030396
-0.0068359
0.0014648
0.01123
-0.018066
0.023987
0.015442
0.0448
-0.019958
0.0072021
0.049622
0.060486
-0.039124
0.037964
-0.00085449
0.098999
-0.029785
0.028442
-0.028503
-0.033081
0.046936
-0.020996
-0.010864
-0.041748
0.0040283
0.00024414
0.044495
-0.023315
0.0090332
0.043762
-0.03833
0.013
-0.00018311
0.022339
-0.017761
0.029602
-0.060242
0.0078125
0.020142
0.035583
0.015076
0.055298
0.066406
0.0065918
0.029907
-0.05481
-0.047913
-0.016907
-0.033142
0.033691
0.0021362
0.016846
0.024963
-0.03656
-0.019958
0.015747
0.01947
-0.0020752
-0.0023193
0.0078735
-0.0079346
-0.0089722
-0.039551
0.027466
0.030884
-0.032043
0.037292
-0.0084229
0.018372
0.044373
0.015869
0.00073242
0.073792
0.042664
0.020081
-0.047241
-0.025696
0.019165
-0.016174
0.016418
-0.00048828
-0.023438
-0.013611
0.01416
0.033569
-0.0085449
0.016418
0.018433
0.025452
-0.021118
-0.038025
0.029968
0.037109
-0.041992
-0.014709
-0.012085
0.0401
0.032593
-0.0025635
-0.02832
-0.028442
-0.043701
-0.0070801
0.023254
0.038574
0.03479
0.02124
-0.0060425
0.0042114
-0.047241
-0.0011597
-0.0070801
-0.0037231
0.011841
0.020508
-0.026611
0.018433
0.031494
0.011475
0.039612
-0.022949
-0.046082
0.029358
-0.041626
0.026733
-0.023132
-0.035767
0.006958
-0.018127
-0.028992
-0.042908
-0.0029907
0.063721
0.013916
-0.017029
-0.034424
-0.015381
-0.028198
0.0021362
0.018921
-0.031738
0.015869
0.026001
0.046204
0.0054321
0.018555
0.065125
0.039368
-0.022461
-0.040833
0.006958
-0.060059
-0.012817
0.027405
0.0021973
0.029297
-0.0081787
-0.015381
0.0091553
-0.0224
0.013428
-0.038879
0.023804
-0.020752
-0.010742
-0.0078735
-0.02179
-0.048767
0.047241
0.013977
0.010132
0.006958
0.02179
-0.011292
0.052734
-0.0096436
-0.034973
0.050476
-0.00054932
-0.046326
0.039734
-0.0048828
-0.022217
0.0042114
-0.024963
0.020386
-0.04071
0.047058
0.019775
-0.021057
0.03064
-0.034851
0.019958
-0.046387
0.016724
-0.05896
0.0054932
0.013062
-0.012451
0.013794
0.044922
-0.0096436
0.038513
0.075012
-0.035706
0.016357
-0.063477
-0.010742
0.013733
0.0059204
0.028015
-0.0224
-0.021179
-0.051147
0.0032349
0.032654
-0.00012207
-0.032104
0.026123
0.023254
-0.0063477
-0.013123
0.024414
0.018005
-0.0099487
-0.012268
-0.030273
0.019348
0.0031738
-0.051575
0.0019531
-0.019836
-0.0058594
0.050476
-0.050476
0.013855
0.047302
0.0026245
-0.037354
0.027283
0.039063
0.056946
-0.046204
-0.074219
0.066101
-0.00067139
-0.013306
-0.036194
-0.0098877
-0.054932
0.010498
0.026184
0.08844
-0.0495
0.044312
0.044556
-0.027344
-0.10175
0.027649
0.031616
0.0177
0.052124
-0.040466
0.0092773
0.048096
-0.046692
-0.06897
-0.054993
0.026306
0.029968
-0.11755
0.041382
0.10065
-0.018372
0.0026855
0.015808
0.018982
-0.03479
-0.008667
0.018738
0.0056152
0.0089722
0.0080566
-0.042236
0.01355
0.032043
0.063538
0.061035
0.059814
0.0036011
-0.051514
-0.0046997
0.048035
0.02002
-0.0048218
-0.083984
-0.0043945
-0.074768
-0.03894
-0.0056763
0.016907
-0.047913
-0.031067
0.014771
-0.0036011
-0.021301
0.020386
0.0088501
-0.024536
0.017578
-0.038696
-0.033569
-0.082825
-0.074585
-0.048279
-0.0010376
-0.017761
0.041016
0.043152
-0.013123
0.00012207
0.025696
-0.091064
-0.046204
-0.025391
0.02771
-0.049683
-0.026611
0.018494
-0.012756
0.029724
0.00030518
0.012451
0.026917
-0.023071
0.020996
-0.03717
-0.010498
-0.097595
-0.053528
-0.049805
0.076843
0.029724
0.042175
-0.041077
-0.080261
-0.052551
0.001709
0.052551
0.047791
0.061951
0.014282
0.066162
-0.0045166
-0.039734
-0.062134
-0.023438
0.016724
0.038513
0.033508
0.034363
0.019043
0.053711
-0.056152
-0.074646
-0.018311
0.069885
0.012817
-0.074036
-0.092163
-0.080811
0.012329
0.061401
-0.069153
-0.2049
-0.0028687
0.0011597
-0.014832
0.080688
-0.023193
0.038635
0.075317
0.012695
-0.045471
-0.036072
0.024841
-0.025757
0.037537
0
0.014526
-0.0088501
-0.022644
6.1035e-05
0.0059814
-0.012207
-0.06366
-0.060181
-0.069946
-0.037842
0.01825
0.044617
-0.089722
-0.094482
-0.010864
0.010254
-0.0016479
-0.056152
-0.057251
0.022583
0.059631
0.026978
0.0031128
-0.044739
-0.036743
0.022034
0.033691
-0.00085449
0.03479
0.057434
-0.013428
0.026855
0.024597
-0.057251
-0.064453
-0.051758
0.03595
-0.035095
-0.10071
0.033081
-0.0023804
-0.083313
0.018005
0.028015
-0.10559
0.025085
0.0073853
-0.0094604
0.024841
-0.0083618
0.025146
0.0021973
-0.037842
0.0095215
0.034485
0.036621
0.052124
-0.0067139
0.033691
0.030334
0.080505
-0.090454
-0.072449
0.015076
0.01001
-0.035828
-0.06488
0.025208
-0.023071
0.0030518
-0.0028687
-0.036499
0.010864
-0.01178
0.0095215
0.090454
-0.074097
-0.0089111
-0.025452
-0.012939
-0.014465
-0.0073242
-0.0067139
0.025696
0.0089111
0.0066528
-0.017639
0.0057983
0.02771
-0.00067139
-0.030457
0.0057373
-0.043579
0.059448
0.0042725
-0.02301
0.014832
-0.032776
0.038086
0.029541
-0.01709
0.018433
-0.0062866
0.020325
-0.041199
-0.0037231
-0.010559
0.0018921
-0.021606
-0.0081787
-0.0028687
0.052246
0.049194
0.020569
-0.0048218
-0.028015
-0.047363
-0.022522
-0.010742
0.020081
0.016541
0.056458
-0.0090942
0.0093994
-0.016174
0.026855
-0.013855
0.0048828
0.02594
0.038452
0.034363
-0.067322
-0.0044556
0.015198
-0.0053711
0.038757
0.017456
0.0072021
0.0080566
0.028198
0.017639
-0.035217
-0.0026245
-0.033752
-0.078552
0.0092163
0.059509
-0.011292
-0.035889
-0.0076904
-0.037842
-0.012878
-0.033081
-0.043091
-0.0099487
-0.021118
0.037048
0.033691
0.043396
-0.024475
-0.024963
0.019043
-0.0030518
0.03717
-0.0092163
0.01709
0.05603
0.0073853
0.011963
-0.026001
0.017029
-0.018127
-0.025024
-0.03894
0.082275
-0.011475
0.010254
-0.015991
0.02301
-0.031616
0.01947
-0.035828
0.040466
0.0065918
0.040344
0.04718
0.022156
-0.030701
0.0042725
0.032227
0.061951
0.032837
-0.025024
0.031189
-0.0076294
0.0026245
0.013977
-0.018311
0.029602
-0.025757
0.032104
0.03125
-0.022766
-0.038696
-0.03656
-0.043884
0.091919
0.0070801
-0.027344
-0.010193
0.086853
-0.011292
-0.0224
-0.025879
-0.0089722
-0.017151
0.0401
0.016174
0.031006
-0.0046387
-0.010986
0.0046387
0.037292
0.019287
0.010986
-0.024658
0.010437
0.018433
0.0018311
-0.050232
-0.052856
-0.00067139
0.020874
-0.017151
0.049133
0.025085
-0.014832
-0.028503
-0.01123
0.010925
0.02179
0.010925
0.04895
-0.0012817
0.014771
0.027893
0.027954
-0.022278
0.026306
0.012207
-0.013245
-0.035522
0.040955
0.051697
0.016052
-0.023071
0.013733
6.1035e-05
0.0023804
-0.025757
0.038635
0.033325
-0.0015259
0.028259
0.018066
-0.022095
0.0271
-0.011841
0.057434
0.018555
0.015198
0.016113
-0.046448
0.02301
-0.0097656
-0.0049438
-0.0075684
0.0040283
0.00061035
0.028748
-0.025391
0.034851
0.0072632
0.013733
0.03949
-0.029297
-0.051025
0.029846
-0.013
0.032532
-0.015503
0.024658
-0.0057373
0.056213
0.023804
-0.021545
-0.0014648
-0.014954
0.0031128
0.028503
0.017883
0.027344
0.0028076
-0.03186
-0.0099487
-0.045227
0.022461
0.021179
-0.0040894
-0.043701
-0.024719
0.0067749
0.048645
0.024109
-0.052307
-0.025024
-0.0072632
-0.014282
-0.035217
0.0011597
0.014526
0.010132
-0.027161
0.013672
0.01532
-0.0075073
-0.0025024
0.011963
-0.0084839
-0.012329
-0.0046387
-0.035461
-0.04834
-0.0177
0.014709
-0.003479
0.034851
-0.0032959
0.0059814
-0.013245
0.036865
0.028198
0.023132
0.0010376
0.028687
0.0040283
0.031372
-0.032593
-0.060852
-0.00042725
-0.014282
0.052063
-0.011902
0.0064087
-0.016235
0.047302
0.039368
0.015076
-0.036682
0.022583
-0.0018921
0.029724
0.072388
-0.03125
0.0047607
0.013977
0.025269
0.00054932
0.027039
0.030396
0.061035
-0.027039
0.016113
0.012451
-0.039856
0.019592
0.041199
0.0061035
-0.0068359
-0.0090332
0.049438
0.036865
0.039307
0.037781
0.040588
-0.012695
0.053894
0.012512
-0.0020142
0.018677
0.021851
0.034668
-0.022156
-0.020691
0.012878
-0.011414
0.0092163
0.022217
0.0032349
-0.022156
-0.017212
-0.0015869
0.056274
-0.013184
-0.049866
0.069153
-0.019653
0.0066528
0.036621
-0.031921
0.0029907
-0.01239
0.02417
-0.012878
-0.016541
-0.018555
0.03656
0.016296
0.020691
-0.0040894
-0.01239
-0.022034
-0.022034
0.0039673
-0.028992
0.020142
0.0092773
0.080811
-0.010681
0.019348
-0.0076294
0.018616
-0.00030518
0.042175
0.016785
0.047852
0.0083618
0.0053101
0.023987
-0.061401
-0.048889
-0.038513
0.0055542
0.003479
0.00024414
0.067932
0.040466
0.042175
0.040344
-0.037781
0.0085449
-0.031555
-0.032471
0.044617
-0.0073242
0.039673
-0.020508
0.0057373
-0.017822
-0.058228
0.0063477
0.10309
-0.01825
0.065002
0.00012207
0.0050659
-0.01947
0.052673
0.03064
-0.018921
-0.059753
0.039673
-0.0071411
-0.022766
-0.00042725
-0.0020752
-0.025391
-0.03302
-0.029846
0.01001
-0.039612
0.028625
-0.013794
-0.0029907
-0.010986
0.0039673
0.016907
-0.021851
-0.013489
0.041504
-0.0030518
0.020569
-0.031677
0.008728
-0.034729
0.0073853
0.0031738
-0.016663
-0.00073242
0.036743
-0.014038
-0.01709
0.028931
0.027161
-0.008728
-0.020386
-0.014954
-0.028687
0.0014648
0.02063
0.00073242
-0.0053711
-0.0046387
-0.061035
-0.022766
0.0060425
0.06842
0.031616
0.016174
0.059204
0.0031738
0.0027466
-0.021118
-0.056763
-0.019836
0.023376
-0.023987
0.023865
-0.057251
-0.026855
0.016663
0.014526
-0.00085449
-0.0038452
0.010742
0.0090942
0.020752
-0.030457
-0.0076904
0.0082397
-0.0029907
-0.035522
-0.019348
-0.023438
0.095093
0.050537
-0.021973
0.069275
0.0015259
0.0050049
0.008606
0.037537
0.042297
-0.013977
-0.031921
0.014648
-0.022827
-0.036194
-0.01532
0.019958
0.008728
0.020813
0.013977
0.0029907
0.020752
-0.0056152
0.052185
-0.016418
-0.017822
-0.041504
0.012878
-0.036743
-0.0010376
-0.044739
0.0032349
0.024109
-0.044373
-0.032837
0.029053
-0.028687
0.0066528
0.00030518
0.015747
-0.046143
0.016113
-0.0041504
0.011658
0.020447
0.0097656
0.034607
-0.00042725
0.033142
-0.0038452
-0.040955
0.00067139
-0.047058
-0.048035
0.01886
0.043213
0.032959
0.0046387
0.010803
-0.010315
0.023804
-0.0054932
0.01947
-0.075317
0.0010376
0.044128
0.034607
-0.0094604
-0.016418
-0.011597
-0.00018311
-0.0036011
0.037659
0.011414
-0.035767
-0.030029
0.020386
0.016052
0.021851
0.020691
-0.044006
-0.060791
0.049622
0.022339
0.025024
-0.0093384
0.026855
0.021973
-0.092163
-0.0022583
0.020691
-0.074524
0.013855
0.022156
-0.021667
0.055664
-0.035706
-0.0072021
0.036865
-0.00091553
0.00054932
0.019714
-0.031311
0.031555
0.033569
-0.014282
-0.018127
0.0092773
0.0082397
-0.025391
-0.03302
-0.0098877
0.030457
0.031982
-0.039917
0.0849
0.020691
0.011414
0.0087891
0.0053711
0.098328
-0.027893
-0.028442
0.029663
0.026672
-0.025269
-0.010925
-0.014282
-0.0018921
0.00097656
-0.0054321
-0.046814
-0.034546
-0.024963
-0.070618
0.02301
0.063721
0.011414
0.020935
0.0078735
0.11719
-0.030457
-0.05249
-0.015137
-0.024414
0.016418
0.019104
0.043518
0.029785
0.055603
0.037354
0.015564
0.015503
-0.03479
0.026672
0.00354
-0.031433
-0.023438
-0.026428
-0.016357
0.0018311
0.011841
0.0046997
-0.0091553
0.035217
0.048096
0.030029
-0.0087891
-0.058838
-0.01886
-0.054138
-0.03009
-0.0076294
-0.0013428
0.057251
0.068787
0.078247
0.069885
0.085693
0.03479
0.019653
0.040588
-0.0064697
-0.034912
-0.008667
-0.036133
-0.0055542
0.030884
0.018616
-0.02063
0.020691
0.046692
0.0012817
-0.017883
0.049927
-0.0096436
-0.027466
0.026123
-0.0067139
-0.055481
-0.050537
0.061462
0.049316
0.007019
0.012207
-0.0041504
0.0031128
0.051758
0.062195
-0.0072021
-0.012878
0.0066528
0.0087891
-0.015076
0.012756
0.069214
0.0092163
-0.017395
0.012024
0.049988
0.0025635
-0.041748
-0.022339
-0.013428
0.019348
0.057922
-0.039978
-0.097229
0.032349
-0.028442
-0.025513
0.019897
0.039063
0.015869
-0.036926
0.01709
-0.0039063
-0.011353
-0.0088501
0.008728
-0.040588
-0.0038452
0.022644
0.022095
-0.063538
-0.00061035
0.019409
0.037109
0.015747
0.024109
-0.027283
-0.07074
0.05481
0.020264
-0.087219
-0.010559
0.00097656
-0.065308
-0.016418
0.029297
0.022278
0.053833
0.0077515
0.03418
-0.0056152
0.016663
-0.040894
-0.0448
0.00079346
-0.051025
-0.04425
0.025879
-0.066711
-0.017212
-0.03125
-0.026245
0.041504
0.034851
0.073608
0.00067139
0.03772
0.037842
-0.035156
0.038696
-0.049561
0.042053
0.0078735
0.024353
-0.062012
0.00012207
-0.054688
0.056274
-0.029419
0.031616
0.015503
0.0067139
-0.021057
-0.019592
-0.040527
-0.060852
6.1035e-05
0.0050049
-0.075806
0.044128
0.032104
0.016724
0.046875
0.035156
0.014282
-0.016052
-0.0087891
-0.041687
0.036743
0.0014648
0.0044556
-0.024597
0.04248
-0.07428
0.07312
0.0021973
0.018127
0.017456
-0.0040894
0.0015259
0.020691
-0.035095
-0.033447
-0.018066
0.038757
0.023499
-0.068481
0.014587
-0.0089722
0.020386
0.00042725
0.045349
-0.061218
0.038025
0.074158
0.02301
0.047791
-0.03949
-0.011292
0.039246
-0.016357
-0.037598
0.07019
0.027283
-0.011292
0.027649
0.02417
0.015503
0.0056763
-0.037598
-0.020935
-0.066406
-0.0038452
0.0081787
-0.0024414
0.081482
-0.0072021
-0.045288
-0.012207
0.025024
0.066345
0.0056763
0.10712
0.011353
0.060974
-0.042969
-0.057251
-0.049133
-0.021606
0.0053711
0.02301
0.023865
0.057129
0.019531
0.0032959
0.02417
0.0048828
0.0044556
-0.026062
-0.019714
0.0059204
-0.0049438
-0.031433
0.066711
-0.018372
0.033508
-0.03302
-0.00177
-0.023682
0.045654
0.033203
-0.0023193
0.02063
0.014709
-0.050537
0.0026855
0.078552
-0.033752
0.0093384
-0.011719
0.046509
-0.033264
-0.02002
-0.03479
0.0092773
0.0045776
0.016113
-0.0043335
-0.0090942
-0.052856
-0.10059
0.0029907
0.008606
0.044067
0.031433
-0.003479
0.032532
0.066284
0.03186
0.084351
0.006897
0.024597
0.017639
0.012024
-0.032471
0.049866
-0.040039
-0.026978
-0.01532
-0.016235
-0.0057373
-0.01709
-0.044983
0.012512
-0.0085449
0.025513
-0.017883
0.0059814
-0.033142
-0.03009
0.017334
0.051147
-0.0083008
-0.012329
0.061523
0.0098267
0.019409
0.074768
6.1035e-05
-0.022705
-0.016907
0.0097046
-0.028625
0.039063
-0.032288
0.0095825
-0.032959
-0.013428
0.0056152
-0.012756
0.0039673
-0.025757
0.013367
-0.019531
-0.0093384
-0.013733
0.068176
0.024414
0.0053711
-0.039307
-0.053223
-0.02063
0.054993
0.0045166
0.012207
0.031128
-0.023132
-0.024475
-0.00054932
-0.015869
-0.040222
0.056763
-0.058655
-0.015991
0.0019531
-0.0092773
0.0011597
-0.038696
-0.031311
-0.015686
-0.062927
-0.067322
0.0011597
-0.032593
0.020996
0.056946
0.040039
-0.0012817
0.0050049
-0.022461
-0.025208
-0.0093384
-0.067139
-0.0077515
0.0042114
0.03418
0.027527
-0.0041504
0.059387
-0.024841
-0.04541
0.0074463
0.016846
0.010376
-0.027771
-0.033997
-0.03717
-0.011902
-0.018555
-0.012146
-0.013184
-0.031189
0.0083008
0.043701
0.093506
-0.0053101
0.037354
-0.0078125
0.014038
-0.020142
0.0063477
0.025085
0.038879
-0.029968
-0.016296
-0.0026245
0.035339
-0.062439
-0.0054932
0.029968
-0.014038
-0.015991
-0.026184
-0.015808
0.0042725
0.021423
-0.010254
0.016296
-0.043335
0.018738
0.042603
0.053162
-0.012939
0.0080566
-0.026489
-0.052307
0.0098877
-0.0098267
0.025391
0.0073242
-0.026245
0.017517
-0.044983
-0.054932
0.049316
-0.0031738
-0.026733
0.013916
0.018982
0.030029
-0.021179
-0.00097656
0.018127
0.054382
0.065613
0.047241
0.019348
0.052673
-0.030701
-0.0083008
-0.028259
0.0028076
-0.026794
-0.006958
-0.0079956
-0.0036621
0.008606
-0.017151
0.016968
-0.020508
-0.012085
0.033691
-0.015869
0.05188
-0.027344
0.014587
0.045654
0.028137
-0.036865
0.003479
-0.033752
-0.0092163
0.040283
0.022339
-0.0078735
0.057434
-0.0082397
0.0043945
-0.04187
-0.052551
-0.018738
0.019226
-0.015686
-0.035034
0.020203
0.015076
0.014465
-0.0062256
-0.033264
-0.013733
0.010559
0.027405
-0.039063
-0.035645
0.0075073
-0.0036011
-0.070801
-0.060547
0.031982
-0.019104
0.008728
0.038147
0.02179
0.018799
0.018005
0.042603
-0.079346
0.0021362
-0.0095215
0.0037231
0.018555
0.048889
0.0079956
-0.0062256
-0.0031128
-0.033569
-0.059509
-0.0078125
-0.050659
0.043091
0.018311
-0.0014648
-0.05011
-0.0098267
-0.066406
0.032166
-0.01593
-0.026855
0.090759
0.025635
0.029236
0.0025635
-0.0097046
0.01416
0.034607
0.016724
-0.0044556
-0.018921
0.011475
-0.020569
-0.049133
0.04834
0.013367
0.014832
0.0079346
-0.019653
-0.036804
-0.067139
0.040588
0.0095215
-0.033875
-0.069031
-0.035522
0.037964
-0.042847
0.0048828
0.080505
0.051819
0.0077515
0.064514
0.0023193
-0.032837
-0.028076
0.027588
-0.0054932
0.01355
0.036743
-0.036377
-0.05365
-0.015137
0.03064
0.055969
0.0020142
-0.069885
0.0053101
-0.033752
-0.026123
0.0077515
-0.014221
0.0177
0
-0.066711
0.017822
-0.036804
0.017395
0.02655
0.02179
0.012268
0.053711
0.044128
-0.06842
-0.021118
-0.0040894
-0.013
0.023376
-0.0092773
-0.023621
0.0092163
0.054077
0.0043335
0.0039673
0.026245
0.014648
0.037109
-0.015686
-0.0012207
0.010864
0.073181
-0.021851
-0.11725
-0.013428
0.016174
-0.081726
-0.0072632
-0.0056152
0.085327
0.025879
-0.047302
0.023315
-0.013794
0.00091553
0.071228
0.024536
0.019165
-0.072571
0.025146
-0.10205
-0.058655
-0.040222
0.013977
0.011108
0.049622
-0.017212
0.068115
0.035339
0.015625
0.013184
0.0042114
-0.030273
0.016541
-0.15472
-0.01825
-0.02124
0.036743
0.0065308
-0.032288
0.00067139
-0.0039673
0.025208
0.10767
0.024292
0.062012
-0.10077
0.025635
-0.076904
-0.017944
-0.0625
-0.031006
-0.018372
0.052246
0.018921
0.0093384
0.0054321
-0.032898
0.060913
0.059265
-0.0092163
-0.02063
-0.058105
-0.026245
0.0090332
0.014038
-0.036377
0.035522
0.036377
0.034546
-0.0021973
-0.00085449
0.047119
0.032471
-0.014587
0.020569
-0.020691
-0.054504
0.0029907
-0.029297
0.028931
0.026855
0.025452
0.039246
0.0061646
0.052795
-0.011841
0.076721
-0.011292
0.0010376
0.003479
0.022156
0.026733
0.028137
0.036499
0.014343
0.012451
-0.0041504
-0.0026245
-0.012085
0.01825
-0.028015
-0.047852
-0.011169
-0.05188
-0.060547
0.041199
0.0049438
-0.015808
-0.03241
-0.040833
0.065857
-0.025024
0.04303
-0.014954
-0.0062866
-0.0042114
0.010376
0.012146
0.038208
0.0046997
0.03241
0.02179
0.0079956
-0.039185
0.076416
-0.015564
0.0016479
0.039612
-0.019104
0.045776
0.010742
-0.035156
-0.014282
-0.0046387
0.083862
-0.020386
0.0037231
0.011353
-0.034912
0.0080566
-0.0067749
-0.013367
-0.018188
-0.045044
-0.039795
0.021118
0.006897
-0.042603
-6.1035e-05
-0.069458
0.034363
0.04187
0.061401
0.029663
-0.011292
0.05658
-0.00024414
-0.034119
-0.030884
0.017212
0.026306
-0.031311
0.0085449
-0.055542
0.031006
-0.11029
-0.10693
0.0097656
0.011108
-0.006958
-0.010315
-0.010315
-0.03125
-0.011353
0.0090332
-0.041565
0.01947
0.016357
-0.0045776
-0.03302
-0.00354
0.014099
-0.0091553
-0.0067139
0.06366
0.057068
-0.024292
-0.035095
0.036011
-0.029907
-0.031982
-0.029663
0.016052
-0.037781
0.0047607
-0.09491
0.022156
0.019165
0.016235
0.055542
0.0050049
0.0271
0.01123
-0.0057373
0.014709
0.0018921
-0.039429
-0.0018921
-0.0050659
-0.0048218
-0.00061035
-0.031982
0.013489
0.097351
-0.0015259
-0.051941
-0.045166
-0.021667
0.03717
0.053284
-0.03595
-0.02301
0.0084229
0.04425
-0.02002
0.020996
0.056458
0.0014648
-0
0.05957
0.016113
-0.025879
-0.062073
-0.054688
0.020203
-0.018921
-0.076843
-0.0065918
0.075623
-0.019653
-0.01709
-0.058655
-0.02002
0.064087
-0.053162
-0.03125
-0.0012817
0.052551
-0.022095
-0.068054
-0.021118
0.0046387
0.025269
-0.02124
0.031555
-0.006897
-0.029541
0.0050659
-0.027832
-0.0073242
-0.039917
0.017822
0.011475
-0.021912
0.0090942
0.028259
0.0047607
-0.032043
0.072815
0.057617
-0.03833
-0.030457
0.033386
-0.013306
-0.077942
0.017944
0.05603
-0.022034
0.01532
0.010925
0.028748
-0.044434
0.04071
0.023499
-0.010132
0.024048
0.027222
-0.018005
-0.026062
0.0029297
0.014282
0.058777
0.012085
-0.012878
-0.093872
0.028931
0.020935
-0.026794
-0.050903
0.042053
-0.050232
-0.021912
0.047729
0.051636
0.00036621
0.013855
0.015747
0.0023193
-0.003418
-0.018311
-0.046509
-0.019775
-0.026123
0.024902
0.051575
-0.034729
0.011414
0.046631
-0.028992
0.012146
-0.087219
0.008606
-0.023865
0.0037231
0.0020752
-0.046204
-0.087219
0.00042725
-0.023376
0.019165
0.017578
0.0068359
0.012634
0.026611
0.022034
0.07196
-0.037109
0.020447
0.0031738
0.0010986
-0.015625
0.0018921
-0.0021973
0.023071
-0.012512
-0.0024414
0.0037842
0.040405
-0.012939
-0.0075073
-0.053345
-0.10034
-0.04718
-0.04303
-0.027893
-0.0018921
0.025818
0.025818
-0.025391
0.061096
0.0097656
0.042053
0.022949
0.069702
-0.034363
-0.014893
-0.030396
0.010559
-0.037781
0.028137
-0.030579
0.0090332
0.028198
0.021545
0.040283
0.040527
-0.095459
-0.069031
0.015808
-0.0012817
-0.034363
0.017029
0.044922
-0.022461
0.015564
0.043091
-0.0054321
0.067261
0.016663
-0.03241
0.033997
-0.012695
-0.01886
-0.012207
-0.030762
-0.028809
-0.019897
0.0177
0.0046387
-0.01355
-0.022217
0.052612
0.02771
0.0672
-0.033203
-0.039795
-0.071472
-0.02124
-0.021606
-0.02948
-0.0080566
-0.03772
-0.017273
0.0014038
0.030701
0.0056152
0.07666
-0.013428
0.013916
-0.031738
-0.011841
0.0099487
0.0018311
-0.023071
0.0062256
0.0048828
0.064148
0.071411
0.011658
0.070007
0.013794
0.034546
-0.028198
-0.02533
-0.033203
0.042114
-0.064819
-0.042297
0.011841
0.031372
-0.012329
0.026917
0.05542
-0.013672
0.010681
-0.017151
0.025024
-0.015564
-0.038208
-0.012268
-0.020142
0.0027466
-0.029846
0.018921
0.015869
0.024048
0.022766
0.030823
-0.0045776
-0.072083
0.010132
0.052307
-0.05835
-0.010864
-0.015381
-0.0085449
-0.0084229
0.015625
0.030334
0.058533
-0.070618
-0.053711
0.15771
0.0093384
0.02124
-0.040833
-0.030212
-0.018311
0.03894
0.0020142
0.0042114
-0.0081787
0.0053711
-0.044678
0.00042725
0.046326
-0.0087891
0.0016479
0.030396
0.0029907
-0.022705
0.030579
-0.031921
0.0043945
-0.04187
0.012085
0.015747
0.05127
0.013
-0.037109
0.064148
0.019104
0.055725
-0.0038452
-0.0095825
-0.024292
0.017517
-0.00091553
-0.036987
0.017212
0.008606
-0.028687
0.00012207
-0.026611
0.020569
0.025635
0.03772
-0.0013428
-0.034973
0.0038452
-0.046875
-0.021179
-0.038452
-0.014526
0.015015
0.065857
-0.047119
0.011963
0.0030518
-0.005127
0.047302
-0.0071411
-0.0073242
-0.023315
0.029785
0.0063477
0.017944
0.001709
-0.019409
0.030457
-0.032898
-0.02356
-0.0081787
0.007019
0.020264
-0.023132
-0.024963
-0.011963
0.026794
0.0089722
-0.04657
0.023376
-0.055847
-0.032715
0.033813
-0.021606
-0.016418
0.0040283
0.01947
-0.0038452
0.041077
0.027039
0.0081787
-0.032776
-0.02179
-0.047607
-0.0021362
-0.00079346
0.046509
0.00354
-0.041748
0.045227
0.0079346
-0.050415
-0.0048218
0.035156
-0.033325
-0.0066528
0.0060425
0.022095
0.0013428
0.010071
0.0071411
0.035034
-0.029724
-0.0095215
0.003418
-0.027405
-0.028503
0.0079956
-0.017029
0.00036621
-0.012634
0.061035
-0.013733
-0.0044556
0.02063
-0.022583
-0.011108
0.0064087
-0.055603
0.0099487
0.008667
-0.021606
0.03186
0.008728
0.013123
0.047119
-0.0049438
0.011169
-0.014648
0.053772
0.0068359
0.0025024
-0.019958
0.0092773
0.02002
-0.0045166
-0.01178
-0.0055542
0.0065918
-0.010925
0.015869
0.0092773
0.017578
0.0056152
0.036377
0.031311
0.03186
-0.026184
0.0036621
-0.011475
-0.0224
-0.028748
0.0015869
0.023254
-0.022095
-0.0010376
0.003479
0.0064697
-0.00097656
-0.011353
-0.015625
0.017578
-0.033875
-0.03009
-0.03186
0.027039
0.028076
-0.021179
0.0092773
-0.027222
0.020081
-0.0053101
0.050842
0.0012207
-0.0092163
0.0022583
0.0177
0.0089722
0.0076904
-0.062683
0.0021973
-0.0014038
0.027771
-0.0046997
0.013794
0.017151
-0.022888
0.041809
-0.025757
-0.00012207
-0.013611
-0.0064697
-0.0046997
0.038818
-0.00091553
-0.037354
-0.043152
-0.0031738
0.049194
-0.0066528
0.066467
0.019592
0.031799
-0.0075684
0.0074463
0.00030518
-0.050537
-0.048584
-0.047974
-0.0014038
-0.011414
0.030823
0.007019
-0.003479
-0.031982
0.056885
-0.015625
0.0023193
0.022888
0.04718
-0.0077515
-0.020264
-0.013184
-0.015747
-0.03833
0.0030518
-0.044434
0.0071411
0.050293
0.039246
0.055115
0.0072021
-0.026489
0.0028687
0.013489
-0.13446
0.0014038
-0.036804
0.042236
-0.0076904
0.043579
0.0012207
0.0046387
-0.015503
6.1035e-05
-0.020386
0.066345
0.021179
0.034302
0.01123
0.010437
-0.027954
0.0033569
-0.046936
-0.064819
-0.01123
0.025635
0.010803
0.02948
0.013916
-0.016113
-0.028137
-0.025574
-0.063354
-0.01947
0.028442
0.014465
0.014221
0.014771
-0.026794
0.0024414
-0.0020142
-0.0014038
0.019592
0.011963
0.080261
0.034485
-0.023987
0.028564
-0.0027466
-0.0094604
-0.021545
-0.06073
0.0059204
-0.0059814
0.045898
-0.036499
-0.0098877
-0.026489
0.035767
-0.0032959
-0.026794
-0.0029297
0.029968
0.057251
-0.028809
-0.016296
0.04364
0.038635
-0.077087
0.0053711
0.043945
0.0073853
0.0011597
0.011658
-0.0036011
0.028564
-0.021362
-0.0401
-0.013123
0.0025635
0.076355
0.0055542
0.026978
0.014282
0.0043335
-0.013184
0.020325
-0.053772
-0.031189
-0.037109
-0.013733
0.018494
-0.010071
-0.018005
0.02301
0.011108
-0.007019
-0.0091553
-0.0076904
-0.0061646
-0.022949
0.020569
0.025269
0.015564
-0.04425
-0.022705
-0.035339
-0.013367
0.051819
0.060486
0.056152
0.059753
-0.005127
-0.011475
-0.030579
-0.021362
-0.071045
-0.028564
-0.0018311
0.026428
0.025879
0.0055542
0.016541
0.005249
-0.0016479
-0.0084839
-0.029114
0.041565
-0.027954
-0.0067749
0.01532
0.0040894
-0.00048828
0.05957
0.018127
0.024902
-0.021545
0.031555
0.042358
-0.052368
-0.03186
-0.0048218
-0
-0.0081177
-0.058167
0.0056152
0.018555
-0.042786
0.024292
-0.022217
0.031067
-0.031006
0.012817
-0.0065918
0.019104
0.042358
-0.046814
-0.02533
0.017334
-0.0081787
-0.007019
0.033447
0.0026245
-0.00042725
0.025696
0.03595
0.0028687
0.0083008
0.0077515
0.02594
-0.047302
-0.081909
-0.018738
-0.055725
0.0050659
0.036194
0.034912
-0.0094604
-0.043884
0.033203
-0.022095
-0.055298
-0.013062
0.037537
-0.045532
-0.0015869
0.025208
-0.017822
-0.00079346
-0.031494
-0.019592
-0.010559
0.01886
0.018921
-0.031982
0.031189
0.0090942
-0.020508
0.01178
0.015503
0.046936
0.0046997
-0.023438
-0.013306
0.018677
-0.033325
-0.029724
-0.0029907
0.025818
-0.010071
-0.012329
0.0056763
0.011719
0.0049438
0.051758
0.0177
0.020813
0.032043
-0.012939
-0.0037842
0.016785
0.040955
0.06488
0.055847
0.0089722
-0.026794
0.014221
-0.037354
-0.033691
-0.058716
0.021729
0.08313
-0.023499
0.053345
-0.030701
0.040161
-0.010437
-0.0093994
0.057434
0.015015
0.021423
0.013367
0.028076
0.0032349
0.022827
-0.017944
-0.025696
-0.012695
0.061584
0.031494
-0.010254
0.0090332
-0.023376
-0.045166
0.028442
-0.041077
-0.033752
-0.027222
-0.035034
-0.013
0.039917
0.08075
0.015381
0.089905
0.037537
-0.053223
0.0037231
0.044189
0.006958
-0.019165
0.015991
-0.030762
0.017761
-0.0072021
-0.025696
0.0033569
-0.026123
-0.024841
-0.032593
0.021851
0.017456
0.0081787
0.02533
0.049194
0.045288
-0.0018311
0.065308
-0.066406
0.029785
-0.0064697
-0.017822
0.016052
0.035217
0.021118
-0.0089722
-0.003479
-0.003479
-0.0025024
-0.020325
0.027222
-0.023682
-0.026367
0.035828
0.0016479
0.026245
-0.065735
-0.032043
0.0076294
0.027039
-0.015503
0.0045776
0.029541
0.067444
0.039124
-0.048157
-0.0044556
-0.012268
0.00097656
0.013916
0.038269
0.02356
0.015442
0.020081
-0.021667
0.0036011
0.0082397
-0.031982
-0.011719
0.010071
0.00042725
-0.014404
-0.0061035
0.038208
0.055542
-0.00079346
-0.077698
0.01355
-0.023743
-0.0059814
0.046692
0.065674
-0.042236
-0.0050049
-0.016602
-0.017151
-0.019531
0.016174
0.036743
-0.01709
0.014465
-0.049561
-0.028137
0.014221
-0.033386
0.030518
0.018616
0.0084839
0.019287
-0.072083
0.0082397
0.021057
-0.04364
0.026489
-0.003479
-0.0023193
-0.001709
-0.028198
-0.0011597
0.013672
-0.038086
-0.014465
-0.00036621
0.0271
-0.012451
-0.031982
-0.010437
0.04071
0.037903
-0.031982
-0.018494
0.016479
0.034973
-0.005188
0.01001
-0.010315
0.017151
-0.041504
-0.026917
-0.0096436
0.028748
0.018494
0.031555
0.010498
0.015869
0.03125
0.00354
0.039673
-0.029358
0.0037231
0.0094604
0.0053101
-0.022949
0.00036621
0.03009
-0.055908
0.022461
0.018799
-0.019653
-0.052063
0.010254
-0.0095825
-0.010559
-0.0056763
-0.0036011
-0.03302
0.026001
0.0085449
-0.023682
-0.021545
-0.049255
0.019836
-0.0037231
0.02179
-0.038574
0.061829
0.010071
-0.0039673
-0.041504
-0.0049438
-0.023865
0.043213
-0.022705
0.035889
0.00067139
0.023438
0.033752
-0.044983
-0.0054321
0.0071411
-0.016174
-0.048828
-0.011475
0.006958
-0.019043
-0.062012
-0.060486
0.0011597
-0.013123
0.020325
0.0030518
-0.018127
0.025085
0.019287
0.043274
0.041687
-0.027283
-0.0062256
-0.05835
-0.0078125
0.038818
0.053589
0.011108
0.01947
0.022339
0.016113
-0.010498
-0.016113
-0.021301
0.00012207
-0.03009
-0.033081
0.00097656
-0.064758
-0.054688
0.019775
0.024719
-0.042419
0.025757
-0.033936
-0.018494
0.021484
0.02478
-0.0046997
-0.015503
-0.020203
0.0073853
-0.049622
0.032349
0.057556
0.06488
0.017395
0.065308
0.014648
0.045898
0.041748
6.1035e-05
-0.016174
-0.026978
-0.0084839
-0.036255
-0.0072632
-0.012817
-0.019226
0.043823
0.02594
0.039429
0.029602
0.0084229
0.017639
-0.039856
0.023376
0.0066528
-0.035767
0.033875
0.0896
0.019653
0.0033569
0.067932
0.029541
0.021912
0.012268
-0.017334
-0.015808
0.0091553
-0.0031738
-0.0048218
0.03717
-0.020813
0.01001
-0.0064697
-0.025879
-0.012146
-0.01001
-0.0048828
-0.022217
0.019226
-0.034973
-0.043152
-0.016541
0.042908
-0.0084229
0.024048
0.051636
-0.00097656
-0.041077
-0.040771
0.0014038
-0.026428
-0.0026245
0.036438
0.012817
-0.010742
0.033752
0.047058
-0.0031128
-0.014648
-0.078674
-0.0055542
0.0096436
0.034546
0.052612
0.036316
0.008606
-0.024536
-0.030762
0.03479
-0.031616
-0.0085449
-0.030334
0.039734
-0.017822
0.10736
-0.024231
-0.039978
-0.0025024
-0.024048
0.037903
0.08313
0.068481
0.027222
0.051575
0.075989
0.041626
0.0058594
-0.029175
0.014954
0.016479
0.050781
0.034973
0.01532
-0.0022583
0.028259
0.0036621
-0.062927
-0.019836
0.0053101
0.023804
-0.00042725
-0.00079346
0.022583
0.012451
0.0057983
-0.031067
-0.02478
-0.012878
0.034058
0.070557
0.10675
0.095032
0.16217
0.043823
-0.025635
0.06604
0.050842
-0.030334
0.021301
0.03302
0.031616
-0.027222
0.028687
0.070129
-0.021973
-0.10516
-0.11658
-0.016296
-0.019653
0.013367
-0.044861
-0.060303
-0.033997
-0.03833
-0.062378
-0.030273
-0.0029297
0.08844
0.067749
0.019531
-0.032043
-0.0055542
0.015259
0.017334
-0.036926
-0.065369
-0.024292
0.032532
-0.051086
-0.034912
0.00354
-0.0023193
0.0033569
-0.059448
-0.0064087
-0.051025
-0.10626
-0.053162
0.0079956
-0.059875
0.0025024
-0.024475
-0.042969
-0.0079956
0.015076
0.014832
-0.062561
-0.063171
-0.029907
-0.019043
0.10358
0.00048828
-0.058777
-0.028442
0.011475
-0.018372
-0.0037231
-0.019958
-0.027161
-0.047668
0.0014648
-0.051697
0.03595
0.044373
-0.00024414
-0.036011
-0.081482
-0.014893
-0.0095825
-0.0024414
0.01947
-0.003418
0.018616
-0.089783
-0.0076294
0.00091553
-0.048645
0.0083008
0.083435
-0.010803
0.0097656
0.032715
0.0023804
-0.051086
0.050415
0.010376
-0.039429
-0.060181
-0.058289
-0.0077515
-0.0083008
0.031982
0.046997
-0.013855
0.0078735
-0.060303
-0.029724
0.023132
0.020935
0.027588
0.030151
-0.10101
-0.12567
-0.10352
-0.063538
-0.03064
0.087219
0.017334
-0.0054932
0.021118
-0.03009
-0.032288
-0.027893
0.0062256
-0.047363
-0.073608
0.0083618
0.026184
0.0089111
0.030701
-0.015198
0.046143
-0.016724
-0.015076
0.0020752
-0.061035
-0.0033569
-0.077393
-0.018982
-0.11017
-0.098816
-0.13898
-0.070618
0.015869
-0.00073242
0.071472
0.02771
-0.056885
0.038025
0.017334
-0.02179
0.0011597
-0.0060425
0.022156
0.0097046
-0.0089111
0.024109
0.026062
0.012512
0.008728
0.046631
-0.061584
0.024353
0.054565
-0.026611
0.029968
0.0073242
-0.039307
0.028687
-0.012817
-0.041992
0.033997
-0.015198
0.018616
0.056396
-0.022217
-0.0040283
-0.068115
0.056641
0.040527
-0.023621
0.0070801
0.017334
0.028442
0.0090332
-0.066223
0.00085449
-0.033997
0.0079956
-0.020386
-0.010681
0.021423
0.066956
-0.0089722
-0.042297
-0.017761
0.060364
0.060486
0.058105
6.1035e-05
-0.008728
-0.033203
-0.0033569
0.0081787
-0.0036011
0.0224
0.032104
-0.037109
-0.084656
0.031372
0.010925
0.042847
-0.012634
-0.018005
-0
-0.008667
0.012451
0.0099487
0.0078125
0.045044
0.045532
-0.029724
-0.12988
-0.029236
0.032776
0.026062
0.047058
-0.020935
-0.015747
-0.00177
0.037476
0.083252
0.00018311
0.027283
0.015015
0.047546
0.044495
0.016541
0.0085449
0.07666
-0.0043945
-0.012024
-0.052368
-0.00177
-0.032349
-0.023193
0.027039
0.017883
0.037476
0.038208
-0.11157
0.018311
0.069885
6.1035e-05
0.010864
-0.019653
0.0072021
-0.019836
-0.012512
0.00054932
0.068909
0.041321
0.018311
0.065796
0.02594
0.018311
-0.015381
0.026672
-0.0098877
0.012085
-0.040527
0.057678
0.021057
0.024536
0.01825
0.039673
0.035767
-0.0023193
-0.014099
0.049438
0.0048828
-0.0095215
-0.035034
-0.039246
-0.021545
0.03418
-0.0044556
-0.037903
0.036133
0.029846
0.023804
0.02301
0.019409
0.042542
-0.0012817
-0.035706
-0.028381
-0.043945
0.016602
0.048828
-0.044067
-0.028381
-0.0056763
-0.026733
0.018921
0.001709
0.010315
-0.0037231
0.064209
0.010315
-0.0053101
0.017029
-0.017883
0.010925
0.035706
-0.0026855
0.03125
0.013733
-0.025818
-0.011169
-0.0064697
0.051575
0.027527
0.04126
-0.027466
0.0065918
-0.010559
0.0057983
0.010498
0.02063
0.036438
0.0053101
0.032104
-0.0096436
0.034119
-0.008667
0.01947
0.030823
0.04248
0.045532
0.031555
-0.0059204
-0.003479
0.044128
-0.0031738
-0.045654
-0.031067
-0.023193
-0.0099487
0.040771
-0.011475
-0.022583
0.067749
0.008728
-0.019836
-0.032837
0.0064087
0.0043945
0.011841
-0.012878
-0.028259
-0.012451
-0.015503
-0.013428
0.010071
0.03717
0.0079956
-0.02002
-0.053528
-0.039734
0.041809
0.018555
0.012024
0.030518
0.017029
0.0098267
0.00042725
0.024536
0.0059204
-0.024475
-0.0057373
-0.018494
0.019287
-0.015259
0.027039
0.034485
-0.0059814
-0.017517
-0.060547
-0.017822
-0.0027466
-0.0040894
0.024719
-0.0090942
0.0021973
0.085327
-0.013367
-0.01239
-0.029907
0.0083618
-0.07196
-0.0083618
-0.015991
0.04718
0.017517
0.019531
0.029907
-0.0098267
0.0087891
0.055115
-0.047363
0.0024414
0.026123
0.00012207
0.038208
0.010925
-0.016113
0.017578
-0.016724
0.0095215
0.029297
-0.0224
-0.021362
-0.021423
-0.025208
0.04187
-0.024353
0.012756
0.011841
0.0010986
0.029602
0.04303
-0.018799
0.0031128
0.014832
0.012085
-0.0042725
-0.02417
-0.039124
0.022217
0.02301
0.032654
-0.0064697
-0.06604
0.036865
0.028931
-0.015869
-0.058533
-0.051514
-0.056641
-0.0084839
-0.037231
-0.024475
-0.012512
-0.010498
0.017639
0.042297
-0.058167
0.018738
-0.071899
-0.033691
-0.044495
-0.031677
0.024048
-0.018433
-0.0095825
-0.0089111
-0.041138
0.011414
-0.023254
0.028198
0.0079956
0.031006
-0.039368
-0.03949
-0.0088501
-0.013306
-0.033569
0.0010376
0.0045776
0.0093994
0.051392
-0.053345
0.070007
0.1391
0.086426
-0.007019
0.017883
-0.080078
0.018433
-0.10175
0.015442
0.15814
0.15308
0.050842
-0.0093384
0.025024
-0.091125
-0.031006
0.0401
0.043396
-0.012268
-0.060242
-0.057068
-0.024231
0.01947
0.038818
-0.021545
-0.073242
-0.051697
-0.028931
0.0090942
-0.022156
0.042358
0.064514
0.0071411
-0.020813
-0.016296
0.069458
0.006897
-0.011108
-0.11182
-0.028442
0.0020142
-0.075012
-0.081848
-0.074036
0.028198
-0.0061646
-0.010071
-0.064331
-0.030518
0.025513
0.02533
0.028259
-0.021423
0.044067
0.014893
-0.090515
-0.15033
0.0019531
0.059448
0.10327
0.032837
-0.070557
-0.065125
-0.02478
0.065674
0.013916
-0.043823
-0.020508
-0.012817
0.059143
0.056824
-0.075745
-0.0085449
0.073181
-0.0057373
-0.031982
0.01709
0.0092163
-0.027527
0.00036621
-0.016174
0.016174
0.019348
-0.052002
0.027344
0.0082397
-0.025085
0.034912
0.035522
-0.036865
0.057678
0.053467
0.03894
-0.024963
-0.020508
0.037048
0.0060425
-0.052917
-0.042175
0.056946
-0.029968
-0.01239
0.043579
-0.014954
-0.018433
0.014893
0.010437
0.018616
0.063416
-0.010742
-0.054504
0.035156
-0.064087
0.028381
-0.0016479
-0.0271
0.070007
0.054871
-0.005249
0.050598
0.063477
-0.068665
-0.012634
-0.037659
0.017578
-0.0042725
-0.03418
0.07074
0.061035
-0.0097656
-0.020569
-0.0030518
-0.0014648
0.017273
0.079346
-0.00054932
0.027466
0.036072
0.00036621
0.027222
-0.069458
0.020569
-0.073303
0.026978
0.049438
-0.039185
0.0076904
-0.022278
0.0061646
-0.05188
0.0077515
0.070557
0.024231
-0.047791
-0.030518
0.032288
-0.029785
-0.013916
0.018921
-0.019287
-0.0060425
0.02478
0.075378
0.017883
0.090637
-0.030151
-0.030884
-0.047852
-0.026917
0.00177
-0.0060425
-0.0013428
-0.0012207
0.040466
-0.049683
0.023071
-0.079285
0.0030518
0.010681
0.008728
-0.022827
0.0089722
-0.019653
0.0056152
-0.028137
-0.06366
0.076538
-0.0011597
-0.0036621
0.0025635
-0.027222
-0.025818
0.033936
0.065002
0.0029297
-0.10181
-0.043396
0.040833
-0.0011597
0.014526
0.039001
-0.023865
0.003479
-0.048096
-0.011841
0.010254
0.016602
0.034241
-0.0095215
-0.047913
0.035217
0.039856
0.014465
-0.073792
0.056213
0.031189
-0.0045166
-0.0019531
-0.028931
0.017212
-0.045654
0.080139
0.037903
-0.0271
-0.19281
-0.070251
-0.031067
-0.012573
-0.039246
0.026428
0.0084839
0.041382
0.0043945
-0.034973
-0.0271
-0.021057
-0.053223
0.021118
0.079712
0.025452
-0.015198
-0.013611
-0.034912
0.012756
-0.077393
-0.026855
-0.018188
0.043945
-0.003418
0.030029
-0.010742
0.012268
0.031616
-0.066284
-0.031799
-0.057739
0.0029297
-0.035522
0.01886
0.013489
-0.02356
0.0057983
-0.035645
0.020874
-0.066162
0.0036621
0.0067139
0.0041504
-0.054382
-0.0020752
0.016785
-0.01123
-0.052856
-0.018616
-0.0030518
0.026001
-0.0033569
0.013733
-0.06781
0.040833
0.089905
0.0038452
0.060364
-0.038147
0.0055542
0.0081787
-0.013184
-0.025085
-0.024719
-0.019165
0.028442
0.0066528
-0.012817
-0.029175
0.020447
0.027405
-0.0028076
-0.036377
-0.034119
-0.032837
-0.0084229
-0.026489
-0.017273
-0.049866
0.028503
-0.016174
-0.082886
-0.028992
-0.020996
-0.01123
0.005127
0.046326
-0.013306
-0.051147
-0.0057983
-0.031372
0.01062
-0.016541
-0.053589
-0.0018311
-0.00061035
-0.038147
-0.012268
0.062195
-0.0012207
-0.00177
-0.013611
0.007019
0.0029907
0.026306
0.030762
0.029968
-0.00085449
-0.010742
0.029175
-0.042419
0.033569
-0.046936
-0.016907
-0.0039673
-0.041748
-0.015564
0.049622
0.0061646
0.019104
-0.019287
-0.0019531
0.0036011
0.023254
0.00354
-0.028442
0.045776
0.041138
0.039185
0.011475
0.014343
0.041504
0.033325
0.026001
0.043945
0.044617
0.013184
-0.010315
-0.010254
0.0098267
0.055664
0.039429
-0.021729
0.0074463
0.017456
0.051941
0.0025635
0.054016
0.054443
0.008606
-0.019897
0.013794
0.037231
-0.052124
-0.045227
-0.052551
0.037781
0.019592
0.034302
0.0072021
0.015503
-0.0043335
0.0093384
-0.015625
-0.046936
-0.013611
0.0065918
0.035522
0.025574
-0.055115
-0.014221
-0.029724
0.072815
0.0029297
-0.039978
0.044739
-0.055542
0.0056152
-0.012817
0.016663
-0.014832
0.030334
-0.020264
-0.037781
0.036194
-0.0039673
0.0022583
0.0033569
0.013672
-0.025696
0.051941
-0.019165
-0.023926
-0.008667
0.038391
0.037537
-0.015198
-0.0093994
0.00091553
-0.0092773
-0.036377
-0.039368
-0.0018311
0.038086
0.051392
0.022095
-0.0073242
-0.0015869
-0.072876
0.012756
-0.0011597
-0.017395
-0.026062
-0.006897
0.02063
0.0089111
-0.019104
-0.0059814
0.053101
-0.019348
0.03009
0.056152
0.039856
-0.011902
0.0177
0.0078735
-0.034485
0.044312
0.0032349
-0.0025024
-0.033203
-0.0094604
0.033691
0.045837
-0.024109
0.036133
0.015808
-0.0043335
-0.014282
0.012634
-0.036804
-0.008606
-0.0062256
0.0012207
-0.03363
0.068054
-0.0042725
-0.0021973
0.035034
-0.10413
0.061218
-0.0081787
0.041809
0.014832
-0.013855
0.028625
0.061157
0.019775
-0.035217
-0.055054
0.008667
0.033691
0.030884
-0.063599
-0.023804
0.033447
0.007019
0.022949
-0.01886
-0.012939
0.013245
-0.026245
-0.0037231
0.067017
0.0040283
0.030579
0.039856
-0.0089111
0.038574
-0.013062
-0.0092163
-0.0070801
-0.02179
-0.01001
0.025146
-0.00085449
-0.019043
0.026672
0.019531
0.015686
0.031128
-0.025574
-0.015381
-0.023865
-0.062134
-0.027527
0.0060425
0.010071
0.003479
0.013794
-0.024109
0.033386
0.017639
-0.010071
-0.014099
-0.012207
0.07843
0.034485
0.03363
-0.07489
0.028564
-0.029663
0.028442
-0.021179
-0.027771
0.0091553
0.083557
-0.053528
0.012939
0.021179
0.048462
0.039856
-0.092773
-0.0089722
-0.005249
0.024353
0.012634
-0.04834
-0.035767
-0.018555
-0.027405
-0.043457
-0.017212
0.036926
-0.062744
0.027588
0.027832
0.041565
0.02356
0.019409
-0.025513
-0.02063
0.003418
0.02948
0.070923
-0.046265
-0.039856
-0.046509
-0.0020142
0.013916
0.034729
-0.057007
0.061523
-0.0079346
0.0040283
-0.03595
-0.058472
-0.0045166
0.00067139
-0.035645
0.016113
0.048645
-0.056519
0.03418
-0.028198
-0.0015259
0.0018311
0.052856
-0.033447
0.043579
0.024597
-0.042175
-0.0046387
-0.008667
-0.070496
0.0043945
0.029358
0.029541
0.0055542
-0.055542
-0.0023193
-0.020813
0.020203
-0.028564
-0.012512
0.026306
0.030701
0.014099
-0.014954
0.013611
0.0018921
-0.0026855
0.035767
0.017212
0.078674
0.021484
-0.12299
-0.067993
0.032532
0.039856
0.00079346
0.024536
-0.080994
-0.018799
-0.048645
0.024292
-0.035522
0.0022583
0.036072
0.02948
-0.026062
-0.0024414
-0.022644
-0.030945
-0.0022583
0.034058
0.076416
-0.029053
0.039612
0.028748
0.0053101
0.036865
-0.030701
-0.050354
-0.059692
-0.091797
0.030334
0.031677
-0.017639
0.059326
0.029785
-0.085571
0.070129
-0.05127
0.025757
0.026001
-0.029907
-0.049744
0.025696
0.0059204
-0.053467
-0.0063477
0.09082
-0.056152
0.028076
-0.012329
0.055908
-0.036621
-0.010864
0.045166
0.019836
0.062683
-0.097534
-0.027832
0.043457
0.0224
-0.062988
-0.0495
0.039917
0.025879
0.053528
-0.025574
0.032898
0.035889
0.040283
-0.019958
-0.00036621
-0.038757
0.017151
0.038757
-0.0099487
-0.0089111
0.14227
0.0029297
-0.052673
-0.010315
0.014343
-0.027893
-0.012024
-0.0018921
-0.11481
-0.048096
-0.0067749
0.079468
-0.041748
-0.071411
-0.034363
0.028503
0.017273
0.081543
0.12695
-0.051392
0.057556
0.027039
-0.020386
-0.033447
-0.016785
0.067322
0.011353
-0.046631
0.057312
0.073242
0.032715
0.11957
0.057861
-0.042725
-0.041687
0.028931
-0.036133
-0.053528
-0.088684
-0.048035
-0.02356
0.0093384
0.091431
0.080933
0.018066
-0.070923
0.068481
-0.031128
-0.034424
0.00054932
-0.043152
0.0020752
-0.0057373
-0.018066
0.010437
-0.010437
0.00073242
-0.0088501
-0.023926
0.00030518
0.048218
0.039612
0.040283
-0.01947
-0.075256
-0.054382
0.037842
0.031128
0.046265
0.028625
-0.092163
-0.019043
-0.070435
0.013977
0.01593
-0.027832
-0.012756
-0.014832
-0.01355
-0.017151
-0.024719
-0.022339
-0.01593
0.027649
-0.01825
-0.0044556
-0.015137
0.036316
-0.029358
0.083923
-0.016663
0.096985
0.019592
0.046021
0.028992
-0.0018921
-0.0094604
-0.012817
0.010986
0.027771
0.031921
0.021423
0.051453
-0.0070801
-0.062683
-0.027649
-0.003418
0.028931
0.029175
-0.036133
0.03595
0.016907
-0.053467
-0.063538
0.067505
-0.033142
-0.067383
-0.065674
-0.070801
-0.022278
-0.050476
0.023254
-0.033569
-0.0054932
-0.0084839
-0.0625
-0.030334
0.045288
0.030334
0.0016479
0.011475
0.030884
0.013428
-0.014832
-0.0072021
0.0058594
-0.027283
-0.0090332
-0.0064087
-0.016724
-0.047058
0.051208
-0.026672
-0.067444
-0.0065918
-0.012878
-0.10162
0.040527
0.0021362
0.018616
-0.02655
-0.020508
0.0085449
0.065857
-0.021973
-0.018921
0.052307
-0.01001
0.035583
-0.010193
0.0448
0.012451
-0.012756
0.033752
0.041199
-0.031189
0.036194
-0.02832
-0.0083618
-0.070862
0.033264
0.023193
0.062805
0.049622
-0.058594
-0.062744
0.062073
0.03833
-0.024414
-0.055786
0.00030518
0.039917
0.05658
-0.007019
0.00054932
0.023438
-0.0083618
-0.016846
0.012085
0.0018921
0.0023193
-0.02887
-0.014221
-0.0075684
0.034363
-0.037598
-0.049316
-0.049133
-0.0092163
0.04895
0.028198
-0.047913
-0.013367
-0.015503
0.020142
-0.0045166
0.065308
-0.025818
0.049805
-0.0018311
0.00024414
0.024597
-0.0065918
0.025452
-0.016907
0.040222
-0.01178
-0.0059814
-0.025818
0.010132
0.012512
-0.013245
0.043579
-0.05188
-0.086243
0.012451
-0.031738
0.035095
-0.0036621
0.012451
-0.041931
0.031006
-0.021912
-0.031372
-0.0025024
-0.00018311
-0.0036011
0.045837
0.005188
-0.0039673
0.028625
0.0026245
-0.0058594
-0.018616
0.048401
-0.025208
0.035583
0.013367
0.0020142
0.043396
-0.03595
-0.0093384
0.015564
-0.11346
-0.0038452
0.031982
0.022949
0.0098877
0.041443
-0.010498
-0.01532
-0.044983
-0.00012207
-0.01062
-0.030334
-0.024048
0.060486
0.023132
-0.0224
0.042114
-0.026489
-0.0092163
0.0076294
0.028564
-0.00067139
0.0084229
0.0015259
0.03125
0.0064087
-0.0075684
-0.019531
-0.046875
-0.029053
0.12128
0.10773
-0.0083008
0.018433
0.041138
-0.024048
-0.0062256
-0.037842
-0.02478
0.019104
-0.022888
0.044434
0.052429
-0.014465
-0.026184
-0.056213
0.014709
-0.022766
0.036987
0.019775
0.034851
0.03064
0.059937
-0.0075684
-0.012268
-0.024231
-0.061096
-0.041016
0.10352
0.042358
0.059753
0.036438
0.0036621
-0.044373
0.0062256
0.0057983
-0.0079346
-0.078552
-0.032166
0.015076
0.020142
-0.022095
0.042419
-0.068542
-0.053284
-0.014404
-0.0043945
-0.0060425
-0.015259
-0.028687
0.0081177
-0.069641
-0.021545
-0.011902
-0.011841
-0.065002
0.041443
0.098633
-0.022827
-0.0011597
0.033386
0.047913
0.021362
-0.0062866
-0.031128
-0.055359
0.05658
0.0092163
-0.021118
0.047791
0.035156
-0.029541
0.036499
-0.056824
-0.012329
0.032776
0.032654
-0.012695
0.052917
-0.032898
-0.026184
0.010254
0.0081177
0.062988
-0.027527
0.014038
-0.031738
-0.041809
0.024841
0.018738
0.026367
-0.07074
-0.057373
-0.00054932
0.087158
-6.1035e-05
-0.026184
0.008606
0.036743
0.015991
0.041748
-0.026611
-0.0084839
0.024536
-0.030029
-0.012024
-0.0019531
0.025208
0.0073242
0.041321
-0.0054321
-0.0084229
-0.057495
0.018433
-0.046326
-0.013855
0.037659
0.047302
0.003479
-0.026062
0.026428
0.0090942
0.018372
0.033325
-0.030945
0.023804
-0.0083618
0.040833
-0.0059204
0.011047
-0.034546
0.012817
0.0044556
0.0092773
0.013428
0.01825
-0.06427
0.027344
0.0061035
-0.061523
-0.042725
-0.03595
-0.0083618
-0.078186
-0.04248
-0.017578
0.015869
0.018127
0.015686
0.013245
-0.023682
0.018188
-0.035278
-0.021362
-0.04541
0.0023804
0.026123
-0.016907
-0.093811
-0.0224
0.018127
-0.0098877
0.0022583
0.02002
-0.011475
0.050903
-0.034119
-0.010376
-0.032837
-0.0401
-0.031433
-0.020264
-0.023254
0.025696
0.060547
0.021118
0.044006
-0.049072
0.041077
-0.0095825
-0.01593
-0.035767
-0.051941
-0.033142
-0.040039
-0.11902
-0.056213
-0.013794
0.034241
0.017395
-0.0040283
-0.027832
0.012329
0.018066
-0.012024
-0.030823
0.018799
-0.012146
0.028381
-0.018127
0.029419
-0.027771
0.030151
-0.01416
-0.032837
0.029358
0.011841
-0.017334
0.003479
0.01062
-0.046265
-0.086548
-0.083679
-0.07843
0.0061035
0.001709
-0.016602
-0.0084839
0.017822
0.019531
0.034668
0.021912
-0.023071
-0.025818
0.0019531
-0.012024
-0.043762
0.024109
0.010559
0.043274
-0.0097656
-0.034119
-0.0093994
0.074585
-0.026672
-0.030945
0.0047607
-0.00097656
0.016602
-0.027283
-0.11072
-0.013977
-0.0042725
-0.016602
-0.05072
0.03009
0.037231
0.047974
0.01947
0.025146
-0.013489
-0.0062866
-0.00048828
0.058228
0.00073242
-0.053833
-0.010986
0.039612
-0.0029907
0.0083008
-0.039246
-0.041504
-0.018616
-0.00024414
-0.025696
0.039246
-0.07959
-0.04126
-0.063721
0.0081787
0.010315
-0.046387
-0.0045776
-0.012695
-0.0177
0.018921
0.029785
0.02887
-0.018127
0.003479
-0.063293
0.027222
-0.0073242
-0.035461
-0.033936
0.020691
0.01593
-0.025146
0.0093994
0.029419
-0.040649
-0.020325
0.020813
0.01947
0.039001
-0.0040283
0.059204
-0.038391
0.0063477
0.019775
0.0095215
-0.019348
0.0076294
-0.0015869
0.015198
0.080994
-0.016602
-0.016541
0.045715
-0.016052
0.0043335
-0.01239
-0.01825
0.042786
0.0093384
-0.035461
-0.033203
0.005249
-0.016785
0.039063
0.015686
-0.0058594
0.031372
0.02301
0.024902
0.0030518
-0.0094604
-0.014709
0.022705
-0.020996
-0.026733
-0.050415
0.0068359
0.020447
-0.0043335
0.011353
-0.00177
-0.005188
0.020447
-0.014771
-0.036011
-0.010071
-0.0056763
-0.044189
-0.05426
-0.057983
-0.037537
-0.0045166
0.028687
-0.056213
0.020081
-0.018616
-0.0045776
-0.00073242
0.0098267
-0.070984
0.0075073
0.028992
0.021973
-0.018616
0.01947
-0.048462
-0.048767
0.03894
0.10059
0.0095825
0.0031738
-0.0028076
0.02832
0.042542
0.075317
0.0029907
-0.021362
-0.029663
-0.084045
-0.021179
0.047241
0.041565
-0.033081
-0.024536
0.041504
0.024963
-0.027405
0.028931
0.012878
-0.013245
0.0177
0.026306
0.0054321
0.015137
-0.020142
0.020996
0.081116
-0.0093994
-0.045349
-0.047546
0.038574
-0.049561
0.025208
0.00085449
-0.042297
0.016785
-0.028137
-0.0023193
-0.079651
-0.011292
-0.050049
0.041931
0.059326
0.026978
0.029602
0.014526
-0.0081787
-0.0037842
-0.025879
0.0010376
0.018372
0.0028076
-0.022095
0.01178
0.026123
-0.010193
0.035278
-0.043213
0.0090332
0.038757
0.023926
0.024902
-0.010681
-0.025513
0.089966
0.02478
-0.029297
-0.049561
-0.086121
0.041199
0.025818
-0.007019
-0.00177
-0.0027466
-0.015442
0.033691
-0.018433
-0.024841
0.016113
-0.0039063
-0.015259
0.032227
0.055237
-0.0014038
-0.047119
0.0024414
-0.037292
0.011169
0.0093994
-0.0044556
-0.025146
-0.034607
-0.031799
-0.053528
0.10748
0.013306
-0.063354
-0.0078125
-0.0043335
0.036072
0.046204
0.015991
-0.016541
0.011108
0.0011597
-0.052734
0.024231
-0.02002
0.046692
-0.052979
0.025818
-0.032471
0.014709
-0.0078125
-0.0097656
0.011108
0.042053
-0.02533
0.037842
0.019958
-0.023865
0.017639
-0.013794
-0.028625
-0.05835
-0.01593
-0.0048828
0.03125
-0.026123
-0.023804
-0.0039063
0.014343
-0.022156
-0.024841
0.027222
0.017883
0.026855
0.03894
0.023621
-0.032166
-0.043091
0.0030518
-0.031616
-0.01123
0.070679
-0.033569
0.021912
0.0085449
0.035278
0.029968
0.0083618
-0.033752
-0.0013428
-0.044739
-0.014893
-0.0018921
-0.045227
-0.0098267
-0.00354
0.0065918
-0.026611
-0.024841
-0.021118
-0.0078125
-0.047668
-0.10077
0.03009
0.083984
0.0062256
-0.051331
-0.082153
0.034302
0.18097
-0.012634
-0.00061035
0.0083008
0.0038452
0.12817
-0.031128
-0.050842
0.021851
-0.069397
-0.01416
0.0032959
-0.026062
-0.00085449
-0.040771
-0.072266
-0.076538
-0.05835
-0.087585
-0.0066528
-0.041321
-0.026489
0.044678
-0.082275
0.048157
-0.060547
-0.08075
0.00079346
0.10632
0.015869
0.0011597
-0.075928
0.0044556
0.061157
-0.045105
0.011353
-0.030518
-0.040955
-0.044128
-0.073303
-0.068176
-0.019653
-0.036865
0.0055542
-0.053162
-0.015869
-0.00097656
-0.010742
0.0073853
-0.06488
-0.031616
-0.033203
-0.041321
-0.026855
-0.01709
0.0048828
0.031372
-0.073486
-0.039795
0.061157
-0.035583
0.0015869
-0.017334
-0.046936
0.038635
0.0028687
-0.072205
-0.032715
-0.052856
-0.077576
-0.039246
-0.012451
0.014832
-0.057739
0.030518
0.031372
-0.0066528
-0.03125
-0.062622
-0.027283
-0.031128
0.01178
0.0072632
-0.022583
0.021301
-0.037354
0.093994
-0.085388
-0.0056763
-0.066711
-0.029907
-0.014343
-0.037048
-0.0097046
0.020996
-0.027039
-0.010315
-0.060059
0.0062866
0.062744
-0.024475
0.050354
0.018616
0.034607
-0.021057
-0.03363
-0.0042114
-0.059998
-0.020691
-0.039734
0.0025635
-0.068481
-0.054688
0.0054932
0.022095
0.031616
-0.00061035
0.011292
-0.011536
0.0046997
-0.0053101
-0.021423
-0.010986
-0.022766
-0.023254
0.0065308
-0.01178
0.0040894
0.0495
0.010925
0.056641
0.016785
0.066772
-0.036987
0.060303
-0.043274
-0.013367
0.0015259
0.0084839
0.043091
-0.061157
0.02179
-0.018982
-0.012329
-0.010071
-0.012329
-0.050232
-0.050171
0.028137
-0.057434
-0.04248
-0.046997
0.061157
0.016785
-0.014099
0.042236
0.027832
0.10938
-0.082092
-0.039612
0.044128
0.011047
0.030884
0.011658
0
0.0059204
-0.031006
0.032166
-0.028931
0.020264
0.0037842
-0.058777
0.0271
0.023987
-0.0076294
0.030945
0.032776
0.028992
0.038818
-0.025696
-0.0042725
0.015991
-0.043823
-0.06781
-0.027893
0.016907
0.0036621
0.012939
0.021973
-0.0093384
-0.014221
0.029053
-0.035095
0.015686
0.022949
-0.049255
-0.012817
0.00091553
0.046143
-0.00024414
-0.043701
0.046265
0.028748
-0.013916
0.024292
0.011841
-0.031372
-0.082825
-0.025391
-0.037109
-0.037231
-0.056458
-0.053955
0.018921
0.070007
0.11334
0.015015
0.079285
0.012756
-0.0073242
0.022827
-0.015564
-0.039246
-0.012817
-0.053528
0.021973
0.0078125
0.026733
0.018188
-0.033569
-0.012268
-0.10229
-0.0076294
0.038696
0.0057983
-0.029236
0.010559
0.0046387
-0.027527
-0.039368
0.005249
-0.032532
-0.020264
0.036926
0.021667
-0.025818
0.029236
-0.0072021
-0.030029
0.0037231
0.034302
0.010132
0.041504
-0.049744
0.025024
0.0090332
-0.029846
0.013306
0.0075684
-0.036743
-0.033264
-0.021973
0.038574
-0.0093994
-0.0012817
-0.014343
0.0050049
0.011597
-0.023438
0.037109
0.010559
0.00067139
0.061462
-0.016052
0.0088501
0.029846
-0.05426
-0.014099
-0.01001
0.011719
0.0019531
-0.011169
0.0070801
0.048706
0.030029
-0.030457
-0.0018311
-0.058899
0.013306
-0.014771
-0.0070801
0.018677
0.0029907
0.01123
0.034729
0.073975
-0.012024
0.052551
0.032959
0.015564
0.043884
0.028015
-0.1026
-0.033569
0.023621
0.0098267
-0.0091553
0.020142
-0.031494
-0.0053101
-0.008606
0.012146
0.02417
-0.0071411
0.0089722
-0.057312
-0.073853
-0.011169
-0.010559
0.051819
0.0030518
0.027161
0.035461
0.047485
-0.018799
-0.011353
0.035156
0.051331
-0.028503
0.022705
-0.034302
0.031555
-0.017761
0.041016
0.033081
0.00177
-0.019531
0.020447
-0.043823
0.0072021
-0.02179
0.0060425
-0.017273
-0.015808
0.00091553
-0.067261
0.0054321
0.018738
0.039063
-0.0072021
0.020813
0.010681
-0.03949
0.063538
-0.011841
-0.011536
-0.0093994
-0.038025
0.022522
-0.022278
-0.028137
0.0014038
0.018127
0.0064697
-0.025208
0.014893
0.0050659
0.010437
-0.017212
0.044617
0.014771
-0.0022583
0.0097046
-0.018005
-0.0044556
0.047302
0.058105
0.0031738
0.016296
-0.010437
-0.026001
0.028259
0.022888
-0.052063
0.0012817
0.022034
-0.039612
0.018799
0.037903
0.034363
-0.0044556
0.0080566
-0.013489
0.00067139
0.0059814
0.012756
-0.017395
-0.027405
-0.036377
-0.011597
-0.017212
-0.0094604
0.0072632
0.097046
0.084229
0.026978
-0.017456
0.034973
0.038757
0.01532
-0.021606
-0.032898
0.00054932
0.0064087
0.049072
-0.011597
-0.010986
0.022705
-0.012146
-0.0070801
0.019226
0.011719
-0.06488
-0.028809
-0.015381
-0.0061035
0.028687
-0.065063
0.042969
0.040771
0.017761
0.014893
0.05658
0.035889
0.016174
0.021118
0.012451
0.011597
0.017822
-0.023865
-0.072571
-0.019897
0.022705
-0.021118
-0.046387
-0.00091553
0.012878
-0.012573
0.028625
0.0074463
-0.03949
-0.014587
-0.021606
-0.010193
-0.0177
-0.02356
-0.0083618
0.022095
0.024841
0.00042725
-0.0019531
-0.003418
0.011475
-0.005188
-0.016907
0.042114
0.040161
-0.038208
-0.052185
-0.065735
-0.036011
-0.02887
0.012512
-0.0448
0.024963
-0.00177
0.005127
0.041748
-0.011169
-0.0070801
0.001709
-0.033813
-0.012451
-0.018005
-0.032104
0.0066528
0.019714
0.068542
-0.03949
-0.011475
0.033508
0.013855
0.047363
0.034485
-0.0029297
-0.0048218
0.018738
-0.041748
0.012939
0.006958
-0.0090332
-0.021179
0.0067749
-0.01947
0.013062
0.0085449
0.015991
-0.087646
0.027771
-0.02002
0.00354
-0.00354
0.0062866
0.010742
-0.013977
0.041382
0.043579
-0.014526
-0.057068
0.05365
0.0037842
0.026001
-0.0092773
0.090942
-0.010254
-0.008606
-0.042175
0.063354
-0.027954
-0.023376
0.0074463
-0.026001
0.036072
0.023743
-0.017578
-0.058472
-0.020386
-0.067078
0.00024414
0.043945
0.061768
0.0079956
-0.015625
-0.01123
0.012512
0.0067749
0.0012207
0.020874
0.027771
-0.015076
0.025391
-0.0053101
0.020142
-0.0053711
0.0044556
-0.039124
-0.052368
0.013977
-0.034729
0.0060425
-0.019226
0.051392
0.0098877
-0.017761
-0.0019531
0.067261
-0.017761
-0.018616
0.072266
0.022034
-0.056458
-0.02771
0.061768
0.02124
0.041016
-0.0043945
0.014038
0.0028076
0.074646
-0.0025024
0.045898
0.00354
0.020996
0.047546
-0.019226
-0.03656
0.0044556
-0.024841
0.055969
-0.0056152
-0.04718
0.012085
0.04364
0.018372
0.088379
-0.026611
-0.031677
0.046448
0.032715
-0.066833
0.01593
0.057617
-0.020996
-0.062378
-0.01239
-0.023315
0.049927
0.072754
-0.027405
-0.0074463
-0.036926
0.0084229
-0.067261
0.015198
-0.018921
-0.0021973
0.042542
-0.013306
0.0093384
-0.059387
0.013428
0.076294
0.033691
-0.036194
0.006958
0.0018921
0.01355
-0.027527
0.010681
0.025818
0.026245
-0.0064087
0.018616
-0.0053101
0.028748
0.080627
-0.015686
0.02478
0.00073242
-0.040649
-0.00012207
-0.049133
0.016235
0.016907
0.016113
0.043213
0.014648
-0.045044
0.003418
-0.028931
-0.04126
-0.0093994
-0.029968
-0.018433
0.051086
-0.062378
0.0070801
0.066467
-0.030884
-0.036011
-0.012451
0.024414
0.01593
0.05304
0.017578
-0.011292
0.00067139
0.017334
-0.014893
-0.069275
-0.0088501
0.021423
0.068787
-0.019226
-0.052002
0.0014648
-0.044983
0.0039673
0.084839
0.052979
-0.019775
-0.048706
0.012939
0.0020142
-0.065918
-0.0026855
0.022339
-0.058472
0.021179
0.033569
0.047302
0.022827
-0.022583
0.064209
0.025391
-0.032532
-0.060608
-0.011719
-0.022888
0.0224
0.065979
0.010254
-0.016052
0.014648
-0.06134
0.04126
0.067871
0.052185
-0.019714
0.014221
-0.048279
-0.022339
-0.026123
-0.010376
-0.0081787
-0.047241
0.01709
0.056396
0.039368
-0.021606
0.0042725
0.018555
0.044373
-0.032043
-0.053894
0.0096436
-0.0020142
0.1073
0.0049438
0.013855
-0.028992
0.00042725
-0.016907
0.042786
0.011719
-0.014465
-0.012329
0.010742
0.031921
0.013123
-0.02887
0.016968
-0.038452
-0.0089722
0.051392
0.0896
-0.00097656
-0.041565
0.080322
0.023132
-0.020081
-0.023376
-0.05603
-0.068054
-0.010437
0.012573
0.017883
-0.012939
-0.046082
-0.058777
0.010498
0.005188
-0.047913
-0.017273
-0.013123
-0.034973
0.059998
0.095032
0.02124
-0.050842
-0.033142
-0.034485
-0.026428
-0.027466
-0.064026
-0.012817
-0.0088501
-0.017883
0.036804
-0.010071
-0.0089111
0.020447
0.036804
0.0023193
-0.010803
0.01886
0.006897
-0.037048
0.0040283
-0.017822
-0.030762
-0.031006
-0.048828
0.020203
0.045105
0.0061035
0.0013428
-0.039429
-0.12549
-0.098694
-0.096313
-0.097046
-0.1001
-0.031128
0.0054932
0.0043945
-0.0058594
0.046814
0.0014038
-0.033508
0.0060425
0.0067139
-0.018677
0.0068359
0.014648
0.0055542
-0.010986
-0.0026855
-0.030273
-0.022217
0.02063
-0.028564
-0.038818
-0.051025
-0.10724
-0.12555
-0.09082
-0.13025
-0.085266
-0.060303
-0.022949
0.083313
0.043701
0.014343
0.0047607
-0.028076
-0.06073
-0.012329
-0.0057373
0.010498
-0.0092773
0.0010376
-0.0079956
-0.056091
-0.026794
0.0032959
-0.023193
-0.0020142
0.061096
0.038635
-6.1035e-05
0.038574
-0.012634
-0.11212
-0.11243
-0.020752
-0.00030518
0.0072021
0.014771
-0.030273
-0.028687
-0.015564
0.01178
0.025513
0.0054321
-0.02887
-0.025513
0.043396
0.031311
-0.0057983
-0.010559
0.024231
0.013184
-0.020935
0.046753
-0.013245
0.0084229
0.016479
0.046875
0.025391
-0.029419
-0.073975
-0.090088
-0.027344
0.0092773
0.0048828
-0.020142
-0.02594
-0.012512
0.014404
-0.025391
0.029968
-0.0010376
-0.0177
0.00036621
0.013123
0.046204
-0.0354
0.030334
-0.01001
0.016235
0.030518
0.0098267
-0.013123
-0.0087891
0.053162
0.020203
0.033752
0.029846
-0.013489
-0.080505
-0.020264
0.0084839
0.0032349
-0.0089111
0.024414
0.001709
-0.0053101
-0.016052
0.0023804
-0.011047
0.026306
-0.02124
0.042175
0.012085
-0.037476
-0.035828
-0.031494
0.035217
0.023071
-0.014465
0.029968
-0.0079346
0.023132
-0.017151
0.029541
0.019409
-0.041016
-0.0026855
0.023804
0.031677
0.021606
0.033203
-0.028809
0.0023193
0.011169
-0.026489
0.022156
0.032166
-0.0062866
-0.023865
0.01001
-0.005127
0.018005
-0.031189
0.010254
-0.0080566
-6.1035e-05
0.0089722
-0.031433
0.044128
0.02417
0.010254
0.014343
-0.0055542
-0.032715
-0.032227
-0.0021973
0.051025
-0.039246
0.037292
-0.035522
-0.022827
0.024719
-0.0065308
0.032471
-0.0015869
-0.00097656
-0.024475
-0.029358
0.031555
-0.015564
-0.019897
0.012817
0.023682
-0.013855
-0.017761
0.001709
0.015442
-0.048157
0.01355
0.018982
0.017944
-0.045593
-0.026733
0.056763
0.046143
-0.011169
-0.0093384
0.01355
-0.010071
0.04126
-0.01239
0.013
0.029663
0.030212
-0.010193
-0.042847
0.00018311
-0.010193
-0.010803
-0.0020752
-0.0097656
0.014038
0.020691
-0.030762
-0.035156
0.024048
-0.021606
0.00036621
-0.011047
-0.0098877
0.029297
0.01709
0.0099487
0.031433
-0.00018311
0.016968
0.0016479
0.040283
-0.011169
-0.012878
-0.014221
0.008606
-0.00024414
0.0084839
-0.011597
0.00042725
0.024109
0.024536
-0.03656
0.0097656
0.019043
0.049438
-0.0093384
0.021545
-0.029236
0.0071411
0.012085
-0.0072632
0.014893
0.040894
-0.0050659
0.014465
0.016418
0.016846
-0.03064
0.015625
0.026611
0.025146
0.016052
0.00054932
0.022949
-0.014099
-0.0028076
-0.031311
-0.01532
0.0057373
0.00036621
-0.028809
0.0055542
0.044617
-0.0038452
-0.021973
-0.031006
0.018555
0.035461
0.04834
0.0050659
0.02356
0.023987
-0.036804
0.0084839
0.023193
0.006897
0.012268
-0
0.0087891
-0.0079346
0.010803
-0.0097046
0.00024414
-0.036682
0.0096436
-0.014954
0.0078125
0.0081177
-0.0084229
-0.008728
-0.01062
0.022949
0.027161
-0.015747
0.014221
-0.00030518
0.026245
0.050598
0.00018311
-0.0063477
-0.043091
0.019775
-0.006958
0.011719
0.019775
0.019775
-0.013123
-0.010925
-0.011414
0.0039673
-0.0271
0.020691
-0.022827
0.02832
-0.0020142
-0.0012817
0.04425
-0.0090332
-0.010193
-0.025513
0.0010986
0.010681
-0.00177
0.032104
0.059631
0.03949
0.047058
0.032532
0.015869
0.018738
0.016235
0.016907
0.013062
-0.024841
-0.023193
0.035278
-0.033386
-0.022522
0.023926
0.016357
-0.034363
0.0016479
-0.035034
0.026978
-0.016541
0.031494
0.005127
-0.022766
-0.037292
-0.045898
-0.008606
0.018677
0.019714
6.1035e-05
-0.0014648
-0.053955
0.0013428
0.00354
-0.0044556
0.015869
-0.0085449
-0.0077515
0.0058594
0.044312
0.001709
-0.0046387
0.010681
-0.011108
-0.010864
0.0062866
0.0056763
-0.028442
-0.00073242
-0.031738
0.016418
0.037659
-0.0055542
-0.014648
0.023621
0.05127
0.049744
-0.020752
0.00091553
-0.024536
0.0075073
0.014771
-0.01947
0.025269
-0.04071
0.041321
0.0026245
-0.0072021
0.01001
0.017273
-0.00085449
-0.018066
-0.023499
0.0011597
0.025208
-0.0016479
-0.011963
0.01239
0.0067139
-0.046753
0.020508
0.014587
0.05957
0.032715
0.013123
-0.014648
0.050842
-0.031433
0.013489
0.0029297
0.017822
-0.0073853
0.0023804
-0.023132
0.027344
-0.02179
-0.0010376
0.018494
-0.021057
-0.024536
0.010315
0.0028076
-0.03186
0.008667
0.020935
0.029907
-0.026367
-0.023193
0.022339
0.0084229
0.037231
0.010315
0.014771
0.043762
0.00012207
-0.053223
-0.031677
0.0062866
0.034058
-0.03595
0.057556
-0.031494
-0.030151
0.0089722
0.04071
0.041565
-0.023315
0.025513
0.00024414
0.0074463
-0.038391
-0.024719
0.017212
-0.029053
-0.0036011
0.0067749
-0.03595
-0.017029
-0.013306
0.024414
-0.030701
0.023621
0.0076294
-0.027222
-0.0023804
0.034851
-0.010193
-0.022644
0.0021973
0.0059814
-0.011169
-0.014832
0.001709
0.0045166
0.046021
-0.0047607
0.0099487
0.02832
0.011658
-0.011719
0.020142
-0.0037231
-0.015991
0.007019
-0.019531
-0.011169
-0.022644
-0.010681
0.011292
0.023315
0.031738
0.035583
0.012207
0.003479
-0.03009
0.017212
0.017883
-0.008606
-0.012207
-0.027954
-0.021729
0.0097656
-0.017151
-0.0080566
-0.008606
0.028564
0.0038452
0.00085449
-0.030701
0.028687
-0.027832
0.012756
-0.0087891
-0.055908
0.0079346
0.02356
-0.027588
0.023438
-0.0015259
-0.02063
0.00036621
-0.045166
0.00085449
0.016418
-0.032349
0.04126
0.0271
0.015259
0.0045776
0.00024414
-0.010437
-0.010193
-0.005127
0.0067749
0.022034
-0.018677
0.022461
0.011902
0.01123
-0.019592
-0.0023193
-0.023132
0.029663
0.031494
-0.02594
0.01062
-0.0014648
-0.0020142
0.01123
-0.05127
0.014343
-0.012024
0.0074463
-0.01532
-0.0055542
0.010925
0.026367
-0.0084839
0.027954
0.01355
0.00054932
0.017151
0.0040283
-0.008728
-0.025208
-0.042114
-0.011658
-0.0050049
0.026184
0.039978
0.010071
0.0072632
0.022949
-0.0042725
0.017334
0.025696
0.012573
-0.0071411
0.022827
0.008667
0.013367
0.015198
0.0048218
0.016418
0.0075073
-0.027344
0.00085449
0.030884
-0.010132
-0.0062256
-0.022705
0.022217
-0.0094604
-0.027039
0.010437
-0.0022583
-0.011414
0.0020752
0.0014038
0.042297
-0.019958
-0.046631
0.013733
-0.0097656
-0.023865
-0.018799
0.014038
0.0058594
0.0072021
-0.0092773
0.0053711
-0.027344
0.010376
-0.0064087
0.044861
-0.028198
-0.019958
-0.0018921
0.022583
0.048157
-0.010498
-0.016907
0.013306
0.036438
-0.05188
-0.0096436
-0.0042114
-0.028503
0.010193
-0.028442
0.020508
0.011353
-0.0079346
-0.018005
0.0057983
0.0096436
0.017883
0.019043
0.0022583
-0.023621
-0.019165
-0.0053101
0.013367
-0.024048
-0.02887
0.01355
0.0020752
0.0071411
0.039124
0.0046997
-0.0023193
-0.042358
0.010315
0.0015259
0.011475
-0.010498
-0.02655
-0.055664
-0.020691
0.005188
-0.012573
0.021484
-0.023743
0.037781
-0.022583
-0.0046387
-0.0087891
-0.017273
-0.018555
-0.015747
0.045471
-0.021973
-0.014893
-0.011841
0.03717
-0.018311
0.02356
0.019104
-0.0031128
-0.021912
-0.0036621
-0.0019531
-0.014465
0.0010986
-0.010132
-0.00073242
0.0043335
0.030823
-0.062805
0.0081787
-0.013123
-0.017334
0.024841
0.027771
0.011292
-0.023804
0.010559
-0.040039
0.023254
0.0036621
-0.006958
-0.018372
0.013
0.030823
0.018982
0.0025635
-0.0014038
0.019531
-0.01532
-0.026855
-0.00079346
0.008728
-0.032593
-0.065308
0.019165
0.029968
0.012207
-0.0177
0.031494
0.02771
0.0053101
-0.079834
0.0081787
0.022461
0.0019531
-0.02832
-0.0010376
0.029663
0.013306
-0.026611
-0.039001
-0.00054932
0.0050049
-0.044006
0.026306
0.016724
-0.032288
-0.030823
-0.036255
-0.010498
-0.031433
-0.14349
-0.062195
-0.020691
-0.005127
0.0028076
-0.00036621
-0.0029297
-0.022644
0.0070801
0.0177
0.008667
0.014709
-0.025757
-0.0096436
-0.013306
-0.0354
0.0092773
0.03418
-0.005127
-0.081726
0.020325
0.0025635
0.024963
-0.010132
0.023682
-0.034424
-0.056396
-0.14465
-0.029236
0.0093994
-0.018372
-0.020752
0.02356
0.0042725
0.046509
0.071838
0.073608
0.0096436
-0.023376
0.00177
0.012939
-0.10608
-0.072205
-0.025818
-0.0022583
0.023865
0.074768
-0.013245
0.032532
0.034485
-0.0093384
-0.011292
-0.01709
0.016968
-0.0087891
-0.016541
0.0177
-0.031372
-0.027588
-0.0092163
-0.0019531
0.017151
0.0043945
0.092651
-0.0065918
0.076965
0.029297
-0.079773
-0.012268
-0.041382
-0.077942
-0.092651
0.0059204
-0.00018311
-0.08075
-0.013611
-0.02594
0.019348
0.056213
-0.0048218
0.028259
0.02356
-0.040588
-0.044678
0.02002
-0.029358
-0.018372
-0.021912
-0.00036621
-0.060425
0.013062
0.018738
0.10803
-0.0042114
0.012573
-0.058899
-0.0057983
-0.023804
-0.0078125
0.010498
-0.0036621
-0.042664
-0.032898
0.0072632
0.023376
-0.03418
-0.036438
-0.040955
-0.01062
-0.01416
-0.015137
0.0041504
-0.032227
0.00091553
0.019836
0.045898
-0.02478
-0.070496
0.0046997
0.033203
0.032654
-0.040039
-0.022461
-0.011536
-0.094727
0.011108
0.026611
-0.028564
0.03241
0.012085
-0.047852
-0.036072
-0.0011597
0.022522
-0.056641
0.014648
0.0074463
0.040222
0.039734
-0.001709
-0.013245
-0.0021362
0.030884
0.028259
0.011047
0.012695
-0.038635
0.02301
0.04834
-0.015137
0.012756
0.091248
0.075562
-0.018005
0.05127
0.025452
-0.034302
-0.032959
0.010437
0.0062256
-0.048706
0.10895
-0.012268
-0.031372
0.014343
-0.020386
-0.0091553
0.040405
-0.0067139
0.022339
0.034363
0.05072
-0.015564
-0.02002
-0.092834
-0.0094604
-0.014648
0.043823
0.063782
-0.064392
-0.036865
0.015503
0.061157
0.02356
-0.035522
0.047729
0.0033569
0.019714
0.035095
0.041016
-0.068054
0.015625
0.033264
0.013367
-0.0043335
0.019287
0.023621
0.02655
0.041199
-0.00036621
0.029724
0.062134
-0.051697
0.051453
-0.0075073
-0.00354
0.075134
-0.023315
0.055969
-0.11755
0.03595
-0.05719
-0.0079956
0.00177
0.0010986
0.021118
-0.0010376
0.066467
-0.01123
0.02533
0.02771
0.063599
0.013672
-0.024292
0.011597
0.041077
0.032898
0.037842
0.049011
0.11029
-0.048767
0.081238
0.016724
-0.044739
0.029724
0.020813
0.04541
0.029358
-0.033997
-0.022095
-0.0039063
-0.030579
0.049255
0.037354
-0.0012817
-0.0062866
-0.022522
-0.0046387
-0.0046997
-0.020569
0.029175
0.031433
-0.0224
-0.013367
-0.021484
0.025696
0.01239
0.028931
0.023193
0.061584
0.039551
-0.02771
-0.025696
0.045532
0.039978
0.012207
-0.01593
0.043457
0.019653
0.013855
0.011963
0.0037231
0.046082
0.0072632
0.049438
-0.025024
0.0037842
-0.016113
0.02124
0.017212
-0.016357
-0.025452
0.037537
-0.040466
-0.0096436
0.019165
0.030884
0.00061035
0.016968
0.030518
0.019104
0.01416
-0.02124
-0.013123
0.036804
-0.025696
0.042847
-0.022888
-0.023376
-0.024719
0.038513
0.046265
0.050964
0.044739
-0.012512
0.006958
-0.0012817
0.0095215
-0.020813
-0.057861
-0.0010376
-0.018005
0.022644
0.016479
-0.063843
-0.015991
0.016602
-0.0081177
0.051636
0.037964
0.014832
0.0061035
-0.044861
0.015808
-0.014404
0.031311
0.013611
-0.0036621
0.0098877
-0.00054932
0.010803
0.036804
-0.0083008
0.019531
-0.05603
0.0091553
-0.0048218
0.00073242
-0.03479
-0.0177
-0.0097046
-0.0050049
0.062256
0.012817
-0.031799
-0.077454
-0.013977
-0.01178
-0.02533
0.0098877
0.003418
0.035034
0.010376
0.064697
0.016541
-0.096985
0.018127
-0.0026245
-0.025208
0.042297
0.012878
0.0037842
0.015442
0.0011597
0.01593
0.0043945
0.01178
-0.034729
-0.032715
-0.020203
-0.037903
-0.030884
0.0048218
0.008606
0.02417
0.086121
0.017761
-0.04187
0.016846
0.069824
0.048645
-0.013794
-0.008606
0.028015
-0.014465
0.034668
0.020996
-0.032837
0.032227
0.049744
0.03363
-0.01825
0.0043335
0.033508
0.020203
-0.069153
0.014771
-0.0075073
-0.0014038
-0.015137
-0.022156
-0.0067139
-0.020813
-0.044983
0.012695
0.019897
0.024902
0.063904
0.016968
0.0084839
0.048706
-0.022583
0.028076
0.012451
-0.023132
-0.017944
-0.018677
-0.030029
-0.061584
0.022461
0.0046387
0.036255
0.0043945
-0.088074
-0.011047
-0.0067749
0.021362
0.00061035
0.048157
0.012024
0.0064697
-0.00054932
-0.0084839
0.057251
0.016418
0.0071411
0.03833
-0.036865
-0.0093994
0.081848
0.015076
-0.0083618
0.089661
0.032166
0.06073
-0.044373
0.051697
0.0271
0.0010376
-0.0079346
0.0090332
0.022461
-0.040161
0.0048828
-0.038574
-0.010193
0.021545
-0.030945
0.051331
-0.032898
-0.0068359
-0.040222
-0.024963
0.05719
-0.0014038
0.02124
-0.047485
0.02301
-0.019165
-0.023743
0.020142
0.0070801
0.0090332
0.020142
0.0083008
-0.019287
-0.019958
-0.034973
-0.038513
0.027039
0.053223
0.014465
0.030823
0.035522
0.046814
-0.070923
0.024048
-0.0177
0.019836
0.023499
-0.048401
0.0023193
0.050415
-0.034058
0.035095
-0.057007
0.029541
-0.045898
-0.01001
-0.037109
0.062317
-0.0085449
0.041504
-0.0081787
0.017517
0.04834
-0.015503
-0.042419
0.0015869
0.044312
0.04425
-0.011963
0.0096436
-0.060303
0.038635
0.016113
-0.016296
-0.022644
-0.023254
0.008606
0.061462
0.019775
0.029724
0.0040283
0.053467
-0.0031128
-0.019531
-0.0023804
0.041138
0.038696
-0.00030518
0.020447
0.032104
0.0047607
0.030273
-0.012878
0.014038
-0.035706
0.026489
0.080383
-0.036743
-0.0089111
0.023376
0.030579
-0.029297
0.02887
-0.032227
0.050781
-0.045044
0.073547
0.030151
-0.018738
0.008728
0.031738
-0.0021973
-0.036377
0.023499
0.052002
0.0077515
-0.021851
-0.026855
0.010132
-0.026611
-0.036255
0.015015
-0.044739
-0.012634
-0.013306
0.029419
-0.008667
0.01947
-0.0032959
-0.023254
0.0038452
0.030945
-0.021851
-0.03186
-0.01416
0.0081787
-0.065491
-0.025879
-0.010559
-0.021118
-0.045349
0.059204
0.023926
0.032227
0.032959
-0.0025024
0.042297
0.042053
-0.015625
0.0091553
-0.00067139
-0.034729
-0.030701
-0.020447
0.026978
0.05957
0.04187
-0.079163
-0.037292
0.010864
-0.01416
0.025085
-0.010132
0.062256
-0.022644
-0.065857
0.0054932
0.023804
0.016296
-0.003479
0.029541
0.061218
-0.048157
-0.0056763
-0.037842
0.044495
-0.030151
0.031738
-0.029358
-0.019531
-0.04895
0.0026855
0.047546
-0.0053711
0.018738
-0.043396
-0.027954
-0.0045776
-0.080383
0.045532
0.008728
0.012085
-0.010437
-0.025818
-0.06897
0.055969
0.0027466
-0.023193
-0.039795
-0.014648
-0.059692
0.038757
-0.039734
0.00061035
-0.023987
-0.038696
0.029602
0.058899
-0.056274
0.034302
0.037537
-0.041992
0.0025024
0.014709
0.037964
0.026001
0.035034
-0.0093384
-0.076294
-0.0057983
-0.0061646
-0.029602
0.00085449
0.027649
-0.028137
-0.036865
-0.087524
-0.02301
-0.0085449
0.017944
-0.0095215
-0.0084839
-0.0059204
-0.013611
0.0578
0.012451
0.0012817
0.0053711
-0.003418
0.016846
0.016479
0.023193
0.041077
0.054382
-0.033386
-0.0040894
0.0093994
-0.032654
6.1035e-05
-0.014099
-0.063293
-0.017639
0.040894
0.021484
-0.049622
-0.014648
-0.041931
-0.034363
0.0077515
-0.03125
-0.00042725
0.029907
0.041687
-0.029724
0.04126
0.035095
-0.024231
-0.037048
-0.025696
-0.0070801
0.006958
0.014954
-0.071472
-0.026794
0.024109
-0.056519
0.049316
0.11444
0.034119
-0.012207
0.018799
-0.01355
-0.0098267
-0.052979
-0.01886
-0.022095
-0.064758
-0.028259
-0.00073242
0.006958
0.083496
-0.019897
0.071899
0.022339
-0.030762
-0.031372
0.052246
0.011475
0.049438
0.00036621
0.016113
-0.019226
-0.022583
-0.041931
-0.019104
0.036072
0.060486
-0.031433
-0.023987
-0.055542
0.0081787
0.013306
-0.0072021
-0.016907
-0.045959
-0.013977
0.023499
0.02533
0.062256
-0.0053711
0.044861
-0.13696
-0.073181
0.028198
0.037598
0.06488
-0.034241
-0.010315
0.026978
0.026855
0.01239
0.008667
-0.049011
-0.016663
-0.058105
0.1026
0.062378
0.0059204
-0.047607
-0.019226
-0.03656
0.018127
-0.022949
-0.022095
0.0019531
-0.054077
-0.030151
0.039551
0.05957
-0.00091553
-0.0022583
0.026245
0.018311
-0.025146
0.01355
0.07605
-0.015808
-0.018982
0.010742
-0.03064
-0.044006
-0.0020142
0.016052
0.04071
-0.013916
-0.00036621
0.008728
0.0013428
0.0065918
-0.0048218
-0.029236
0.029419
-0.041321
-0.0049438
0.046021
-0.025635
-0.0078735
0.069336
0.048279
0.09436
0.17236
-0.095398
-0.15845
-0.020142
-0.16376
0.066528
0.057556
0.11676
0.14655
0.015991
-0.022034
-0.025024
-0.0083618
0.0092773
-0.029358
0.0014648
-0.033264
-0.022705
-0.02832
0.0092163
-0.033508
-0.020752
-0.017639
-0.085632
-0.017212
-0.02356
0.022583
-0.025208
-0.08374
0.090637
-0.029907
-0.056946
-0.071411
0.0084839
-0.12555
-0.031128
0.11627
-0.012939
0.0023193
-0.026489
-0.037292
0.015137
-0.033264
-0.023804
0.0075684
0.0053711
-0.026611
0.015015
-0.02063
-0.030884
-0.0625
0.051758
0.060608
-0.018677
-0.018066
0.078735
0.079346
-0.020081
-0.032288
-0.060791
-0.13239
-0.022522
0.045471
-0.0018921
0.037781
0.098816
0.10553
0.00042725
-0.018127
0.024109
0.016602
6.1035e-05
0.013123
-0.0023193
-0.011963
0.017456
0.014465
-0.005188
-0.072449
0.12213
-0.0098267
0.032227
0.030701
0.027649
-0.025879
0.1051
-0.07843
-0.059631
-0.056274
-0.032959
-0.012085
-0.035095
0.15674
-0.067261
0.032776
0.054199
0.024414
-0.0020752
-0.01825
-0.011047
0.016174
-0.031189
-0.00030518
-0.0071411
0.016113
-0.03241
0.042175
0.046082
0.09021
0.039185
0.010071
-0.13086
-0.01123
-0.032227
-0.037048
-0.13818
0.0031738
-0.057983
-0.00177
-0.02356
-0.050293
0.0061035
0.071106
0.016846
0.043823
-0.020203
0.01593
-0.023193
-0.036499
0.01001
-0.0047607
0.00085449
-0.010864
0.00012207
0.058411
0.035034
0.030212
-0.039307
-0.070007
-0.0089722
-0.082886
0.0060425
-0.034424
-0.093628
0.0075073
-0.05365
-0.052002
0.10309
-0.069946
-0.021484
0.0037231
0.080505
0.0062866
-0.0093384
-0.023499
0.023804
-0.0076904
-0.012878
0.046021
-0.012695
-0.016907
0.0090942
-0.015381
0.0045776
0.020386
-0.025513
0.025146
-0.013489
-0.068665
0.010193
-0.12781
-0.060486
0.032593
-0.019409
0.062134
-0.020447
-0.014404
0.00048828
0.020325
0.02417
-0.016174
-0.030518
0.0059814
0.018311
-0.029297
0.00177
-0.026611
-0.060852
0.030884
-0.016846
-0.041382
-0.010864
0.0068359
-0.034119
-0.023132
-0.0084229
-0.073181
-0.071289
0.0090942
-0.049194
0.025513
0.048096
-0.011658
0.0081787
0.010681
0.015747
-0.0037231
0.029236
0.07135
-0.0043335
-0.0043335
-0.0025024
0.039795
0.024414
0.021851
0.022156
0.0054321
0.036621
-0.01062
-0.033997
0.047485
0.029358
0.041992
-0.013123
0.022705
0.039001
0.012939
-0.069214
0.00012207
0.0015259
0.1015
-0.055847
0.029785
0.046936
-0.098694
0.016663
-0.0089722
0.012878
-0.027283
-0.043152
-0.016968
-0.012024
-0.0078735
0.019897
-0.016235
0.057068
0.024841
-0.017761
-0.070129
0.051941
-0.056641
-0.080322
0.056946
0.10022
-0.07074
0.046448
-0.035889
0.0073853
0.088745
-0.056885
0.015808
0.0039063
-0.0065918
-0.023193
-0.031128
0.024414
0.012024
0.0090332
0.0098267
-0.013977
0.046387
-0.023376
-0.021179
-0.014099
0.046204
-0.068481
-0.011536
-0.034424
-0.10498
0.10474
0.066345
0.024597
0.061584
0.0032349
-0.022339
-0.014648
-0.015076
-0.0401
-0.001709
0.00036621
-0.025635
0.016541
-0.02356
-0.0064697
0.030823
0.018799
-0.010437
0.031494
0.03479
0.04071
0.02124
0.068665
0.03363
-0.055664
0.0077515
-0.093811
0.014038
0.010437
0.01062
0.052124
0.025757
0.0063477
0.0042725
0.0031738
0.04425
-0.0012817
-0.066528
-0.02417
0.033325
0.033508
-0.06488
0.019043
-0.00073242
-0.0057983
-0.015625
0.015991
-0.0177
0.0099487
0.053833
-0.00048828
0.0032959
-0.00073242
-0.0063477
0.014526
-0.073975
0.016113
-0.02771
0.076172
-0.052368
0.0802
-0.0065918
0.0177
-0.0048828
0.017822
-0.010803
-0.01947
0.0062256
-0.041138
-0.052063
0.0033569
-0.037292
0.043152
0.0021362
-0.021179
0.024597
0.020813
0.025818
-0.015015
-0.04071
0.032288
0.098755
-0.057007
-0.018738
0.0016479
0.0096436
0.0081787
-0.021118
-0.016479
0.022827
0.044434
0.011292
0.01886
0.0063477
-0.070862
0.063599
-0.0093384
0.0011597
-0.035522
-0.016235
-0.015503
0.03656
0.0090942
-0.0042725
-0.0075073
0.0058594
-0.02771
-0.01532
0.043701
-0.040527
0.0018921
0.037964
-0.046326
0.031616
0.0089722
-0.075073
-0.03894
0.0028687
0.008667
-0.039063
-0.021606
0.044678
-0.038391
-0.060059
0.054321
-0.0063477
0.019958
-0.0044556
0.037415
0.044861
0.018799
0.023315
0.036743
-0.00036621
-0.0085449
-0.0010376
-0.062073
-0.063965
0.0045166
-0.0049438
-0.0024414
0.0094604
0.010437
0.0012817
-0.060364
0.088684
0.06366
0.051697
-0.0083618
-0.0065308
-0.018616
-0.02771
-0.029297
-0.0056763
0.012329
0.085327
0.018372
0.0040894
0.020935
0.015381
-0.042053
0.026489
0.0031738
0.026428
-0.01001
-0.11353
0.0071411
-0.0046387
0.037964
0.012146
0.011841
-0.039368
-0.04303
0.0045166
0.034607
0.014221
-0.0036011
-0.055481
-0.031921
0.026917
-0.0018921
0.010742
-0.045166
0.051331
0.018616
-0.028137
0.007019
-0.03186
-0.0030518
-0.0020142
0.036377
-0.017334
-0.040466
0.017456
-0.027222
-0.019653
0.059998
-0.023315
0.0011597
0.018188
0.025024
-0.047058
0.041199
0.017944
-0.0081787
-0.077332
-0.012634
-0.023987
-0.0090332
0.031616
-0.04834
0.015686
0.032654
-0.0025024
0.030396
0.061462
0.023865
0.00042725
-0.035034
6.1035e-05
-0.04126
0.027222
-0.073303
0.068542
-0.022583
0.021118
0.012939
-0.052734
-0.029663
0.011475
0.006897
0.031982
0.02655
0.0092773
0.043884
0.085876
-0.10431
0.026978
-0.031189
0.015991
-0.01593
-0.036133
-0.032471
-0.019165
0.050598
0.041809
0.057007
-0.031799
0.033875
-0.054138
-0.034546
-0.0090942
-0.029541
0.072266
-0.031921
-0.082153
-0.056641
0.021484
0.040771
0.023743
-0.01886
-0.050842
-0.01123
-0.0013428
0.011963
0.07019
0.039551
-0.044312
0.017456
0.020447
-0.011597
-0.026062
-0.028748
0.029175
-0.020996
-0.046997
-0.00048828
-0.031494
0.003479
-0.058594
0.0095215
0.033081
-0.027344
-0.064453
-0.00354
0.0046997
0.059631
0.0802
0.0072632
-0.00012207
-0.053528
-0.076111
-0.019775
-0.039612
0.043823
0.044861
0.008606
0.093018
-0.0014038
0.034241
0.044739
-0.077148
0.072144
-0.057617
-0.012817
-0.038269
0.0083618
0.0083618
-0.034241
0.058044
0.069092
-0.040344
-0.02771
-0.039551
-0.036621
-0.0026245
0.082397
-0.040833
-0.018738
-0.016602
0.019287
0.0024414
-0.019531
0.0092163
0.041992
0.084839
0.010925
0.010864
0.0041504
-0.0849
0.024109
0.035645
-0.043945
0.0073853
0.0060425
0.045105
-0.081116
0.093689
0.045837
-0.012817
-0.028809
0.056213
-0.032471
0.047485
0.033875
0.066101
0.020569
0.0021362
0.010376
-0.010681
-0.067688
-0.030762
-0.057373
-0.0056152
-0.01123
0.0021362
-0.022461
-0.025024
-0.016418
0.024902
0.026062
-0.078003
0.056152
0.041504
-0.072083
-0.019897
0.061218
-0.018677
-0.03009
-0.0010986
-0.03064
-0.015747
0.012451
0.057983
0.037598
-0.026611
0.038635
0.094666
-0.095093
-0.044983
-0.031494
0.057678
-0.015747
-0.037231
0.042908
-0.014465
-0.089661
0.095825
0.0081787
-0.039978
0.053772
0.050781
-0.021606
-0.016235
0.030579
0.016296
-0.053467
-0.024048
0.073303
-0.00091553
-0.055298
0.038391
0.0046997
-0.039551
0.077087
0.024536
-0.076355
0.010193
-0.035889
0.025757
0.023132
-0.046082
0.061096
-0.036194
-0.040161
0.05304
-0.034973
0.10645
0.09137
-0.0026245
-0.088379
0.0089722
-0.0013428
0.03656
-0.02356
-0.010132
0.024475
-0.11578
0.008728
0.092896
0.00018311
-0.015137
0.016968
-0.013245
0.082092
0.0066528
-0.026428
0.0071411
-0.027893
-0.10522
-0.013916
-0.029846
-0.045593
0.032654
0.064514
-0.0015259
-0.040466
0.0066528
-0.00018311
0.0022583
0.017334
0.017029
0.031372
-0.00036621
-0.033813
0.031372
0.035767
-0.05542
-0.10956
0.010437
-0.0354
0.037659
0.045715
-0.075928
-0.059814
0.025696
-0.0010376
-0.044006
-0.020203
0.052368
0.085205
0.0046997
0.042542
0.032104
-0.023376
-0.026978
0.059265
0.03717
0.0077515
0.062683
-0.024475
-0.02356
0.026062
0.034912
-0.019897
-0.020752
0.070862
-0.032166
-0.0030518
-0.048767
-0.027954
0.0012207
-0.022461
-0.016235
0.010193
0.010315
0.041016
0.022461
0.024597
0.0067139
0.059021
0.041748
-0.0097046
0.081726
0.018677
0.019531
-0.026733
0.005249
0.012207
0.0085449
-0.0029297
0.056519
0.0084839
0.017456
0.021912
0.027283
0.0084839
0.031128
0.0025635
0.03479
0.058105
0.06842
0.017761
0.038208
0.029846
-0.0046387
0.027771
0.012634
-0.016052
-0.04248
-0.040344
0.08136
0.090942
0.013
0.0015259
-0.066589
0.0087891
0.029419
-0.056641
-0.0029907
0.012512
-0.039551
-0.040405
-0.054199
0.0066528
-0.0084229
-0.0037231
0.015564
-0.031799
0.049866
0.037415
0.0177
0.017273
0.013
-0.052917
-0.030518
0.068054
-0.083618
0.0053101
0.012756
-0.021423
-0.045776
0.010254
0.003418
-0.038696
-0.039185
-0.0061035
0.029236
0.085205
0.076233
-0.006958
-0.015259
-0.04657
-0.07074
0.00048828
0.00097656
-0.022949
0.019226
0.03363
-0.030334
0.030579
-0.040344
-0.019958
0.027588
0.029175
0.049133
-0.034241
-0.065002
0.083557
0.011047
-0.051636
0.0097656
0.035828
-0.03772
-0.0044556
-0.0087891
-0.015686
-0.0042725
0.051086
0.018311
0.015381
0.012024
-0.030945
0.0040894
0.0021362
-0.022766
-0.028381
-0.015259
0.0093994
0.021667
-0.050537
-0.0053101
-0.0050659
-0.012573
0.022644
-0.030029
0.025513
0.03363
-0.017578
-0.0065918
0.11536
-0.0053711
0.036682
0.01825
0.0066528
-0.026733
-0.036072
0.00085449
-0.027893
0.0018311
-0.039795
0.03302
-0.0029907
-0.01239
-0.019531
0.031311
0.0015259
-0.0089111
0.050415
-0.064758
-0.066345
-0.055237
0.013428
-0.00036621
-0.022034
0.051575
0.0063477
-0.048706
0.065735
-0.043274
0.025757
-0.0046387
0.013306
-0.026672
0.066284
-0.012817
-0.0092773
-0.050842
0.0271
0.022949
0.021057
-0.038086
-0.033813
0.0036621
0.014221
-0.015991
0.010864
-0.038879
-0.0099487
0.018311
-0.054871
-0.0043945
0.035034
-0
0.022888
0.020142
0.031189
-0.062256
-0.0064697
0.023499
-0.0063477
-0.048401
0.046936
-0.035034
-0.065063
0.0098267
0.075073
-0.022949
0.035889
0.018555
-0.034424
0.016052
0.00036621
-0.00091553
0.055847
-0.070129
-0.12885
-0.032166
0.0093384
-0.047668
-0.018311
0.038879
-0.010132
0.029602
-0.030823
0.01593
-0.010437
-0.011658
-0.036011
0.015137
0.015015
-0.003479
0.0059204
-0.015991
0.014587
0.040161
0.01532
-0.0046997
0.015381
-0.029358
-0.011353
0.027039
0.050598
-0.040405
-0.038513
-0.055725
-0.0578
0.029663
0.018066
0.026978
0.052063
0.024719
0.048828
-0.068787
0.0084229
0.034973
0.0088501
-0.010254
-0.03595
-0.075745
-0.025879
0.0081787
0.03479
-0.039429
0.041443
0.043762
0.0018311
0.035522
0.035217
-0.0012207
-0.010925
0.055969
0.013794
-0.010681
-0.025879
-0.079224
-0.026978
0.022156
-0.033997
0.045227
0.0032959
0.0076904
0.015137
0.020142
-0.026123
0.0044556
-0.04248
-0.056885
0.043701
-0.053772
-0.017212
-0.023621
0.018066
0.013
0.0177
0.0054321
0.014343
0.0032349
-0.056152
0.028442
-0.0055542
-0.051819
-0.052368
-0.033142
-0.068176
-0.0033569
0.010742
-0.0072021
-0.015686
0.021667
-0.014648
-0.0354
-0.0021973
0.020081
-0.0078125
0.041443
0.03717
-0.017334
0.00048828
0.025269
0.033508
0.00177
0.0098877
-0.022217
-0.010376
0.017944
-0.029724
-0.04895
-0.040344
-0.11676
0.039917
-0.01178
0.012817
0.028625
-0.011719
-0.0098877
0.054749
0.029663
0.0082397
-0.044434
-0.0073853
0.024658
0.012634
-0.06488
0.043945
0.012573
-0.041992
-0.01593
-0.018921
0.0039063
0.019226
0.0083008
-0.0031738
-0.012756
0.021667
0.023132
0.059937
-0.047607
-0.0081787
-0.037109
0.037354
0.017334
-0.028503
-0.0061035
-0.026611
-0.008728
-0.0076294
-0.021362
0.026184
-0.0025024
0.012512
0.053406
-0.0095215
0.014771
0.018616
0.046509
0.021729
-0.03363
-0.0036621
-0.014343
-0.044983
-0.037476
-0.016052
-0.014099
0.099243
0.023071
-0.010681
0.017029
0.051636
-0.032043
-0.023499
-0.018066
0.0097046
-0.021179
-0.019897
-0.048767
0.017761
-0.034729
0.045776
0.051697
0.044495
0.038269
0.039551
0.028625
0.013794
0.039917
0.050964
0.05072
0.028137
-0.0037842
-0.016602
0.010498
-0.04071
0.012451
-0.013977
0.003418
0.040466
-0.017517
-0.0042114
0.030396
-0.013245
-0.008728
0.029419
0.018982
0.0084229
-0.02002
0.00054932
0.028076
0.016663
0.031372
0.0025635
-0.025757
0.049744
0.00024414
-0.029541
0.001709
-0.042908
0.0014648
0.0012817
-0.018677
0.017883
-0.024475
-0.055237
-0.00091553
0.012878
-0.035583
-0.0043945
-0.029785
-0.051575
0.0036621
0.033813
0.011658
0.023071
-0.014709
-0.021118
0.034607
0.03833
0.01062
-0.0010986
-0.0019531
-0.0040283
-0.041077
0.034607
0.017944
-0.02356
0.0013428
0.051941
0.044434
0.010803
0.037354
0.017822
-0.035461
0.014832
-0.034302
0.0064697
0.01532
0.0011597
0.04126
-0.0023193
-0.044861
-0.0082397
0.025635
0.024719
0.0098877
0.091919
-0.063538
-0.0076294
0.0080566
-0.024353
0.025635
-0.013794
-0.016968
0.031067
0.024414
0.019531
-0.041565
0.026794
0.04895
-0.020996
-0.018188
0.0021973
0.043884
0.005127
0.017822
-0.040039
0.044434
0.0090942
-0.052307
0.026001
0.021057
0.067566
-0.038696
0.0026245
0.0023804
0.030823
-0.017883
-0.039368
0.0033569
-0.028259
0.0049438
-0.035461
0.0072632
0.061218
0.042725
0.053833
-0.0057983
-0.020508
0.014954
-0.022156
0.019165
-0.046814
0.0071411
-0.029236
-0.022888
0.013184
-0.018677
-0.0067139
-0.011719
-0.011597
0.010742
0.033691
0.0010986
-0.035522
-0.0068359
-0.053345
-0.016235
-0.087341
-0.007019
0.028442
-0.015076
0.0028076
0.033142
0.083191
-0.082642
-0.0040894
0.016907
0.0083008
-0.0029907
-0.018799
0.00012207
0.023071
-0.011414
0.049805
0.0016479
0.024414
0.031067
-0.016418
0.0084229
0.0224
-0.016602
-0.0043945
-0.020569
-0.028442
-0.037231
-0.013123
0.018494
-0.049072
0.017456
-0.0098877
0.043457
0.052612
0.01532
0.0029907
-0.00036621
-0.01947
-0.022278
-0.031677
-0.011353
-0.065125
0.066101
0.050964
0.029175
-0.0018311
-0.010071
-0.028503
0.057373
0.016724
0.056091
-0.0070801
-0.0029297
-0.0049438
-0.040833
-0.027405
-0.013428
0.022766
0.012207
0.068176
0.0098267
0.0028687
-0.028076
0.037109
-0.041138
0.023193
-0.0022583
-0.0084229
0.0072021
-0.0010986
0.016846
0.021973
0.031372
-0.054382
0.025024
0.044739
-0.00061035
0.0099487
0.0042114
-0.026001
-0.0083618
0.0057373
-0.035522
-0.0062256
0.030212
-0.024231
0.016785
0.052917
-0.013184
-0.025574
0.060669
0.0061646
-0.019897
0.050171
-0.039612
0.020325
-0.01062
0.030518
0.0084839
-0.065186
-0.015625
-0.019409
0.016357
0.01239
0.0061646
0.046082
-0.013916
-0.019226
-0.010315
-0.035095
0.0038452
-0.012939
0.027588
0.010437
-0.033386
0.012695
0.048035
-0.063477
0.008606
-0.019958
0.018127
0.026245
0.023926
0.015869
0.030884
-0.032715
0.0049438
0.021118
-0.019836
-0.034851
-0.028442
-0.008667
-0.072632
0.036377
0.019775
0.032959
0.018372
0.0067749
-0.0016479
-0.0095825
0.0061646
0.018005
0.013794
-0.02417
-0.0081787
0.026611
-0.05835
-0.059143
-0.029114
0.027344
0.0037842
0.019592
0.045105
-0.012878
0.017212
-0.061523
0.068054
-0.0077515
-0.020813
0.051514
-0.056335
-0.044983
0.029602
0.028809
0.039917
0.018616
0.00067139
0.026245
0.05896
0.026428
0.015747
0.064148
0.028992
0.042725
-0.075745
-0.027588
-0.0098267
-0.015137
-0.014709
0.037964
0.048767
0.0074463
0.0045166
-0.03125
-0.038818
0.0098267
-0.011414
-0.043884
0.071777
0.062317
-0.047302
-0.010132
0.013489
-0.036194
-0.008728
0.051147
-0.035217
0.022766
-0.015381
0.024109
0.012573
-0.069031
-0.052673
-0.050293
-0.0048828
0.019348
0.032776
-0.021179
0.036133
0.020874
0.033569
0.011902
-0.039429
0.049805
-0.058228
-0.019653
0.0025024
-0.0032959
0.040955
0.0012817
-0.018005
0.018677
-0.0065308
0.0050659
-0.0042114
-0.0033569
-0.0098267
-0.040833
-0.017212
0.034912
-0.047485
-0.016541
0.017517
0.06665
0.068115
0.020264
-0.034058
-0.073547
-0.029114
-0.019287
0.044434
-0.0082397
-0.00067139
0.013367
0.00012207
0.01062
0.059937
-0.036316
0.026062
0.0064697
-0.0042725
0.0448
-0.00024414
0.01001
-0.015625
0.03833
0.055725
0.011108
0.028198
0.011963
0.017273
-0.023865
-0.028931
0.014099
0.035095
0.0066528
0.017639
0.0099487
0.0021362
-0.052063
0.0072632
-0.003418
-0.0027466
0.041077
0.046631
0.011658
0.0048218
0.018311
-0.0010986
0.011108
0.017334
0.046631
0.011597
0.0068359
-0.026917
-0.01355
0.0061035
0.030945
0.0037842
-0.028198
-0.039063
0.029602
-0.0099487
0.028442
0.018372
-0.032837
-0.080444
-0.059509
0.042053
0.02301
-0.022095
0.0271
-0.047241
-0.036255
-0.042297
0.042053
0.027588
0.052368
0.021057
-0.006897
-0.060913
-0.00079346
-0.039917
-0.069275
-0.12463
0.0092773
-0.0081177
0.047729
0.00073242
0.022766
-0.021667
-0.031067
0.048584
0.049316
0.022522
-0.0023193
-0.081604
0.039063
0.020935
-0.03833
-0.022766
0.024353
-0.012573
-0.0040894
0.022766
0.063843
0.052551
-0.022339
6.1035e-05
-0.0073853
-0.020508
-0.045471
-0.0029907
-0.073364
-0.06427
-0.03009
0.0065918
-0.081177
-0.0031128
0.0064087
-0.036926
0.049744
0.067932
-0.013062
-0.021301
-0.029724
0.041504
-0.012817
-0.036377
0.01593
0.0050659
-0.011475
-0.0066528
0.0090942
0.0022583
0.054749
-0.078979
0.032288
0.023926
0.041382
-0.0081787
-0.039978
-0.039734
0.0098877
-0.012756
-0.03125
0.017273
-0.074768
-0.033813
0.026184
0.0045166
0.021423
-0.034302
-0.038574
0.045532
-0.055054
0.044006
-0.0018311
-0.046265
0.01947
0.021484
0.046753
0.011414
0.016174
-0.035522
0.0098877
-0.012939
0.026611
0.045288
0.027283
0.01886
0.014282
-0.011047
-0.016418
0.0028076
-0.063538
-0.017944
0.0030518
0.034058
0.033386
-0.010376
0.022278
0.043335
-0.027039
0.073242
-0.0095215
-0.041321
-0.0010986
-0.0014038
0.033325
0.035461
-0.03479
-0.062805
0.02417
0.029114
0.033875
0.15149
0.040344
-0.032288
0.005249
-0.023071
0.00073242
-0.010498
-0.010803
-0.010986
-0.045715
0.028687
-0.003418
0.0038452
0.06073
-0.042236
-0.010864
0.018494
0.00177
-0.079346
-0.016663
-0.020447
0.0071411
-0.023865
-0.077393
-0.036804
0.0064697
-0.0018311
-0.021729
-0.0064697
0.042358
-0.060547
0.013611
0.010986
-0.00061035
-0.045837
-0.039551
0.028015
0.031555
0.0224
-0.013306
0.016541
0.01062
0.016541
-0.056091
0.0065918
-0.048401
-0.040466
0.032349
-0.022766
0.0085449
0.031799
-0.050049
-0.041504
-0.0043945
-0.024963
-0.0042725
0.049255
-0.067017
-0.012817
-0.02301
0.0041504
0.039001
0.045166
0.013367
-0.0031738
0.049072
-0.013611
-0.031921
-0.019653
-0.01239
0.021423
-0.035156
0.054321
0.0032959
-0.021545
0.021729
0.022705
-0.033813
-0.012207
-0.0042114
-0.043335
-0.0097656
0.021729
-0.0031738
-0.018555
-0.051392
0.0495
-0.050903
0.030823
0.06665
0.0064697
-0.00018311
-0.00024414
0.0015259
0.02356
-0.023315
0.014832
-0.024841
0.051819
-0.071533
0.0085449
-0.025208
-0.013062
0.0013428
0.034851
-0.00079346
-0.021912
0.025818
-0.061096
-0.025452
0.029114
-0.034851
0.055786
-0.010742
-0.025085
-0.047241
0.035706
-0.0041504
0.027405
0.024292
-0.051208
-0.087036
-0.046265
0.025635
0.017944
0.046448
0.0047607
0.008667
0.036621
-0.019348
-0.062073
-0.018005
0.021179
-0.019165
-0.046082
-0.04303
0.00054932
0.044861
-0.02356
-0.00091553
0.067444
0.032166
0.022339
0.042603
-0.010742
-0.028442
-0.051147
0.0054932
-0.062805
0.057495
0.0083618
-0.0025024
0.047546
0.028564
0.018066
0.0271
0.006897
0.01239
-0.015198
0.0019531
-0.024048
-0.035706
-0.032715
-0.028503
0.038818
-0.0044556
-0.013977
-0.0018311
0.049866
0.023315
0.0050659
0.027039
-0.03772
-0.00067139
0.035645
-0.024353
0.0026245
0.025635
-0.066223
-0.06897
-0.03186
0.0083618
0.015747
-0.0027466
-0.027649
0.025269
-0.041016
0.019897
-0.025818
0.0085449
0.0042725
-0.01062
0.035461
-0.024841
-0.020386
-0.030823
0.015137
-0.054443
0.015076
0.01947
-0.0059204
0.0098877
-0.038086
0.027039
-0.032837
-0.035706
0.03595
0.017578
-0.016907
-0.025574
-0.046448
-0.02832
-0.022095
-0.078369
0.001709
-0.019897
-0.0099487
0.017517
-0.0031738
-0.027832
-0.02832
-0.0039673
-0.03186
-0.010864
-0.044678
0.099792
-0.00018311
-0.0096436
0.01416
-0.00042725
0.021667
-0.0010986
0.0057373
-0.039063
0.0013428
-0.019043
0.00085449
0.0015869
-0.022949
-0.030151
0.03949
0.00097656
-0.0896
-0.047363
-0.063782
-0.0050049
-0.017456
-0.0044556
0.031494
0.022095
-0.016602
0.031799
0.0045166
-0.025513
0.02356
0.0065308
-0.014587
0.0079346
0.01178
-0.022644
-0.02533
-0.00042725
-0.030762
-0.019287
0.030273
-0.070862
0.0080566
-0.063049
0.033813
0.0048218
-0.045593
-0.0053101
-0.0077515
-0.0077515
-0.0046997
0.00061035
-0.018616
-0.0047607
-0.0057983
0.02655
0.0079956
-0.068298
-0.0028687
0.022705
0.048889
0.02533
0.025818
0.0014038
-0.045166
-0.064636
-0.037415
0.037476
0.015869
0.0075073
0.0020142
0.02594
0.061401
-0.027527
0.010681
0.037781
-0.034973
-0.015564
0.034241
-0.0092773
0.011841
-0.054932
0.021484
-0.012573
-0.016296
0.020691
-0.042603
0.050232
0.017151
-0.0024414
0.0084839
-0.036926
0.010559
-0.039185
0.0023193
0.005249
0.061646
0.0025024
-0.062012
0.045776
0.02887
0.013184
0.010986
-0.065002
-0.026794
0.037598
0.023315
-0.054871
0.017578
0.063904
0.049316
-0.046387
-0.0044556
-0.066467
0.012024
-0.014282
-0.014893
-0.018188
-0.0074463
-0.0093994
-0.018555
-0.012268
0.028748
0.0067749
-0.028442
-0.0065308
-0.039368
0.085999
-0.021606
0.043152
0.0093994
-0.017212
0.021301
-0.0018311
0.028564
-0.014832
0.053772
-0.0070801
0.0076294
-0.062256
-0.024658
0.031555
0.035095
0.0076904
-0.0036011
-0.0070801
0.0059814
-0.067627
-0.028259
-0.021362
-0.040649
-0.024109
0.00024414
0.0033569
-0.017639
0.018066
0.014587
0.039551
0.034851
-0.013794
0.024109
0.038696
-0.034485
0.017334
-0.0093384
0.054871
0.0064087
-0.061707
-0.042053
-0.022766
0.02179
0.038147
0.075012
-0.012512
-0.034973
-0.027344
0.032104
-0.0019531
0.012878
0.0036621
-0.027344
-0.03186
0.015869
-0.063782
-0.018311
-0.029968
0.046814
-0.020935
-0.0024414
-0.024719
-0.0068359
0.012512
0.041931
0.026306
-0.058838
0.03717
-0.020752
0.039917
-0.054138
0.014893
-0.0083008
-0.050598
0.028137
-0.037476
-0.0022583
0.014893
0.025879
0.047607
-0.02002
-0.0079956
0.066711
-0.047241
0.014099
-0.013367
-0.00091553
0.01709
-0.040955
-0.0090332
-0.035522
0.058167
-0.045105
0.043152
-0.018799
0.0014038
-0.01593
-0.031799
0.024292
-0.034424
0.028137
-0.027649
0.025879
-0.014038
0.040649
0.016663
-0.020264
0.0010986
0.0578
-0.07074
-0.036682
0.0043335
-0.048279
0.037476
-0.0020752
0.0092163
0.0098267
0.018555
0.041382
-0.026123
-0.043884
-0.059387
-0.0059814
0.035278
-0.064209
0.046753
0.015503
-0.064026
0.0039673
0.011475
-0.028015
-0.060669
-0.037659
0.0023193
0.014038
0.033691
0.054749
-0.014526
-0.022217
-0.042236
0.0066528
-0.019531
-0.0033569
0.035706
-0.02417
-0.034668
0.016663
0.017822
-0.022827
-0.072021
0.013367
0.0054321
0.0031738
0.030396
0.019531
0.018921
-0.028748
-0.0578
0.044922
-0.060242
0.0079956
0.0058594
0.00091553
-0.032959
0.0083618
0.0042725
-0.030212
-0.023682
0.066406
0.015564
0.0063477
0.0067139
0.046082
0.006958
-0.064697
-0.038452
-0.01178
0.013
0.026794
-0.048462
0.079407
0.046021
0.0448
0.026978
-0.017151
-0.057495
-0.019287
-0.031616
-0.039917
-0.015747
0.042297
-0.055664
-0.033508
0.03363
0.05426
0.025879
-0.012024
-0.018066
-0.0024414
0.0224
0.0053101
0.0063477
0.023438
-0.0093994
-0.069153
0.022583
0.033508
0.043152
-0.0020752
-0.055237
0.016052
-0.027466
-0.0040283
-0.034668
0.0046387
-0.045166
-0.0093384
-0.036194
-0.013672
0.0075073
-0.072632
0.017273
0.037109
0.038513
-0.020752
-0.022766
-0.047974
0.047119
0.0030518
0.061096
0.019409
0.065613
0.039795
0.025879
-0.037781
0.055359
0.10931
-0.018433
-0.030273
-0.062561
-0.0050659
0.01709
0.0081787
-0.074707
-0.046143
-0.030334
0.017822
-0.008606
0.016602
0.011963
0.11676
-0.019531
-0.027344
0.016113
0.033691
0.046692
0.026428
0.0057373
-0.022339
-0.0091553
-0.041321
-0.0023193
-0.013733
-0.0026855
-0.050049
0.00054932
-0.016235
-0.063782
0.11615
0.035583
0.049316
0.052979
-0.073425
0.03656
-0.034119
-0.012207
0.0075073
-0.066223
-0.076599
-0.010681
0.019836
0.027466
-6.1035e-05
0.00054932
-0.031982
0.020935
-0.0018311
-0.0083008
-0.020508
-0.006958
0.0090942
-0.059937
-0.051086
-0.058838
-0.040649
0.06781
0.007019
-0.085266
-0.014343
0.062012
0.013855
-0.026123
0.064941
0.035767
6.1035e-05
-0.01416
-0.025757
-0.037292
-0.034912
0.0012817
0.013184
0.013
-0.014648
0.0015259
-0.0084229
0.041626
0.046814
0.022705
-0.0099487
-0.067688
-0.073059
0.03595
0.011536
-0.00091553
-0.052368
0.071716
-0.028564
0.088257
0.036255
0.021606
-0.078613
0.091614
-0.042725
-0.060364
-0.0625
-0.024719
-0.0053711
-0.047974
-0.01416
0.00097656
0.025452
0.00061035
0.03595
0.014954
-0.035583
0.03064
0.0046387
-0.052612
0.010132
-0.026001
0.046082
0.046082
-0.015869
-0.03125
0.033203
0.16992
-0.017456
-0.053711
-0.010376
0.0033569
-0.011597
0.0016479
-0.03009
-0.014343
-0.017883
-0.022766
-0.00091553
-0.0081787
-0.0037231
-0.010071
-0.0089111
-0.033508
-0.029785
0.042603
-0.022095
-0.018799
0.04425
0.0083618
0.048218
0.032776
-0.02948
-0.023132
0.0010986
0.038269
-0.016907
-0.048218
-0.0045776
0.046997
-0.036743
0.055725
0.02002
-0.058411
-0.0092163
-0.014099
-0.024109
0.0045166
0.018311
0.043396
0.024292
-0.0083618
-0.011292
-0.038513
-0.074768
0.03418
0.044006
0.0097656
-0.017883
-0.010315
0.019165
0.071899
0.010437
0.047791
-0.022339
-0.014587
0.0029907
-0.04541
-0.010925
0.064514
0.047913
-0.06311
-0.0040283
-0.02063
-0.037354
-0.02533
-0.03064
0.0060425
-0.025391
-0.0050659
-0.0036621
-0.01825
0.043396
0.037598
0.025635
-0.010864
-0.0036621
-0.041748
-0.021362
-0.003479
-0.027893
0.033569
0.010498
0.010864
0.060181
-0.052612
-0.013367
-0.012878
-0.00073242
0.0028687
0.031616
-0.039917
-0.0059204
-0.013794
0.0081787
0.0020752
-0.00067139
-0.011902
-0.008667
0.063232
-0.0042725
0.02356
0.0095825
-0.02533
