0.093750
-0.046875
-0.039062
-0.042969
0.019531
-0.050781
0.218750
-0.003906
0.058594
0.117188
-0.035156
0.386719
0.082031
-0.007812
0.000000
0.062500
0.003906
0.031250
0.035156
0.000000
-0.003906
-0.039062
0.058594
-0.042969
-0.187500
0.066406
0.003906
-0.031250
0.007812
0.152344
-0.082031
0.085938
-0.023438
-0.003906
-0.023438
-0.078125
-0.054688
0.062500
-0.058594
0.000000
-0.015625
0.000000
-0.246094
0.042969
0.089844
0.007812
-0.519531
-0.070312
-0.027344
0.000000
0.046875
-0.031250
-0.089844
0.023438
-0.007812
-0.031250
-0.062500
-0.023438
-0.167969
0.019531
0.035156
0.011719
0.082031
0.117188
-0.054688
0.054688
-0.023438
-0.058594
0.000000
0.007812
0.011719
0.000000
0.019531
-0.015625
-0.011719
0.007812
0.011719
-0.015625
-0.078125
-0.011719
-0.003906
0.000000
0.000000
0.023438
-0.285156
0.015625
-0.003906
0.000000
-0.027344
-0.007812
0.000000
0.000000
0.007812
0.023438
-0.019531
0.015625
-0.003906
0.000000
0.000000
0.050781
0.000000
0.039062
0.003906
-0.011719
0.175781
0.007812
0.000000
-0.003906
0.011719
-0.023438
0.027344
-0.003906
-0.015625
-0.003906
0.000000
-0.007812
0.000000
-0.007812
0.000000
0.031250
0.027344
0.000000
0.054688
0.203125
-0.015625
-0.003906
0.003906
0.003906
-0.316406
-0.054688
0.136719
0.046875
0.003906
-0.082031
0.042969
-0.039062
0.066406
0.082031
-0.105469
-0.058594
-0.054688
0.414062
0.019531
0.031250
-0.031250
-0.105469
-0.050781
0.027344
-0.003906
-0.046875
0.050781
0.449219
-0.078125
0.160156
0.000000
0.023438
0.046875
0.070312
-0.117188
0.214844
0.000000
-0.003906
-0.042969
-0.089844
0.238281
-0.113281
-0.144531
0.089844
-0.039062
0.035156
0.117188
0.031250
-0.042969
0.011719
0.117188
-0.039062
-0.074219
0.000000
-0.070312
-0.070312
0.238281
-0.179688
0.062500
0.183594
-0.152344
0.003906
-0.136719
-0.140625
0.042969
-0.027344
0.062500
0.089844
0.058594
-0.023438
0.011719
0.253906
-0.003906
-0.011719
-0.218750
-0.015625
0.042969
-0.085938
-0.070312
-0.023438
0.031250
-0.027344
-0.062500
0.027344
-0.035156
-0.117188
-0.019531
-0.160156
0.246094
0.042969
0.093750
-0.031250
-0.023438
-0.027344
0.007812
0.019531
0.023438
-0.417969
-0.050781
0.019531
-0.136719
0.144531
-0.031250
-0.089844
0.019531
0.152344
0.007812
0.050781
0.015625
0.031250
0.105469
0.000000
-0.066406
0.074219
0.031250
-0.031250
0.085938
-0.015625
0.007812
-0.011719
0.035156
0.027344
-0.015625
0.007812
0.085938
0.003906
0.144531
-0.093750
-0.085938
-0.003906
0.019531
0.093750
0.000000
0.000000
0.000000
-0.035156
-0.007812
-0.105469
-0.027344
-0.015625
0.031250
-0.019531
0.523438
-0.007812
-0.039062
-0.414062
0.027344
0.058594
0.011719
0.015625
0.007812
0.042969
0.000000
0.000000
0.082031
-0.082031
-0.003906
0.000000
0.015625
0.000000
0.050781
0.039062
-0.070312
0.015625
0.011719
-0.031250
0.007812
-0.031250
0.171875
-0.023438
0.097656
-0.011719
-0.011719
0.031250
0.000000
0.000000
-0.007812
0.031250
0.035156
0.136719
-0.011719
-0.007812
-0.039062
-0.027344
-0.062500
-0.027344
0.203125
0.058594
-0.023438
0.000000
-0.058594
-0.031250
-0.019531
-0.007812
0.042969
0.070312
-0.027344
0.007812
0.050781
0.000000
-0.332031
0.003906
0.000000
0.019531
0.019531
-0.007812
-0.003906
0.003906
-0.031250
-0.007812
0.000000
0.023438
-0.007812
0.011719
-0.015625
0.019531
0.000000
0.042969
-0.019531
0.000000
0.011719
-0.003906
-0.316406
0.035156
0.007812
0.027344
-0.015625
-0.027344
0.003906
0.011719
0.003906
0.031250
0.011719
0.019531
-0.027344
-0.015625
0.003906
0.058594
-0.050781
0.046875
-0.019531
-0.046875
-0.007812
0.000000
0.007812
0.289062
-0.011719
0.203125
0.027344
0.003906
-0.007812
0.007812
0.035156
-0.203125
0.003906
-0.023438
-0.035156
-0.039062
-0.011719
-0.007812
0.160156
0.152344
-0.160156
-0.089844
-0.003906
0.242188
-0.027344
0.007812
0.144531
-0.007812
-0.179688
-0.281250
-0.125000
0.093750
0.062500
-0.171875
0.078125
0.164062
0.031250
-0.160156
-0.003906
0.042969
-0.402344
-0.207031
0.316406
-0.300781
0.035156
-0.023438
0.035156
0.058594
0.000000
-0.339844
0.085938
0.000000
-0.148438
0.007812
-0.218750
-0.125000
0.101562
-0.128906
-0.085938
0.039062
0.015625
-0.113281
0.062500
-0.082031
0.218750
0.058594
-0.074219
-0.023438
0.132812
-0.031250
-0.097656
0.167969
-0.281250
-0.324219
0.121094
-0.003906
0.167969
-0.011719
-0.042969
0.019531
-0.277344
-0.382812
0.023438
0.000000
-0.066406
-0.011719
0.402344
-0.003906
0.003906
-0.003906
0.000000
-0.003906
-0.007812
0.000000
0.019531
0.003906
0.027344
-0.011719
0.000000
0.000000
0.015625
-0.003906
0.000000
0.031250
0.007812
0.000000
-0.003906
-0.003906
-0.089844
0.191406
0.011719
-0.031250
-0.003906
0.015625
0.000000
0.000000
0.011719
-0.031250
-0.011719
-0.015625
0.039062
0.031250
-0.003906
0.007812
0.031250
-0.023438
0.015625
0.039062
0.003906
0.003906
0.000000
-0.035156
0.011719
0.007812
0.000000
-0.007812
0.003906
0.007812
-0.019531
0.257812
-0.007812
0.035156
0.066406
0.000000
0.000000
0.007812
0.000000
-0.058594
0.039062
-0.027344
-0.031250
-0.015625
0.007812
0.046875
0.187500
-0.054688
-0.042969
0.007812
0.101562
-0.007812
-0.015625
0.007812
-0.007812
-0.019531
0.011719
0.128906
0.015625
-0.050781
0.105469
0.015625
0.007812
0.089844
0.007812
-0.031250
0.027344
0.015625
0.480469
-0.039062
0.027344
0.000000
0.062500
0.011719
-0.050781
0.007812
-0.003906
-0.011719
0.023438
0.050781
0.046875
0.007812
-0.042969
0.019531
0.027344
-0.070312
0.011719
-0.140625
-0.046875
0.046875
-0.023438
0.019531
0.000000
0.070312
-0.027344
0.000000
-0.003906
0.035156
0.046875
0.109375
0.078125
-0.003906
-0.003906
-0.003906
0.027344
0.000000
-0.007812
0.000000
-0.003906
-0.007812
0.000000
0.000000
0.000000
-0.003906
-0.015625
-0.003906
-0.007812
-0.003906
0.007812
0.000000
-0.019531
0.007812
0.000000
0.000000
-0.007812
-0.007812
0.003906
0.007812
0.269531
-0.171875
0.007812
0.003906
0.000000
0.000000
0.000000
-0.011719
0.000000
0.007812
0.000000
0.000000
-0.003906
0.000000
0.000000
-0.406250
-0.015625
0.000000
0.000000
-0.011719
0.000000
-0.003906
0.000000
-0.011719
-0.003906
-0.007812
-0.003906
0.003906
0.000000
-0.011719
0.003906
-0.019531
0.003906
-0.003906
-0.035156
0.000000
0.003906
0.000000
