0.09552
-0.049255
-0.041138
-0.04541
0.019775
-0.054138
0.22034
-0.0062866
0.062256
0.11725
-0.036621
0.38702
0.082703
-0.0097656
0.0027466
0.065918
0.0048828
0.034607
0.035645
-0.0031128
-0.0040894
-0.040527
0.062073
-0.045227
-0.19006
0.068848
0.0075684
-0.034912
0.0083618
0.15259
-0.08551
0.08783
-0.026062
-0.0075684
-0.024414
-0.080444
-0.057129
0.06543
-0.058777
0
-0.018127
0.00354
-0.24884
0.044617
0.09259
0.0098267
-0.5213
-0.073608
-0.03125
0.00177
0.050537
-0.032593
-0.091675
0.025085
-0.0085449
-0.031738
-0.063965
-0.025879
-0.17126
0.022888
0.038208
0.01355
0.082397
0.12097
-0.056213
0.057495
-0.026855
-0.061951
-0.00079346
0.011414
0.012207
-0.00048828
0.019775
-0.019226
-0.014954
0.011169
0.012756
-0.015686
-0.080322
-0.012268
-0.0056152
0
0.0030518
0.02478
-0.28821
0.015991
-0.0048828
0.0033569
-0.029785
-0.0097046
0.00091553
0.00067139
0.008606
0.024841
-0.021545
0.017883
-0.0058594
0.0014648
0.0036011
0.052246
0.00097656
0.041077
0.0047607
-0.012451
0.177
0.008728
-0.0018311
-0.0050049
0.012512
-0.026794
0.030945
-0.0043945
-0.019348
-0.0076294
-0.00036621
-0.011169
0.0016479
-0.010803
0.0023804
0.032898
0.029236
-0.0028687
0.057068
0.20343
-0.01709
-0.0071411
0.0076904
0.0067139
-0.31671
-0.058289
0.13855
0.047119
0.005188
-0.085327
0.046509
-0.041626
0.070251
0.085266
-0.10712
-0.061279
-0.055908
0.41443
0.022888
0.035034
-0.033508
-0.10718
-0.05304
0.02948
-0.0046387
-0.050293
0.054077
0.45215
-0.079529
0.16217
-0.00177
0.027283
0.049927
0.071716
-0.11792
0.2149
0.0025635
-0.0075684
-0.0448
-0.092102
0.23859
-0.11517
-0.14673
0.092407
-0.039307
0.035522
0.12085
0.033142
-0.044434
0.014648
0.11926
-0.041016
-0.074463
-0.0015869
-0.073425
-0.072632
0.23993
-0.17999
0.063965
0.18597
-0.15289
0.0040894
-0.14063
-0.1438
0.04541
-0.030701
0.065308
0.091187
0.058899
-0.026733
0.015381
0.25684
-0.005249
-0.01355
-0.21954
-0.018616
0.045471
-0.087708
-0.072327
-0.026489
0.03302
-0.030762
-0.063049
0.027771
-0.036621
-0.12
-0.019958
-0.16138
0.24756
0.043762
0.096924
-0.03125
-0.025513
-0.030273
0.010376
0.022156
0.026672
-0.41888
-0.051331
0.020752
-0.13849
0.14679
-0.033997
-0.093445
0.022949
0.1557
0.0078125
0.051331
0.016846
0.034912
0.10822
0.0026855
-0.066711
0.075745
0.034607
-0.033936
0.086914
-0.018799
0.008667
-0.014954
0.038635
0.030029
-0.017578
0.010986
0.087585
0.0065918
0.14618
-0.097595
-0.087097
-0.0049438
0.020569
0.09491
-0.0027466
-0.0030518
0.0030518
-0.035217
-0.01001
-0.10693
-0.028381
-0.017212
0.03302
-0.020447
0.52551
-0.010986
-0.039246
-0.41553
0.03009
0.059631
0.014893
0.018005
0.010498
0.044617
-0.0039063
-0.0014038
0.083008
-0.08313
-0.0043945
0.0015259
0.019348
0.0021973
0.053345
0.041687
-0.072327
0.016113
0.015076
-0.032288
0.0090942
-0.033691
0.17542
-0.024475
0.1001
-0.013794
-0.013184
0.033508
0.0025635
0.00018311
-0.0089111
0.034851
0.037048
0.14038
-0.014526
-0.0095215
-0.039917
-0.028503
-0.063904
-0.029358
0.20477
0.060608
-0.026855
0.00054932
-0.06189
-0.032837
-0.020691
-0.010803
0.045532
0.073059
-0.028809
0.0081787
0.053528
0.0012207
-0.33337
0.0049438
-0.0031128
0.019653
0.019958
-0.011597
-0.0062866
0.0046997
-0.03479
-0.010254
0.00091553
0.026489
-0.0087891
0.011963
-0.015625
0.020203
0.0010376
0.046204
-0.0224
-0.0012817
0.012329
-0.0053101
-0.31995
0.035522
0.0098877
0.029968
-0.019043
-0.02832
0.0041504
0.013062
0.0062866
0.03418
0.013367
0.022522
-0.029297
-0.016541
0.0061646
0.061462
-0.052734
0.047913
-0.020386
-0.049377
-0.0092163
0.0023193
0.0089111
0.29236
-0.012024
0.20691
0.031128
0.0054932
-0.0079346
0.0090332
0.038025
-0.20435
0.0045776
-0.026489
-0.038452
-0.039734
-0.01178
-0.0078735
0.16388
0.15344
-0.16309
-0.091919
-0.005127
0.24567
-0.030151
0.010864
0.14545
-0.01062
-0.17993
-0.28162
-0.12781
0.096008
0.064026
-0.1723
0.078369
0.16412
0.034485
-0.16211
-0.0060425
0.043701
-0.40613
-0.21033
0.31927
-0.30347
0.037109
-0.02478
0.038818
0.060242
-0.0038452
-0.3432
0.088013
-0.0026245
-0.15002
0.011169
-0.21924
-0.12616
0.10229
-0.12939
-0.086853
0.042358
0.01709
-0.11566
0.062744
-0.085938
0.22156
0.062134
-0.077942
-0.025635
0.13611
-0.034058
-0.10059
0.1684
-0.28448
-0.32733
0.12372
-0.0062866
0.17053
-0.013367
-0.043335
0.021973
-0.27991
-0.38629
0.025085
0.00073242
-0.068298
-0.013428
0.40393
-0.0054321
0.0056152
-0.005127
-0.0015259
-0.0065918
-0.0080566
0.001709
0.020935
0.0054321
0.027344
-0.015503
0.0030518
0.0038452
0.01825
-0.007019
-0.0039063
0.03302
0.010315
0
-0.0074463
-0.0040894
-0.092773
0.1947
0.013611
-0.032043
-0.0068359
0.018372
0.0013428
-0.0020142
0.013245
-0.03125
-0.013062
-0.018494
0.042175
0.032349
-0.0055542
0.0079346
0.032654
-0.024841
0.015625
0.040894
0.0055542
0.0047607
-0.001709
-0.036743
0.013977
0.0090332
-0.0015869
-0.011353
0.0050049
0.0083618
-0.023376
0.26062
-0.011047
0.035278
0.068909
-0.00042725
-0.0030518
0.0082397
0.0037842
-0.060425
0.041321
-0.027771
-0.032837
-0.017029
0.010376
0.048462
0.18805
-0.05481
-0.044983
0.0090332
0.10181
-0.011658
-0.017639
0.010986
-0.011108
-0.020264
0.014648
0.13147
0.018494
-0.053345
0.10931
0.016602
0.0097046
0.091064
0.0081177
-0.034363
0.027771
0.017944
0.48401
-0.041443
0.031128
-0.003479
0.063782
0.013611
-0.052246
0.0089111
-0.0055542
-0.015137
0.023987
0.052673
0.047729
0.0084229
-0.046875
0.021912
0.029236
-0.073792
0.013855
-0.14142
-0.05072
0.050171
-0.02417
0.02002
-0.00012207
0.070435
-0.028076
-0.0032349
-0.0061646
0.037903
0.050232
0.11218
0.080994
-0.0043335
-0.0042114
-0.0042725
0.029419
-0.0019531
-0.010315
0.0010986
-0.0066528
-0.0093994
-0.00036621
-0.0026245
0.00079346
-0.0066528
-0.016296
-0.0073242
-0.010254
-0.0039673
0.010803
0.0011597
-0.021667
0.0098267
0.0011597
-0.0037231
-0.011108
-0.0092163
0.0059204
0.008667
0.27185
-0.17371
0.0094604
0.0074463
-0.0032349
0.0022583
0.00073242
-0.013489
-0.0037842
0.011597
0.0032959
0.0021973
-0.0067749
-0.0032959
-0.0010986
-0.40936
-0.018372
-6.1035e-05
0.0014648
-0.012451
0.0027466
-0.0074463
0.0031738
-0.014587
-0.0062866
-0.008667
-0.0050049
0.0056763
0.0029297
-0.012329
0.0045776
-0.022583
0.0059814
-0.0073242
-0.036743
-0.0015259
0.0062256
0.003418
