9.552355855703353882e-02
-4.926618188619613647e-02
-4.112403839826583862e-02
-4.543025046586990356e-02
1.978176832199096680e-02
-5.414582416415214539e-02
2.203496545553207397e-01
-6.286588031798601151e-03
6.223884969949722290e-02
1.172310560941696167e-01
-3.661712631583213806e-02
3.870418667793273926e-01
8.272708952426910400e-02
-9.777309373021125793e-03
2.759897382929921150e-03
6.590583175420761108e-02
4.869897384196519852e-03
3.459991142153739929e-02
3.563871979713439941e-02
-3.135509323328733444e-03
-4.061702638864517212e-03
-4.050455987453460693e-02
6.208888068795204163e-02
-4.520823061466217041e-02
-1.900836378335952759e-01
6.886444240808486938e-02
7.586374878883361816e-03
-3.493241220712661743e-02
8.356420323252677917e-03
1.525625735521316528e-01
-8.549822121858596802e-02
8.783587813377380371e-02
-2.605157904326915741e-02
-7.550355978310108185e-03
-2.440223097801208496e-02
-8.045396208763122559e-02
-5.714057013392448425e-02
6.542946398258209229e-02
-5.875582247972488403e-02
1.738514401949942112e-05
-1.813070476055145264e-02
3.561101621016860008e-03
-2.488510310649871826e-01
4.460397735238075256e-02
9.258247166872024536e-02
9.851811453700065613e-03
-5.213289260864257812e-01
-7.360523939132690430e-02
-3.124661557376384735e-02
1.786548295058310032e-03
5.050949752330780029e-02
-3.258969634771347046e-02
-9.167603403329849243e-02
2.510505355894565582e-02
-8.533474989235401154e-03
-3.175389394164085388e-02
-6.399460136890411377e-02
-2.590464055538177490e-02
-1.712570041418075562e-01
2.288773469626903534e-02
3.823443874716758728e-02
1.357860397547483444e-02
8.237580955028533936e-02
1.209511235356330872e-01
-5.623904988169670105e-02
5.748818814754486084e-02
-2.685569785535335541e-02
-6.196718290448188782e-02
-8.185168262571096420e-04
1.142492704093456268e-02
1.220142841339111328e-02
-4.696515970863401890e-04
1.976411975920200348e-02
-1.924592070281505585e-02
-1.493931747972965240e-02
1.113961357623338699e-02
1.278178021311759949e-02
-1.568244956433773041e-02
-8.032209426164627075e-02
-1.224592141807079315e-02
-5.598039831966161728e-03
1.422200330125633627e-05
3.032288746908307076e-03
2.480438910424709320e-02
-2.882369756698608398e-01
1.598410494625568390e-02
-4.891428630799055099e-03
3.358712652698159218e-03
-2.977583371102809906e-02
-9.721797890961170197e-03
9.353655041195452213e-04
6.480076117441058159e-04
8.628003299236297607e-03
2.483889646828174591e-02
-2.152925357222557068e-02
1.789787411689758301e-02
-5.856664851307868958e-03
1.450976589694619179e-03
3.588965861126780510e-03
5.222674831748008728e-02
9.511662065051496029e-04
4.106051847338676453e-02
4.763249773532152176e-03
-1.243194192647933960e-02
1.770039349794387817e-01
8.722931146621704102e-03
-1.828378764912486076e-03
-5.008325912058353424e-03
1.250057108700275421e-02
-2.680333517491817474e-02
3.092797473073005676e-02
-4.396293312311172485e-03
-1.932182349264621735e-02
-7.610494270920753479e-03
-3.522458719089627266e-04
-1.114705577492713928e-02
1.673270482569932938e-03
-1.078162901103496552e-02
2.375141484662890434e-03
3.289208188652992249e-02
2.920958027243614197e-02
-2.839257242158055305e-03
5.706830695271492004e-02
2.034591138362884521e-01
-1.706040650606155396e-02
-7.110808510333299637e-03
7.679889444261789322e-03
6.727085914462804794e-03
-3.167044222354888916e-01
-5.828689038753509521e-02
1.385769397020339966e-01
4.714535549283027649e-02
5.190724506974220276e-03
-8.531549572944641113e-02
4.647912830114364624e-02
-4.160100221633911133e-02
7.025591284036636353e-02
8.524624258279800415e-02
-1.070924252271652222e-01
-6.127214059233665466e-02
-5.593284219503402710e-02
4.144405126571655273e-01
2.286907471716403961e-02
3.503978624939918518e-02
-3.352058678865432739e-02
-1.071570366621017456e-01
-5.303839966654777527e-02
2.950130775570869446e-02
-4.666608758270740509e-03
-5.030725896358489990e-02
5.409723147749900818e-02
4.521492123603820801e-01
-7.950317114591598511e-02
1.621934622526168823e-01
-1.770808943547308445e-03
2.731199562549591064e-02
4.994652792811393738e-02
7.173364609479904175e-02
-1.179308816790580750e-01
2.148980349302291870e-01
2.560327760875225067e-03
-7.582307793200016022e-03
-4.479539766907691956e-02
-9.213215857744216919e-02
2.386023402214050293e-01
-1.151836439967155457e-01
-1.467481702566146851e-01
9.238237142562866211e-02
-3.927792981266975403e-02
3.555021807551383972e-02
1.208576932549476624e-01
3.315815329551696777e-02
-4.441998526453971863e-02
1.467893458902835846e-02
1.192578151822090149e-01
-4.099378734827041626e-02
-7.445764541625976562e-02
-1.610241713933646679e-03
-7.345023751258850098e-02
-7.266159355640411377e-02
2.399185895919799805e-01
-1.799906939268112183e-01
6.399464607238769531e-02
1.859581470489501953e-01
-1.529117673635482788e-01
4.066725261509418488e-03
-1.406048387289047241e-01
-1.437961608171463013e-01
4.541474580764770508e-02
-3.069957159459590912e-02
6.532634794712066650e-02
9.117845445871353149e-02
5.890363454818725586e-02
-2.676250226795673370e-02
1.539758499711751938e-02
2.568549215793609619e-01
-5.223920568823814392e-03
-1.356893498450517654e-02
-2.195306569337844849e-01
-1.861468143761157990e-02
4.549752548336982727e-02
-8.771926164627075195e-02
-7.235002517700195312e-02
-2.647942863404750824e-02
3.299605473875999451e-02
-3.077301196753978729e-02
-6.305660307407379150e-02
2.774382196366786957e-02
-3.659099340438842773e-02
-1.199730858206748962e-01
-1.996719278395175934e-02
-1.613625437021255493e-01
2.475668489933013916e-01
4.377195984125137329e-02
9.693840891122817993e-02
-3.127167373895645142e-02
-2.549522183835506439e-02
-3.026328608393669128e-02
1.038360875099897385e-02
2.213235199451446533e-02
2.668611519038677216e-02
-4.188583791255950928e-01
-5.133615061640739441e-02
2.076292037963867188e-02
-1.384669989347457886e-01
1.468098014593124390e-01
-3.398286923766136169e-02
-9.347196668386459351e-02
2.293078973889350891e-02
1.556963771581649780e-01
7.831793278455734253e-03
5.130897089838981628e-02
1.683468744158744812e-02
3.491912409663200378e-02
1.082080602645874023e-01
2.670898102223873138e-03
-6.668222695589065552e-02
7.575495541095733643e-02
3.462216630578041077e-02
-3.393909707665443420e-02
8.690146356821060181e-02
-1.877072453498840332e-02
8.657635189592838287e-03
-1.493587251752614975e-02
3.864081576466560364e-02
3.002980351448059082e-02
-1.755808480083942413e-02
1.097869127988815308e-02
8.758127689361572266e-02
6.575869861990213394e-03
1.461623460054397583e-01
-9.761639684438705444e-02
-8.711250871419906616e-02
-4.967928864061832428e-03
2.054347284138202667e-02
9.490643441677093506e-02
-2.744242548942565918e-03
-3.067688085138797760e-03
3.054459346458315849e-03
-3.522276505827903748e-02
-1.000409759581089020e-02
-1.069262772798538208e-01
-2.839165180921554565e-02
-1.723426021635532379e-02
3.299821913242340088e-02
-2.046396769583225250e-02
5.254992246627807617e-01
-1.101475395262241364e-02
-3.924209624528884888e-02
-4.155277013778686523e-01
3.010159544646739960e-02
5.960706248879432678e-02
1.491713523864746094e-02
1.800605095922946930e-02
1.050971727818250656e-02
4.463743790984153748e-02
-3.897797316312789917e-03
-1.397057552821934223e-03
8.301427960395812988e-02
-8.315202593803405762e-02
-4.404894076287746429e-03
1.513090799562633038e-03
1.934295706450939178e-02
2.203971613198518753e-03
5.331796407699584961e-02
4.165807738900184631e-02
-7.235285639762878418e-02
1.610783860087394714e-02
1.506396755576133728e-02
-3.229833394289016724e-02
9.103145450353622437e-03
-3.366605192422866821e-02
1.754381060600280762e-01
-2.445381507277488708e-02
1.000894308090209961e-01
-1.378763001412153244e-02
-1.319437380880117416e-02
3.348211944103240967e-02
2.567284740507602692e-03
2.044089342234656215e-04
-8.910717442631721497e-03
3.482872247695922852e-02
3.707865998148918152e-02
1.403512656688690186e-01
-1.454583462327718735e-02
-9.516905993223190308e-03
-3.990549594163894653e-02
-2.848321758210659027e-02
-6.393431872129440308e-02
-2.937745675444602966e-02
2.047885954380035400e-01
6.060749292373657227e-02
-2.683913335204124451e-02
5.410131416283547878e-04
-6.191109865903854370e-02
-3.281489014625549316e-02
-2.067249454557895660e-02
-1.079488079994916916e-02
4.551145806908607483e-02
7.308956980705261230e-02
-2.880128659307956696e-02
8.154304698109626770e-03
5.353308469057083130e-02
1.193402684293687344e-03
-3.333753347396850586e-01
4.968809895217418671e-03
-3.083765041083097458e-03
1.962927915155887604e-02
1.994499191641807556e-02
-1.158471591770648956e-02
-6.293443497270345688e-03
4.689964000135660172e-03
-3.476491943001747131e-02
-1.025710161775350571e-02
9.006000473164021969e-04
2.648414671421051025e-02
-8.773037232458591461e-03
1.193643733859062195e-02
-1.563028246164321899e-02
2.019334770739078522e-02
1.032640808261930943e-03
4.617764800786972046e-02
-2.237361110746860504e-02
-1.297144335694611073e-03
1.230040751397609711e-02
-5.301336757838726044e-03
-3.199696242809295654e-01
3.551563993096351624e-02
9.895658120512962341e-03
2.997325919568538666e-02
-1.902557164430618286e-02
-2.834551408886909485e-02
4.122156184166669846e-03
1.308227516710758209e-02
6.258058361709117889e-03
3.418486192822456360e-02
1.337381172925233841e-02
2.249768003821372986e-02
-2.931876853108406067e-02
-1.655168086290359497e-02
6.142470054328441620e-03
6.144052743911743164e-02
-5.275551602244377136e-02
4.788875579833984375e-02
-2.039861492812633514e-02
-4.940158873796463013e-02
-9.206277318298816681e-03
2.312603173777461052e-03
8.921040222048759460e-03
2.923761904239654541e-01
-1.203826535493135452e-02
2.069150805473327637e-01
3.113374672830104828e-02
5.517227575182914734e-03
-7.926040329039096832e-03
9.045539423823356628e-03
3.805392980575561523e-02
-2.043745666742324829e-01
4.562802612781524658e-03
-2.646261639893054962e-02
-3.846971690654754639e-02
-3.975414484739303589e-02
-1.177823357284069061e-02
-7.889876142144203186e-03
1.638795286417007446e-01
1.534632444381713867e-01
-1.630972772836685181e-01
-9.189043194055557251e-02
-5.139188840985298157e-03
2.456764578819274902e-01
-3.016230836510658264e-02
1.088728476315736771e-02
1.454596668481826782e-01
-1.063191425055265427e-02
-1.799180507659912109e-01
-2.816116511821746826e-01
-1.277773082256317139e-01
9.601679444313049316e-02
6.404776871204376221e-02
-1.723303943872451782e-01
7.838136702775955200e-02
1.641129702329635620e-01
3.450857847929000854e-02
-1.620870083570480347e-01
-6.050160154700279236e-03
4.370154440402984619e-02
-4.061492383480072021e-01
-2.102984040975570679e-01
3.192937672138214111e-01
-3.034941554069519043e-01
3.712389618158340454e-02
-2.480540052056312561e-02
3.881904855370521545e-02
6.022758781909942627e-02
-3.869340522214770317e-03
-3.432059586048126221e-01
8.801145106554031372e-02
-2.623136155307292938e-03
-1.500123888254165649e-01
1.119270734488964081e-02
-2.192661464214324951e-01
-1.261765807867050171e-01
1.023039966821670532e-01
-1.294056773185729980e-01
-8.683408051729202271e-02
4.235238581895828247e-02
1.707585714757442474e-02
-1.156612336635589600e-01
6.277003884315490723e-02
-8.593326061964035034e-02
2.215370982885360718e-01
6.216055154800415039e-02
-7.793470472097396851e-02
-2.561807818710803986e-02
1.361224800348281860e-01
-3.406374901533126831e-02
-1.005895957350730896e-01
1.683884263038635254e-01
-2.844982147216796875e-01
-3.273541331291198730e-01
1.237348765134811401e-01
-6.267233286052942276e-03
1.705165058374404907e-01
-1.336040906608104706e-02
-4.335067793726921082e-02
2.198383957147598267e-02
-2.799050807952880859e-01
-3.862860798835754395e-01
2.506336756050586700e-02
7.030146662145853043e-04
-6.830717623233795166e-02
-1.345302630215883255e-02
4.039377868175506592e-01
-5.447905976325273514e-03
5.602285265922546387e-03
-5.117849912494421005e-03
-1.551872817799448967e-03
-6.583895999938249588e-03
-8.043463341891765594e-03
1.697092200629413128e-03
2.094672992825508118e-02
5.449675954878330231e-03
2.736632153391838074e-02
-1.548544131219387054e-02
3.048383165150880814e-03
3.851593006402254105e-03
1.827184297144412994e-02
-6.999206263571977615e-03
-3.902103053405880928e-03
3.303585946559906006e-02
1.032049022614955902e-02
1.372099632135359570e-05
-7.425509393215179443e-03
-4.062334541231393814e-03
-9.278453141450881958e-02
1.946832090616226196e-01
1.362898759543895721e-02
-3.205653280019760132e-02
-6.856291554868221283e-03
1.835910789668560028e-02
1.337849884293973446e-03
-1.994132297113537788e-03
1.324263401329517365e-02
-3.126265481114387512e-02
-1.306860614567995071e-02
-1.848829165101051331e-02
4.219223931431770325e-02
3.232677280902862549e-02
-5.562562029808759689e-03
7.933266460895538330e-03
3.263735771179199219e-02
-2.485740184783935547e-02
1.565317809581756592e-02
4.087544232606887817e-02
5.556038115173578262e-03
4.754728637635707855e-03
-1.706098322756588459e-03
-3.676797077059745789e-02
1.400183141231536865e-02
9.007710963487625122e-03
-1.570699736475944519e-03
-1.137923076748847961e-02
5.033513531088829041e-03
8.376921527087688446e-03
-2.335297316312789917e-02
2.606475353240966797e-01
-1.104827504605054855e-02
3.524781018495559692e-02
6.887820363044738770e-02
-4.498092457652091980e-04
-3.024006960913538933e-03
8.228935301303863525e-03
3.779824590310454369e-03
-6.042814999818801880e-02
4.129845649003982544e-02
-2.777351066470146179e-02
-3.282834216952323914e-02
-1.700250431895256042e-02
1.034742500633001328e-02
4.846448451280593872e-02
1.880476772785186768e-01
-5.482342094182968140e-02
-4.496796429157257080e-02
9.052566252648830414e-03
1.018323078751564026e-01
-1.164992898702621460e-02
-1.760958693921566010e-02
1.096828281879425049e-02
-1.109039876610040665e-02
-2.024891227483749390e-02
1.464695483446121216e-02
1.314643621444702148e-01
1.850534416735172272e-02
-5.331761017441749573e-02
1.093381047248840332e-01
1.660715602338314056e-02
9.711683727800846100e-03
9.106014668941497803e-02
8.098523132503032684e-03
-3.438316285610198975e-02
2.774681709706783295e-02
1.794500835239887238e-02
4.840173125267028809e-01
-4.143884032964706421e-02
3.114586323499679565e-02
-3.468216164037585258e-03
6.378675252199172974e-02
1.359738688915967941e-02
-5.226997286081314087e-02
8.931485004723072052e-03
-5.554598756134510040e-03
-1.512414310127496719e-02
2.399550005793571472e-02
5.266499519348144531e-02
4.773740097880363464e-02
8.394584991037845612e-03
-4.684575647115707397e-02
2.191372960805892944e-02
2.921655029058456421e-02
-7.380422204732894897e-02
1.383245456963777542e-02
-1.414075642824172974e-01
-5.073454603552818298e-02
5.015489831566810608e-02
-2.417899109423160553e-02
2.004690840840339661e-02
-1.287460036110132933e-04
7.044818997383117676e-02
-2.804767340421676636e-02
-3.216102952137589455e-03
-6.141087971627712250e-03
3.787722438573837280e-02
5.020377784967422485e-02
1.121756881475448608e-01
8.096441626548767090e-02
-4.354830831289291382e-03
-4.235595930367708206e-03
-4.294045269489288330e-03
2.941950224339962006e-02
-1.946791424416005611e-03
-1.029235403984785080e-02
1.121488865464925766e-03
-6.653103977441787720e-03
-9.390070103108882904e-03
-3.801443381235003471e-04
-2.631726674735546112e-03
8.235116838477551937e-04
-6.682729814201593399e-03
-1.628219150006771088e-02
-7.302089594304561615e-03
-1.024106610566377640e-02
-3.943315241485834122e-03
1.080079749226570129e-02
1.145011279731988907e-03
-2.167850919067859650e-02
9.839294478297233582e-03
1.179372775368392467e-03
-3.711951430886983871e-03
-1.112166233360767365e-02
-9.206775575876235962e-03
5.916670896112918854e-03
8.692120201885700226e-03
2.718354761600494385e-01
-1.737299263477325439e-01
9.459869004786014557e-03
7.442407775670289993e-03
-3.253161208704113960e-03
2.228341763839125633e-03
7.606173167005181313e-04
-1.349395327270030975e-02
-3.772224532440304756e-03
1.157478243112564087e-02
3.322770120576024055e-03
2.190760802477598190e-03
-6.775518879294395447e-03
-3.307959530502557755e-03
-1.104405033402144909e-03
-4.093702435493469238e-01
-1.835853978991508484e-02
-5.830517693539150059e-05
1.489144749939441681e-03
-1.244974415749311447e-02
2.730116946622729301e-03
-7.460224442183971405e-03
3.176436992362141609e-03
-1.455843076109886169e-02
-6.280114874243736267e-03
-8.637265302240848541e-03
-4.987960215657949448e-03
5.701093003153800964e-03
2.933726180344820023e-03
-1.233174093067646027e-02
4.549167584627866745e-03
-2.258393913507461548e-02
5.959774833172559738e-03
-7.340408861637115479e-03
-3.673892095685005188e-02
-1.528443885035812855e-03
6.233372725546360016e-03
3.393949242308735847e-03
